ministrstvo_o_ta -0.14854 0.22761 0.22664 0.65369 -0.1353 -0.36628 -0.046921 0.58983 -0.47739 0.47009 0.40329 0.30841 0.53208 0.10485 0.3412 0.44805 -0.4565 0.39613 -0.85522 0.63327 0.42841 0.51205 -0.82449 0.69846 -0.23341 -0.095165 -0.02523 -0.12491 -0.55279 0.015497 0.7728 -0.32442 0.087046 -0.063912 0.0083683 0.23614 0.26982 0.011524 -0.055159 -0.36772 -0.077737 0.14602 0.30444 0.05807 0.36506 -0.33501 -0.48443 0.90583 0.78524 -0.55393 -0.25445 -0.22525 -0.10311 -0.26451 0.23242 0.49095 -0.090847 0.40099 -0.15172 0.31335 0.19627 0.2334 0.0057553 -0.032532 0.39932 -0.46404 -0.16159 -0.38334 0.17572 0.26323 0.10956 0.062533 0.13849 -0.18398 -0.34986 -0.16884 0.29794 -0.30603 -0.054306 -0.046606 -0.32158 -0.64566 -0.32367 0.40072 -0.015424 -0.29929 0.19437 0.0182 -0.5894 0.15874 0.23572 0.61626 0.060406 -0.29397 -0.50119 0.25259 -0.33577 -0.062773 0.22957 0.070449 
tudi_vzrok 0.018245 0.62643 -0.38572 0.31462 0.46646 0.044168 0.14113 -0.039882 -0.31969 -0.10401 -0.26997 0.46085 -0.033171 0.11587 -0.54311 0.10855 0.090092 0.15869 0.16325 0.59498 0.25564 0.58131 -0.35583 -0.083183 0.25699 0.23983 0.078042 0.55575 0.39079 -0.075307 -0.078532 -0.37911 0.10279 -0.12383 0.10191 -0.090849 0.19647 0.51638 0.072177 -0.16114 -0.41865 0.34239 0.38702 0.37026 0.62054 -0.022864 0.12564 0.36112 0.065556 -0.41048 0.43277 0.17187 -0.17227 -0.64929 0.13296 0.36049 0.31894 0.11133 0.35312 -0.614 0.070963 0.94416 0.24796 0.33654 1.1496 -0.33422 0.076814 0.074436 0.23017 -0.23726 -0.36039 0.52835 -0.10118 -0.48697 0.028981 0.079812 -0.5715 0.2055 0.16283 -0.0094466 0.027256 -0.46929 -0.058831 -0.65437 0.56987 0.34939 0.06964 0.021196 -0.017306 0.37424 0.26833 -0.0547 0.029505 -0.20842 -0.55343 0.32298 0.17354 -0.061187 -0.47618 0.23413 
na_regionalen_trg -0.31463 0.68966 0.34823 0.56177 -0.73689 -0.14285 0.53623 -0.45429 0.088946 -0.22332 0.14644 0.89807 0.45767 0.053973 0.67889 -0.17771 0.15963 -0.36123 0.33382 0.46305 0.19711 0.058418 -0.72652 0.13073 -0.87768 0.062566 0.14972 0.48098 -0.014914 0.11107 0.50027 -0.59 -0.028913 -0.24884 -1.0408 0.67838 -0.12296 0.65346 -0.097119 0.20569 0.11041 0.36507 0.58562 -0.78953 0.28318 -0.30563 0.40958 0.12346 0.82675 -0.39486 0.084096 0.43432 -0.53228 -0.12297 0.4349 0.6184 0.45877 0.42054 -0.086614 0.54058 0.11269 0.3805 0.15107 0.28126 0.53918 -0.47239 0.097151 -0.34532 0.63941 0.39267 -0.21325 -0.171 -0.054759 -0.48904 -0.29759 0.003463 0.2879 0.034705 0.25725 0.042468 0.61214 -0.53515 0.72362 0.74949 -0.094016 -0.047928 0.25483 0.62249 -0.49802 0.35911 0.17143 0.68408 0.082222 -0.31407 -0.32577 -0.16948 0.15706 -0.23396 0.047092 0.15647 
aluminij_in 0.66152 -0.10429 -0.65494 -0.48224 -0.4595 0.7501 0.033834 -0.38327 0.22258 -0.10052 -0.63935 0.065088 1.0163 0.77122 -0.66425 0.10413 0.63495 -0.63458 0.31143 1.1589 0.26401 -0.075494 -0.66288 -0.21941 0.16161 0.59503 0.18467 0.7482 0.21017 0.43114 0.87145 -0.46024 0.025196 -0.14337 -0.30059 0.76121 0.057828 -0.69497 0.18334 0.086253 -0.019434 0.16797 0.67313 0.056889 -0.088776 -0.26821 0.80546 0.21719 -0.45246 -0.76244 0.50834 -0.067751 0.018573 -0.8009 0.12943 0.26851 -0.18726 0.92329 0.30106 -0.35558 0.16475 -0.017065 -0.37517 0.017605 0.36089 -0.101 -0.37843 -0.50168 0.28944 -0.5016 -0.43957 -0.072409 -0.32288 -0.58755 -0.05352 -0.29633 -0.11668 0.078207 -0.0295 -0.16765 0.27521 0.10822 0.54329 -0.34896 0.10526 0.2312 0.40854 0.056239 -0.6071 0.23343 -0.22749 -0.20335 0.10641 -0.18267 -0.72954 0.24828 0.047981 -0.18804 0.61231 0.72307 
deponija_Tenetiše_biti 0.60803 0.62939 0.35324 -0.0027021 -0.1987 0.15928 0.40713 -0.20835 -0.56251 -0.17264 0.26623 0.13708 0.68571 -0.063896 -0.068046 0.047277 -0.33635 -0.17008 -0.60453 -0.064373 0.51795 0.55407 -0.36035 0.32548 -0.47261 0.11976 -0.28553 -0.12645 0.11072 0.23209 -0.11629 -0.077418 -0.36051 -0.47062 0.14273 0.096657 -0.0058307 0.24322 0.30973 -0.1375 -0.82781 -0.2204 -0.058537 -0.19733 0.24273 0.035378 -0.46109 0.45299 0.15551 -0.55877 -0.34936 0.11941 -0.53692 -1.0573 0.097459 0.63097 0.31165 1.123 -0.31634 -0.051177 -0.092633 0.45942 0.17604 0.4577 0.72785 -0.31822 0.43752 0.0019055 0.61847 0.016508 -0.46391 -0.038991 -0.33089 -0.39147 0.57525 0.15029 0.036327 -0.55166 0.35555 -0.31125 0.31608 -0.16141 0.57667 0.13183 -0.4775 -0.12307 -0.20917 0.30313 -0.53526 -0.21358 0.42747 0.20107 0.29219 -0.91325 -0.36239 0.39487 -0.27343 0.14729 0.10882 0.056047 
ZDA_biti_sporočiti 0.014024 0.98243 -0.16762 0.51827 -0.57846 -0.8407 -0.10619 0.063532 -0.67348 0.26447 0.46158 0.55112 0.74303 0.12864 -0.38978 0.53947 0.23189 -0.12612 -0.37861 0.29499 -0.053515 0.33455 -0.31544 -0.35045 -0.37914 -0.16292 0.39963 -0.2938 -0.4991 0.33359 0.070849 -0.51375 -0.26022 -0.32513 0.41859 0.22863 0.29225 0.24561 0.27476 0.33798 0.02356 0.1831 0.080533 -0.18317 0.30243 0.679 0.18328 0.010209 0.1747 -0.62926 0.18395 0.32775 -0.20101 -0.52242 0.34193 -0.13807 -0.37418 0.25347 -0.35641 -0.025228 -0.5445 0.65401 0.27758 0.95494 0.27914 -0.7199 0.04633 -0.60554 0.052064 0.097426 -0.11364 0.10382 0.20325 0.39062 -0.11622 0.21876 0.10782 -0.11672 0.15179 -0.21018 0.49685 -0.61134 0.24693 -0.2258 0.15538 -0.019727 -0.14405 0.12094 -0.10367 -0.11867 0.63852 0.075044 0.11136 -0.51222 -0.28993 0.47058 -0.55133 0.57324 0.43324 -0.14034 
zakon_ali -0.73048 0.47389 0.23278 1.7241 0.90883 -0.20488 -0.1015 0.11648 -0.16493 -0.38215 -0.29499 0.10721 0.4142 0.35053 -0.86623 -0.013073 -0.61123 0.74846 0.33907 0.75091 1.0744 0.7077 -0.82523 1.0705 -0.13564 0.26037 0.46914 -0.17803 -0.69421 -0.37171 0.41072 -0.44403 -0.18718 -0.10711 0.14371 -0.60905 0.34431 0.37388 0.50141 -0.30701 -0.18938 -0.45287 0.89742 0.887 -0.092256 -0.019954 0.53336 -0.12438 0.20742 0.19475 0.16206 0.29575 -0.69631 -0.72862 -0.18332 0.9116 -0.14508 0.20127 0.12121 0.035038 0.52367 0.007655 -0.42564 -0.55049 0.047492 -0.48892 0.32955 -0.11877 0.37173 0.24709 -0.40078 0.77421 0.31546 0.050511 -1.0506 -0.47766 0.58916 0.085403 0.043664 0.54384 -0.22443 -0.38311 0.15289 -0.11284 0.20087 -0.24826 0.1719 0.017414 -0.090414 -0.44627 -0.0082035 0.19662 -0.27221 -1.089 0.89569 0.017387 0.44114 -0.33663 0.19984 0.81568 
katedra_za_obramboslovje -0.59711 0.25105 -0.15815 0.33176 0.45655 -0.46964 -0.65476 0.14186 -0.31096 0.36544 0.43921 0.65293 0.11849 0.1283 0.2833 0.54623 0.22033 0.20312 -0.74913 0.0043171 0.13945 0.78931 -0.6509 0.39601 0.17888 -0.20605 0.31201 -0.025915 -0.45859 0.10008 0.30045 -0.39199 0.48946 -0.18266 -0.43823 0.82657 0.52104 -0.056362 0.26147 -0.66782 -0.48371 0.32575 1.0101 -0.5201 0.54452 0.23815 -0.14108 0.78868 0.23462 -0.59933 0.53759 -0.022751 -0.47456 0.2776 -0.64489 0.80933 -0.05107 0.49915 -0.23188 0.237 -0.38719 0.43669 -0.47955 0.36967 0.45334 0.086834 -0.07283 -0.055447 -0.016807 0.041822 0.18868 0.61772 0.30412 0.25514 -0.5402 0.0014395 -0.16244 -0.62825 -0.26165 -0.40268 0.12344 0.037943 -0.093256 0.3291 -0.13403 -0.19438 0.33116 -0.16776 -0.19078 0.23422 0.23369 0.12694 0.11175 -0.34046 -0.77232 0.46314 -0.47657 0.2995 0.12616 0.12873 
kajpak_biti 0.58427 0.44644 -0.067122 0.2731 0.4976 -0.057476 0.51977 0.19985 -0.11146 0.12977 0.0097866 0.81086 0.23429 0.60115 -0.36715 0.74613 0.61265 -0.057685 0.31277 0.21695 0.090986 0.58277 0.16832 -0.30307 0.068626 0.39047 -0.086835 -0.18456 -0.60974 -0.0071658 0.17939 -0.64108 -0.19121 -0.29267 0.27186 0.86024 0.033757 -0.20994 0.15241 0.26774 -0.25628 0.16069 0.12804 0.066847 0.51705 0.28295 0.32458 0.24041 0.046725 -0.55693 0.09156 -0.21487 0.3361 -0.010954 0.11572 0.1772 -0.015797 -0.017703 -0.26623 -0.55526 -0.11498 0.41677 -0.17532 0.79322 -0.18001 -0.22232 -0.3805 -0.15813 0.39421 -0.067377 -0.41142 -0.020317 -0.21726 0.24423 -0.26264 -0.040073 -0.40355 -0.30269 -0.24147 -0.38595 -0.095293 -0.11681 -0.30813 0.1098 -0.072019 -0.036897 -0.10831 0.018894 -0.34639 -0.61602 0.56944 -0.74953 -0.21971 -0.66652 -0.22862 0.39296 -0.25002 0.17231 0.52001 -0.053019 
merjenje_čas 0.081546 0.38447 0.10125 0.0038782 -0.22763 0.051178 0.010078 0.10933 0.12202 -0.065776 -0.077016 0.33087 0.37958 0.13337 -0.35064 0.048967 -0.031843 -0.33098 0.078913 0.46818 0.37004 0.26911 -0.19686 0.015047 -0.095707 0.23315 0.26553 0.31548 0.18356 -0.068821 0.26699 -0.32806 -0.080373 -0.23933 -0.43838 0.32061 -0.13494 -0.30026 0.079741 -0.23436 -0.35004 -0.1852 0.31951 0.23177 0.21304 0.401 0.040506 -0.23306 -0.34409 -0.11616 0.62556 -0.012703 0.013648 0.1896 -0.075334 0.097286 0.13144 0.29839 0.33327 -0.43791 0.094706 0.52694 -0.061189 0.28341 0.15922 -0.6394 -0.2897 -0.33925 0.72509 -0.23892 -0.20468 0.4188 0.0052932 -0.22567 -0.4016 0.13033 -0.71584 -0.49793 -0.16026 -0.15623 -0.0025209 -0.37124 0.64485 0.0047332 0.22992 -0.17254 -0.23068 -0.013753 -0.070411 0.085078 0.35551 0.35024 0.12345 -0.19489 -0.65306 -0.028952 -0.21757 -0.42071 0.1351 0.27254 
biti_z_celjski 0.35567 0.61379 0.1137 0.05576 -0.023958 -0.0645 0.59892 -0.91188 -0.39417 0.42456 0.45189 0.26244 -0.36407 0.2743 -0.34737 0.71273 -0.047025 -0.13895 0.26912 -0.095677 -0.042999 -0.11897 0.5224 0.46946 -0.021759 0.46747 0.34685 0.37923 -1.0694 0.00099835 -0.00018741 -0.5486 0.38114 -1.128 0.34023 0.47604 0.26018 0.63973 -0.02005 0.17815 0.092504 -0.12939 0.17642 -0.27963 1.1227 -0.14731 0.77754 0.47023 0.47747 -0.48472 -0.088528 0.16764 0.09052 -0.3585 0.31952 0.16064 0.17785 0.47849 -0.21504 0.097281 0.12329 0.46777 0.17625 0.24565 0.32533 0.05023 0.49302 -0.62021 0.16567 0.06641 -0.55941 0.21131 0.046014 -0.43012 -0.40533 -0.030012 -0.26812 -0.26654 0.15816 -0.53539 0.30034 -0.65116 0.66261 -0.13706 0.15049 0.67492 0.23259 0.39531 -0.72251 -0.22391 0.26951 -0.088009 -0.12182 -0.24342 -0.9495 0.69776 0.0028578 0.027726 0.36773 0.21113 
zreški_pomlad_biti 0.4278 0.46964 0.79162 0.14156 0.15033 0.023843 0.34473 -0.42887 -1.1042 0.30187 -0.24136 0.097749 0.24573 0.4193 -0.16779 0.63896 -0.37461 -0.29482 0.24673 0.1757 0.11194 -0.075393 0.38907 0.0037978 -0.17639 0.27546 0.062079 -0.25955 -0.30755 0.2536 -0.10271 -0.00581 -0.48248 -0.6435 -0.34408 0.38278 -0.010577 0.14013 -0.31685 -0.087563 -0.1336 -0.22435 0.64851 -0.17377 -0.10139 -0.1594 -0.059959 0.25635 -0.18607 -0.63139 0.10278 0.41993 -0.064824 -0.11959 0.20885 0.12669 0.24578 0.56921 0.15574 -0.0063219 -0.59326 0.84794 -0.44304 0.44618 0.57231 0.046285 0.30249 0.10989 0.54007 -0.17278 -0.61679 -0.44797 -0.13383 -0.26603 0.39307 0.38193 -0.51848 -0.223 -0.20834 -0.192 0.4995 -0.34554 0.4855 -0.099455 -0.053799 0.25605 -0.12866 0.068044 -0.74722 -0.44547 0.75153 -0.1284 -0.030848 -0.17213 -0.09227 -0.14454 0.26075 -0.20554 0.2556 0.24251 
II_novica -0.58112 0.28137 -0.18044 0.9101 -0.5739 -0.65511 0.4474 0.75887 -1.3006 0.23592 -0.61787 -0.53251 0.49798 1.1864 -0.33147 0.33628 0.36735 -0.20219 1.0408 0.63264 -0.50893 -0.37746 -0.019701 -0.70548 -0.62808 0.079607 -0.27593 0.093686 -0.67475 0.7332 -0.091807 -0.88931 0.18851 -0.1155 -0.28811 -0.61397 -0.12212 0.83884 0.40298 0.10974 0.40865 -0.012812 0.90454 -0.23067 0.86435 0.5698 0.54974 -0.075296 -0.56112 -0.42639 -0.17024 0.94392 -1.1 0.084381 -0.48531 0.11303 -0.52054 0.87419 -0.47568 0.67502 -0.40051 0.69427 -0.68937 0.65329 0.5508 -0.33048 -0.099796 -0.16743 0.25115 -0.038212 -0.63129 -0.080899 0.055393 0.070669 -0.8577 -0.058218 -0.36668 -0.26779 0.10999 0.46686 0.74829 -0.9268 0.86418 -0.3135 -0.30557 -0.70378 0.29957 -0.23696 -0.27263 -0.30675 0.28266 0.23065 0.68724 0.018974 -0.53634 -0.69547 -0.46822 0.5059 0.095135 0.4974 
na_kulten -0.22287 0.61355 0.63043 1.0706 0.13143 0.013025 0.050455 0.17205 -0.39219 0.42898 -0.0129 0.14548 0.018726 0.54409 -0.28243 0.79762 0.1299 -0.44799 0.63679 0.29839 -0.59159 0.19442 0.17566 -0.15412 0.19121 -0.0062154 -0.043095 0.08636 -0.50592 -0.087774 0.63281 -0.22835 0.24064 -0.22315 -0.37299 0.88979 -0.41971 0.070856 0.061431 -0.28266 -0.3186 0.14796 0.91661 -0.16632 -0.068734 0.17278 -0.24506 0.18792 -0.93072 -1.257 -0.048329 -0.064431 0.39787 0.21116 0.2409 -0.04967 -0.063193 -0.048771 -0.018284 -0.62842 -0.038438 0.70388 -0.60797 0.33652 0.38888 -0.064255 -0.087622 -0.075653 -0.12872 -0.019941 -0.34511 0.057278 0.31583 -0.50254 -0.56784 -0.09548 0.30363 -0.31343 -0.61353 -0.095337 -0.10233 -0.22937 0.37995 -0.066585 0.44069 0.047719 0.55202 0.48745 -0.5492 0.22318 0.53028 -0.17653 -0.50245 -0.17399 0.02896 0.28389 -0.30776 -0.10322 0.14482 0.2796 
da_poznati_svoj 0.11828 0.33358 -0.15685 0.43114 0.45123 -0.011051 0.0014507 -0.072652 -0.19383 0.11655 -0.16912 0.17276 -0.023451 0.21102 -0.4249 0.49879 0.72003 -0.27255 0.80834 0.56954 0.20015 0.27635 -0.248 0.26533 -0.14865 0.3412 -0.042005 0.24669 -0.24138 0.096341 0.38912 -0.020354 -0.04391 -0.34448 0.11518 0.37274 0.13024 0.32469 -0.1544 -0.12605 -0.18546 -0.1374 0.5937 0.096296 0.14694 0.19747 -0.11333 0.20468 -0.099718 -0.56981 0.14552 -0.16842 0.34053 -0.16897 0.082412 0.20656 0.18726 0.34695 0.25294 -0.54545 -0.10157 0.45404 -0.1561 0.37744 0.19801 -0.54007 -0.20822 -0.48576 0.27624 0.096068 -0.17309 0.23946 0.057707 -0.24677 -0.086089 0.13999 0.068194 -0.30876 0.017705 -0.040539 0.052516 -0.3457 0.092476 -0.087507 0.46288 0.1791 0.29302 0.2702 -0.18202 0.095019 0.12272 -0.043747 -0.49399 -0.25044 0.24372 -0.048662 -0.0074605 -0.41488 0.0047112 0.078861 
tisoč_tolar_na 0.017349 0.84604 -0.015126 0.046387 -0.60117 0.36646 0.3208 -0.17846 -0.12113 -0.28586 -0.16541 0.12501 0.028551 -0.23701 -0.23564 0.45525 -0.37672 -0.52466 -0.56783 0.25436 0.5327 0.1433 -0.045276 0.61126 -0.47516 0.43532 0.034933 -0.1912 -0.48746 -0.692 -0.36591 -0.029812 -0.25652 -0.15603 0.45112 -0.16627 -0.43334 0.52581 -0.29526 -0.0094181 0.22819 -0.32523 0.29035 -0.22395 0.40553 0.24802 0.064401 0.21984 0.34182 -0.52649 0.044689 0.046581 -0.045324 -0.12146 0.00035772 -0.046756 0.14413 0.22773 0.15268 -0.028619 0.45897 0.18319 -0.12209 0.16421 0.15301 -0.17847 -0.063711 -0.376 1.2972 -0.30549 -0.75492 0.61791 -0.059213 -0.64666 0.23776 -0.40578 0.12283 0.065511 -0.17903 0.0021726 0.050397 -0.36737 0.62554 0.30867 -0.57553 -0.37824 0.59389 0.66612 -0.55963 -0.032014 -0.068423 0.7928 -0.24166 -0.13864 -0.28436 0.15072 0.21775 -0.18963 0.1767 0.55678 
Mark_Antonij -0.19488 0.78762 0.44196 0.27231 -0.081885 -0.38786 -0.37531 0.57927 -0.48826 0.12145 0.17436 0.046656 -0.028438 0.34995 0.23683 0.16219 -0.12106 -0.23826 0.22349 0.25655 -0.17477 -0.24812 0.46329 -0.15618 -0.26429 0.091946 -0.22808 0.10574 -0.59231 0.69581 -0.098755 -0.11376 0.19185 -0.36714 -0.18965 0.047048 0.31121 0.30054 0.23455 -0.055058 -0.57933 -0.34239 0.20986 -0.1607 0.25882 0.25867 0.11507 0.29729 -0.48176 -0.65562 0.077913 0.1218 -0.2162 0.11297 -0.50197 0.15461 -0.088595 0.27836 0.36773 -0.18295 -0.12887 0.2363 -0.028408 0.44414 0.20296 0.077259 0.19141 0.12083 -0.2425 -0.077231 0.20553 0.19723 -0.19413 0.19303 0.031626 -0.29049 -0.30779 -0.19877 -0.31106 -0.44117 -0.091377 -0.31891 0.41119 0.3369 -0.36448 0.078212 0.29056 0.43366 0.063365 -0.070023 0.33746 0.004606 0.28121 -0.52173 0.10253 -0.22082 -0.235 -0.13847 0.3438 0.10268 
biti_biti_18 0.90224 1.0001 0.62658 0.28245 0.047933 0.0049471 0.64497 -1.244 -0.62569 0.43021 0.96202 0.64141 -0.075024 0.057886 -0.79026 0.73821 0.33194 0.085754 -0.096859 0.027603 -0.28505 0.044091 0.82762 0.094909 -0.29332 0.83651 -0.19396 -0.92234 -0.64676 0.23683 0.031361 -0.78247 -0.12004 -0.4168 0.9543 0.41065 0.028985 -0.14377 0.34429 0.30038 -0.23178 -0.18625 -0.34552 0.31721 0.095845 0.15657 0.41147 0.73491 -0.05732 -0.73878 0.47076 0.14815 -0.53382 -0.13953 0.19833 -0.11568 0.80702 -0.1783 -0.398 -0.065534 -0.3977 0.33358 0.016485 0.90101 0.052504 -0.98049 0.3757 -0.52556 0.22352 -0.10312 -0.053457 0.12447 -0.7632 0.6078 0.13558 0.11262 0.13855 -0.20405 -0.011259 -0.2091 0.43863 -0.13515 -0.063316 0.045404 -0.36102 0.23969 -0.56303 0.32186 -0.92504 -1.1383 0.48898 -0.75674 -0.031496 -0.94535 -0.088974 1.1812 -0.073597 0.51519 0.59134 -0.13714 
7._številka -0.22494 -0.3248 -0.10703 0.326 0.29617 0.25659 0.15274 -0.19289 -0.20941 -0.45935 -0.14712 0.049579 0.16959 0.97831 0.39616 0.49317 0.11164 -1.0884 -0.2833 0.69742 0.13101 0.59009 0.23548 -0.028641 -0.62104 -0.08384 -0.14876 -0.0031209 -0.65247 -0.22688 0.24128 -1.1205 -0.34383 -0.072463 -0.19805 -0.58478 0.30699 0.90604 0.12857 -0.30286 -0.011974 -0.147 0.36845 0.066891 0.63676 0.23348 -0.63972 0.52715 -0.15411 -1.2174 -0.20283 0.42155 -1.6114 -0.18386 -0.65919 1.1842 -0.07435 0.50972 -0.084289 0.52542 0.32531 0.42831 -0.47888 0.2841 0.70673 -0.9667 -1.0611 -0.98568 -1.3376 -0.48724 -0.79584 0.22685 -0.033316 -0.2791 -0.60291 -0.39355 0.49218 -0.34333 0.039182 0.16805 0.30665 -0.27003 0.72786 -0.20386 -0.55577 0.012875 0.16055 0.019743 -0.35309 -0.46359 0.31696 0.022607 0.64071 -0.51158 0.10958 0.42954 -0.42893 -0.5306 0.65801 0.80061 
platnica_zadaj -0.12267 -0.2613 0.36062 -0.23095 0.18375 0.53458 -0.47753 -0.12193 -0.43814 -0.15098 -0.45442 0.33962 0.094445 0.9649 -0.19006 0.45985 0.15853 -0.99198 0.36678 1.3572 -0.018576 0.029954 -0.15048 0.11486 0.10441 0.212 -0.20625 0.38506 -0.29429 -0.11021 0.30231 -0.10601 0.2066 -0.059755 0.23038 0.25325 0.40148 0.17372 0.015525 0.0562 -0.19988 0.057363 0.27209 -0.64531 -0.28472 -0.16065 0.18235 0.13782 -0.71412 -0.61244 0.32455 0.33915 -0.13555 -0.077775 -0.058041 -0.49013 0.11831 0.52273 0.72794 0.27166 0.47088 -0.09975 -0.37356 0.18934 0.071268 -0.23966 -0.0081101 0.06497 0.28314 -0.32686 -0.60616 0.13731 0.080444 -0.63456 -0.67214 -0.57027 -0.13413 -0.0038848 -0.083509 0.55524 0.25555 -0.40739 0.36218 -0.22826 -0.37398 0.035589 -0.088533 0.071704 -0.52282 -0.1295 0.50041 -0.055442 0.2502 -0.30598 0.10835 -0.24218 0.14113 -0.30305 0.28665 0.81432 
razložiti_dr. 0.24511 0.64391 0.11211 -0.18589 1.115 0.082913 -0.24761 0.23073 -0.69422 0.47354 0.12276 0.16316 -0.010694 0.11606 -0.062574 0.40804 0.034044 0.4005 -0.75172 0.34675 0.25769 0.61099 -0.25938 0.075628 -0.027844 0.31993 0.1197 -0.1649 0.1241 0.26622 0.2541 -0.61957 0.5356 0.03014 0.035003 0.47984 0.2108 0.29747 -0.28057 -0.39411 -0.57175 0.15115 0.2435 0.018511 0.28667 0.011457 0.18815 0.61424 -0.086058 -0.81407 -0.075516 -0.21584 0.11283 0.019434 0.13628 0.69878 -0.14498 0.29194 0.3727 0.085576 -0.31766 0.4879 -0.28124 0.39281 0.25615 -0.48018 0.21594 0.12773 0.35067 0.36695 -0.014752 0.55869 -0.23495 -0.23522 -0.0040766 -0.055715 0.13686 -0.54273 -0.068719 -0.17572 -0.089446 -0.32882 0.11321 -0.01326 0.14444 -0.30823 0.16149 0.54682 -0.032262 -0.20207 0.28808 0.05922 0.13072 -0.00036509 -0.3647 0.52401 -0.22888 0.12991 -0.19247 -0.02143 
moči_vključiti_v 0.13691 0.55994 -0.31204 0.36664 0.33924 -0.019618 0.11498 -0.12636 0.03175 -0.037947 0.22078 0.52267 0.096443 0.081942 -0.35857 0.30939 -0.35155 0.1742 0.052239 0.15644 0.59657 0.53895 -0.56715 0.20706 -0.29943 0.2746 0.029693 -0.0015197 -0.4482 0.11043 0.3716 -0.088207 -0.18001 -0.21353 -0.1116 0.49318 0.088215 0.1013 -0.077139 -0.062788 -0.37124 0.021913 0.51017 0.061967 0.19775 -0.21605 0.1305 -0.042575 0.13671 0.21992 -0.048642 0.13852 -0.49907 -0.14041 0.17985 0.43293 0.01106 0.32684 -0.11467 -0.38285 -0.025445 0.10626 0.15448 0.41538 0.073226 -0.35327 0.12158 -0.23245 0.58544 0.12081 -0.073092 0.3114 0.26551 0.15017 0.070167 0.13454 0.4487 -0.33058 -0.1988 -0.011483 -0.20849 -0.080406 -0.1833 0.096727 0.021756 -0.12944 0.16268 0.31685 -0.43687 -0.16959 0.38738 0.24186 0.021562 -0.58768 0.030983 0.14074 -0.10646 -0.27775 0.21334 -0.20979 
v_ta_vsota 0.35698 0.98309 0.10636 0.27638 -0.94316 -0.13718 0.58702 -0.16618 0.066006 -0.13126 -0.068207 0.48184 0.34982 0.19319 -0.13032 0.19076 -0.68127 -0.60765 -0.35963 0.44044 0.26851 0.41621 -0.49931 0.60782 -0.21124 0.48016 -0.2026 -0.12757 -0.37327 0.076199 -0.080605 0.36785 -0.17535 -0.085866 0.43128 0.25592 -0.45617 0.034355 -0.21914 -0.10963 0.31207 0.10919 0.38946 -0.080878 0.87386 -0.25929 -0.3857 0.64494 0.46518 -0.21211 0.22184 0.25133 0.17925 0.22238 0.035388 0.39643 -0.045168 -0.035782 0.18475 -0.21257 0.042238 0.36859 0.28568 0.63007 0.44451 -0.58207 0.0017601 -0.62847 0.8607 -0.12001 -0.50174 0.5034 -0.074883 -0.48599 0.11991 0.32938 -0.053776 -0.14428 -0.14709 -0.15485 0.10424 -0.29425 -0.036878 0.67564 0.30922 -0.40969 0.11456 0.2793 -0.72462 -0.24276 0.12742 0.6485 0.034844 -0.50145 -0.12551 -0.029895 0.048958 -0.22302 0.027701 0.13714 
odprt_morje -0.62282 0.55116 0.79626 1.1118 0.50277 -0.46752 -0.066872 0.4026 -0.379 0.23092 0.28492 0.59879 0.84921 0.30934 0.37964 0.020011 0.62027 0.073897 -0.0178 0.77291 0.21231 0.17444 -0.51895 -0.046822 -0.2215 0.11337 -0.30403 -0.29482 0.062682 0.78388 0.11801 -0.3607 -0.86479 -0.6231 -0.40834 0.2917 -0.0078629 0.16468 -0.11606 -0.11726 0.057551 0.46351 0.57303 -0.068291 -0.23834 0.35316 0.25326 0.18996 0.42318 0.49516 0.713 0.12108 -0.45413 -0.7698 -0.43529 -0.14913 0.27486 0.50837 0.11618 -0.58187 -0.45797 0.62769 -0.48017 -0.1319 0.19042 -0.32396 -0.34041 0.21734 0.40817 0.32404 -0.13371 -0.55685 0.36232 0.024316 -0.59099 0.31549 -0.47981 0.15226 0.35222 -0.46678 -0.65605 0.49013 -0.082824 -0.18499 -0.2617 0.021128 0.14366 -0.29614 0.14222 -0.26685 0.29364 0.71847 0.31844 0.074904 -0.19344 -0.40779 -0.24504 0.050287 0.0041884 0.15379 
brez_uspeh 0.42552 0.73936 0.010799 -0.0059986 -0.22502 -0.30775 -0.31818 0.37886 0.23162 0.19406 0.098796 -0.07054 0.08059 -0.082783 -0.26636 -0.060652 0.17401 0.14319 0.31928 0.73387 0.052678 0.066747 -0.19812 -0.14246 -0.1706 0.1231 -0.4135 0.067312 -0.49822 0.30317 -0.10404 0.12026 -0.20333 -0.1707 -0.15486 -0.47623 0.039543 -0.26498 -0.21399 0.11068 -0.076649 0.0082041 -0.040682 -0.27694 -0.016664 0.3203 0.025273 0.65484 0.27789 -0.53634 0.22972 0.23497 -0.34615 -0.042758 -0.23379 0.042753 -0.1953 0.6209 -0.17583 -0.32054 0.14822 0.19284 0.32189 0.17359 0.25719 -0.38617 0.38575 -0.20442 0.033336 0.48707 0.15754 -0.060593 -0.2506 -0.35774 0.065871 0.032114 -0.27366 -0.0598 0.088367 -0.45581 -0.16004 -0.95141 0.011938 0.015127 -0.51733 0.18981 0.076475 0.36836 -1.9272e-05 -0.30982 0.12296 0.11159 -0.034356 -0.49777 -0.1662 -0.0065441 -0.063257 0.10439 0.45053 0.25946 
on_biti_voditelj 0.14033 0.88641 0.42653 0.49436 0.2074 -0.71591 -0.12072 0.17892 -0.62387 0.10985 0.033265 0.39248 0.3577 0.15985 -0.004685 0.65466 0.64642 0.10187 0.28122 -0.0014081 0.048673 0.064902 0.31575 -0.085424 -0.17928 0.070733 0.071522 -0.28972 -0.48459 0.67847 0.19823 -0.29738 -0.087567 -0.31257 0.053485 0.41941 0.48898 -0.0013289 0.042789 -0.15045 -0.42783 -0.3086 0.10897 -0.15881 0.024839 0.39492 0.076905 0.40641 -0.098105 -0.75874 -0.16845 0.10481 -0.13926 -0.12783 0.27542 -0.017586 -0.32946 0.42225 0.0045379 -0.088453 -0.16982 0.3714 0.020428 0.96918 -0.031468 -0.46973 0.20193 -0.54004 -0.041821 0.25985 -0.28547 -0.072608 -0.23626 0.35145 0.007859 0.25552 -0.17491 -0.25584 -0.14167 -0.20768 0.12002 -0.084762 -0.0811 -0.010936 0.23656 0.092258 0.033522 0.2326 -0.20212 -0.3587 0.49981 -0.24258 -0.019762 -0.34553 0.015096 0.21904 -0.40681 0.2663 0.28695 -0.18094 
zakon_ne_biti -0.17145 0.50254 0.38234 1.3402 0.35241 -0.40502 0.5336 0.14589 -0.38331 0.16259 0.065754 0.545 0.19319 0.045002 -0.75292 0.36333 -0.31473 0.44206 -0.10783 0.71279 0.49845 0.47864 -0.22858 0.48225 -0.16126 0.42606 0.20137 -0.42751 -0.29467 -0.086163 0.30452 -0.30871 -0.1921 -0.56208 0.39404 0.16436 0.12386 0.25965 0.40752 -0.1734 -0.10486 -0.16466 0.25776 0.43528 0.20555 0.47098 0.38177 0.20635 0.42185 -0.38372 -0.12374 -0.098503 0.14129 -0.45183 0.57225 0.45808 0.25638 0.31688 0.050886 -0.17829 -0.15802 0.20154 0.12356 0.25963 0.026132 -0.62304 0.12829 -0.50834 0.60471 0.10405 -0.5995 0.22827 -0.42636 -0.10533 -0.077865 -0.037304 0.51199 -0.0568 -0.023106 0.26434 -0.19364 -0.20829 -0.55057 0.16495 0.18531 0.015294 -0.20333 -0.01316 -0.58913 -0.78092 0.62887 0.056482 -0.27012 -0.77199 0.21595 0.20422 0.21891 -0.046364 0.089407 -0.083055 
truditi_se_da 0.43023 0.38931 -0.52862 0.26836 0.35628 0.011918 0.34712 -0.29847 -0.040683 0.27391 0.065903 0.37926 0.12719 0.57081 -0.11759 0.0204 0.24203 -0.42561 0.47811 0.46442 0.39472 0.28526 -0.079033 0.49063 -0.15922 0.14887 -0.48665 -0.020471 -0.092934 0.10124 0.085258 -0.44266 -0.17079 -0.15302 0.033716 0.38845 0.10172 0.36564 -0.12462 -0.00038828 -0.32467 -0.045925 0.68639 -0.028664 0.1578 0.045241 0.15683 0.15732 -0.079731 -0.43177 -0.05087 0.25142 0.53589 -0.20034 0.17173 0.2987 0.29779 0.49666 -0.15308 -0.66975 -0.38173 0.33579 0.020342 0.66694 0.21026 -0.37386 -0.32521 -0.39985 0.30704 0.47484 -0.080278 0.12827 -0.019142 -0.20965 0.22548 0.05231 0.33306 -0.64527 -0.24177 -0.039075 0.27828 -0.23196 -0.081468 0.032522 0.090592 0.011166 -0.15115 0.47201 -0.466 -0.19855 0.25206 0.091367 -0.62549 -0.55371 -0.18997 -0.11691 0.081334 -0.4966 -0.040988 -0.39566 
tudi_na_lanski 0.17375 0.7382 0.028348 -0.095245 -0.26928 0.081284 0.38886 -0.24328 -0.33235 0.37359 0.31123 -0.19945 0.18526 -0.27102 -0.27257 0.43716 0.1536 -0.85106 0.31348 0.61405 0.092003 -0.16925 0.17273 0.18336 -0.44966 0.46788 0.62312 -0.26843 -0.22073 0.14533 0.57759 -0.57132 0.14102 -0.52881 -0.34522 0.30373 0.045412 0.12274 0.22607 -0.31224 0.33621 0.22244 0.47486 -0.18652 0.54316 0.084028 -0.23648 0.065985 -0.19597 -0.71183 0.15771 0.023252 -0.12763 -0.19885 0.057256 0.036956 -0.12455 -0.0050131 0.24589 0.088023 0.010439 0.49834 -0.074853 0.79288 0.26686 -0.56777 0.045771 -0.40156 0.59465 0.15324 -0.3076 0.34957 -0.2712 -0.36677 0.22638 0.38239 -0.32196 -0.015378 -0.59953 0.14611 0.0096959 -0.43732 -0.12908 0.0011032 0.61011 -0.12822 0.21529 0.047177 -0.38114 0.13545 0.61506 0.081949 -0.22415 -0.26031 -0.64122 0.29532 0.21894 -0.45053 -0.054353 0.34745 
najbolj_sprejemljiv -0.14571 0.3045 -0.084168 0.63609 0.04324 -0.33317 -0.028079 0.25799 -0.026456 0.070526 -0.19628 0.22848 0.090759 -0.078794 -0.37955 -0.072978 -0.086054 0.14144 -0.031564 0.40279 0.0059834 0.20701 -0.60628 0.033268 0.054342 -0.048677 0.15374 0.24445 -0.26924 0.28181 0.26956 -0.37723 -0.36605 0.0039459 -0.44226 0.19505 -0.00040731 -0.17435 0.0052392 -0.39565 -0.33802 -0.1908 0.40797 0.18322 0.14763 0.091636 0.033342 0.063228 0.23883 -0.34518 -0.20777 0.031228 0.16716 -0.36657 0.19842 0.34055 0.085299 0.23499 0.26307 -0.2028 0.086348 0.45412 -0.056273 0.04972 0.44886 -0.1361 -0.35501 -0.22075 0.66179 0.090131 -0.45983 0.062836 -0.1056 -0.15951 0.020931 -0.25107 -0.28085 -0.011025 0.11886 0.14598 -0.23962 -0.061627 -0.36023 0.042274 0.15394 0.0057073 0.038556 0.21178 -0.35638 -0.12491 0.52828 0.038169 -0.1463 -0.29765 0.12151 -0.16185 -0.0080022 -0.38894 -0.051596 -0.009633 
v_podnaslov -0.3255 0.33315 -0.19785 0.56586 0.056697 0.2416 -0.5824 0.14458 -0.17425 0.49566 -0.088525 0.59627 0.52943 0.63759 0.52188 0.35072 -0.87337 -0.73369 0.11148 0.37402 -0.063212 0.016964 0.16161 -0.12125 -0.19675 -0.18921 -0.054098 -0.38003 -0.33777 0.26036 0.17044 -0.54052 -0.13783 -0.54457 0.068943 0.57982 -0.3647 0.01144 0.031796 -0.34113 -0.0035876 -0.09528 0.57507 -0.1376 0.063248 -0.34367 0.15966 0.032274 -0.38389 -0.74114 0.11896 -0.15597 0.03445 -0.11791 -0.10048 -0.41979 0.19535 0.1989 0.37875 0.029309 0.28186 0.6273 -0.66266 0.1844 0.1241 -0.84512 -0.12482 -0.26039 0.65527 -0.55062 -0.20218 -0.090622 0.61911 -0.43457 -0.28436 0.47232 -0.21633 -0.76927 -0.22269 0.15195 0.32216 -0.28868 0.24663 0.13709 -0.045166 -0.24306 0.060966 0.23124 -0.23637 0.33761 -0.17782 0.12864 -0.18957 -0.48955 0.049166 -0.58775 0.1618 -0.7233 -0.51822 0.67876 
in_o_pogoj 0.14661 0.26143 0.17132 0.58665 0.059669 0.0015275 -0.24229 -0.50396 -0.18435 0.56147 0.17061 0.15165 0.19159 -0.24038 -0.23299 0.25526 -1.0721 0.083271 -0.19816 0.46939 0.82332 0.66486 -1.0663 0.92429 -0.77903 0.017891 0.48886 -0.20484 -0.67123 0.14404 0.68619 -0.70886 0.20285 -0.2341 -0.36768 -0.45768 0.35521 -0.12049 -0.03223 -0.33893 -0.25048 0.048665 0.85275 0.38138 0.12306 -0.062108 0.37502 0.33493 0.23601 0.01693 -0.1157 0.41593 -0.71589 -0.15821 0.22778 0.51203 -0.41269 0.3703 0.062822 0.41621 0.10773 0.45055 -0.80037 0.20163 0.40416 -0.3304 -0.16129 -0.39059 0.98473 -0.067201 0.033361 0.38397 -0.090629 0.17814 -0.38946 -0.18193 0.57262 -0.41445 0.23928 -0.074474 -0.044004 -0.18842 -0.15839 0.50959 0.13931 -0.33314 -0.061482 0.10846 -0.16199 0.072688 0.19162 0.23866 -0.1077 -0.90964 -0.32495 0.44157 0.36326 -0.61048 0.039881 -0.38666 
ozadje_kateri_biti -0.034509 0.52406 0.36291 0.27464 0.35482 -0.068039 -0.1167 0.10032 -0.6556 -0.13247 0.026128 0.28526 0.22663 0.19602 -0.18209 0.30289 0.11898 0.17307 0.053181 0.20321 0.17269 0.41332 -0.12784 0.27983 0.061094 0.2098 0.42858 -0.25536 -0.28581 -0.025025 0.13536 -0.38789 -0.091209 -0.33856 0.078538 0.46086 0.14817 0.28244 -0.037008 -0.10418 -0.030038 -0.10652 0.04615 -0.13991 -0.065084 0.012621 0.076864 0.40855 -0.2026 -0.52914 -0.10023 0.088519 -0.1839 0.0085954 0.31233 0.2668 -0.055162 0.1047 0.35997 -0.19073 -0.06378 0.25665 -0.015251 0.40569 0.22112 -0.53767 0.055348 -0.18019 0.18897 -0.13592 -0.38105 0.036831 0.0021884 -0.24973 -0.27694 0.047587 0.19935 -0.26436 0.0081815 -0.083115 0.37648 -0.012151 -0.088211 -0.028545 0.13607 -0.1129 -0.343 0.35757 -0.45391 -0.26445 0.53298 -0.055838 0.066135 -0.72624 0.10252 0.47118 -0.20468 -0.32185 0.3685 -0.045778 
delati_na_nov 0.16719 0.63713 -0.17322 0.33062 0.062688 0.26008 -0.040093 -0.113 -0.15251 0.74069 -0.13714 0.73634 0.11879 0.14441 -0.51968 0.44077 -0.32823 -0.48988 0.22404 0.27331 0.19146 0.17591 -0.48465 0.18572 -0.17945 0.25321 -0.00072797 -0.030893 -0.37501 0.091236 0.18075 -0.23316 0.48946 -0.25536 0.25187 0.24303 0.15802 0.0031119 -0.17812 -0.14529 -0.14671 -0.1708 0.94445 0.049411 0.17176 -0.09889 -0.064688 0.40117 -0.11261 -0.23206 0.021097 0.057109 0.32991 -0.11428 0.23612 0.27312 0.24657 0.44169 0.013844 -0.36975 -0.34987 0.4547 -0.38273 0.6159 0.44792 -0.095385 -0.10351 -0.44142 0.64406 0.2935 -0.02072 0.26578 0.028264 0.032741 0.18043 0.051986 0.093531 -0.50314 -0.51173 -0.069131 -0.031337 -0.2302 -0.061587 0.45367 0.4501 0.0048151 0.20136 0.30667 -0.35128 -0.090403 0.22436 0.14344 -0.39698 -0.41539 -0.309 -0.12218 -0.050272 -0.59822 -0.0977 -0.26363 
lastnik_zemljišče_ki 0.083736 0.44176 0.85062 0.29002 0.0064439 0.18692 0.43181 -0.19863 -0.39074 -0.353 -0.24931 0.0035861 0.75811 -0.073859 0.24665 -0.35284 -1.2279 -0.012265 -0.20069 0.43395 0.69562 0.5203 -0.70479 0.63822 -0.13779 0.37024 -0.27749 -0.080769 -0.25628 0.081761 -0.035874 0.13317 -0.34228 -0.25654 -0.18815 0.51034 0.013404 -0.085902 0.2468 0.1912 -0.33918 -0.081347 -0.084266 -0.1167 -0.28121 -0.31938 -0.69163 0.73904 0.58134 -0.36623 -0.09515 -0.04611 -0.28879 -0.17934 0.13867 0.75815 0.063865 0.43173 -0.057564 -0.29354 0.085726 -0.27412 0.14261 -0.63424 0.59955 -0.071061 -0.064194 0.18987 0.62633 0.27509 -0.089659 0.22539 -0.3248 -0.22296 0.06783 -0.45884 -0.21658 -0.13003 0.13909 -0.40901 0.21552 0.023442 -0.025773 0.29503 -0.59275 0.089063 0.22057 0.73816 -0.74432 -0.24735 0.3882 0.54646 -0.048734 -0.72417 -0.36169 -0.20088 0.00077383 -0.51917 0.84181 0.088247 
on_vzeti_pod -0.094574 0.76672 0.43559 0.25627 0.23398 0.14913 -0.026445 -0.07541 -0.32618 0.0053446 -0.11283 0.26916 0.36127 0.18326 -0.26799 0.21983 0.094069 -0.26194 0.00010454 0.83134 -0.15915 0.30581 0.2423 0.26386 0.07842 0.20474 0.12067 0.0012997 -0.41371 0.19665 -0.070796 0.043923 0.021408 -0.37823 0.093414 -0.29278 0.22056 0.122 -0.69497 -0.17936 -0.033005 0.05072 0.44796 -0.45334 -0.098591 0.23234 0.14078 0.095514 0.12054 -0.37619 0.4837 0.10264 0.18778 0.011909 0.1958 0.087272 -0.15485 0.32824 0.33425 -0.49057 -0.095017 0.15355 -0.12859 0.76269 0.21516 -0.29706 0.035811 -0.21861 -0.054313 -0.30318 -0.32024 0.098561 -0.015667 -0.50714 0.0060131 0.28526 -0.26862 -0.24009 0.13573 0.071052 0.53021 -0.13757 0.43963 0.26704 0.32427 -0.14447 0.006519 0.48658 -0.31451 -0.0017714 0.115 -0.042951 -0.095734 -0.19649 -0.43176 0.099502 0.063137 -0.31178 0.6174 0.49125 
600_se_biti 0.24039 0.994 0.3758 0.40903 -0.34069 -0.58339 0.4495 -0.84858 -0.16081 0.38259 0.38722 0.72706 0.089168 0.33875 -0.41508 0.45786 0.60919 -0.79831 -0.075407 0.097547 0.41804 -0.083784 0.33792 -0.088779 -0.15282 0.50537 0.16607 -0.63201 -0.37827 0.52294 0.19435 -0.69261 0.06534 -0.29515 0.17044 0.59092 -0.10208 -0.18533 0.27995 -0.12822 -0.32378 0.29437 0.26924 -0.022454 0.0059388 0.19604 0.60901 0.15091 0.31131 -0.40722 0.40736 0.31888 -0.091988 -0.070276 0.024988 -0.21363 0.40533 0.066318 -0.28469 -0.38343 -0.64078 0.38042 -0.3576 0.64274 0.076215 -0.48211 0.18687 -0.56405 0.44195 -0.24508 -0.37071 0.00091572 -0.57419 0.1127 0.054774 -0.064195 -0.15233 -0.31498 -0.064196 -0.20415 0.51981 0.032372 0.28306 0.04919 -0.13185 0.40289 -0.21457 -0.020293 -0.35213 -0.82448 0.52269 -0.17089 0.00415 -0.64972 -0.13638 0.31363 -0.070398 0.38185 0.5279 0.17374 
ostati_v_Nemčija 0.094344 0.59161 -0.32369 0.75703 -0.093107 -0.22756 0.25161 -0.14392 -0.05971 0.47621 0.31811 0.23248 0.16984 -0.017062 -0.49865 0.036646 0.13964 -0.7696 0.35375 0.51547 0.16275 -0.0102 -0.13256 -0.023123 -0.27304 0.39335 0.0061449 -0.007812 -0.47112 0.38184 0.22136 0.035836 0.15439 -0.16954 0.34138 0.30801 -0.050675 0.023474 0.20649 -0.014827 -0.08716 0.090374 0.7204 -0.14512 0.37695 0.17318 0.028935 0.29313 -0.22705 -0.13017 0.31743 -0.11229 -0.31198 -0.16479 0.29817 -0.14179 0.014226 0.14802 -0.059102 -0.20007 -0.45118 0.54257 -0.42752 0.47481 0.35033 -0.1276 0.14867 -0.38734 0.27029 0.061846 0.040416 0.31046 -0.11726 -0.08773 -0.035389 0.27454 -0.25431 0.10138 -0.35998 -0.14897 0.0031154 -0.11968 -0.045484 0.1112 0.3969 -0.27682 0.5499 0.3561 -0.18186 -0.3185 0.15489 -0.04248 -0.11587 -0.58585 -0.25201 0.058355 -0.11203 -0.15338 0.11306 0.032344 
tujina_ki_biti 0.084112 0.79203 0.049988 0.35881 -0.074401 0.029764 0.18935 -0.29954 -0.28374 0.29642 0.31586 0.72374 -0.033294 -0.057704 -0.3595 0.33794 0.02931 -0.54124 -0.09331 -0.15021 0.23885 0.34152 -0.017181 0.43301 -0.5448 0.38319 0.3562 -0.39556 -0.7128 0.41312 0.3144 -0.38461 0.1287 -0.65475 0.33656 0.69688 0.10535 0.27942 0.19296 0.17888 0.066055 0.083697 0.54023 -0.13934 0.29894 0.020298 0.22826 0.23692 0.12205 -0.21236 0.27926 0.10838 -0.0046687 -0.24471 0.12703 -0.039423 0.080229 -0.12491 0.3496 -0.34614 -0.29844 0.56433 -0.031491 0.36056 0.21176 -0.54917 0.1092 -0.53176 0.44512 0.1609 -0.46538 0.21754 0.13416 0.36424 -0.13014 0.29266 0.37144 -0.047817 -0.2894 -0.17902 0.30612 0.014619 -0.065331 0.15938 0.51725 0.050899 -0.10564 0.1756 -0.40722 -0.30348 0.0032596 -0.20414 -0.32629 -0.71379 0.042862 0.54526 -0.25499 -0.13068 0.33243 -0.15839 
uspeh_v_šola -0.16916 0.33306 -0.45366 0.18112 0.51868 -0.12037 -0.28718 -0.64771 -0.30217 0.19059 0.061375 -0.3943 -0.48959 0.54281 -0.21312 -0.27182 0.12115 0.073924 0.10967 0.17198 -0.13631 0.36192 0.21574 0.40465 -0.089718 -0.3827 -0.59992 0.40236 -0.45679 0.1597 0.13401 -0.21091 0.1181 -0.29039 0.023951 0.29122 0.13266 0.56861 -0.24148 0.074636 0.25271 -0.89192 1.0743 0.40329 0.018516 0.17279 0.091113 0.14069 -0.46558 -0.29634 -0.20615 0.20094 -0.31849 -0.19362 -0.74394 -0.019979 0.18473 0.2508 -0.5031 0.50325 -0.21293 0.47186 -0.21563 0.056329 0.34409 -0.15427 -0.25789 0.13377 0.65149 0.62984 0.0042946 0.33208 0.026502 -0.15791 0.011176 0.14225 0.46365 -0.59411 -0.42168 -0.17486 -0.2612 -0.19166 0.18301 0.18008 -0.060299 -0.38057 0.10257 0.56379 0.090882 -0.33333 0.11725 -0.14205 -0.32761 -0.20895 0.011358 -0.21501 0.016363 -0.68379 -0.40062 -0.1851 
podan_pa_biti 0.10328 0.84978 0.687 0.34933 0.76854 0.36034 0.6161 -0.55504 -0.62582 -0.3641 0.043516 0.66455 0.35283 0.059605 -0.37763 0.75401 -0.10068 0.32073 -0.22554 0.48967 0.14625 0.86124 -0.3454 0.58181 -0.30735 0.40875 0.6779 -0.12221 -0.31478 -0.017999 0.55034 -0.19709 0.0029433 -0.06048 0.30191 0.044853 0.2914 0.11486 -0.034241 -0.093285 0.067761 0.11087 0.050784 -0.067559 0.01038 0.070328 0.17138 0.70824 0.13774 -0.41011 0.33117 0.19321 -0.83723 -0.29346 0.32932 0.31252 0.26835 0.17193 -0.068401 -0.47986 0.064234 0.21524 -0.49799 0.60578 0.0757 -0.92963 -0.36566 -0.50505 0.27271 -0.0035722 -0.067346 0.3309 -0.1651 -0.15383 -0.4701 -0.035526 0.3773 -0.51598 0.14381 0.12984 0.44173 -0.20535 0.02195 -0.14869 -0.2666 -0.19685 -0.45368 0.26221 -0.84574 -0.28749 0.49518 -0.42919 -0.30735 -0.29901 -0.14551 0.6851 -0.10831 -0.3418 0.75354 0.010314 
pravi_poslastica_ki 0.46059 0.70947 0.42585 -0.41524 0.28869 0.50695 -0.34975 0.051862 -0.31804 0.43646 -0.25624 0.081102 0.27583 0.61041 -0.14553 0.015646 0.52831 -0.3586 0.68769 0.64548 0.0023069 -0.36508 0.15318 0.10709 0.18174 0.35454 0.21015 0.23137 -0.51781 0.26095 0.42761 -0.23965 -0.21883 -0.50613 -0.3376 0.52619 0.082576 -0.12503 0.078364 0.052753 -0.086835 0.0012412 0.2825 -0.041845 0.01998 0.19899 -0.0059998 0.33894 -0.14713 -0.59959 -0.29295 0.057252 -0.020129 -0.094584 0.071631 -0.27358 -0.23833 0.50523 0.86204 -0.37831 0.28454 0.54158 -0.23727 0.34454 0.33944 -0.26495 -0.60729 0.1461 0.48371 -0.33597 -0.55524 -0.039556 0.17268 -0.54452 -0.25047 0.17665 -0.1841 -0.12841 -0.16675 0.12996 0.25828 0.36392 0.0033386 -0.1679 0.072932 -0.12122 -0.28512 0.0063124 -0.4588 -0.084734 0.43583 -0.082105 -0.1106 -0.1316 -0.2064 0.005252 -0.027931 -0.50387 0.40521 0.27365 
biti_se_nemški 0.075689 0.83944 0.32471 0.62121 -0.24669 -0.49449 0.15375 -0.078244 -0.57339 0.30862 0.29056 0.76192 0.18829 0.19894 -0.45881 0.17003 0.35187 -0.45406 0.3256 0.30711 0.30344 0.21339 0.10939 -0.20916 -0.33821 0.52622 0.145 -0.33776 -0.54668 0.45216 -0.053467 -0.2894 -0.12406 -0.47217 0.32498 0.731 0.043418 0.01562 0.20306 0.35967 -0.15007 0.014385 0.21003 -0.025183 0.087098 0.32883 0.0039628 0.26716 -0.15954 -0.36366 0.43416 0.23748 -0.077676 -0.10005 0.1989 -0.069258 0.18176 0.19882 -0.28608 -0.45488 -0.63791 0.45913 -0.26117 0.82572 0.2043 -0.17773 -0.015123 -0.31016 0.055952 0.18731 -0.2624 0.13116 -0.29127 0.65154 -0.039834 0.49796 -0.22909 -0.092541 0.28981 -0.45095 0.22677 0.048387 -0.15549 -0.17539 -0.014508 0.073686 -0.12226 0.17089 -0.28831 -0.43681 0.36563 -0.33667 -0.18758 -0.58452 -0.2742 0.23539 -0.25066 0.003712 0.7789 -0.1441 
o_velik_konflikt -0.83742 0.61219 -0.32823 0.88261 -0.14234 -0.77032 0.2847 0.32226 -0.61088 -0.25847 -0.2272 0.30866 0.43103 0.20522 0.12973 0.21191 0.12343 0.23316 0.51274 0.5887 0.16271 0.72305 -0.40829 0.063692 -0.22461 -0.12764 0.4279 0.26576 -0.1888 0.39512 0.052944 -0.23874 -0.053016 -0.41167 -0.56155 0.69736 -0.044447 0.27527 0.36115 0.090508 -0.083273 0.22453 0.76496 -0.16713 0.05849 0.39586 0.46371 -0.11521 -0.15364 -0.61411 -0.24712 0.58459 -0.33022 -0.14825 -0.07152 -0.16465 -0.28289 0.20188 0.34106 -0.10051 -0.51009 0.28405 -0.46784 0.0031599 0.60409 0.14144 -0.11097 -0.068185 0.39168 0.53573 -0.080371 0.41077 0.33229 -0.067906 0.088167 0.079307 0.032695 -0.39304 0.15821 0.097188 0.093953 0.0037739 -0.037438 -0.32162 0.29197 -0.313 0.20565 -0.091219 -0.21361 0.52442 -0.047298 0.02499 -0.023303 -0.11885 -0.077307 -0.4506 -0.077205 -0.011889 -0.06569 -0.13433 
miza_za_pet -0.25228 0.818 0.67948 0.47456 -0.022704 -0.12708 -0.13828 0.36968 -0.48397 0.18949 -0.20802 -0.17406 0.34254 0.43675 0.22183 0.35052 0.083055 -0.5046 0.29952 0.75572 0.014365 0.12616 -0.013727 -0.23391 -0.49224 0.14602 0.16669 -0.2898 -0.52231 -0.040354 -0.027101 -0.91335 0.23709 -0.36423 -0.82004 -0.11499 -0.21501 0.2961 -0.14675 -0.36662 -0.14384 -0.19495 0.94527 -0.22725 -0.24505 -0.048218 0.46337 -0.21909 0.25975 -0.29302 0.19886 0.83359 -0.084401 0.30267 -0.19002 0.57598 0.33014 0.41971 -0.22467 0.75087 -0.20412 0.020513 -0.6033 0.26166 0.35295 0.19778 -0.0051721 0.37631 0.66819 0.022532 -0.0087945 -0.27461 -0.13307 -0.28421 -0.27794 -0.12762 0.0097305 -0.70283 -0.05825 0.27846 0.55318 -0.52929 0.45818 0.60858 0.065621 0.027781 0.084844 0.49435 -0.2854 0.23105 0.26304 0.41451 0.2907 0.35332 -0.25263 -0.29296 0.14776 0.1475 0.15619 0.48915 
biti_cesten_povezava 0.10841 0.39538 0.14827 0.36443 0.030787 0.097054 0.36469 -0.18439 -0.35424 0.14162 -0.26781 0.75731 0.48757 -0.019766 -0.28162 0.03502 -0.17328 0.087591 -0.3391 0.026034 0.34824 0.21036 -0.54594 -0.22699 -0.50312 0.41559 0.10027 0.070531 0.17588 -0.060698 0.28455 -0.50113 0.010877 -0.34744 -0.3527 0.56774 0.34936 -0.035971 -0.095413 -0.091477 -0.18023 0.43374 0.36839 0.086373 0.32213 0.23042 0.29261 0.25445 0.18337 -0.58324 0.16262 0.2036 -0.41553 -0.37925 0.60423 0.32748 0.54828 0.61449 -0.15419 -0.044588 0.20201 0.77353 -0.00762 0.019548 0.53279 -0.64096 -0.11386 -0.23404 0.31286 0.012253 -0.54977 0.21119 -0.30675 -0.14986 -0.37615 -0.314 0.088881 -0.1284 0.075588 -0.070069 0.039125 -0.29624 -0.040151 -0.043373 -0.191 -0.055529 0.11673 0.58724 -0.42573 -0.1196 0.43218 0.16047 -0.20133 -0.77623 -0.56667 0.10425 0.027081 -0.29631 0.31842 -0.10641 
imeti_le_nekaj 0.29323 0.6552 0.091144 0.10486 -0.027645 0.033571 0.21073 -0.0048638 0.0074402 0.31123 -0.10948 0.16121 0.37889 0.063399 -0.44226 0.35265 0.16992 -0.46003 0.19653 0.36182 0.21235 -0.013222 -0.23277 0.032923 -0.22012 0.34545 0.12652 0.14739 0.044615 0.12429 0.21906 -0.15371 0.048764 -0.37432 0.14351 0.043199 0.033721 0.11944 -0.20096 -0.093593 -0.22699 0.14859 0.49175 -0.13364 0.08769 0.22924 0.23925 0.34629 -0.32134 -0.46242 0.32714 0.0042047 0.14928 -0.055979 0.058782 -0.047661 0.16568 0.3771 0.23987 -0.722 -0.27756 0.45332 -0.074773 0.61556 0.56208 -0.25026 -0.25471 -0.25942 0.26034 -0.18759 -0.18393 0.43101 -0.18862 -0.39272 -0.033554 0.12231 -0.28816 -0.17456 -0.14422 0.0088647 -0.0084592 0.023366 0.1046 0.12916 0.17847 -0.10758 -0.08337 0.22668 -0.26233 -0.12274 0.14993 -0.083805 -0.30247 -0.24126 -0.29819 -0.12351 -0.0052296 -0.27865 0.34308 0.27517 
opisan_vrsten_red 0.62954 -0.30757 0.016157 0.49391 0.43418 0.45067 -0.29544 -0.032851 -0.45211 0.30118 -0.1499 -0.017432 0.61159 0.078113 -0.39122 -0.35102 0.14117 0.17524 0.3107 0.8477 0.40566 0.10307 0.015586 -0.24212 -0.056988 0.32028 0.16568 0.26409 -0.52212 -0.51972 0.40041 -0.96459 -0.39867 -0.69171 -0.48472 0.20974 -0.031042 0.13199 -0.16702 -0.14325 0.15072 -0.10148 0.35298 0.015602 -0.040649 0.64213 -0.020593 0.42488 -0.24811 -0.20513 0.94542 0.011221 -0.46282 -0.3782 -0.11504 0.12328 -0.043124 0.059639 0.23386 0.13426 0.31327 0.35877 -0.27573 0.31148 0.54405 -0.086671 -0.48962 0.13526 0.19554 -0.37734 -0.12737 0.56411 -0.091981 -0.40979 -0.42461 0.048364 -0.16671 -0.12449 0.095635 0.13947 -0.24276 1.2379e-05 -0.35604 -0.14273 -0.023178 -0.46643 -0.14771 -0.025608 -0.1455 -0.28825 0.24639 -0.18461 0.062156 -0.36145 -0.33805 -0.0089875 -0.10889 -0.24259 0.20462 0.70878 
z_kateri_upravljati -0.18543 0.39274 0.10089 0.20089 -0.054583 0.14995 0.017449 0.040054 -0.26101 0.10125 0.072943 0.10994 0.70835 0.13054 -0.067301 0.080564 -0.40125 -0.18259 -0.078218 0.39236 0.5755 0.15688 -0.6774 0.73044 -0.36228 0.40244 0.56001 -0.49307 0.028142 0.024024 0.4476 -0.084412 0.088434 -0.24427 -0.1247 0.4294 -0.21475 0.0050087 0.27097 -0.10067 -0.19681 0.082702 0.46978 -0.13498 0.036378 -0.074022 -0.01458 0.42318 -0.085091 -0.53029 -0.23228 0.17698 -0.059494 -0.051955 0.16275 0.44662 -0.2902 0.27144 0.19006 -0.098693 -0.28707 0.3254 -0.38505 0.048918 0.051856 -0.63088 -0.22094 -0.10861 0.83566 -0.12295 -0.2509 0.34935 -0.1283 -0.13092 -0.31943 0.088204 0.39454 -0.3736 0.1431 -0.23585 0.22354 -0.3204 0.15306 0.1342 0.18417 -0.18971 0.22519 0.44425 -0.17514 -0.11865 0.31453 0.36844 -0.15844 -0.5859 -0.11541 0.21365 0.22061 -0.53189 0.17701 -0.11579 
dober_pogoj_in 0.29937 0.55231 0.05668 0.54427 -0.026677 0.40233 0.20948 -0.27489 -0.3002 0.43774 0.32466 0.0031404 0.10082 0.017469 -0.11759 -0.26359 -0.64232 0.02928 0.45541 0.43748 0.42356 0.1226 -0.40961 1.04 -0.016416 -0.18913 0.10969 -0.0023556 -0.78634 0.1677 0.50939 -0.3927 -0.0041692 -0.2021 -0.57383 -0.1235 -0.090208 0.097495 0.17831 -0.20223 -0.24561 0.06065 0.75162 0.15263 0.012475 0.19417 0.013186 0.055824 0.12622 -0.066343 0.50338 -0.10407 -0.0022286 -0.42524 0.24123 0.34514 0.1141 0.22997 -0.0003802 -0.086621 0.084251 0.31794 -0.46816 0.16147 0.59819 -0.34906 -0.26145 -0.27089 0.82152 -0.03494 0.16457 0.07747 0.010085 -0.11507 -0.25761 0.14505 0.27795 -0.12698 -0.14014 -0.12055 -0.02054 -0.12988 -0.062847 0.47696 0.35641 -0.42994 0.11179 0.2658 -0.43274 0.039594 0.080649 0.19366 -0.087404 -0.6259 -0.38929 0.079796 0.57321 -0.51442 -0.13201 0.23276 
on_policist_v 0.26452 0.87355 0.057938 0.37899 0.12015 -0.16714 0.14478 0.12666 -0.31232 -0.3154 -0.033317 0.51448 0.32775 -0.18478 -0.035986 0.53374 -0.081178 0.3493 -0.077363 0.46097 -0.17796 0.57513 -0.49931 -0.056043 -0.4893 0.051408 0.32017 0.30079 -0.19473 -0.080988 -0.054234 0.036942 0.50442 -0.3895 -0.074163 -0.11398 0.65533 0.91132 -0.80977 0.16353 0.0049198 0.03026 0.16434 -0.68698 0.71137 0.23371 0.13148 1.0302 0.70926 -0.70963 0.35547 -0.25327 -0.51701 -0.53057 0.23914 -0.42308 0.38659 0.31732 -0.06115 -0.47699 0.20087 -0.091789 0.19208 0.16906 0.58846 -0.66015 0.086751 -0.73335 -0.041011 -0.2878 0.068905 0.83084 0.041265 -0.49348 -0.39576 0.0098064 -0.51496 0.26842 0.053979 0.060314 0.60846 -0.71011 1.2349 -0.21124 -0.15639 -0.56294 0.050029 0.99348 -0.55028 0.75443 0.39324 0.4533 -0.20483 -0.27245 -0.49349 0.39024 0.035076 0.0038907 0.41807 0.46883 
uvrstiti_na_tekma 0.7802 0.074563 0.028979 0.26516 -0.14996 -0.025523 0.19551 -0.6333 -0.30318 0.66135 0.491 0.027001 0.29512 -0.15362 -0.36616 0.13553 0.31864 -0.34546 0.81597 0.9329 -0.060922 -0.31771 0.60552 -0.1229 -0.49047 0.28294 -0.053353 0.31137 -0.94291 0.0091138 0.26696 -0.74406 -0.45764 -0.4936 -0.32397 0.19984 0.10482 0.080248 -0.2719 -0.12542 0.23518 0.028592 0.67426 0.032553 0.61175 0.5205 -0.35547 0.20943 -0.17421 -0.58742 0.32964 -0.05427 -0.072407 -0.3573 0.18976 -0.084408 0.087187 0.1206 0.038805 -0.15643 0.32043 0.50675 -0.13286 0.51236 0.045374 -0.39524 -0.19941 -0.19717 0.36759 0.146 -0.18554 0.427 0.01063 -0.31212 -0.15952 0.45185 0.04387 -0.3639 0.15361 0.041858 0.026649 0.016795 -0.01278 -0.0028768 0.33524 -0.3433 -0.31072 0.059503 -0.37758 -0.31017 0.47896 0.030962 -0.25413 -0.61318 -0.38044 0.35049 -0.14751 -0.37948 0.27441 0.036961 
ta_peticija -0.16209 -0.36366 0.024104 1.309 1.0602 -0.6339 -0.35381 0.53165 -0.62679 -0.098146 -0.92924 0.62183 0.15298 -0.87818 0.32765 0.43712 0.092228 0.16991 -0.47252 0.51796 0.37757 0.59748 0.21295 0.46343 -0.36193 -0.068785 -0.36755 -0.059672 -0.05144 0.41051 0.98225 -0.75184 -0.30583 -0.52886 -0.36458 0.48074 0.8626 0.57187 -0.75318 -0.1361 0.0059959 0.098934 0.94128 -0.15052 0.4781 0.73168 -0.33171 0.6328 0.59928 -1.3453 -0.44065 -0.26398 -0.29616 -0.28599 0.51709 0.89752 1.1272 0.31471 0.24702 0.024279 0.094365 0.36583 0.15074 0.2366 0.32474 -0.31762 -0.28426 0.063393 0.54639 -0.18173 -0.0054516 0.41256 -0.15276 0.31539 0.065844 0.039928 0.028788 -0.091668 -0.25209 -0.24554 -0.53928 -0.23322 -0.92943 0.22593 0.73363 0.12701 0.42903 -0.123 -0.45215 0.39473 0.28213 0.31778 -0.066191 -0.86765 -0.40041 0.65692 0.014977 -0.067967 0.23647 0.5434 
biti_marsikje 0.2791 0.82384 -0.2735 0.40611 0.47838 -0.17316 0.56675 -0.26782 0.23757 -0.11887 0.096539 0.29476 0.25389 0.20492 -0.51592 0.40896 0.0083193 -0.53691 -0.42736 -0.17899 0.038689 0.14198 0.027234 -0.22918 -0.41392 0.48645 0.18385 -0.25464 -0.22747 0.24458 0.025044 -0.69642 -0.26641 -0.2642 -0.07391 0.52286 -0.19868 0.11476 0.20835 0.049273 -0.6531 0.11667 0.49424 -0.014197 0.51559 -0.18586 0.24805 0.43443 -0.28484 -0.45635 -0.0093477 0.25652 -0.017067 0.1118 0.26909 0.66316 0.16397 0.40318 0.0096822 -0.8682 -0.4763 0.70163 0.57647 0.45703 0.72101 0.0243 -0.3003 -0.45873 0.51742 -0.11879 -0.50205 -0.032629 -0.78416 0.083109 0.42776 0.025823 -0.37406 -0.47453 -0.079081 -0.15478 0.17515 0.28067 -0.20862 -0.041789 -0.058985 0.4439 -0.053551 0.15149 -0.28164 -0.4098 0.17026 -0.26791 -0.12761 -0.33869 -0.068009 0.10918 0.071408 0.30213 0.34019 -0.36371 
imeti_zdaj_možnost 0.35058 0.3738 -0.055168 0.3511 -0.16163 -0.034423 0.21742 0.17645 -0.2038 0.46289 0.30195 0.064172 0.26155 0.032367 -0.20513 -0.10427 -0.042768 -0.18992 0.10452 0.71661 0.29747 0.31787 -0.25889 0.2006 0.019265 0.040647 0.1717 0.057557 -0.66412 -0.031668 0.42281 -0.43582 -0.23794 -0.3511 -0.18112 0.25961 0.039926 -0.066188 -0.11973 -0.091236 -0.095079 -0.00055863 0.28567 0.098818 0.082529 0.40032 -0.0382 0.13607 0.18158 -0.27681 0.33402 -0.27889 0.35442 -0.33594 0.35857 -0.047879 0.21565 0.38745 0.028774 -0.24142 0.0072887 0.17976 -0.13408 0.26937 0.075846 -0.061484 -0.41896 -0.45082 0.52843 0.042306 -0.46715 0.12513 0.052594 -0.23798 0.13724 0.28497 0.027485 -0.28757 -0.099186 -0.11597 -0.19519 -0.18934 -0.15533 -0.027748 0.20285 -0.053486 0.13652 0.32437 -0.083073 0.046918 0.40801 0.35117 -0.26249 -0.43383 -0.32867 0.13742 -0.12738 -0.39157 -0.10762 -0.078095 
izobraževalen_središče -0.35392 0.91933 -0.2421 -0.3109 0.18392 -0.5169 0.050229 -0.30419 -0.31659 0.29357 0.10998 0.078965 0.23578 0.28333 0.25621 0.019033 -0.094486 -0.21289 0.098128 -0.24726 -0.044512 0.56219 -0.61979 0.12255 -0.4953 0.20645 -0.0065791 0.026367 -0.35978 0.085159 -0.056598 -0.10366 0.26307 -0.042335 -0.91956 0.8593 0.11668 0.52052 0.02386 -1.1057e-06 -0.51613 -0.22651 1.2354 0.19653 -0.039234 -0.035272 0.52593 0.05588 0.25439 -0.32023 0.44809 0.30018 -0.3068 -0.025508 -0.52075 0.42371 0.38602 0.38104 -0.055394 0.060528 -0.22761 0.33656 -0.16799 -0.055251 0.45523 0.25618 -0.20649 0.16533 0.52632 0.69629 -0.0048202 0.55763 -0.066071 0.1458 -0.32221 -0.17922 0.25376 -0.59464 0.13887 -0.19908 0.025033 -0.028556 0.055624 0.27447 -0.0096268 -0.28317 0.24075 0.35932 -0.48572 0.29738 0.25883 0.40526 -0.14914 -0.30151 -0.22838 -0.52746 0.040999 -0.31124 0.076204 -0.35344 
sprva_domnevati -0.22377 0.67683 -0.25516 0.39878 -0.084096 -0.47808 -0.015801 0.26604 -0.3868 0.29237 -0.030627 0.19996 0.38235 0.59564 -0.32694 0.31021 -0.062296 -0.37732 -0.14453 0.35365 0.18649 0.25076 -0.15825 -0.11603 -0.20228 0.4844 0.055183 -0.083025 -0.075154 0.2918 -0.24608 -0.43267 0.14651 -0.26979 0.06047 -0.24868 0.26893 -0.10617 -0.20482 -0.096251 -0.076857 0.053151 0.072696 -0.56606 0.075936 0.12237 -0.12611 0.92226 -0.3462 -0.57054 0.45548 0.13992 -0.46044 -0.010437 -0.11572 0.043072 -0.17605 -0.14336 0.24856 -0.60074 -0.5278 0.57406 0.024805 0.58228 1.0016 0.10549 -0.43759 0.0093959 0.3325 0.23823 -0.3142 0.49332 0.15951 -0.27796 -0.36143 0.023057 -0.67689 -0.044536 0.36188 -0.41013 0.14213 -0.5373 0.11308 -0.14246 -0.10915 -0.4393 -0.0055847 0.051599 0.31701 0.23321 0.4008 -0.23644 -0.041629 -0.029279 -0.44217 0.39482 -0.408 0.097907 0.55101 0.25917 
zaradi_karton_biti 0.65251 0.17848 -0.16278 -0.048059 -0.35797 0.26262 0.40071 -0.16245 -0.286 0.40241 -0.044308 0.32588 0.38919 0.27849 -0.77196 0.47087 0.39641 0.049809 0.32416 0.97619 0.219 0.31265 0.078511 -0.46872 -0.10853 0.27264 -0.083311 0.29517 -0.68728 0.12215 0.27521 -0.2869 -0.15074 -0.36198 0.13108 0.37376 0.16807 0.0046759 0.061821 0.050591 -0.21128 0.10903 0.1928 0.17916 -0.085738 0.12913 0.065956 0.30551 0.01583 -0.43811 0.33222 -0.23404 -0.069241 -0.46959 0.50041 -0.20715 -0.18523 0.3834 0.01042 -0.86065 0.28151 0.2012 -0.039794 0.22246 0.49339 -0.52245 -0.042035 -0.3727 0.22652 -0.21986 -0.16308 0.12454 -0.059215 -0.68087 -0.082753 -0.032229 -0.082498 0.099498 0.42873 -0.039529 0.22634 -0.37742 -0.10342 -0.053748 0.073507 0.16933 -0.33049 -0.15386 -0.40939 -0.28411 0.26038 -0.2393 0.1762 -0.63342 -0.42432 0.82235 -0.50857 0.09504 0.41851 0.17116 
sam_vrag 0.27263 0.40773 0.11344 0.86837 -0.13691 -0.1493 -0.15085 0.69343 -0.056779 -0.038703 0.51152 0.1742 0.31209 0.70549 -0.30038 0.12762 0.86282 -0.22594 0.56358 0.86168 0.10185 -0.057671 -0.056665 -0.45832 -0.17976 0.017578 -0.53309 0.27906 -0.67395 0.13255 -0.061994 -0.15491 -0.19233 0.027614 0.49401 -0.16676 0.057467 0.033158 -0.18101 -0.53096 0.25031 -0.23292 0.086608 0.18529 -0.35191 0.1915 0.15414 0.47996 -0.17281 -0.42889 -0.02514 0.28963 -0.26689 -0.22158 -0.22067 0.17773 -0.039916 -0.22911 0.4654 -0.49387 0.10494 0.35159 -0.013555 -0.21293 0.34168 -0.17414 -0.20504 -0.086284 0.31649 -0.0002278 -0.011991 0.082293 -0.10517 -0.018401 -0.15136 0.095194 -0.21852 -0.0056073 -0.28946 -0.14554 -0.12347 -0.17199 -0.035097 -0.16256 -0.078595 0.29501 -0.020981 -0.36981 -0.26443 -0.053948 0.14661 0.080993 -0.375 -0.40459 -0.19915 -0.22427 -0.0059869 0.18604 0.48021 0.62547 
o_stanje -0.26701 -0.043823 0.011077 0.81068 0.7767 -0.0551 0.028423 0.47916 -0.34069 0.1848 -0.048072 0.65131 -0.11566 -0.047523 -0.058964 -0.04985 -0.054367 0.036663 0.15635 1.2323 0.40138 0.48095 -1.0685 0.39002 -0.31306 0.39273 0.17997 0.48145 0.16887 -0.15732 0.53005 -0.66502 0.36519 -0.12173 -0.50625 0.49524 0.33876 0.63425 -0.043602 -0.14862 -0.69621 0.15726 0.74539 -0.1002 -0.071234 -0.072136 0.4595 0.37783 -0.43985 -0.15921 0.052743 0.1204 -0.33881 -0.20144 0.45889 -0.27703 -0.039473 0.46848 0.52312 -0.20531 -0.12347 0.56184 0.21017 0.26672 0.52564 -0.27396 -0.44372 -0.2111 0.034056 0.27932 -0.089034 0.49999 -0.035616 -0.26067 -0.65282 -0.074034 0.20215 -0.30184 0.43457 0.36363 -0.2856 -0.64989 -0.10504 -0.36515 -0.31977 -0.3545 0.49701 0.49469 0.14914 0.42519 0.20148 -0.0781 0.060918 0.078067 -0.35036 0.13478 0.12847 -0.097022 -0.20876 -0.16002 
še_odškodnina 0.038928 0.56851 0.25928 1.0249 -0.32641 0.32689 0.40982 0.51232 -0.56924 -0.22448 0.31788 -0.16704 0.41472 -0.12214 -0.36072 0.030005 -1.0215 0.25678 -0.18867 1.1506 0.33249 0.59445 0.10944 0.047814 -0.10055 0.60781 0.17091 -0.04914 -0.52808 -0.10246 -0.017351 -0.01844 -0.44976 -0.028191 0.46873 0.22768 0.16561 -0.24534 -0.0069313 0.21153 0.37175 -0.33711 0.22916 -0.053283 0.41875 0.59397 -0.85653 0.73014 0.30643 -0.24249 -0.20964 -0.71274 0.041439 -0.024492 0.46994 0.12467 -0.71254 0.13726 0.18218 -0.26373 0.15989 0.069403 -0.21696 0.003571 0.99889 0.012219 -0.19058 -0.21012 0.52065 -0.32472 -0.48213 0.23443 -0.30598 -0.43293 0.14514 -0.41202 0.16707 -0.12302 0.3737 -0.6312 0.22454 -0.29316 -0.1392 0.063229 0.30502 -0.078674 0.17871 -0.10728 0.031768 -0.13911 -0.094572 0.17102 0.024378 -0.8334 -0.10716 0.042859 -0.060398 -0.091498 0.22877 0.1263 
iz_luč -0.13887 0.90443 0.11591 -0.57485 0.99121 0.75985 -0.2643 -0.012132 -0.5237 -0.19839 -0.26067 0.039954 0.013612 0.22618 -0.13975 -0.061124 -0.016069 -0.0097697 0.42459 0.5476 -0.31614 -0.15264 -0.087779 -0.33843 -0.20766 0.12322 0.03198 0.41199 -0.75572 -0.069696 0.22333 -0.2051 -0.11947 0.10355 -0.15705 0.082586 0.15039 0.44362 -0.47417 -0.15069 -0.41113 -0.43972 -0.03843 -0.1206 -0.01596 -0.013636 0.69091 0.15911 -0.34832 -0.52972 0.0068785 -0.083878 -0.78171 -0.10166 0.027074 0.30005 -0.12719 0.66784 0.56994 0.04091 0.53157 0.38908 -0.016623 0.29415 0.1738 -0.43506 -0.18127 0.29067 0.039691 -0.51898 -0.51066 -0.10623 -0.21203 -0.14346 0.17319 -0.18434 -0.20749 -0.054238 -0.31482 0.13725 0.48148 -0.65127 0.98594 0.015908 -0.85308 0.14214 0.10178 0.696 -0.049614 0.11447 0.60392 0.48494 0.3375 0.14847 0.018786 -0.46863 0.33903 -0.08195 -0.03677 0.29175 
pa_že_vedeti -0.19088 0.30024 0.042974 0.75646 0.1837 -0.18578 0.40947 0.59238 -0.26057 0.51926 0.026038 0.67757 0.193 0.34119 -0.13641 0.74361 0.1403 -0.67994 0.23759 0.5059 0.10556 0.19771 -0.03984 -0.23034 -0.18661 0.14896 -0.22383 0.099954 -0.32758 -0.18258 0.066482 -0.62195 0.021817 0.05547 0.47741 -0.084066 0.0043193 0.25525 -0.30287 -0.42793 -0.26478 0.13793 0.19283 -0.26987 -0.007732 -0.22539 -0.19992 0.67166 0.0084116 -0.46099 0.19014 -0.10803 0.21062 -0.2725 -0.17447 0.078438 -0.012155 -0.06507 0.14073 -0.064262 0.074153 0.48095 -0.24824 0.090125 0.28469 -0.27453 0.076013 -0.25925 0.53851 -0.017759 -0.56829 -0.16542 -0.065585 -0.11002 -0.2301 -0.089517 0.039184 -0.53596 -0.40853 0.18449 -0.36413 -0.31984 0.15432 0.21532 0.30751 -0.087025 0.034583 0.29973 0.0020702 0.149 0.085966 0.04652 -0.11884 -0.19095 -0.18969 -0.11064 0.028607 0.026202 0.15847 0.29887 
črtalo_za_ustnica 0.03347 0.25346 -0.19318 -0.46884 0.16852 -0.065999 -0.28808 -0.071078 -0.47159 0.30562 -0.78019 0.23615 0.19524 1.3553 -0.4222 0.10079 0.49451 0.44795 0.36631 0.96936 -0.099852 -0.34405 -0.20469 0.4908 0.25307 -0.26943 0.00080617 -0.075132 0.38811 0.64774 0.12658 -0.30403 -0.30447 -0.18365 0.24861 -0.27454 0.37709 0.13098 -0.23318 -0.21683 -0.59223 -0.56059 0.30383 0.22703 -0.23221 -0.10752 0.30018 0.32157 -0.32589 -0.77209 0.043884 0.26684 -0.11264 -0.58267 -0.43709 -0.044121 -0.7207 0.40073 1.0927 -0.29469 -0.11263 0.09301 -0.57312 0.41573 0.41324 -0.5593 -0.2 -0.096013 0.25418 -0.53479 -0.61509 0.0017575 -0.09017 -0.55876 -0.5072 0.063645 -0.43602 -0.047996 -0.09072 -0.27052 0.18453 -0.26459 0.7341 -0.15789 -0.047789 0.031328 0.12041 0.081862 -0.38264 -0.086014 0.65619 -0.1251 0.16838 -0.038011 0.53571 -0.0066229 0.15426 -0.50217 0.0057101 0.19611 
dolg_do_država -0.45332 0.5272 -0.15451 0.75911 -0.32239 -0.11369 0.27737 0.15093 0.094096 0.29322 0.024954 0.12889 0.35447 0.008921 -0.28755 -0.033856 -0.24885 -0.37534 -0.21618 0.59986 0.3028 0.20696 -0.84234 0.40696 -0.47343 0.25177 -0.088748 -0.51088 0.014566 -0.19509 0.11907 0.010162 -0.26522 -0.016231 -0.096897 0.011855 -0.11589 -0.094823 0.12875 -0.44601 -0.34445 0.19373 0.80589 -0.011959 0.28775 -0.2091 -0.031359 -0.046025 0.04152 0.22626 0.058034 0.23417 -0.33121 -0.40028 -0.03711 0.20394 0.055339 0.48944 0.066169 -0.098233 0.074765 0.69413 -0.019105 0.12011 0.39407 -0.34275 -0.2639 -0.094045 0.51537 0.11519 -0.58988 0.34364 0.12657 0.13612 0.076566 -0.078178 -0.04307 0.13804 0.35221 -0.32755 -0.23832 0.035462 -0.20513 0.36812 0.40238 -0.044881 0.18234 0.037407 -0.040859 0.10655 0.12347 0.25853 0.026311 -0.66661 -0.13024 -0.22762 -0.088765 0.17105 0.26009 -0.019726 
kar_se_že 0.20686 0.29 -0.36123 0.54489 0.099583 -0.10647 0.12573 -0.13688 -0.076393 0.23222 0.10709 0.068637 0.055036 0.10573 -0.11336 0.074386 -0.14512 -0.37272 0.22011 0.38886 0.22908 0.080249 -0.29332 0.26328 -0.18199 -0.093227 -0.2199 0.13148 0.091012 0.2073 0.11801 -0.31977 -0.13965 -0.10295 0.11011 0.31921 -0.053683 0.082929 -0.08316 -0.17483 -0.19094 0.00012746 0.52276 -0.19064 0.25424 -0.077543 -0.07016 -0.07953 -0.088815 -0.42389 -0.004746 0.015799 -0.10742 -0.30066 0.026393 0.2418 0.046675 0.19115 0.21194 -0.30298 0.017153 0.45519 -0.066032 0.17509 0.30352 -0.18409 0.02559 -0.27025 0.45896 0.069807 -0.37673 -0.11499 -0.072727 -0.19912 0.1387 0.091054 0.023897 -0.282 -0.15279 -0.0090078 -0.11357 -0.1015 0.057499 -0.0020661 0.079281 0.018875 0.14316 0.18241 -0.18588 0.018471 0.24129 0.030371 -0.20868 -0.27899 -0.21315 -0.079688 0.12474 -0.47373 -0.22545 0.080685 
kar_priti 0.13257 0.32328 0.19456 0.46484 0.5071 0.17532 0.038027 0.2301 -0.09089 0.5278 -0.057535 0.76746 0.52182 0.47119 -0.3988 0.40568 0.18571 -0.02013 0.41211 0.74432 0.16821 0.0086375 -0.025785 -0.12447 -0.047506 0.3804 -0.081741 0.32432 0.037194 0.21166 0.11101 -0.56545 -0.16264 -0.28513 0.63365 0.16391 0.072904 0.19886 -0.6293 -0.11682 -0.27107 0.21028 0.21566 -0.040393 -0.20207 0.2578 -0.10624 0.29465 -0.48553 -0.33396 0.24031 -0.052934 0.19579 -0.069036 0.49389 0.29601 0.56988 0.28974 0.52884 -0.91811 -0.0099557 0.38734 -0.16258 0.37263 0.38605 -0.58889 -0.60237 -0.6455 0.27828 -0.15725 -0.59689 0.37149 -0.49567 -0.10828 0.18832 0.019082 -0.21013 -0.67361 -0.12243 0.059714 0.074982 -0.4639 -0.26578 -0.1072 0.25093 -0.11884 0.11349 -0.016964 -0.47401 -0.31988 0.10158 -0.037054 -0.16725 -0.1873 0.052827 -0.010315 -0.3061 -0.45283 0.36965 0.33548 
uporabljati_biti_tudi 0.33724 0.86156 0.030865 0.019947 0.70043 0.13578 0.054068 -0.41002 -0.30809 0.053133 -0.12042 0.71717 0.31003 0.10984 -0.40034 0.23681 0.18294 0.091111 -0.19398 0.17183 0.40708 0.24017 -0.35133 0.44656 -0.012167 0.47274 0.44918 -0.26354 -0.054633 0.13106 0.086271 -0.48194 -0.098701 -0.28341 0.30976 0.31813 -0.0048205 -0.14597 0.011453 -0.049355 -0.24715 0.16127 0.33018 -0.052273 -0.18477 0.12913 0.36849 0.46212 -0.29607 -0.49916 0.33365 0.10281 -0.22025 -0.18836 -0.045158 0.36134 -0.013404 0.25102 0.20466 -0.46183 -0.30215 0.37516 0.02876 0.61742 0.54638 -0.55848 -0.10115 -0.27202 0.20377 -0.025228 -0.026822 0.37239 -0.12717 0.03233 -0.29119 -0.081297 0.061083 -0.37532 -0.01326 0.0028029 0.035475 0.14326 0.046802 -0.080504 -0.087516 -0.11477 -0.17865 0.30411 -0.52374 -0.14369 0.33839 -0.083524 0.21321 -0.26252 0.1147 0.43811 -0.21814 -0.1026 0.32876 0.041469 
stanje_sanirati -0.083443 0.45667 -0.28225 1.0013 0.36223 -0.30768 0.32313 -0.083395 -0.40835 0.17441 0.27856 0.22509 0.36047 0.023443 -0.10408 0.090966 -0.50274 0.15391 0.01539 0.61903 0.52021 0.70899 -0.68285 0.51683 0.25192 0.20771 0.32712 -0.042313 -0.34605 0.28368 0.47131 -0.45717 -0.10955 -0.54736 0.096871 0.16806 0.32391 0.25112 -0.14351 -0.12997 -0.23496 0.47258 0.37927 -0.32576 0.43419 -0.053067 -0.040846 0.28206 0.11614 -0.44663 0.066128 -0.24868 -0.27066 -0.21565 0.46509 0.64095 -0.051557 0.077682 0.10578 -0.28847 -0.086231 0.19684 -0.1462 -0.022081 0.22631 0.17437 -0.34867 -0.19459 0.78224 0.32524 -0.17692 0.29051 -0.026995 -0.51263 0.016184 0.23846 0.18986 -0.60627 0.56169 -0.21532 -0.21045 -0.56087 0.021112 0.12956 -0.075543 -0.37873 0.16716 0.13334 -0.29389 0.21698 0.13705 -0.093103 0.33744 -0.18284 -0.36193 0.031564 0.17754 -0.33275 -0.14417 0.20757 
rod_vojska -0.40007 1.0704 -0.12395 0.83613 0.883 -0.67701 -0.33996 0.45304 -0.34843 -0.089022 0.11422 0.3101 -0.023757 -0.10455 -0.54823 0.01525 0.1158 -0.01931 0.28907 0.42687 0.48882 -0.011189 -0.22451 0.055282 -0.2757 0.15551 -0.25489 0.12396 -0.55573 0.31201 -0.28958 -0.33447 0.20945 -0.13723 0.17332 -0.21302 0.51942 -0.053975 -0.13927 0.093839 -0.24288 -0.47855 0.47621 -0.14374 0.24137 0.77894 -0.041738 0.41786 -0.093985 -0.38199 0.18897 0.14157 -0.77908 0.77667 -0.74948 0.37616 0.38681 0.74097 -0.37778 -0.080884 -0.36582 0.53393 -0.10934 0.04766 0.8277 0.42774 -0.040996 -0.084831 -0.1707 0.13035 0.19101 0.20398 0.2837 0.84169 -0.14795 0.49251 -0.73499 -0.21799 -0.68439 -0.57756 -0.1559 -0.31128 0.13514 0.091468 -0.0063444 -0.15773 -0.11594 0.088794 -0.18111 -0.33481 0.0081045 0.19024 0.21117 -0.38445 -0.50323 -0.24435 -0.24328 0.31534 0.37996 0.4831 
na_svoj_razstaven -0.20607 0.47766 0.41129 -0.34986 0.5619 0.31926 -0.054233 0.023737 -0.73112 0.26679 -0.18105 0.13975 0.15193 0.065097 -0.29092 0.33175 -0.2197 -0.69219 0.41313 0.1356 0.071611 0.12034 0.033022 0.21033 -0.67856 0.23976 0.43382 0.056268 -0.24016 0.33099 0.3553 -0.00030817 0.37112 -0.43489 -0.7469 1.0828 0.0326 0.14812 0.13104 0.0072501 -0.12974 0.032641 0.52243 0.12629 0.29624 -0.20554 0.13158 0.34336 -0.34457 -0.59561 0.083023 -0.21333 -0.35476 -0.21585 -0.067527 0.10931 0.027812 0.55116 0.36958 -0.069612 -0.016932 0.82218 -0.73219 0.38408 0.48042 -0.33398 -0.091635 -0.046048 0.26011 0.063549 -0.44725 0.38046 -0.052166 -0.46502 -0.35194 0.080237 0.55303 -0.23191 -0.30746 -0.14696 -0.13158 0.089417 0.20654 -0.14974 0.022003 -0.30445 0.19204 0.48807 -0.38873 0.39921 0.26209 0.19228 0.077091 -0.35095 0.13048 -0.27011 0.0048373 -0.56056 0.42437 0.12465 
na_ponedeljkov_skupščina -0.16944 0.14537 0.27673 0.19207 -0.67394 -0.31956 0.037389 0.27657 -0.34226 0.19672 0.28365 -0.38845 0.46662 0.097669 0.40507 0.61164 -0.61878 -0.58327 -0.046323 0.86161 0.031671 0.41688 0.028312 0.13477 -0.59776 0.42942 0.5776 -0.3976 -0.62937 -0.078726 0.3483 -0.17246 0.018276 -0.19029 -0.44903 0.014873 -0.056214 0.34976 0.40293 0.079801 0.18655 -0.050847 0.64057 -0.28797 0.22965 0.29943 0.016787 0.010704 -0.086622 -0.39694 -0.26754 0.31511 -0.16942 0.16561 -0.052789 0.45514 -0.78654 0.31063 0.55131 -0.085094 -0.036571 0.31697 0.092444 0.52947 -0.15265 -0.16246 0.054746 -0.20677 0.90785 -0.27563 -0.579 0.2711 -0.3155 0.0021402 0.46936 -0.10562 -0.17797 -0.24079 0.30589 -0.13392 0.34557 -0.86832 0.26355 0.091726 0.075533 0.030649 -0.12004 -0.37015 -0.20123 0.034308 0.36216 0.23129 0.11284 -0.30708 -0.39976 0.31515 -0.13655 0.082335 0.024541 -0.12543 
ugotoviti_biti 0.26499 0.9112 0.024414 0.45429 0.56014 0.1163 0.42422 -0.49556 -0.45133 0.117 0.29334 0.76274 -0.073845 0.339 -0.15298 0.49845 0.13106 0.52242 -0.35161 0.32257 0.062955 0.60972 -0.022518 0.051872 -0.017426 0.53018 -0.051968 -0.30118 -0.033822 0.1048 0.15729 -0.43654 -0.012039 -0.008959 0.55277 0.13244 0.44836 0.11471 -0.11185 0.16033 -0.42168 0.27601 -0.086294 0.0064948 0.017033 0.14849 0.4603 0.64615 -0.1659 -0.46801 0.28851 -0.026261 -0.22947 -0.17893 0.080471 0.09119 0.32456 -0.024283 -0.069768 -0.41129 -0.30492 0.20111 0.0030808 0.51529 0.39694 -0.80725 -0.067381 -0.3864 0.24719 0.084752 -0.33564 0.53908 -0.34449 0.018354 -0.19214 -0.010358 -0.0043193 -0.49159 0.21271 -0.27343 0.26953 -0.5546 0.044492 -0.093553 -0.37074 -0.18912 -0.11768 0.48141 -0.56548 -0.35054 0.26331 -0.44622 0.08328 -0.3973 -0.044756 0.80145 -0.38309 0.016457 0.16167 -0.30767 
ves_verjetnost_se 0.18823 0.32884 -0.21482 0.22326 -0.49222 0.044196 -0.056584 0.035799 -0.13087 -0.078509 -0.12695 0.1083 0.21628 0.41338 -0.2809 0.49181 0.017436 -0.21533 0.20711 0.41093 0.40033 0.59693 -0.29644 0.016151 -0.27914 0.28736 0.37403 0.32894 -0.4842 0.12166 -0.023056 -0.13523 -0.13173 -0.29134 0.0063036 -0.047018 0.20267 0.14266 -0.19077 -0.17445 0.24444 0.085305 0.20667 -0.02759 0.12561 0.020017 0.13353 0.17547 -0.06393 -0.47203 0.33137 -0.029146 -0.087776 -0.26439 0.19066 -0.13729 -0.20379 -0.089454 0.38501 -0.30137 -0.02978 0.40838 0.18571 0.21794 0.44008 -0.52508 -0.23476 -0.24485 0.35308 -0.028726 -0.4148 0.44656 -0.19233 -0.46727 -0.039327 -0.049438 -0.13874 0.14855 -0.027824 -0.048567 0.029113 -0.16488 0.07359 -0.41719 0.13611 -0.11583 0.086671 0.14831 -0.013643 -0.098452 0.22556 0.13458 -0.21679 -0.29043 -0.25025 0.24948 0.037885 -0.15203 -0.015931 0.073949 
mejen_prehod_ki -0.25199 0.88532 0.50003 0.65442 0.020863 -0.081579 0.35626 0.31109 -0.0026956 -0.12261 0.19821 0.80343 0.67302 -0.45593 -0.3519 0.057826 -0.20003 -0.20694 -0.2285 0.37016 0.27444 0.22903 -0.96204 -0.23604 -0.82273 0.30162 0.47987 0.36109 0.10539 0.12805 0.63645 -0.30005 -0.251 -0.56063 -0.41461 0.3998 0.60003 0.30011 -0.19368 0.24633 -0.045527 0.53581 0.35837 -0.33116 0.24491 0.073416 0.2482 0.18595 0.36402 0.12043 0.09369 0.05708 -0.74277 -0.51227 0.6132 0.39237 0.46318 0.78713 0.21163 -0.19738 -0.091384 0.6404 0.024159 0.040186 0.37679 -0.22805 -0.011586 -0.39253 0.00038561 -0.01073 -0.27859 0.13257 -0.17446 -0.059346 -0.63122 -0.0016869 -0.35364 -0.016801 0.31137 0.23337 -0.10595 -0.20142 0.51856 0.098286 -0.1444 -0.17657 0.45226 0.64996 -0.082668 -0.15737 0.32355 0.65317 -0.36608 -0.58534 -0.46614 -0.49225 0.031957 -0.32241 0.62147 0.037177 
ves_ta_primer -0.18718 0.30366 -0.21382 0.79869 0.64561 -0.1302 -0.04363 0.16324 -0.11075 0.055167 -0.34229 0.42325 0.44068 0.098838 -0.3788 0.44564 -0.11945 -0.10364 0.16623 0.3322 0.54356 0.42688 -0.7344 0.39602 -0.055204 0.34175 0.42419 0.14653 0.15744 -0.0043046 0.20497 -0.20945 0.008642 -0.31077 0.12754 0.32754 0.10899 0.1435 -0.24371 -0.2883 -0.049705 0.27011 0.36191 -0.13671 0.077136 -0.010807 0.16964 0.26962 -0.10142 -0.3933 0.06433 0.030573 0.12672 -0.16862 -0.01799 0.28927 0.050025 0.22079 0.41986 -0.77368 -0.19754 0.43964 0.016143 0.14244 0.41332 -0.53949 -0.24376 -0.26669 0.48727 0.0072595 -0.49855 0.46177 -0.009807 -0.15094 -0.046924 0.068506 0.1469 -0.29351 -0.10054 -0.079381 -0.17877 -0.0044543 -0.10695 -0.18648 0.31252 -0.17881 0.20131 0.19486 -0.3019 0.21921 0.28059 0.045843 -0.22051 -0.5318 -0.046955 0.089336 0.022874 -0.63339 0.038428 0.21099 
ki_štrleti_iz 0.34082 0.65732 0.11749 0.25994 0.56378 0.21578 -0.35415 0.15875 -0.25793 0.11093 -0.58469 0.32611 0.68067 0.53798 -0.24072 0.28343 0.17969 0.43819 -0.29154 0.70001 0.31151 0.043638 -0.19132 0.14483 -0.16999 0.30498 -0.13423 -0.044003 0.32184 0.13654 0.077455 -0.064028 0.40156 -0.12673 -0.22896 -0.044539 0.19431 0.21706 -0.29292 -0.79514 -0.15268 0.14718 0.70102 -0.10597 -0.13021 -0.13021 0.038459 0.59702 0.32199 -0.44372 0.27415 -0.10412 0.67885 -0.28991 0.27132 -0.12567 0.064857 0.14264 0.35175 -0.81659 0.12109 0.94947 0.12924 0.68497 0.67456 -0.6804 -0.042497 -0.4303 -0.031233 0.21048 -0.50721 0.20335 -0.19579 -0.34986 0.21592 -0.37261 -0.60851 -0.061947 -0.1433 -0.15609 0.20004 0.24292 0.1366 0.27664 0.1773 -0.36917 0.082208 0.3506 -0.30068 -0.25547 0.25664 -0.28755 -0.077912 -0.60583 0.38548 -0.089756 0.047032 -0.28486 0.42398 0.06881 
pokojnina_z_plača -0.82077 0.20603 -0.30079 1.7269 -0.23637 -0.33135 -0.22462 0.17582 0.18572 0.13483 0.046339 0.45046 -0.40825 -0.53687 -0.96098 0.25298 -0.28678 -0.30687 -0.64047 0.091624 1.0233 0.38252 0.39339 0.63647 -0.46495 0.18176 0.14328 -0.56064 -1.0584 0.21149 -0.090746 -0.44544 -0.19774 -0.14745 0.25047 -0.21486 0.1106 0.63542 0.0085809 -0.48645 -0.32741 -0.67429 0.99494 -0.24062 -0.29157 -0.1237 -0.062067 0.13158 0.45641 -0.096324 0.47206 0.27681 -0.41322 -0.18798 -0.33088 0.0052345 0.25901 -0.25367 -0.70989 0.12995 -0.36888 -0.26786 -0.81939 0.16794 -0.028161 0.24102 0.08401 -0.46137 1.3448 0.53368 -0.62711 0.14676 0.44728 -0.75664 0.35133 -0.30616 -0.45169 0.85028 -0.95761 0.019131 -0.29641 -0.3472 -0.12378 0.90644 0.37528 -0.007541 0.43386 -0.51967 -0.2377 -0.70062 -0.29691 0.21767 -0.099735 -0.87066 0.0037135 0.47256 0.40218 0.20733 0.059216 0.45044 
dva_iz 0.078533 0.48791 1.2202 -0.3254 0.24324 0.64023 0.10503 -0.54491 -0.82311 0.22249 0.12413 0.19941 0.23646 -0.12144 -0.61545 0.33395 -1.0632 -0.29124 -0.40465 0.7779 0.20688 0.012861 0.2495 0.56452 -0.083887 0.41521 0.74053 -0.27937 -0.58889 -0.34128 0.42532 -0.38815 0.021541 -0.35763 -0.60091 0.35354 -0.024763 -0.33898 -0.29841 -0.22675 0.36568 -0.31881 0.29574 -0.11901 -0.19406 0.44597 0.033855 0.55991 -0.22855 -0.20798 0.24594 -0.1018 -0.58463 -0.20111 -0.60088 0.56293 -0.026944 0.087571 0.84862 -0.13221 0.26994 0.11042 0.21494 0.10387 0.41943 -0.69474 -0.8318 -0.21033 -0.49602 -0.63003 -0.22136 -0.36318 0.0041404 -0.1896 -0.41772 0.0050874 -0.14923 0.091198 -0.51048 -0.19388 -0.37742 0.26415 0.36754 -0.0049977 0.40925 -0.10852 -0.69672 0.065509 -0.27761 -0.61577 0.014642 -0.23652 -0.044605 -0.83141 -0.37789 0.31964 0.23361 -0.33671 -0.052894 0.76272 
želeti_biti_le 0.56893 0.39667 -0.093835 0.52154 0.39478 -0.11574 0.27426 -0.33775 -0.36463 0.27189 0.35042 0.72861 0.11855 0.40193 -0.24813 0.32481 0.29602 0.01341 0.32808 0.40177 -0.10295 0.14984 0.18998 0.30854 -0.092093 0.3573 -0.21853 -0.17581 -0.2162 0.1256 0.31142 -0.53245 -0.19684 -0.24137 0.27933 0.43172 0.11433 0.0039086 0.014191 0.018324 -0.19773 -0.042489 0.27246 0.094603 0.07923 0.12924 0.2487 0.18861 -0.13296 -0.74498 0.030988 0.12414 0.25822 -0.21516 0.1208 0.11632 0.14433 0.17305 -0.061314 -0.23617 -0.20143 0.27236 -0.03942 0.50883 0.089443 -0.74163 -0.19139 -0.43103 0.45475 0.226 -0.34979 0.20619 -0.40895 0.0827 0.13671 0.23251 0.38532 -0.40338 -0.23471 -0.11785 0.19547 -0.32063 -0.23882 -0.09214 0.08155 0.23888 -0.10524 0.43246 -0.46818 -0.53713 0.53803 0.0026323 -0.34777 -0.41783 0.31097 0.52209 0.063116 -0.18776 0.21628 -0.32085 
navodilo_iz -0.43721 -0.048746 0.31042 -0.30892 0.52864 0.32081 -0.55456 -0.24548 -0.26054 0.17409 0.11219 0.75362 0.37556 0.52474 0.088207 0.19618 0.45059 0.39784 -0.55381 0.87401 0.45531 0.84881 -0.45995 0.59894 0.20957 0.59787 0.097693 -0.22718 -0.030139 -0.1483 0.023776 -0.37911 0.00713 0.16292 -0.4997 -0.3245 -0.068169 0.60985 -0.32305 -0.32923 0.40127 -0.14727 0.44202 0.3017 -0.16088 0.22409 0.041236 0.64964 -0.071957 0.12485 0.46593 0.11422 -0.44152 -0.61208 -0.24589 0.62511 -0.46937 0.18182 0.26064 0.064668 0.077841 -0.15656 -0.32164 0.3236 0.27544 -0.88354 -0.50671 -0.37974 -0.59331 -0.35933 -0.63991 0.61505 -0.044943 0.13445 -0.53436 -0.13965 -0.22677 -0.60684 0.3911 0.36795 0.2861 -0.37308 0.4056 -0.31962 -0.16092 -0.28244 -0.15852 0.19615 -0.25375 -0.22941 -0.11268 -0.081708 1.0281 -0.45672 0.15069 -0.15149 -0.11085 -0.12641 0.34153 0.55195 
rojstvo_otrok -0.50154 0.65294 -0.9217 0.33559 0.018399 -0.031 -0.29943 -0.29602 -0.47868 0.12173 -0.62879 -0.37629 -0.38299 0.18586 -0.5048 0.14804 -0.35464 0.15098 0.25831 -0.29908 0.68137 0.52809 0.29664 0.48339 -0.15227 -0.16822 -0.48754 0.18354 -0.45888 0.073468 -0.44007 -0.55669 0.05769 -0.2173 0.46109 -0.60137 0.16674 0.73865 0.31818 -0.0010961 -0.5518 -0.27392 0.71133 0.37013 0.22902 0.28727 -0.067887 0.44655 -0.28819 -0.21468 0.34931 0.09207 -0.24956 -0.54046 -0.16981 -0.29595 -0.35302 0.066374 -0.11568 0.047036 -0.013986 0.29562 -0.34995 0.84665 0.72682 -0.29337 -0.043369 -0.014503 0.29063 0.81096 0.1828 0.66458 0.074064 -0.60743 -0.17678 0.196 0.6041 0.0034898 -0.49312 -0.011316 -0.46883 -0.35747 0.083394 -0.1115 -0.16246 -0.43928 0.33467 0.43812 0.092121 -0.19023 -0.11594 0.037772 0.31666 -0.29965 0.43667 0.046822 -0.059348 -0.34666 -0.0087801 0.27534 
tudi_antibiotik 0.3822 0.6619 -0.77601 0.1442 0.20139 0.17426 -0.306 -0.063699 -0.18207 -0.041577 -0.28855 -0.048894 -0.062063 -0.23009 -0.12268 -0.32858 0.21484 0.58943 -0.21868 0.85775 0.46464 1.0726 -0.40373 0.097483 0.68197 0.71924 -0.24445 0.38145 0.55693 0.13912 0.14702 -0.83514 0.13733 -0.41692 0.03544 0.064896 -0.0613 0.604 -0.2107 0.14373 -0.3909 0.24769 0.74906 -0.081561 -0.13155 0.5487 0.16913 0.2295 -0.20284 -0.63504 0.35408 0.13106 0.30155 -0.76392 0.045011 0.3279 -0.65076 0.18369 0.75113 -0.23209 -0.41832 0.49969 0.32819 0.83109 0.41483 -0.14597 0.10149 -0.2476 0.68416 0.13754 -0.55839 0.87297 0.053429 -0.36837 0.11278 -0.25292 -0.37757 -0.008123 -0.016526 0.099731 0.18214 -0.2298 0.32329 -0.37846 -0.15778 -0.13643 0.15486 0.12474 -0.023408 0.051875 0.47776 -0.36961 0.59774 0.14821 -0.39474 0.085654 -0.57211 -0.00060567 -0.10671 0.65728 
za_splošen_razprava -0.44556 -0.048524 0.34645 0.6076 0.56876 -0.14053 0.022487 0.36469 -0.67597 0.24102 -0.24403 0.37088 -0.17656 0.085651 -0.32838 0.3827 -0.088851 0.23342 -0.42922 1.2731 0.56549 0.81436 -0.23814 0.82161 -0.079534 0.012964 0.50327 -0.087522 -0.21915 0.22805 0.7832 -0.15019 0.21649 -0.10682 -0.41197 0.49001 0.19417 0.25083 0.012155 -0.3505 -0.022113 -0.076832 0.49512 0.04103 0.20503 0.42826 0.1274 0.017319 0.25318 -0.1939 -0.43395 0.025842 -0.50885 0.10214 -0.09185 0.81269 0.24538 0.27498 0.2941 -0.056289 -0.0092156 0.19179 0.097129 0.058721 -0.15852 -0.081692 -0.46158 -0.18765 0.45464 0.16219 -0.094801 0.43495 -0.21589 -0.17191 -0.41988 -0.019559 -0.26465 -0.60633 0.014133 0.1049 -0.24798 0.049121 -0.55475 0.093604 0.34209 -0.37614 -0.11454 -0.41414 -0.67136 -0.1544 0.39631 0.29276 0.068073 -0.25564 -0.21861 0.42161 -0.32359 -0.2082 -0.22635 0.19766 
vinogradništvo_in_vinarstvo 0.42841 0.87879 0.48728 -0.026027 0.51151 -0.11079 0.16129 -0.50146 -0.095665 0.39844 0.71331 -0.12695 -0.37761 0.19911 0.4867 0.094532 -0.66102 -0.61847 -0.6088 0.71635 0.22026 -0.15493 -0.55141 0.50288 -0.066925 0.27146 0.65554 -0.68353 -0.45608 0.28445 0.51892 -0.45123 0.26057 -0.3798 -0.98538 0.79983 0.0041803 0.54931 0.48361 -0.087584 -0.28519 -0.22946 0.97021 0.22675 0.30232 -0.68787 0.092033 0.28259 -0.066662 -0.61439 0.64023 -0.20682 -0.24388 -0.25896 -0.0017206 1.2352 0.00090729 0.45439 0.19143 0.20586 -0.084641 0.7145 -0.63546 -0.28992 0.24124 0.15439 -0.27889 -0.35348 0.55728 -0.037338 0.1489 0.073004 -0.11863 -0.31667 0.23674 -0.43577 0.13575 -0.21103 -0.16533 -0.19598 0.15184 0.72261 -0.10947 0.66819 -0.34005 0.1344 -0.099438 0.35078 -0.48246 0.19185 0.11501 -0.44754 0.12996 -0.041831 -0.76466 -0.18368 0.014523 -0.2453 0.13804 -0.10142 
toploten_izolacija 0.094426 0.80358 -0.20247 0.20556 0.49852 0.18924 0.16675 -0.64974 -0.0069267 -0.57368 -0.61386 0.48062 0.32964 0.30488 -0.21704 0.076815 -0.49554 -0.39918 0.086277 0.34995 0.65063 0.51292 -1.0451 0.78738 0.3279 0.41132 -0.084938 0.72748 1.1418 0.034517 0.11621 -0.69194 -0.46569 0.22651 -1.2201 0.25939 -0.38122 -0.85184 0.19516 -0.5318 -0.57753 0.21149 0.43114 -0.21392 -0.30716 -0.3593 0.50721 0.64251 -0.18093 -0.64201 0.51781 0.096015 0.045844 -0.66855 -0.28659 0.65193 -0.33387 0.87683 -0.36693 -0.52514 0.075638 0.37635 -0.44217 -0.17364 0.90233 0.24039 -0.9439 0.4386 0.84785 -0.32913 -0.59982 0.60717 -0.20533 -0.52475 -0.71139 0.17982 -0.14476 0.044604 0.93214 -0.12217 0.67436 0.28259 0.69072 -0.082944 -0.52294 0.507 0.56358 0.23321 -0.32793 -0.22182 0.25642 -0.076291 0.39619 -0.54005 -0.84522 0.14984 0.039376 -0.41362 -0.057433 0.6231 
z_alergija 0.14638 0.83999 -1.3483 -0.77781 0.79507 -0.24551 -0.38404 -0.13256 0.46812 0.15951 -0.3167 -0.041755 0.4855 0.60543 -0.32392 -0.16441 0.23858 0.22435 -0.50373 0.53164 0.54998 0.44729 -0.10965 -0.037047 0.69105 0.11864 -0.060956 0.72718 0.13079 0.33168 -0.64703 -0.68185 -0.038902 -0.12004 0.22688 -0.10584 0.016807 0.080468 0.2434 0.33018 -0.48112 0.1361 1.2489 -0.16817 0.14674 -0.36511 0.1958 0.35432 -0.63538 -0.61395 0.7882 0.65837 -0.26398 -0.76724 -0.035185 0.6978 -0.73392 0.26364 0.38307 -0.33315 -0.91685 0.99766 0.10955 0.38699 0.67338 -0.065764 0.048602 0.1263 1.3577 0.19047 -0.10205 0.87446 -0.093588 -0.64753 -0.46937 0.37257 -0.20439 -0.2905 0.38337 0.083969 0.093317 0.019777 0.36705 0.0085493 -0.25329 -0.71567 0.96106 -0.30697 0.053681 -0.37449 0.35726 -0.30923 0.82841 0.30945 0.062595 0.17301 -0.18939 -0.30796 -0.48845 0.46063 
datum_ulov -0.28466 -0.35875 0.51154 -0.7629 -0.21581 1.0162 -0.043578 0.47302 -0.24788 0.078047 -0.2775 -0.015324 0.7329 0.75972 0.041788 -0.49416 -0.73966 0.049193 -0.15897 1.1321 0.45867 0.32543 -0.080462 0.47667 -0.42046 0.14447 -0.73583 -0.6072 -0.52472 0.51981 -0.16498 -0.67075 -0.10123 -0.29034 -0.37909 -0.56621 -0.33078 -0.42481 -0.13168 0.2537 0.0293 0.087349 1.0579 0.14835 -0.99524 0.36841 0.10605 0.50757 -0.21142 -0.36141 0.37686 0.29054 -1.5502 -0.84074 -0.059734 0.52606 -0.46586 0.89273 0.44527 0.33817 0.29484 1.0984 -0.69244 0.058632 0.22693 -0.45519 -0.47661 0.026035 0.37063 -0.461 -0.29034 -0.067179 0.11072 -0.081583 -0.043856 -0.33479 0.1072 -0.65928 0.30289 0.13759 0.44117 0.43309 0.67856 0.31521 -0.7297 -0.73176 -0.051725 0.31789 -0.33036 -0.8484 0.155 -0.41659 0.29308 -0.26806 -0.34399 0.48952 -0.65799 -0.47057 0.43815 0.14314 
izpiten_pola_2 -0.19978 0.66025 -0.071802 0.16411 -0.35523 0.70045 -0.11685 -1.439 -1.2426 0.91666 0.12962 0.44643 0.092041 0.72006 -0.76326 0.71562 -0.029197 0.53221 0.56663 1.1277 0.2224 1.2474 -0.36364 1.5461 -0.023472 0.037116 0.45397 -0.13113 -0.87312 -0.44852 0.35082 -0.33639 1.3614 -0.37514 -0.945 0.19473 0.32297 0.12711 -0.47869 -0.18696 0.25392 -0.5521 1.2758 1.3412 -0.63096 0.40026 0.18345 -0.012211 -0.19227 0.017959 1.0692 0.86515 -0.46944 -0.13902 -0.8837 0.99288 0.027626 0.57192 0.030699 0.44836 -0.25247 -0.11913 -1.1418 0.39115 0.11192 0.21655 -1.1676 0.11554 0.75384 0.38045 0.31405 0.99331 -0.19907 0.0189 -1.327 -0.17114 -0.36411 -1.344 0.099176 -0.32434 -0.32156 0.32989 0.10367 -0.06383 -0.18351 -0.076971 -0.44425 0.059496 -0.73025 0.019092 -0.23645 -0.35453 0.022953 -0.39297 -0.013445 0.71636 -0.59805 -0.36304 0.67123 1.0234 
zakaj_imeti_ves 0.22941 -0.024813 -0.0087674 0.72489 0.27045 -0.44975 0.33645 0.60791 -0.38144 0.30149 -0.37569 0.6851 0.3424 0.43457 -0.12988 0.73733 0.24678 -0.46463 0.041918 0.6625 0.35679 0.51143 -0.082606 0.39091 -0.19445 0.18046 -0.32348 -0.1322 -0.21399 0.31397 0.13507 -0.60865 -0.25865 -0.1366 0.22254 -0.060951 0.30777 0.30932 -0.078504 -0.33277 -0.19447 0.12418 0.51912 -0.11993 -0.041045 0.15856 -0.31355 0.15913 -0.23111 -0.72922 -0.25198 -0.033 0.26624 -0.12109 -0.08758 0.40648 0.018467 0.26732 0.064479 -0.24316 -0.059412 0.35917 -0.34452 0.081552 0.47829 -0.49455 -0.63204 -0.36289 0.09184 -0.096073 -0.44556 -0.0057621 -0.13874 -0.3506 -0.0082137 0.010862 0.52403 -0.54734 0.2495 0.29492 0.056672 0.054266 0.24461 0.12931 0.1315 -0.081237 0.48199 0.17708 -0.0014694 -0.05411 0.064924 -0.14429 -0.41867 -0.28159 0.093841 -0.18003 -0.093791 -0.26797 -0.057 0.39283 
prenehanje_veljavnost -0.98469 0.54065 0.23326 1.18 0.067731 0.64772 -0.072648 -0.37399 -0.59558 0.48278 -0.092062 -0.10006 0.35499 -0.22294 -0.6484 0.58072 -0.97805 1.1614 -0.33372 0.94662 0.73181 1.3501 -0.95169 0.94938 -0.57769 0.32048 0.50459 -0.18717 -0.71721 0.056552 0.087262 -0.3567 0.21566 -0.33737 0.30335 -0.78588 0.42947 0.57569 0.34739 0.093543 0.38437 0.068649 1.1543 0.56363 -0.089629 0.49628 0.33431 -0.067207 0.29131 0.14238 0.74145 0.31182 -1.0984 -0.38536 0.10804 0.029636 -0.39843 0.6268 0.00011527 -0.030023 0.0056136 -0.063888 -0.35503 0.46792 0.048043 -0.812 -0.063933 -0.44836 0.54301 0.1931 0.05125 0.50721 -0.18092 -0.20403 -1.1328 0.02076 0.30157 0.23745 0.49438 0.24003 0.041376 -0.48342 0.5677 0.46105 0.23518 -0.4967 0.43424 -0.052176 -0.32522 -0.46312 0.0040066 0.41323 0.26737 -0.75807 0.075799 -0.0063822 0.39507 -0.33473 -0.021781 0.42377 
poslanski_skupina_tudi -0.58382 -0.077745 0.41625 0.77386 0.70087 -0.15646 -0.17239 0.33243 -0.95814 -0.13223 -0.085859 0.30565 0.21803 -0.35026 -0.39771 0.29594 0.041874 -0.11355 0.0076851 0.91122 0.26941 0.44695 0.082721 0.77922 -0.18263 0.44191 0.6774 0.019709 -0.086398 0.32537 0.8202 -0.26402 0.16851 -0.38307 -0.42952 0.26243 0.36893 0.26099 -0.22391 -0.33584 0.12259 -0.064829 0.66945 -0.023537 0.32061 0.33507 -0.10751 -0.025032 0.51309 -0.74779 -0.57389 -0.027181 -0.05669 -0.18574 -0.049773 0.85716 0.0042297 0.10085 0.50187 0.057444 0.018381 0.15445 -0.15319 0.22848 0.068636 -0.3382 -0.13913 -0.48712 0.51809 -0.20019 -0.56542 0.18519 -0.40214 -0.40109 -0.22153 0.22161 -0.48651 -0.15999 0.073307 0.2934 -0.16716 -0.42727 -0.42062 0.12103 0.40859 -0.21761 0.044649 -0.3577 -0.28278 -0.21133 0.83812 0.38752 0.0064846 -0.44991 -0.31043 0.28141 -0.034542 -0.11156 -0.053904 0.33879 
kateri_že_imeti 0.083802 0.74274 -0.28862 0.054704 0.013004 -0.00039535 -0.16459 0.078326 -0.25278 0.30564 -0.073836 0.37876 0.43129 -0.12306 -0.12487 0.16781 -0.39379 -0.12455 0.21882 0.2881 0.29054 0.28201 -0.60805 0.085476 -0.28275 0.12953 0.22153 0.034427 -0.0021931 0.21595 0.285 -0.33122 -0.059675 -0.3452 -0.002109 0.15107 0.21503 0.24431 -0.079198 -0.041137 -0.11514 0.31166 0.36406 -0.003313 0.26857 0.037813 -0.16234 0.21539 -0.06775 -0.38298 0.11429 -0.048757 -0.12798 -0.15047 0.38541 0.14902 0.038142 0.33659 0.11468 -0.036511 0.057693 0.6639 -0.017954 0.49832 0.21136 -0.33645 -0.33782 -0.0035996 0.63509 0.19389 -0.25534 0.21517 0.032893 -0.21102 0.010878 0.12056 0.30642 -0.28386 -0.026054 0.042074 0.048742 -0.0068279 0.10012 0.17671 0.12085 -0.17576 0.12267 0.36879 -0.0008276 -0.014199 0.39473 0.33462 -0.17533 -0.46731 -0.17641 -0.17883 -0.090035 -0.52271 -0.043951 -0.046129 
se_lahko_pripraviti 0.32767 0.57558 0.18588 -0.35168 0.67032 0.13457 -0.13171 -0.25143 -0.43061 0.24266 -0.23618 0.56664 0.18623 -0.0080242 -0.1892 0.31398 0.31582 -0.13892 -0.097578 0.57516 0.33258 0.31043 -0.26865 0.60593 -0.15512 0.20421 0.35673 0.1474 -0.094254 -0.23865 0.51798 -0.53378 0.072979 -0.48465 -0.33679 0.22837 0.23002 0.33791 -0.27063 -0.30439 -0.16979 0.21435 0.64053 -0.0093799 -0.26521 0.098986 0.034417 -0.19127 -0.31294 -0.13715 0.11825 -0.17345 0.27401 -0.47504 0.49413 0.39572 -0.18549 0.554 0.32102 -0.31877 -0.16053 0.76469 -0.02304 0.66053 -0.09443 -0.47655 -0.10506 -0.16269 0.62931 -0.0013806 -0.23776 0.026553 0.058478 -0.37184 -0.099294 -0.052698 0.3191 -0.56574 0.092413 -0.00457 -0.054995 0.062189 0.11248 -0.059114 0.20335 -0.047152 -0.13799 0.32552 -0.33965 -0.12784 0.4666 0.21955 0.062472 -0.26355 -0.033938 0.10989 -0.083098 -0.27589 0.065792 -0.10548 
vsedanes_TV_dnevnik 0.63723 0.12199 0.50083 1.1787 0.53994 -1.2201 0.46927 0.16254 -1.6396 -0.29215 -0.090273 -0.82112 0.92978 0.71812 0.32708 0.15813 -0.0028669 0.70067 0.91283 1.7169 -0.21843 1.1648 -1.0121 -0.68327 -0.43215 0.25788 -0.31216 0.62716 -1.8395 1.0389 0.31274 -1.6055 -0.22807 0.052152 -0.98151 0.98595 -0.060141 1.2224 0.83741 0.062637 0.16591 -0.22571 1.0501 0.34906 -0.84728 -0.13352 -0.85171 -0.53178 -0.39245 -0.73348 0.47995 1.1952 -1.8596 -0.32232 -1.7104 0.99974 -0.40664 0.0054759 0.061583 1.396 0.065503 -0.37929 -0.94957 0.35824 0.60976 0.10045 -1.1876 0.33311 0.82408 1.087 -0.67539 -0.89978 -0.6446 0.52954 0.059719 -0.61935 0.47682 -0.50245 0.29342 0.22469 0.61604 0.05742 0.67044 -0.14929 -0.22527 0.25728 1.0417 -0.3237 -0.13692 0.88543 1.5838 -0.11406 -0.29266 0.1164 -0.31977 -0.60113 0.089673 0.28084 0.51141 1.2617 
drug_krog_pogajanje -0.20498 0.063703 0.50343 0.69869 -0.66914 -0.79853 -0.19507 0.49616 -0.2785 0.28305 0.38228 0.18633 0.50359 -0.21023 -0.23776 0.41632 -0.11314 -0.262 -0.18953 0.78974 0.67426 0.55937 -0.23312 -0.31897 -0.37101 -0.096471 0.20773 -0.020017 -0.82886 0.13542 0.54794 -0.46822 -0.57333 -0.2961 -0.73147 0.46111 0.24793 0.23746 0.084815 -0.052059 -0.01832 -0.082471 0.947 -0.15702 0.18339 0.13573 -0.31513 -0.16385 0.79167 0.37561 -0.18137 0.1545 -0.041453 -0.5413 0.28269 -0.072711 -0.61222 0.6335 -0.05554 -0.063998 -0.093482 0.24225 -0.012165 0.46942 -0.14083 -0.14226 0.28371 -0.37225 0.65987 -0.043567 -0.40342 -0.073732 0.20942 -0.20463 -0.41079 0.35157 -0.43923 -0.22675 0.60478 -0.58554 -0.54631 -0.39047 -0.27382 -0.009397 0.23593 -0.22046 0.011451 -0.43251 0.00561 -0.24893 0.60306 0.32543 -0.32461 -0.88734 -0.59482 0.031737 -0.36217 0.1644 0.48773 -0.11265 
marketing_nov 0.25769 -0.32214 -0.75347 -0.40578 -1.3937 0.059959 -0.32937 -0.51915 -0.038275 0.42418 0.0028363 0.18193 0.18791 1.3198 0.63848 0.11613 -0.26039 -1.1763 -0.28597 -0.16065 0.32316 -0.16517 -0.411 -0.041693 -0.42096 -1.0521 -0.37292 -0.0393 -0.67364 0.27746 -0.68678 -0.6983 0.22387 -0.30843 -0.40562 0.50149 -0.063595 0.22965 -0.16307 -0.3198 -0.47756 -0.31442 0.60998 -0.30154 0.6006 0.059492 -0.19245 -0.11062 0.077146 -1.2641 0.18879 0.4959 -0.53606 -0.47893 -0.48248 0.060766 0.28388 0.62538 0.59332 0.47709 0.24568 0.01175 -0.85176 -0.62255 0.81969 0.055051 0.075702 -0.3862 0.52881 0.099354 -0.43611 0.082879 -0.028752 0.20153 -0.27416 0.016681 0.55526 -0.90068 -0.10207 -0.13046 0.73428 -0.19761 1.1683 0.29927 0.21117 -0.11381 0.34634 0.72909 -0.060988 -0.12874 0.089485 0.095045 -0.47004 -0.51129 -0.34702 0.41476 0.21181 -0.10236 0.16993 0.27952 
priti_dolgo 0.48161 0.74109 0.28113 0.49507 0.27152 -0.06677 0.096087 0.28179 -0.1713 0.41351 0.023111 0.70776 0.27668 0.49073 -0.43904 0.25319 0.38739 -0.25216 0.51508 0.81956 -0.033139 0.12942 0.15311 -0.067109 0.093969 0.45046 -0.22847 -0.0033491 -0.014781 0.27992 0.27448 -0.19544 -0.20287 -0.19494 0.36366 -0.084227 0.30567 0.10869 -0.40497 -0.10067 -0.311 -0.049084 0.29224 -0.11147 -0.065742 0.16995 0.0033038 0.38045 -0.30439 -0.43075 -0.053852 -0.0023228 0.20494 -0.058346 0.41803 0.20961 -0.017059 0.20385 0.11281 -0.77772 -0.42539 0.41401 -0.043544 0.66022 0.49031 -0.55984 -0.15801 -0.23208 0.011349 0.15786 -0.27143 0.31977 -0.50382 -0.35123 0.22646 0.18093 -0.10044 -0.5018 -0.075499 -0.090832 0.099258 -0.40158 0.14364 -0.11796 0.092308 0.12159 0.018639 0.32055 -0.23089 -0.27071 0.17818 -0.13817 -0.20526 -0.45211 -0.41978 0.061673 -0.068314 -0.14506 0.27488 0.10951 
ki_on_služiti -0.028203 0.8501 0.032506 0.42734 0.50765 0.32508 0.079937 0.29863 -0.32451 0.30529 -0.0816 0.6926 0.35013 0.34052 -0.83691 -0.12167 -0.11731 -0.070333 0.25874 0.046654 0.29936 0.42504 -0.46056 0.31065 -0.22061 0.34575 0.38359 0.088069 -0.24135 0.39434 0.21332 -0.015077 -0.14821 -0.36522 0.24662 0.49849 0.053108 -0.22045 -0.10455 -0.25491 -0.22097 0.058237 0.53809 -0.17887 -0.077817 0.0062546 0.21224 0.14075 -0.36901 -0.32411 0.34043 0.23882 -0.18071 0.19811 0.05353 0.47327 -0.15091 0.2202 0.17814 -0.5489 0.17733 0.63778 -0.39843 0.41664 0.28526 -0.20562 -0.099389 -0.082267 0.23906 -0.10063 -0.13304 0.29616 0.12798 0.1709 -0.051761 -0.044849 0.16207 -0.05055 -0.062898 0.068464 0.25027 0.27465 0.0077226 0.3127 0.17099 -0.28478 -0.046838 0.4461 -0.39647 -0.028899 0.093345 0.028216 -0.36528 -0.6197 0.024869 0.097663 0.14357 -0.54715 0.39765 -0.067686 
najbrž_se_strinjati -0.20042 0.13681 -0.12971 0.86433 0.53301 -0.15808 -0.014626 0.54187 -0.074901 0.25153 0.24931 0.30448 0.17157 0.2571 -0.32701 0.24896 0.21087 -0.036602 0.22813 0.67163 0.27568 0.23815 -0.14452 0.16148 -0.15198 0.16449 -0.0425 -0.11215 -0.15041 0.25783 0.29572 -0.46907 -0.19933 0.067652 -0.04971 0.095703 0.028729 0.18339 -0.12656 -0.16639 -0.32669 0.12315 0.4615 -0.32511 0.18629 0.068529 -0.18487 0.27155 0.092414 -0.50931 -0.20719 0.097212 0.19682 0.0137 -0.035715 0.19404 0.35725 0.25397 0.06745 -0.33256 -0.13246 0.24533 -0.19111 0.22091 0.2888 -0.41563 -0.42525 -0.2556 0.5807 0.073091 -0.56888 0.11067 -0.043813 -0.22391 0.10342 0.15688 -0.018881 -0.42891 0.070289 0.02505 -0.19172 -0.19899 0.036016 0.13231 0.31623 0.0012389 -0.12719 0.068506 -0.18614 0.10124 0.13104 0.074196 -0.17233 -0.24902 0.014229 0.20064 -0.13202 -0.13095 -0.17505 0.2101 
biti_potekati_v 0.42535 0.46555 0.64194 -0.53784 0.3967 0.2568 0.15269 -0.44064 -0.86519 0.35962 0.0070804 1.0184 0.34439 -0.20568 -0.35195 0.75391 -0.20077 -0.48249 0.24892 0.035927 0.18086 0.21075 0.22099 0.39558 -0.55286 0.41057 0.34245 -0.3152 -0.61667 0.0010021 0.54964 -0.75512 0.11509 -0.80429 -0.23846 0.89638 0.48835 0.28785 0.038378 -0.12451 -0.097467 0.33657 0.78856 -0.090055 0.15761 0.58504 0.41234 0.24136 -0.21866 -0.40974 0.25099 0.26078 -0.40794 -0.32509 0.36926 0.20316 0.29863 0.52387 -0.15651 -0.03874 -0.14792 0.86849 -0.12862 0.71219 -0.0050787 -0.48558 0.1884 -0.19959 0.27537 0.32125 -0.21892 0.025867 -0.20328 0.39082 -0.07969 0.066987 0.40516 -0.37402 0.18352 0.0001372 0.22101 -0.29044 -0.12915 -0.18221 0.087223 -0.02045 -0.36179 0.079159 -0.46749 -0.2184 0.85206 -0.12014 -0.21556 -0.58279 -0.1053 0.61029 -0.26114 0.072553 0.11633 -0.39093 
v_izločilen_dvoboj 0.64352 0.27856 0.05368 0.43412 -0.058091 0.061299 0.042043 -0.37059 -0.042231 0.35804 0.36889 -0.42711 0.071641 0.027453 -0.49144 0.030624 0.6087 -0.15366 1.1597 1.4455 -0.076396 -0.049774 0.53113 -0.71204 -0.15629 0.58326 0.13945 0.6226 -1.1426 -0.12974 0.13993 -0.54623 -0.07248 -0.63763 -0.66525 0.28656 0.077787 -0.20844 -0.23432 -0.30249 0.14556 0.081376 0.45637 0.10569 0.38036 0.47246 -0.11843 0.3227 -0.11478 -0.21175 0.85269 0.17734 -0.43914 -0.35806 -0.1692 -0.51216 -0.26828 0.014205 0.17303 -0.52407 0.40507 0.2413 -0.46729 0.44973 -0.036892 -0.30922 -0.4264 -0.14982 0.23624 0.15139 -0.34902 0.45897 0.11145 -0.51011 -0.46466 0.14201 -0.23292 0.09065 0.37203 -0.24282 0.030898 -0.086063 0.093295 -0.2059 0.21199 -0.4131 -0.25807 -0.26946 -0.12473 -0.24213 0.093246 -0.38199 -0.15172 -0.49311 -0.29148 0.34481 -0.066932 -0.14107 0.49071 0.41672 
nikoli_biti_zares 0.29409 0.37239 -0.11449 0.51716 0.34987 -0.45907 0.22042 -0.085372 -0.38967 0.38309 0.10546 0.39614 0.15086 0.52786 -0.49521 0.38279 0.33579 -0.16706 0.36748 0.3621 -0.02695 0.16762 0.26604 0.049251 -0.084534 0.31567 -0.39574 -0.24927 -0.42971 0.4641 -0.042285 -0.21697 -0.050258 -0.24684 0.33565 0.16516 0.25326 -0.0047308 0.0049278 -0.23463 -0.17554 -0.012478 0.25909 0.22914 0.069805 -0.087952 0.068047 0.29736 -0.29642 -0.55081 0.029531 -0.034833 0.12306 -0.2371 -0.029712 -0.010457 0.28706 0.093541 0.10699 -0.33332 -0.30668 0.56897 -0.028787 0.33429 0.2035 -0.39603 -0.084286 -0.22231 0.2384 0.146 -0.43978 -0.04362 -0.32522 0.095271 0.12022 0.12031 -0.078491 -0.36795 -0.2363 -0.018123 -0.10049 0.010723 -0.10385 0.046808 0.2377 0.26984 0.12738 0.19827 -0.50492 -0.45688 0.45425 -0.13883 -0.20292 -0.34551 0.037311 0.16351 -0.1167 -0.023786 0.23292 -0.075423 
biti_Pahor_na -0.22765 -0.053301 0.32231 1.2653 0.61292 -0.92079 -0.037472 0.32647 -0.49706 0.10537 0.08407 1.0383 0.46129 -0.054984 -0.43682 0.53804 0.58872 -0.33875 -0.038205 0.12827 0.046398 0.38821 -0.34669 -0.038564 -0.031248 0.21274 -0.31879 -0.12616 -0.64351 0.70703 0.45671 -0.57814 -0.53388 -0.51868 0.1783 0.4826 0.32937 0.12725 0.21558 -0.25291 0.020185 -0.048158 0.19913 -0.096527 0.0071319 -0.050472 -0.11546 0.21641 0.52711 -1.1287 -0.32207 0.15962 0.16417 -0.48819 -0.1683 0.2475 0.16251 -0.0642 -0.18622 -0.27589 -0.39102 0.49601 0.017473 0.44257 0.20713 -0.88038 0.061078 -0.054054 0.27555 -0.030804 -0.81153 -0.65839 0.045501 0.041648 0.369 0.035328 -0.065829 -0.16092 0.21554 0.22178 0.030451 -0.22085 -0.38873 0.40896 0.046388 0.37502 -0.25734 -0.42746 -0.67538 -0.3184 1.08 0.22429 -0.34948 -0.71244 -0.031678 0.47282 -0.14934 0.25869 -0.21172 -0.4559 
vse_več_on 0.018961 0.90568 -0.44985 0.21236 0.083853 0.098737 -0.2184 -0.0017237 0.028797 0.064395 -0.4479 -0.040661 0.45024 0.28258 -0.33188 0.24732 0.038269 -0.45696 0.085506 -0.076638 0.33155 0.044061 -0.61698 -0.17387 0.13598 0.61583 0.22091 -0.0050899 -0.16288 0.0053406 -0.014981 -0.37441 -0.057713 -0.40113 -0.17835 -0.12984 -0.13483 0.097612 -0.065479 -0.41423 -0.10896 0.14691 0.48478 -0.3166 0.29172 0.093431 -0.12403 0.37548 -0.089506 -0.38271 0.47798 -0.20034 0.20992 -0.50304 -0.044288 -0.049498 -0.098372 0.048722 0.3439 -0.54412 -0.11514 0.45403 -0.095934 0.39695 0.55589 -0.35734 -0.0083973 -0.38229 0.7649 0.44193 -0.086182 0.038171 -0.11069 -0.49232 0.15611 0.19499 -0.055206 -0.23209 -0.36 -0.20894 0.17057 -0.0077363 0.24716 0.062635 0.09998 0.099636 0.1562 0.51839 -0.062505 -0.10226 0.184 -0.17171 0.09867 -0.21577 -0.11731 -0.076352 0.11175 0.11895 -0.23365 0.28716 
biti_biti_prijet 0.41795 1.0265 0.33735 0.47076 0.54124 -0.11836 0.5372 -0.72387 -0.54529 0.17313 0.40904 1.0531 -0.017767 0.2113 -0.36182 0.66808 0.37316 0.037208 0.1258 0.26502 -0.21594 0.033091 0.46443 0.024797 -0.43246 0.60933 -0.0071054 -0.67719 -0.21904 0.25268 0.029514 -0.63254 -0.12369 -0.40878 0.65087 0.18025 0.37886 0.12098 0.053554 0.023359 -0.30117 0.090798 -0.16636 -0.12002 -0.028449 0.35289 0.40782 0.58788 -0.24824 -0.56832 0.24769 0.27028 -0.31613 -0.032397 0.26765 0.19872 0.62434 0.15165 -0.23615 -0.30962 -0.30452 0.2488 -0.13531 0.73193 0.057323 -0.77079 0.21849 -0.51349 -0.041613 -0.014384 -0.37803 0.18476 -0.66421 0.24776 0.043615 0.0056647 0.15839 -0.43662 0.22314 -0.24983 0.31942 -0.18684 0.011835 -0.11467 -0.16946 0.42119 -0.33377 0.56166 -0.86439 -0.68993 0.55123 -0.3625 -0.045109 -0.65218 0.17558 0.54767 -0.049001 0.11049 0.45412 -0.17817 
biti_aktivirati 0.57629 0.43207 -0.22121 -0.40824 0.75107 0.04783 0.13687 -0.58533 -0.11764 0.49526 0.21703 0.70643 0.17127 0.19572 -0.46755 0.3173 0.027353 0.36247 0.26854 0.10841 0.058055 0.4039 0.0092334 0.074974 -0.060326 0.15188 -0.070696 0.23908 -0.16428 0.24058 0.20097 -0.4395 0.046399 -0.47218 -0.22097 0.18231 0.39901 0.006116 -0.3683 0.11809 -0.40285 0.16402 0.31912 -0.0092456 0.090186 -0.080627 0.24549 0.47706 -0.14856 -0.49423 0.53903 0.026715 -0.15908 -0.079682 0.083283 0.19879 0.234 0.71144 0.12412 -0.7204 -0.51542 0.70078 0.016096 0.67323 0.38659 -0.67925 -0.2218 -0.12248 0.14363 -0.065209 -0.40112 0.13327 0.08791 0.41513 -0.019246 -0.006618 -0.14402 -0.46298 0.31575 -0.052059 0.5107 0.18537 0.012723 -0.044338 0.10392 0.043603 -0.6462 0.1288 -0.24229 -0.42622 0.5142 -0.49259 -0.30625 -0.36028 0.066296 0.47098 -0.26432 -0.10559 0.2044 -0.10841 
od_začetek_še -0.090784 0.5678 -0.14875 0.19978 -0.2922 0.27619 0.087044 -0.14618 0.029376 0.13211 0.037282 0.083424 0.30676 -0.27618 -0.063088 0.2413 -0.020221 -0.32233 -0.29432 0.4519 0.23468 -0.039778 -0.32517 0.15963 -0.38098 0.22544 -0.046227 0.16582 -0.1352 0.043853 0.0069709 0.062746 0.096558 -0.21462 -0.21664 0.1764 -0.19183 -0.0082834 -0.40348 -0.23425 -0.26486 -0.26268 0.50602 0.19594 0.033684 0.15583 -0.08467 0.42787 -0.33493 -0.48404 0.048765 -0.21066 0.13526 0.01361 0.3107 0.033263 -0.10829 0.045173 0.466 -0.27821 -0.017433 0.69055 0.044323 0.22769 0.25223 -0.4713 -0.047525 0.027089 0.41892 0.36627 -0.29825 0.14289 -0.16048 -0.50299 -0.017926 -0.11241 -0.29631 -0.24837 -0.4355 -0.076766 -0.32285 -0.11522 0.10979 -0.43337 0.23962 -0.25148 0.19937 0.13713 -0.10557 0.11847 0.20651 -0.061919 0.13604 -0.84694 -0.47021 0.33013 -0.20039 -0.0025216 0.10074 -0.017596 
3_20 0.25488 0.4484 -0.3578 -0.27401 -0.35216 -0.13034 -0.24619 0.29604 0.40461 0.23343 -0.21673 -0.45606 0.061856 1.1567 -0.13176 -7.6405e-05 0.45666 -0.12477 -0.16827 1.159 0.32351 0.74499 -0.17945 -0.39289 0.13484 0.549 -0.44624 0.21647 -1.1466 -0.38378 0.33552 -1.425 0.269 -0.44661 -0.23206 0.45871 -0.66238 -0.37531 0.36935 0.37795 0.15488 -0.92871 0.85557 -0.19892 -0.68273 -0.086955 0.75041 -0.072956 0.17612 -0.86017 1.2241 0.43033 -0.55184 0.24277 -0.27469 0.26162 0.21904 0.14197 0.15251 0.61833 0.23004 -0.1387 -0.33784 0.78101 0.78314 0.040176 -0.4329 -0.29386 0.28266 -0.13175 0.13968 0.34427 -0.062488 -0.19466 -0.48368 -0.4197 0.35163 -0.20526 0.62877 0.37921 0.16483 -0.53312 -0.0069174 0.2316 0.1614 -0.078739 0.22192 -0.56482 0.036522 0.2099 -0.10227 -0.4837 0.71884 0.082344 -0.1924 -0.59355 -0.20208 0.15068 0.17635 1.3406 
in_tam_živeti -0.508 0.8651 -0.20744 0.42664 0.52134 -0.069491 0.12085 0.19966 -0.021087 0.069743 0.013397 0.76079 0.26744 0.26744 -0.37238 -0.091658 0.22613 -0.75368 -0.077786 0.25202 0.44954 0.17834 -0.035647 -0.12447 -0.23616 0.47156 -0.15133 -0.013149 -0.16669 0.5808 0.24433 -0.096457 -0.031401 -0.26133 0.36384 0.013162 0.34596 0.072179 0.14791 -0.11922 -0.27756 0.17278 0.9143 0.069899 0.095566 -0.26445 -0.087147 0.55152 -0.0065292 -0.089973 0.37209 -0.013065 0.24925 -0.20267 -0.049967 0.39177 0.5006 0.55067 -0.017236 -0.52878 -0.23865 0.52894 -0.14671 0.23954 0.99505 -0.03995 0.1372 -0.0063105 -0.175 0.43066 -0.17618 0.36198 -0.43242 -0.1985 0.25256 0.43526 0.15249 -0.19433 -0.20752 -0.24181 0.054872 -0.0098193 0.27553 0.43756 0.30938 0.38105 0.41228 0.34046 -0.32609 0.040789 -0.032711 0.13125 -0.32537 -0.43518 -0.20504 -0.10178 -0.22463 -0.1528 0.3902 0.15093 
čudež_narava -0.22325 0.54707 0.039129 0.5573 1.1629 -0.11987 0.18506 0.49838 -0.52989 0.036086 -0.13262 -0.02317 0.18325 0.66462 0.19944 -0.16868 -0.15547 -0.024356 0.65585 0.60176 0.022774 0.22148 -0.08602 0.061259 -0.39787 0.25388 -0.1597 0.10629 -0.39589 0.25388 -0.13905 -0.48999 -0.18603 -0.54011 -0.2277 -0.024184 -0.25994 0.31534 0.7275 0.29274 -0.15523 -0.022936 0.45114 0.098765 -0.11975 0.094873 0.39198 0.24083 -0.35127 -0.31816 0.10784 0.34285 0.2457 -0.34998 -0.26145 0.71307 -0.029207 0.4977 -0.13489 -0.049144 0.0038372 0.71377 -0.26929 0.32162 0.61053 -0.0073439 -0.028993 0.1229 0.18224 0.39472 -0.12013 0.022245 -0.094712 0.088636 -0.13834 0.058182 0.56322 0.060394 0.56461 0.0044402 -0.25826 0.39885 0.39888 -0.0031024 -0.00066232 -0.024379 0.17111 0.30163 0.0086499 -0.2784 -0.078191 -0.18231 -0.042716 0.22051 -0.38661 -0.77835 0.20284 -0.067033 0.088427 0.035982 
vedeti_povedati_da 0.20397 0.48116 0.20729 0.64469 0.34756 -0.40166 0.29301 0.24514 -0.40394 0.55547 0.2161 0.55238 0.2242 -0.0037964 -0.40989 0.55053 0.039504 -0.49337 0.25752 0.61934 0.25543 0.3448 -0.33337 0.24309 -0.26517 0.23561 -0.059873 -0.10985 -0.022404 0.072752 0.29367 -0.17769 0.13562 -0.24928 0.43422 0.12532 0.27336 0.33221 -0.26338 -0.21555 -0.10984 0.27318 0.20916 -0.25386 0.09489 0.066294 -0.21686 0.55561 0.11471 -0.54069 -0.19286 -0.07755 0.40364 -0.10773 0.41108 0.32698 0.3187 0.23184 0.0060123 -0.45095 -0.25713 0.43621 0.0014683 0.51348 0.49495 -0.39132 -0.20145 -0.52132 0.49876 0.33567 -0.28922 0.32926 -0.15074 -0.17263 0.24656 0.2279 0.05578 -0.6174 -0.15936 -0.18488 0.075891 -0.60638 -0.070354 0.12858 0.41917 -0.24692 0.11128 0.44322 -0.26248 0.19445 0.40407 0.073883 -0.32409 -0.35678 -0.4097 0.24589 -0.12707 -0.20283 0.061327 -0.12559 
na_hitro_povedati 0.21748 0.38739 0.18111 0.32928 0.30753 -0.31958 -0.20731 -0.020239 -0.18527 0.39805 0.11609 0.506 0.11187 0.022988 -0.22533 0.743 0.39251 -0.27304 0.017345 0.94361 0.24884 -0.009181 -0.17121 0.30768 -0.10716 0.33395 0.20448 0.073813 -0.2225 0.049562 0.31686 -0.2662 0.22847 0.05497 0.061634 0.049528 0.06344 0.06206 -0.37547 -0.34923 -0.0096896 -0.047691 0.46149 -0.22885 -0.18499 -0.027554 -0.22527 0.40931 0.10035 -0.33093 -0.061017 -0.12115 0.5842 -0.090371 0.22707 0.36697 0.060776 0.33871 0.24811 -0.4831 -0.26127 0.37214 -0.30088 0.43862 0.22277 -0.31466 -0.0074186 -0.43663 0.51099 0.068864 -0.30248 0.18158 -0.049073 -0.59517 0.22852 0.11465 -0.23342 -0.47939 -0.3091 -0.25349 0.15597 -0.033092 -0.0069369 0.12712 0.2338 0.033123 0.033028 0.22768 -0.33886 0.11675 0.18409 0.15755 -0.42566 -0.41851 -0.2152 0.049578 -0.16176 0.011232 0.075425 0.050953 
v_svet_doživetje -0.37653 0.41115 -0.22133 0.27753 0.25303 -0.12632 -0.038945 -0.040749 -0.29614 -0.3283 -0.40544 0.34205 -0.16789 0.37391 -0.024132 0.208 0.41058 -0.7422 0.84179 0.19198 0.095685 0.039195 0.074309 0.14782 -0.3291 0.23088 -0.2685 0.32702 -0.36065 0.45531 0.16526 -0.47097 -0.12681 0.072801 -0.25552 0.46106 0.038164 0.52971 0.23479 -0.20818 -0.591 0.24733 0.65864 -0.1497 -0.042302 0.1333 0.49491 0.079776 -0.34548 -0.36846 0.17092 0.10322 -0.1734 -0.23345 -0.34144 0.30356 0.086684 0.18845 0.39967 -0.39467 -0.11112 0.60486 -0.056625 0.30772 0.062165 -0.26126 -0.48346 0.1282 0.18402 0.20552 -0.036355 0.15298 0.048771 -0.11207 -0.25664 -0.090823 0.1381 0.035715 -0.21035 -0.011896 0.00080256 -0.011443 0.1475 -0.082568 -0.12223 -0.092498 -0.05648 0.18899 -0.23991 0.29235 0.28727 0.51927 0.2308 0.030163 0.090892 -0.00019771 0.054098 -0.34923 0.10486 0.37932 
