biti_po_volja 0.030787 -0.08816 -0.12921 -0.10932 0.26521 -0.070028 0.018486 0.24216 0.25226 0.20721 -0.17842 0.18286 -0.26703 -0.11475 0.3425 0.055023 0.4704 0.050991 -0.4835 -0.15619 0.1948 -0.12139 0.17298 -0.17001 -0.16516 -0.16027 -0.19589 0.16343 -0.26947 -0.34919 0.30471 -0.075715 -0.1306 -0.24878 0.34031 0.26207 0.44046 0.066913 0.113 0.014554 0.12425 0.2394 0.27132 -0.12853 -0.09922 -0.2172 -0.20377 0.20796 0.020814 -0.52068 0.21196 0.48705 -0.36993 -0.41617 -0.0065239 -0.35178 0.38932 0.11529 -0.07143 -0.26348 -0.20442 0.15524 -0.23018 -0.36849 0.050896 0.022011 0.64783 0.09535 -0.082772 0.19075 -0.39545 0.27697 -0.14007 -0.091402 0.10573 -0.69017 0.32467 -0.23961 0.16996 0.1738 -0.064368 0.16445 0.02032 -0.33408 0.11396 0.1413 0.13626 0.21826 0.66939 0.2458 -0.1676 0.20467 -0.36591 -0.022424 0.0553 0.015404 -0.38055 -0.06392 -0.4172 -0.30795 
sesuti_v_prah 0.32739 0.035375 -0.32928 -0.093407 -0.37136 0.28961 -0.41431 0.69096 0.34624 1.0244 0.16925 0.3022 0.019779 0.14498 0.11092 0.16145 0.044098 -0.15262 -0.12969 0.057265 0.31137 -0.19427 -0.1471 0.20296 0.34213 -0.80519 -0.0026328 -0.051559 -0.19326 0.15817 -0.44587 -0.51718 -0.18316 0.1375 1.1613 -0.20818 0.78355 0.17742 -0.24736 -0.23594 -0.037691 0.24406 -0.11682 0.25971 0.31364 0.0010892 0.43864 0.2086 -0.36474 -0.258 0.042851 0.62672 -0.15692 0.12846 0.31752 -0.45071 0.48975 -0.18594 0.28133 0.17957 -0.11478 0.14977 0.14842 -0.065799 -0.18579 -0.085521 0.29486 0.32533 -0.96161 0.561 -0.033936 -0.10524 -0.69468 -0.29277 0.01254 -0.40967 0.27303 -0.73471 0.1379 0.41487 -0.089658 0.34027 0.38086 -1.0396 -0.18685 -0.066866 -0.42174 -0.2088 0.064473 0.10602 -0.028113 -1.0809 -0.31532 -0.6049 0.10696 -0.17505 0.32427 -0.26576 0.10758 0.27601 
skomigniti_z_rame 0.069073 0.4833 -0.75764 0.085193 -0.54504 0.35726 -0.41737 0.026895 -0.00014078 -0.30364 0.58073 0.7757 -0.35387 -0.012463 0.69328 -0.17509 -0.2483 0.13639 -0.18079 -0.21587 0.37436 -0.29017 -0.52089 -0.043256 -0.5201 -0.25305 0.28461 0.11203 0.080081 -0.64221 0.50231 -0.38403 0.77413 -0.051802 0.71821 -0.087443 0.70603 -0.30744 0.8672 0.60175 -0.088553 -0.31316 -0.067177 -0.35212 -0.20733 -0.048509 -0.57733 -0.046008 0.5547 -0.72953 0.22294 -0.5179 -1.1823 -0.69833 0.1077 0.47255 -0.047945 0.39425 0.109 -0.19496 -0.5824 -0.64444 0.056775 0.2629 0.064855 0.40587 0.23702 0.37792 0.04088 0.59939 -0.52285 -0.34447 -0.42564 -0.27505 0.19859 -0.069274 0.3308 -0.14444 0.3407 0.34935 -0.29249 0.40805 -0.48612 -0.19112 0.098176 -0.22608 -0.24194 -0.2434 0.0024127 0.092457 -0.53585 0.16596 0.26599 0.15813 0.62363 -0.013469 0.64188 -0.97894 0.065988 0.087624 
vzeti_se_čas 0.2012 -0.77618 -0.24841 -0.094188 -0.53 -0.4163 0.42081 -0.081065 -0.20717 -0.35802 0.023461 0.16693 -0.081623 -0.48371 0.13581 -0.56854 0.69893 0.26244 -0.62406 0.25852 0.020166 0.33315 0.70059 0.44209 0.1498 -0.69293 0.40929 0.54785 -0.095331 -0.39588 -0.021218 0.34843 0.27324 0.12614 0.4553 0.012493 0.27777 0.11835 -0.18898 0.69422 0.49532 -0.38579 -0.21168 0.2669 -0.10965 -0.070128 -0.5216 0.090161 -0.05076 -0.15216 0.43758 0.67102 -0.51948 -0.36341 -0.095055 0.23578 0.14307 0.056373 0.013517 -0.9432 -0.21646 0.17793 0.15264 -0.45634 -0.36069 -0.32446 0.59451 -0.10656 0.019319 -0.54162 0.0017731 0.36376 0.072431 -0.65906 -0.25828 -0.29679 0.28592 -0.2743 -0.0067478 0.42413 0.25843 -0.075124 0.088056 -0.85079 0.13486 0.10448 0.13879 -0.052581 -0.14947 0.12946 0.10832 0.16005 -0.23675 0.50637 0.43714 0.8585 0.24186 0.0089166 -0.35129 -0.35104 
prav_priti 0.46813 -0.42426 -0.076754 0.03562 -0.11246 0.5832 0.15454 0.10798 -0.32122 -0.042349 -0.045907 0.21932 0.2301 -0.046772 0.13609 0.26363 0.68103 -0.24491 -0.27066 0.15116 -0.095012 -0.41196 0.51734 0.18552 -0.069742 -0.19971 0.44319 0.186 0.1328 0.095886 -0.17766 0.15269 0.050563 -0.3 0.56158 0.21803 0.63562 -0.048991 -0.23861 0.35492 0.5283 0.14785 -0.5034 -0.55749 -0.36443 0.3 -0.23908 0.12102 -0.40789 -0.16924 -0.073864 0.33621 -0.43946 -0.47957 -0.034479 0.34757 -0.53153 -0.39121 -0.23979 0.14411 -0.30482 -0.44536 -0.42257 -0.28416 0.030072 -0.40524 -0.1284 -0.1142 -0.25567 0.40582 -0.32494 -0.29201 0.2552 -0.19276 0.22999 -0.33539 0.25692 -0.15687 -0.33784 0.027462 0.16737 -0.021933 0.14515 -0.36497 0.24104 -0.95076 -0.12398 -0.20383 0.23942 -0.14031 -0.22119 -0.24283 0.44425 -0.20437 0.29456 0.55978 -0.0068688 0.0029898 0.26762 -0.35055 
imeti_proti 0.23168 -0.018995 -0.6717 -0.35319 0.024693 0.12117 0.22837 -0.43914 -0.535 0.36096 -0.21151 0.189 -0.040739 -0.23665 0.9211 -0.4947 0.002157 -0.4242 0.18181 0.89019 0.15037 -0.062216 -0.030175 0.099046 -0.20245 0.39867 0.395 0.171 -0.4489 0.13892 0.60455 -0.16941 0.23047 0.39073 0.10688 0.10511 0.32211 0.020719 0.14229 0.043267 -0.41724 -0.10612 0.13362 0.12787 -0.46843 0.66101 -0.080106 0.15257 -0.76743 -0.51675 0.47591 0.19543 -0.52905 -0.4007 -0.079899 -0.21061 0.052421 0.09614 -0.18735 -0.036049 -0.25502 -0.09239 0.061167 0.23093 -0.26594 0.18356 0.096409 -0.73315 -0.1725 -0.69694 -0.11597 -0.4202 0.28413 -0.25279 0.075765 -0.058193 0.49074 -0.21092 -0.13808 -0.0080622 0.48488 -0.1985 -0.12213 -0.25915 -0.41498 -0.026365 0.29948 0.16184 0.24888 -0.043573 0.09148 -0.44898 0.28725 -0.56545 -0.14377 0.38448 0.41977 -0.40277 -0.13157 0.0049818 
imeti_zadosti 0.53208 -0.47991 0.023809 0.037632 -0.53743 0.16288 -0.29349 0.047773 0.31572 0.46008 0.56846 0.35607 0.31096 -0.051015 -0.21692 0.037958 0.40615 -0.19175 0.28832 0.22472 -0.029309 0.18931 0.34145 -0.15336 0.07079 -0.67442 -0.22097 0.49159 -0.072987 0.69178 0.022782 0.27173 -0.10362 0.22986 0.47287 -0.32844 0.075096 -0.29506 -0.18736 0.43193 -0.24153 -0.66774 0.022479 -0.28714 0.20272 0.37307 0.282 -0.000931 -0.71814 -0.59048 -0.12686 0.32911 -0.47725 -0.48947 0.11254 -0.085054 0.41482 -0.41051 -0.77876 -0.24446 0.35881 0.17275 -0.59013 -0.54284 -0.56413 0.071905 0.0042908 -0.01328 -0.12552 0.088001 0.096335 -0.38277 -0.42081 0.5804 -0.24265 -0.13535 0.83826 -0.21415 0.1392 -0.33811 0.11126 0.045012 0.2056 -0.80999 0.064625 0.40699 0.24154 -0.5132 0.25316 0.25148 -0.21294 -0.11479 0.15002 -0.051954 0.52312 0.056752 -0.16032 -0.40959 0.18046 0.65774 
zamahniti_z_roka 0.087364 0.065776 -0.19542 0.40062 -0.5795 0.56692 0.52293 0.041034 -0.26977 -0.068538 0.13592 0.2231 0.29607 0.28022 0.58502 -0.47821 0.17161 0.039516 0.088595 0.59427 -0.29636 -0.40418 0.003908 -0.8222 0.49628 -0.42149 -0.54175 0.21982 -0.037806 -0.61182 0.79127 -0.27324 0.24115 -0.41924 0.46351 -0.05648 0.84278 0.10856 0.4701 0.65553 -0.72938 -0.21621 0.4364 -0.33986 -0.26159 -0.49565 0.25408 -0.42158 1.1364 -0.44337 0.18364 0.12119 -0.78266 -0.37441 0.095186 0.27063 0.26989 0.83824 -0.2716 0.3025 0.24128 -0.85244 0.47936 -0.50675 0.04057 0.12166 0.041931 0.45689 -0.11114 0.31792 -0.004808 -0.67011 -0.02566 -0.037412 0.13974 -0.52169 0.40841 -0.32053 -0.45015 0.22366 0.036146 0.49839 0.11593 -0.68118 0.12278 -0.10629 -0.65163 0.28175 0.081075 0.15285 0.20277 0.45584 0.060267 -0.36617 -0.17625 -0.056914 0.47031 -0.34209 -0.088618 0.25311 
dati_ves_od_se 0.53181 -0.050674 -0.58026 0.34603 0.19989 0.098445 0.64905 0.375 0.049676 0.10038 -0.071709 -0.08421 -0.31537 -0.14822 0.12079 0.16891 -0.07977 0.17797 0.17314 -0.34172 -0.84535 -0.36863 0.34885 0.05802 -0.66975 0.18639 -0.17927 -0.15046 0.11514 0.096444 0.0043001 0.015206 -0.42395 0.35555 0.65195 -0.43722 0.54864 0.048399 -0.28343 0.82229 -0.22254 0.050881 -0.15818 -0.32839 -0.7973 0.4618 -0.33166 0.27867 -0.13652 -0.57293 0.64638 0.26163 -0.22468 -0.2774 -0.10877 0.26491 -0.5705 -0.11851 0.081653 0.038628 -0.16206 0.3394 -0.35407 -0.31181 0.15345 -0.084433 0.41774 0.26938 -0.88687 0.052963 0.022591 0.13398 -0.20935 -0.18155 0.20581 -0.93482 0.23872 -0.7278 -0.17486 -0.24274 -0.31585 -0.29253 -0.33437 -0.69911 -0.11884 -0.029353 -0.31067 0.051067 -0.33616 0.18785 -0.10644 -0.28215 0.21809 -0.017632 -0.32609 -0.16471 0.3808 -0.52314 -0.25225 0.40226 
priti_do_izraz 0.018742 0.10828 -0.51027 -0.43586 0.043122 -0.47039 0.049695 -0.20012 -0.67615 0.42569 0.426 -0.20968 0.067354 -0.44065 0.64949 0.19018 0.17638 -0.041608 -0.48455 0.30391 0.0039796 0.043607 -0.10175 0.28989 0.30911 0.4084 0.2923 -0.087416 0.63437 0.024073 -0.50854 0.21318 0.22248 -0.41855 0.66618 -0.15678 0.39121 0.33201 -0.009891 0.13791 -0.099012 0.36372 -0.29534 -0.25426 0.13197 0.18009 -0.045036 0.23941 -0.24217 0.10627 -0.29416 -0.13755 -0.72653 -0.78713 0.031715 -0.049798 0.72101 0.38086 -0.23046 -0.44414 -0.55304 -0.040139 -0.1598 -0.69479 0.063037 0.064356 -0.014783 0.36002 -0.45733 0.2498 0.42619 0.76899 0.17404 0.12556 0.084081 -0.37698 -0.065363 -0.57781 -0.44536 0.036336 -0.35018 -0.19898 -0.6302 -0.35046 0.22613 -0.096382 0.36776 -0.022296 0.86588 -0.23636 0.074573 -0.27521 -0.40715 -0.051063 -0.075492 0.058973 0.27829 -0.38891 -0.36673 0.14065 
biti_res 0.2218 -0.26003 0.019056 0.12367 0.080468 0.28587 0.2359 -0.18779 -0.0032969 0.14384 0.070332 0.29189 0.0076134 -1.8874e-05 -0.042964 -0.24698 0.0027811 -0.15337 -0.18342 0.22958 0.18136 -0.09562 0.1176 -0.17201 -0.036973 -0.20405 -0.15108 0.10881 0.20426 -0.013694 0.13024 -0.10115 0.13272 -0.086678 0.56395 0.19404 0.39077 -0.16248 0.049228 0.27818 -0.25112 -0.18076 0.22259 -0.09843 -0.23123 0.10213 -0.27123 0.18709 -0.054456 -0.30312 0.13445 0.04351 -0.2514 -0.68005 -0.024071 -0.20969 0.035688 -0.099308 -0.38481 0.11887 -0.035165 -0.029528 0.0031791 -0.21698 -0.094794 0.083899 -0.037479 -0.17293 -0.41205 -0.1676 -0.1846 0.081478 -0.044025 -0.40324 0.013514 -0.16384 0.19077 -0.21917 -0.32581 0.076251 -0.060599 0.14393 -0.017343 -0.046298 0.17935 0.15621 -0.035107 -0.079113 0.21847 -0.21734 0.27901 -0.11384 0.3579 -0.38264 0.024956 0.0091106 0.036849 -0.20389 0.08556 -0.079206 
biti_na_vrh -0.099978 -0.12412 -0.15457 -0.065032 0.064144 0.28806 0.19637 0.53144 -0.066867 -0.028172 -0.2605 -0.1487 0.2022 0.22229 0.32401 -0.14713 -0.57835 -0.3557 0.37777 0.0015432 0.15576 -0.24527 0.0092302 0.16856 0.059618 -0.34423 0.038419 0.021811 -0.039156 -0.035423 0.081242 -0.056389 -0.28583 -0.22761 0.70682 0.54306 0.37309 -0.44867 0.096322 0.2759 0.14816 0.1535 -0.14328 -0.13396 0.19858 0.078042 0.1853 0.41517 -0.092336 -0.28567 0.34388 0.077732 -0.67889 -0.1136 -0.066037 0.27709 -0.36385 0.060031 -0.58433 0.040155 0.051758 0.22868 -0.22661 0.071715 -0.16979 0.61125 -0.19399 0.78204 -0.22604 0.16342 0.021268 -0.28916 0.12208 0.37652 -0.40975 -0.33454 0.49266 -0.66244 0.23132 0.20346 -0.022544 0.23552 -0.092122 -0.61372 0.55443 -0.31214 0.52987 0.052106 0.36493 0.16039 -0.34483 -0.4351 0.18172 -0.32586 -0.28585 0.0048801 0.6422 0.13426 -0.18817 0.34616 
igrati_vloga 0.12356 0.10337 -1.5355 0.2685 0.12535 0.10856 0.31936 0.57189 0.60923 0.15774 -0.38559 -0.24179 -0.42701 0.33073 0.4097 -0.23383 0.56247 0.11059 -0.6331 0.14774 -0.59824 -0.51359 0.58454 -0.020599 0.46162 0.51741 -0.31366 -0.093892 -0.32511 0.27673 -0.31241 0.26993 -0.29363 0.50164 0.83742 -0.7873 0.7017 -0.43895 0.0055305 0.022025 0.03205 0.44546 -0.20323 0.2044 -0.59967 -0.45578 -0.64435 0.10252 -0.10056 -0.57729 0.22083 0.28943 -0.62287 0.043524 -0.80168 -0.11787 0.21313 -0.25685 -0.16434 -0.34235 0.82168 0.19369 -0.98026 0.25818 0.10525 0.43058 0.23138 0.61486 0.074626 0.61393 -0.96916 -0.096606 0.311 0.39506 0.15447 -0.307 0.12193 -0.19612 -0.80606 -0.41895 -0.55097 0.085505 0.35406 -0.91831 0.64548 0.43983 0.33717 -0.71937 0.5455 0.23484 -0.12947 -0.57181 -0.21933 0.90119 0.13244 0.14235 -0.078898 -0.44019 0.18756 0.39837 
biti_moč 0.19087 -0.28965 -0.023728 -0.17199 0.0040801 -0.50971 -0.41698 0.022906 -0.11241 0.20216 0.033531 -0.33842 -0.12547 -0.31695 0.13955 -0.012698 0.48958 -0.17633 -0.23185 0.36279 0.43432 -0.21802 -0.1647 -0.20858 -0.48817 -0.15371 -0.39229 0.19693 -0.21246 0.10616 -0.35152 -0.16447 -0.2865 0.29803 0.21578 0.18514 0.15012 0.17625 0.43369 -0.033865 0.19906 0.79586 -0.36219 0.045364 0.25429 -0.49306 0.273 0.53281 -0.15871 -0.35136 0.194 0.43145 -0.40354 -0.46902 -0.092618 0.0058722 -0.33714 0.31043 0.172 0.15029 -0.16221 0.0085652 -0.23776 -0.17807 -0.32637 -0.58591 -0.053649 0.29042 -0.28784 0.019594 -0.46498 0.19344 -0.12976 -0.07095 0.33696 0.17587 0.70856 -0.3075 0.26441 0.072213 0.18464 0.22978 -0.1062 0.15882 0.22504 -0.40826 0.20708 0.15956 0.21764 0.70819 0.2602 -0.47419 -0.15091 -0.44235 -0.018709 0.049106 -0.33895 -0.42198 -0.093762 -0.15206 
delati_družba 0.40041 0.03222 -0.42117 0.73949 0.86061 0.54644 0.19804 0.15726 0.082498 -0.005869 0.53319 -0.010395 -0.40902 0.39101 0.10307 -0.22822 0.58415 0.01639 -0.49902 1.1406 0.28534 -0.36215 -0.37848 -0.053432 -0.36353 0.2855 0.34077 0.15114 -0.1027 -0.27084 0.35088 -0.20235 0.78889 0.2808 0.044935 -0.4753 0.91413 -0.10046 -0.50983 0.96048 0.23628 0.38851 -0.20065 0.47815 -0.29953 0.25948 -0.13253 0.19726 -0.28592 -0.39881 0.15758 0.48065 -0.65569 -0.43244 -0.15447 -0.23208 -0.092789 -0.19115 -0.61944 0.20588 0.36451 -0.29925 -0.091408 -0.87799 -0.43087 0.5493 -0.25831 0.24646 -0.68971 0.037627 -0.25089 0.31071 0.48872 -0.20097 0.068701 -0.12386 0.18534 -0.2198 0.18963 0.098545 0.64996 -0.28568 0.15415 0.031993 0.10799 0.0031744 0.18546 -0.066636 0.16533 0.51996 -0.50467 -0.60869 0.39987 0.69755 -0.18772 0.19277 0.39519 -0.056499 -0.51368 -0.47291 
kdo_vedeti 0.06514 -0.51524 0.25144 -0.23946 0.4061 -0.055617 0.20464 0.38241 -0.049829 -0.033677 -0.28229 0.53073 -0.37707 -0.041912 0.51276 -0.085856 -0.11623 -0.050086 -0.28443 -0.25738 -0.26397 -0.25834 0.025253 -0.016493 -0.16304 0.3999 -0.66926 0.099991 -0.013965 -0.7647 0.42834 -0.25469 0.16496 -0.27978 0.60331 0.02981 0.70751 -0.12018 0.22602 0.23937 -0.27539 0.037627 -0.017625 -0.27171 -0.47231 -0.049735 -0.44651 0.28981 -0.071793 -0.72695 0.26235 -0.27045 -0.51522 -0.22833 -0.11333 -0.085928 -0.15696 -0.41162 -0.50552 0.34438 -0.35514 -0.26055 0.13809 0.0071595 -0.40777 -0.089691 0.18017 -0.17553 0.080538 0.1992 0.055734 -0.35795 -0.27966 -0.063517 -0.080814 -0.58113 0.44242 -0.31138 -0.35503 0.10351 0.25106 -0.12915 0.042602 -0.046622 0.33168 0.21009 -0.17504 -0.0044249 -0.079641 0.41903 -0.11236 -0.45663 -0.15256 -0.038312 0.58805 0.13123 -0.049096 -0.21347 0.6337 -0.43082 
držati_korak_z 0.12014 -0.39252 -0.30937 0.2306 -0.44246 0.087803 0.2579 -0.5372 -0.16473 -0.23886 0.23056 -0.49062 0.22989 -0.40831 0.38293 0.24206 -0.1607 0.30423 0.216 0.31468 -0.032686 -0.88532 0.19945 -0.19863 0.093517 -0.64727 0.29785 -0.43162 -0.76627 0.28837 0.53183 -0.28954 -0.10049 0.010067 0.18965 0.32073 -0.013329 -0.26482 -0.34108 0.34529 0.10942 0.23388 -0.055623 -0.11228 0.25302 -0.74922 0.060988 0.69281 0.19585 0.049672 0.32717 0.3983 -0.12295 -0.18833 -0.10531 0.12534 0.087671 0.4356 -0.61901 -0.19954 0.2257 -0.47479 0.21088 -0.13643 -0.042448 0.044499 0.63563 0.51335 -0.30262 0.37997 -0.51042 0.517 -0.11408 -0.49138 0.34387 -1.204 0.49851 -0.33676 0.14075 -0.024307 -0.59818 0.21472 -0.17206 -0.20427 -0.31072 -0.22688 0.38187 0.21881 0.41079 0.95548 -0.69463 -0.073126 0.15295 -0.42163 -0.22036 -0.031397 0.06898 -0.32815 -0.73572 0.058491 
stopiti_v_stik -0.50561 -0.27897 -0.31158 -0.41345 -0.45913 -0.071797 0.71254 0.2097 -0.36615 -0.33404 -0.0024955 0.39137 -0.14811 0.17067 0.17559 -0.025929 -0.034479 -0.30227 -0.17102 0.29409 -0.44804 -0.29185 -0.016469 -0.021379 0.25242 -0.26565 0.15161 0.0046196 -0.45245 -0.5096 0.17981 -0.047163 -0.014379 0.043479 0.64302 -0.055104 0.088201 -0.49046 0.03399 0.076269 0.4532 0.010306 -0.14951 -0.60201 0.18327 0.17977 -0.18159 -0.25113 -0.21512 0.058304 0.13136 0.52125 -0.76483 -0.24131 0.22555 0.50832 0.08709 0.077542 -0.13812 -0.43139 -0.15327 0.69879 -0.94718 -0.36955 -0.36863 -0.37191 0.19736 -0.16356 -0.60115 -0.060133 -0.99071 0.59195 0.02379 0.07589 0.3054 -0.38165 0.63846 -0.46913 0.37674 0.23652 0.099468 0.077987 -0.36917 -0.49703 -0.27466 -0.058837 -0.060263 -0.16099 -0.064901 0.4521 0.2666 0.037796 0.25637 -0.24992 -0.11898 -0.512 0.50944 -0.28768 0.64447 -0.31184 
v_igra_biti 0.20456 0.51616 -0.18172 -0.19067 0.26863 0.15831 0.45985 0.019215 0.12546 0.39005 0.13737 -0.30968 0.19515 0.41458 0.085656 0.14943 0.21027 0.13088 -0.16507 0.037753 0.47658 -0.47986 -0.20985 -0.23688 -0.11067 -0.43274 0.11148 -0.34984 -0.13098 -0.043745 -0.17942 0.055137 -0.35111 0.0023238 0.80526 -0.10626 0.22868 -0.02862 0.10613 0.56539 -0.90622 0.67266 -0.40636 0.12826 -0.21954 -0.35836 0.13731 0.14075 0.28284 -0.70588 0.10592 0.013281 -0.14947 -0.35306 0.18531 -0.03697 0.41599 -0.17704 0.5687 -0.069883 0.25015 -0.46727 -0.34458 -0.62227 -0.028699 -0.17773 -0.015249 0.033824 -0.69439 0.13669 -0.13147 0.09266 -0.236 -0.16955 0.13593 -0.47532 0.46931 -0.009164 -0.51259 -0.57644 -0.55736 -0.27333 -0.72146 -0.71381 0.25173 -0.42365 0.72895 -0.35293 0.45913 0.3507 -0.041392 -0.63321 -0.26915 -0.10961 -0.56202 -0.39497 0.24553 -0.54635 0.33595 0.52022 
biti_na_volja -0.32939 -0.5558 -0.18991 -0.29482 -0.010223 -0.067658 0.053387 0.6915 0.10546 0.26883 -0.1781 0.50712 -0.80081 -0.43599 0.28386 0.043728 0.16265 0.18049 -0.32116 0.5412 0.27083 -0.76092 0.023197 0.43423 0.14792 0.039579 0.0085822 0.23173 -0.05789 0.0046108 0.45058 -0.48131 -0.39153 -0.027467 0.15541 0.55158 0.33816 -0.22192 0.36545 0.15372 0.10964 0.38335 -0.15619 -0.2126 -0.087601 -0.41867 -0.0059789 0.25064 -0.32743 -0.00099625 -0.27227 0.25223 -0.095245 -0.37453 -0.17524 0.50381 -0.12373 -0.52198 -0.1074 -0.293 -0.46063 -0.04544 -0.63395 -0.32542 0.18735 0.02541 0.077267 0.31978 -0.52933 -0.0008741 -0.32892 0.41125 -0.23195 0.024157 0.79968 -0.025483 0.65862 -0.31316 0.049766 -0.31887 -0.036093 0.2699 -0.44329 -0.091672 0.10513 -0.68421 0.0043086 0.23033 0.60814 0.59484 -0.53185 -0.0064555 0.29106 -0.20413 -0.18022 0.09919 -0.37385 -0.049627 0.32597 0.021699 
najti_prostor -0.23359 -0.42108 -0.25748 0.10485 0.21067 -0.047192 0.087817 -0.065128 0.024448 -0.17669 -0.32091 0.46308 -0.18681 -0.13813 0.62094 -0.11471 -0.17685 0.24181 0.28475 -0.14644 -0.28764 0.22268 0.18693 0.51846 -0.32616 -0.25244 -0.01905 0.23371 -0.40193 0.25532 0.2612 0.31708 -0.33349 -0.5156 0.9751 0.26567 0.31816 -0.17922 0.20158 0.59345 0.63449 0.49595 -0.45928 -0.26523 0.062211 -0.16264 0.072013 0.18112 0.51256 -0.16371 -0.009129 -0.34318 -0.016843 -0.71812 0.033335 -0.082635 -0.022995 -0.43784 -0.62416 0.046972 0.030517 -0.20686 -0.72369 -0.22766 -0.16708 -0.04931 -0.031706 -0.072167 -0.0078069 -0.39406 -0.21908 -0.16611 -0.10436 0.12536 0.30216 -0.11453 0.46971 -0.46361 -0.37302 -0.20336 -0.47634 0.21961 -0.39771 -0.22484 -0.13951 0.11658 0.24057 -0.53823 0.40635 0.50617 -0.054527 -0.81973 -0.28887 -0.44086 -0.12943 0.13791 0.30576 -0.49825 0.25345 0.16482 
obroditi_sad 0.33485 -0.38903 0.20937 -0.0074367 -0.31233 -0.54042 -0.25199 -0.52128 0.10349 0.46337 -0.10933 -0.20118 0.43652 -0.70527 0.17214 -0.28082 0.30843 -0.59851 -0.12895 -0.17778 0.22062 -0.65303 0.56336 -0.33648 -0.081172 -0.36325 0.15548 -0.4871 -0.26457 -0.52972 0.77121 -0.40498 0.071012 -0.75431 1.5168 -0.46698 0.33353 -0.20993 -0.038075 0.83275 0.0071791 0.23957 0.071588 0.58498 0.84754 0.2774 0.11129 0.1483 -0.038754 0.17635 -0.17522 0.34728 0.42167 -0.57681 -0.82761 -0.49507 -0.19807 -0.3902 -0.26226 -0.30003 0.19128 0.55158 0.22492 -0.65122 -0.52498 0.43843 0.69376 -0.036784 -0.64613 0.59239 0.54105 -0.946 0.060029 -0.078855 -0.050178 0.19774 0.72204 -0.44275 -0.37758 -0.080589 0.48703 -0.29628 -0.51146 0.10739 -0.51979 0.58281 -0.2271 -0.34946 0.3602 0.46509 0.65884 -0.091347 -0.71948 0.01533 -0.13274 0.25072 0.34504 -0.18684 0.072948 0.49485 
delati_razlika 0.60498 -0.22631 -0.62824 -0.056346 0.29156 0.29823 0.13408 0.080854 -0.0076604 0.10159 -0.52076 -0.035832 -0.3693 0.18289 -0.15204 -0.1014 0.37461 -0.49229 -0.139 -0.090532 0.13915 -0.28465 0.07374 -0.27785 -0.27755 0.19807 0.78463 -0.039611 0.86395 0.19551 0.13301 -0.12654 0.54431 0.35241 0.4874 0.28194 -0.15192 -0.97128 0.19054 -0.096314 -0.38479 0.074422 -0.4411 0.081643 -0.15944 -0.15983 0.17414 0.58658 0.13202 -0.21515 0.37163 0.57295 -0.61006 -0.44139 -0.12515 -0.46941 0.35285 0.17619 -0.59006 -0.013516 0.28009 -0.64661 -0.4196 -0.34318 -0.57257 -0.30688 0.37879 0.15914 -0.47916 0.29562 -0.68015 0.32365 -0.19833 -0.83319 0.13738 -0.038464 1.0236 -0.38835 0.0012956 -0.66633 0.32331 0.71331 0.082258 0.14969 -0.18414 -0.30901 0.69619 -0.011016 0.19026 -0.24716 -0.72145 -0.48492 -0.15139 -0.2387 0.34089 0.5563 -0.18629 -0.59815 -0.23085 0.29756 
pustiti_pri_mir 0.29322 -0.48799 -0.21198 -0.0047012 0.53634 0.057468 0.14841 0.095185 -0.12046 -0.26692 -0.061633 0.23536 0.24917 -0.4166 0.15577 -0.43685 0.41786 -0.026653 -0.22341 0.26976 0.3893 0.2646 0.41935 -0.15148 0.69542 -0.27754 -0.02089 -0.13186 -0.41005 0.52204 -0.17475 0.054116 0.56873 -0.054512 0.49012 0.097804 0.77337 -0.24647 -0.036303 0.47072 -0.027876 -0.10991 -0.15811 -0.20885 -0.60398 0.39155 -0.50171 -0.29813 -0.23826 0.13573 -0.10794 0.41502 -0.45345 -0.41861 0.22421 0.35634 0.22374 0.22575 -0.50449 0.28759 0.32957 0.17152 -0.72472 -0.16295 -0.10519 0.18467 -0.19638 0.11924 -0.41587 0.026605 -0.55195 -0.37651 -0.040659 -0.21593 0.14734 -0.16804 0.27932 -0.073579 -0.36709 0.39274 0.1076 0.073141 0.0073137 -0.42036 -0.11048 -0.39954 -0.28214 0.61471 -0.15171 0.28551 -0.11063 -0.42403 -0.059003 -0.42554 0.010759 0.12214 -0.087497 -0.38492 -0.27796 -0.43595 
iti_na_živec 0.64472 -0.20846 -0.58033 -0.051346 0.012125 0.03681 -0.02775 -0.42566 0.24471 -0.037327 0.11676 0.23107 0.30433 -0.054267 -0.23894 -0.14091 0.59805 0.67887 -0.43053 0.36944 0.51744 -0.19992 -0.40151 0.18363 -0.088414 0.40515 0.17954 0.34029 0.22858 0.21861 -0.03762 -0.70489 0.20647 0.053464 0.25957 0.090715 0.85179 -0.027846 -0.1266 0.7556 -0.32175 0.00031063 0.58644 -0.31616 0.17896 -0.085793 -0.092538 0.12439 -0.50376 -0.57582 0.22257 -0.13476 -0.67435 -0.60005 0.015911 0.14276 0.48785 0.085854 -0.29795 0.36659 -0.67664 0.51201 0.575 0.16939 -0.24193 -0.079726 -0.59305 0.12904 -0.5105 0.23192 0.44235 0.49933 -0.13275 0.010278 0.33569 -0.27451 0.48867 -0.96191 0.0049551 0.39846 -0.32453 -0.70076 0.42936 -0.58833 -0.0062145 0.35063 -0.32722 -0.15499 0.063429 0.22515 -0.155 0.20186 0.6374 -0.59114 -0.5608 -0.080772 0.018069 -0.44216 -0.13793 0.019231 
prešteti_na_prst_en_roka 0.4061 -0.64847 -0.50985 0.013653 0.38986 -0.062167 0.62433 0.47167 0.24618 -0.58038 0.18049 -0.20109 -0.14317 -0.056623 0.30536 0.22095 0.40852 -0.30458 0.15424 0.27178 0.5849 0.13971 0.42247 0.030705 -0.21056 0.056228 0.057185 -0.085637 -0.11877 -0.048044 -0.019562 -0.26323 0.11295 -0.10767 0.45788 0.22785 0.68369 -0.050619 0.11671 0.29118 -0.13535 0.34278 -0.20896 -0.28262 -0.027477 -0.24884 0.2405 0.21133 0.076231 0.25393 0.27471 0.65183 -0.43408 -0.22153 -0.43965 0.11587 0.020611 -0.2173 0.025007 -0.22329 -0.29935 0.28318 -0.10196 -0.43207 -0.099701 0.26238 0.043987 0.37609 -0.26227 0.4851 -0.20463 -0.019005 -0.114 0.24116 0.35808 0.086026 0.63093 -0.13722 -0.1526 -0.25115 0.43144 0.20967 0.50732 -0.51741 -0.42359 0.41696 0.72121 0.21371 0.15578 0.3035 -0.24019 0.13146 0.013147 0.078517 -0.19471 -0.12514 -0.26656 -0.12656 0.053032 0.22002 
trd_presti 0.32138 0.34946 -1.0549 -0.2354 -0.033586 0.56605 -0.21486 -0.22795 0.17456 0.13567 -0.2234 -0.07188 -0.11373 -0.044194 0.64581 -0.94014 0.57552 -0.10643 -0.32448 0.43721 0.31738 0.084538 0.68076 -0.12134 -0.019524 -0.23349 1.1551 -0.2379 -0.06311 0.38411 -0.13042 -0.53895 -0.40447 0.59713 1.2951 -0.096989 0.27788 0.23359 0.30657 0.26213 -0.031385 -0.079762 0.45597 -0.19792 -0.13495 0.235 0.68029 0.79362 -0.54352 -0.24464 0.50113 0.096995 -1.0484 -0.5159 -0.30181 0.54278 0.081234 -0.50285 -0.80783 0.071866 0.33879 -0.56995 -0.037713 -0.79103 -0.097948 0.46305 0.19459 0.3024 -0.38663 -0.28641 -0.15861 0.11725 -0.051106 0.11331 -0.37259 -0.58087 -0.037862 -0.57187 -0.5908 0.44826 -0.53129 0.032048 0.63389 -0.50383 -0.46459 -0.24989 -0.15324 -0.47945 0.09762 0.24014 0.19226 0.20946 0.23343 0.092682 1.0092 0.47154 0.26947 -0.044035 0.034016 -0.13853 
iti_v_pozaba 0.66492 0.18625 -0.25075 0.25683 -0.11074 -0.033011 -0.0098692 -0.22951 0.56733 0.83089 -0.38726 0.57486 0.26044 0.095625 0.37378 0.19714 0.66909 -0.019474 -0.45896 0.60329 0.55723 -0.59163 -0.41821 0.20368 0.53824 -0.42976 0.030348 0.53012 0.64933 -0.19318 -0.28949 0.45086 -0.12206 -0.53028 0.70985 -0.15944 0.45722 -0.5632 -0.32194 0.27858 -0.17193 -0.076999 -0.16467 0.17189 0.52275 0.055032 -0.41292 -0.069421 -0.39445 -0.33868 0.22979 0.43235 -0.44931 -0.63146 -0.64393 -0.28599 0.43302 0.03024 -0.24231 -0.16424 -0.1416 -0.62127 -0.70553 -0.68004 0.092641 -0.46129 -0.32649 -0.0055104 -0.63951 -0.17005 -0.40004 -0.2805 0.12054 0.13563 -0.0096171 0.32994 0.052752 -0.62202 -0.49413 -0.54415 -0.24734 0.16613 0.63852 -0.20536 -0.10063 0.1288 -0.34725 -0.019414 -0.025222 0.042778 0.11545 -0.015983 -0.24217 -0.70007 0.067749 -0.70426 0.78325 -0.39272 0.5486 -0.13475 
dajati_videz 0.58557 -0.058351 -0.1998 0.18132 -0.082728 -0.63888 0.66964 0.21346 -0.050528 -0.40426 -0.076767 0.1148 -0.37421 -0.46228 -0.13704 0.055464 0.54121 0.070852 -0.25904 0.099718 0.2039 0.1939 -0.28525 -0.40217 0.064361 -0.69339 -0.030608 -0.035325 -0.4868 -0.025439 0.14147 0.37145 -0.32338 -0.16277 0.55266 -0.20339 -0.0049682 -0.046405 0.25267 -0.62969 0.31723 0.29647 0.39095 0.64327 -0.21667 0.43983 0.41206 0.40945 -0.34582 -0.12937 -0.13732 -0.78973 -0.75183 -0.83128 0.13854 0.046272 0.001978 -0.86163 -0.74949 -0.22455 -0.076357 -0.16918 -0.0007792 -0.42491 -0.21777 0.55026 -0.15142 0.49302 -0.35556 0.54688 -0.33478 0.48602 0.47961 -1.0253 -0.51267 -0.45301 0.46697 -0.34211 0.25113 -0.19236 0.4189 -0.0298 -0.18061 -0.99146 -0.069971 0.0055186 0.7439 0.35872 0.23315 -0.30796 -0.022798 -0.26186 -0.37801 -0.94667 0.57485 0.23933 -0.18678 0.094678 -0.38496 -0.010593 
postaviti_ob_bok -0.07366 -0.27119 -0.016531 -0.056457 0.13121 0.48821 0.21478 -0.13315 0.18312 -0.015121 0.015472 0.058745 0.37586 -0.86959 0.16419 0.20392 0.49686 0.1793 -0.073165 0.43693 -0.1077 0.12409 -0.25293 0.2354 0.18594 0.065558 -0.0079085 -0.0077652 -0.059793 -0.43486 0.33658 -0.45174 -0.2331 0.023449 0.68254 0.23457 -0.063719 -0.059406 0.012601 -0.014001 -0.17208 0.32753 -0.004366 0.062257 -0.20805 -0.28677 -0.14886 0.55758 0.21314 0.074408 -0.09703 0.21929 -0.57288 -0.16842 0.099505 -0.26806 -0.21483 -0.14362 -0.70043 -0.064453 0.062629 -0.053492 -0.15621 -0.37121 0.039475 0.41852 0.10872 0.16494 -0.066708 -0.19493 -0.044944 0.15016 0.4881 0.13367 -0.58749 -0.84619 0.4685 -0.41394 -0.16415 0.17758 0.038847 -0.36962 -0.76578 -0.21336 0.18209 -0.026746 0.11405 -0.32287 0.71319 0.5436 -0.029653 0.12088 -0.17597 -0.32386 0.28859 0.021658 0.44592 -0.0031577 -0.16883 -0.13778 
priti_prav 0.19404 -0.29046 0.03962 -0.035992 0.09194 -0.43981 -0.16223 -0.29135 -0.32502 -0.012105 0.12039 0.097318 -0.31315 -0.33735 0.27737 0.28649 0.10333 -0.008866 -0.12789 0.28637 0.3399 -0.36133 -0.54011 -0.35849 0.08699 0.027352 0.13591 -0.065944 0.42254 0.09855 0.0089102 0.047438 -0.080402 -0.37703 0.59937 -0.24504 0.38283 0.0098605 0.019872 -0.068364 0.096714 0.12171 -0.34014 -0.067782 -0.0070867 -0.22813 -0.91198 -0.06002 -0.041976 -0.26153 0.12171 -0.0052289 -0.3144 -0.41239 -0.13234 -0.17745 -0.0037329 -0.19536 -0.31676 -0.12511 -0.16499 -0.11484 -0.09112 -0.24065 -0.16064 0.0075439 0.10204 0.27428 -0.11569 0.33455 0.070862 0.089998 0.12433 0.11503 0.30895 -0.023614 0.2257 -0.30318 -0.3772 0.041831 -0.15049 0.15726 0.14755 -0.40113 0.43367 -0.021161 0.32265 -0.11023 0.09817 0.23985 -0.22688 -0.023602 0.10603 -0.13598 -0.27816 -0.074845 0.046607 -0.51067 0.20841 -0.17645 
postaviti_pod_vprašaj -0.015715 -0.36447 -0.078094 0.094541 0.33943 0.17954 0.53287 0.43325 -0.20861 0.05313 -0.20499 -0.076899 0.25634 -1.0044 0.14972 -0.14113 0.24241 0.31899 0.20209 0.52401 -0.11877 -0.54137 -0.705 0.40181 0.1694 0.44419 0.020092 0.084174 0.073132 -0.48289 -0.092994 -0.5726 -0.10274 -0.1841 0.48387 0.23025 0.38657 -0.44165 0.42002 -0.15725 -0.11136 -0.075932 -0.3202 -0.060417 -0.098501 -0.20588 0.32368 0.29169 0.11655 0.11319 0.24668 0.41 -0.77553 -0.15534 -0.055117 -0.23398 -0.011769 0.17069 -0.64055 0.27739 0.015525 -0.2418 0.26231 -0.0393 -0.062949 0.39279 0.042667 -0.1805 -0.63553 0.35115 -0.5932 -0.62748 -0.38535 -0.20162 -0.41538 -0.46666 0.51207 0.21827 0.35788 -0.30918 -0.25288 -0.24398 -0.061223 -0.66839 0.030523 0.18975 0.75246 0.076099 0.57812 -0.11806 -0.59988 0.43467 0.2198 -0.3884 -0.14825 0.26069 -0.57835 -0.3077 -0.53211 0.07127 
spraviti_v_dober_volja 0.0291 -0.026315 -0.38736 -0.12631 0.29523 -0.036693 0.060844 -0.33198 -0.24547 0.27016 -0.02621 0.15474 0.18485 -0.34922 0.079558 -0.20588 0.11308 -0.017352 -0.24499 0.136 0.86368 -0.21581 0.01432 -0.0036264 -0.15452 -0.26241 -0.020599 0.095829 -0.031768 -0.072 -0.013792 0.14896 0.61998 0.20744 0.60449 -0.14099 0.12089 -0.15527 0.061372 0.46971 -0.19836 -0.060135 0.064663 -0.16257 0.38888 0.37845 -0.20201 0.21649 0.15837 -0.81872 0.1218 0.15976 -0.32523 -0.52661 0.02453 -0.19876 0.33678 -0.37495 -0.5702 -0.0025725 -0.033389 0.27295 -0.37403 -0.47201 0.099646 0.6346 0.61738 0.048461 -0.29162 -0.011185 -0.13242 0.50149 -0.02666 -0.20478 -0.028125 -0.30572 -0.045465 -0.35942 0.32899 0.49192 0.11993 -0.20966 0.5412 -0.36807 -0.47578 0.14288 -0.20351 -0.48904 0.15317 0.60341 0.15086 -0.031317 -0.17266 0.052721 0.063894 -0.060588 -0.34262 0.037936 -0.03726 -0.20322 
vzeti_čas 0.19494 -0.21219 -0.18483 -0.19278 -0.24443 -0.86955 0.43029 -0.13146 -0.3932 0.010674 -0.28852 -0.043323 0.11996 -0.70675 0.36965 -0.54945 0.22582 -0.24586 -0.08089 0.64693 0.2456 -0.5771 0.51116 0.57001 -0.23091 -0.40007 0.58346 -0.07323 0.16739 -0.51727 0.61004 0.20215 0.28954 0.33308 1.0846 -0.18535 0.14188 0.30919 -0.20197 0.16439 0.21431 -0.0779 -0.33919 -0.18563 -0.51252 0.01986 -0.34609 -0.043584 0.22742 0.36771 0.23352 0.25002 -0.9005 -0.83419 -0.12085 0.38811 -0.13494 -0.056184 0.083842 -0.19168 -0.21409 0.052166 0.04222 -0.34507 -0.27136 -0.6607 0.29933 -0.11696 0.61415 -0.68988 0.01964 0.39182 -0.43404 -0.24283 -0.28901 -0.25146 0.41092 -0.64402 0.11531 0.23652 0.39066 -0.10212 -0.39664 -0.66339 0.2051 0.052255 -0.19573 -0.037416 -0.55852 0.26506 -0.18547 -0.081327 0.1164 0.33892 0.14194 0.50689 0.39482 -0.27989 -0.11181 0.21586 
pred_vrata_biti -0.38532 -0.28348 0.31062 -0.40179 -0.11329 0.36623 -0.19711 0.31686 -0.14194 0.30236 0.070639 0.25397 0.25628 0.093253 -0.05891 -0.27552 -0.14249 -0.47937 0.11647 0.092027 0.0095939 -0.033124 -0.10672 -0.26222 0.19994 0.022606 -0.0089822 0.10175 0.046839 0.1989 0.50318 0.20942 0.29537 -0.027977 0.17537 -0.34045 0.78723 -0.64588 0.40985 0.050339 -0.16773 0.028769 0.19522 -0.46534 -0.42188 0.10833 -0.1342 0.20807 -0.036833 -0.070029 0.10075 0.3856 -0.59503 -0.31175 0.48315 -0.4999 -0.13481 0.012815 -0.37303 0.017273 -0.16297 -0.29739 -0.51766 -0.28946 0.17001 -0.068045 -0.066498 0.14865 -0.62277 -0.096746 -0.33514 -0.44155 -0.12463 0.25872 0.086125 -0.65137 0.63799 -0.13701 -0.25414 -0.56449 -0.22244 -0.20787 0.061349 -0.35756 0.059807 0.35463 0.46302 -0.16719 0.42397 0.74845 -0.42188 0.30997 0.31682 -0.01079 0.20156 0.28662 -0.28783 -0.49404 -0.010619 0.30287 
postaviti_na_glava 0.0059995 -0.0040819 -0.48957 -0.26386 -0.24478 -0.12869 0.26022 -0.20347 0.13739 -0.18453 0.043966 -0.21163 0.5587 -0.68934 0.053456 -0.36668 0.13777 0.16957 -0.065159 0.28297 -0.10816 -0.12721 -0.046248 0.26448 0.044597 0.10564 -0.1318 0.37289 -0.2503 0.067388 0.35676 -0.13211 -0.28927 -0.08427 0.51605 0.29297 0.4852 -0.12446 0.13088 -0.0038046 -0.079931 0.061316 -0.29655 -0.22332 0.005797 -0.22652 0.042975 0.5367 -0.28098 0.34545 -0.30689 0.36904 -0.36121 -0.22617 0.30465 -0.069896 -0.31946 -0.0083088 -0.63479 0.043194 -0.28146 0.39091 0.27354 -0.10681 0.22169 0.32043 0.13373 0.18724 -0.49668 0.26183 -0.181 -0.032952 0.0039176 0.1849 -0.31972 -0.34059 0.29856 0.010311 0.044985 -0.1423 -0.11375 -0.69016 -0.33612 -0.66948 -0.26354 0.3281 0.25502 -0.18876 0.17273 0.58357 -0.39743 0.11352 0.044805 -0.14264 0.1046 0.3535 0.081716 -0.010375 -0.18121 -0.25141 
prihajati_na_misel 0.097019 0.23917 -0.43897 -0.31248 0.318 -0.12237 -0.37224 0.40813 0.054816 0.47051 0.027728 -0.34053 -0.029093 -0.28888 0.48176 -0.047658 0.12164 0.075054 -0.37461 0.50069 0.31463 -0.10836 -0.1151 -0.12982 0.10206 0.12463 0.34566 0.37504 0.28419 -0.058922 -0.55278 0.24022 0.69334 0.22795 0.64249 -0.095429 -0.31817 -0.43606 -0.033791 0.10532 -0.35014 0.56151 0.11858 -0.74373 0.088658 0.58325 0.3126 0.23754 -0.28021 -0.72982 0.21753 0.4934 -0.1854 -0.42729 0.18486 -0.016665 0.014817 0.022448 -0.37851 0.33226 -0.21995 -0.06105 -0.80015 0.26542 0.090647 0.20421 0.43562 0.28432 -0.22884 0.67213 0.094215 -0.42233 -0.23743 0.45714 -0.049401 -0.25401 0.25283 -0.4875 -0.25435 0.20976 0.11434 0.17513 0.46444 -0.3925 -0.49583 0.33682 0.16511 -0.034215 0.02353 0.45339 -0.2188 -0.16115 -0.099429 0.083561 0.29572 -0.20733 0.40338 -0.35366 -0.11988 -0.26049 
biti_v_postopek 0.26447 -0.16348 -0.72068 0.018508 0.26675 -0.09624 -0.16585 0.48943 0.060187 0.38278 0.46986 0.40773 -0.025812 -0.93373 0.64687 0.49462 0.18841 -0.51254 -0.37402 1.0766 0.33581 -0.57727 0.12178 0.13443 0.50694 -0.82066 0.17732 0.23124 -0.29473 -0.34089 -0.62842 0.15315 -0.72701 -0.087352 -0.27197 -0.49414 -0.25897 0.11018 0.61627 0.33755 -0.34409 0.10424 0.34784 0.49902 -0.07829 -0.15413 -0.40877 0.87967 -0.35117 -0.13418 0.24055 0.094791 -0.36731 0.18739 -0.57593 -0.35099 0.34256 0.29741 0.22333 0.057523 -0.36007 0.012444 -0.30681 -0.17646 0.46848 -0.25159 -0.30608 0.38406 -1.0473 -0.018728 -0.62564 -0.047782 -0.077105 0.347 -0.12117 0.091228 0.24271 -0.15277 -0.35356 0.59889 0.0839 0.20265 0.10784 -0.32554 0.2641 0.20408 0.21694 -0.13959 0.26825 -0.84743 0.18596 -0.46741 0.0077238 -0.68086 0.43349 -0.042025 0.57109 -0.48751 -0.28349 -0.27802 
najti_pot 0.57591 0.22027 0.33151 -0.23267 -0.52732 -0.28826 -0.13106 -0.009288 0.6411 -0.44694 -0.12288 -0.069935 0.11366 -0.17802 -0.020336 0.50992 -0.32696 0.29178 0.12577 0.0078366 -0.5027 -0.46658 0.59991 0.61201 -0.74525 -0.27041 -0.46542 0.28562 -0.18486 0.51957 0.0066459 0.038734 -0.081282 -0.67484 0.63556 -0.57294 -0.21818 -0.19433 0.15294 0.54389 0.24293 0.12923 -0.65826 -0.77063 0.057906 0.47508 -0.021079 0.058136 0.07964 -0.33127 0.77319 -0.2296 -0.17355 -0.8475 0.098258 0.30217 0.055833 -0.019054 -0.30404 -0.023754 0.4575 -0.17021 -0.10255 -0.55968 -0.58876 0.37685 0.57046 0.11791 -0.37256 0.055012 0.065076 -0.32262 0.088034 0.38305 -0.034441 -0.14557 0.73657 -1.0102 -0.0041607 0.12987 -0.58561 -0.08041 -0.63703 -0.36977 -0.068947 -0.8241 -0.29062 -0.61493 0.6498 -0.12547 -0.16945 -0.5384 -0.066455 -0.13956 0.23223 0.15554 0.63174 -0.51915 0.40265 -0.030194 
narediti_svoj -0.03198 -0.2046 -0.085943 0.10191 -0.59132 -0.11475 -0.16837 -0.36882 0.36171 0.22909 0.041336 0.074452 0.37603 -0.30618 -0.20804 -0.044331 -0.29731 0.21874 0.21732 -0.18833 0.34339 -0.79774 -0.15244 -0.14139 -0.090777 -0.45018 -0.53739 0.080315 -0.22616 0.26354 -0.19444 0.38346 -0.03107 0.53241 0.93816 0.054039 -0.0388 -0.11142 0.3955 0.3197 0.0015625 -0.33398 -0.54233 0.30871 0.046648 -0.17023 -0.43605 0.15294 -0.12198 0.30296 0.10434 0.12413 -0.29894 -0.72696 -0.24679 0.44699 -0.16684 -0.32375 -0.40008 -0.41756 0.23385 -0.31673 -0.0061502 -0.055242 0.030197 -0.049944 0.030771 0.35975 -0.15392 0.26619 -0.17036 0.5159 -0.3923 0.070582 -0.14602 -0.56803 0.55721 -0.45343 -0.33661 -0.15384 0.65814 0.2645 -0.24808 -0.32757 -0.31703 -0.060953 0.15357 -0.081655 0.18743 0.0030446 0.20569 -0.40133 -0.23367 -0.29973 -0.20065 0.34062 0.1619 0.11365 0.15097 0.084094 
iti_v_nos 0.26938 -0.61478 -0.25659 0.59249 -0.058383 0.40563 0.079557 -0.12226 0.32485 0.50245 -0.38871 -0.011619 0.15592 -0.15422 0.016529 -0.51929 0.13132 -0.19818 -0.080941 0.7029 -0.0048839 0.079558 -0.39707 0.75815 0.14502 -0.7585 -0.2787 -0.25134 0.40231 0.072222 0.22986 0.17683 0.057681 0.73011 0.49016 0.11759 0.33909 -0.15411 -0.068285 0.45011 0.77521 -0.38354 -0.22877 -0.052249 0.44825 -0.37676 -0.20168 0.069058 -0.61773 -0.25865 0.29779 -0.037149 -0.23437 -0.91175 -0.32501 -0.44067 0.38994 -0.21932 -0.69677 0.082387 -0.31799 -0.24592 -0.20128 -0.28394 -0.24751 -0.20975 0.12435 0.32145 -0.53101 -0.20596 -0.20424 0.062889 -0.32665 0.28561 -0.48601 -0.0088326 0.26261 0.12678 -0.35818 -0.14154 -0.58933 -0.29313 0.19318 -0.35655 -0.67257 -0.51461 -0.26447 -0.13391 -0.054214 0.072172 0.6643 -0.28669 0.019549 -0.33036 -0.40496 -0.1995 0.6545 -0.23579 -0.89207 0.31747 
jasen_biti 0.22122 -0.042802 0.098366 -0.22396 -0.024706 0.0084059 -0.091418 0.21986 0.030128 0.070105 0.039014 0.38049 -0.10382 0.32632 0.33718 0.0024269 0.28784 -0.4794 -0.04054 0.27436 -0.38447 -0.26416 0.041588 -0.33607 0.10036 0.61736 0.3863 0.39274 0.38038 -0.32533 0.16641 0.087705 0.25424 -0.10047 0.27009 0.25275 0.22145 -0.57413 -0.20658 0.55449 -0.0058278 -0.00069254 0.31546 -0.1913 -0.1207 -0.13478 0.13414 0.17008 0.061527 -0.63893 0.64859 0.16634 -0.19579 -0.56281 -0.020768 -0.73979 0.063866 -0.05017 0.12484 0.82308 -0.38108 -0.2062 -0.51645 -0.39848 -0.15563 -0.35627 0.092894 0.84496 -0.21093 0.21017 -0.50717 0.095886 -0.11885 -0.33063 0.27711 -0.70248 0.22081 -0.53924 0.21661 0.39941 0.44692 0.19422 0.10602 -0.35352 -0.2871 -0.55368 0.20282 -0.62768 0.62614 -0.14346 -0.53178 -0.12843 0.32175 -0.18145 -0.16262 -0.10649 0.018005 0.16712 0.07601 0.13068 
vreči_iz_tir 0.56853 -0.097914 -0.3148 0.23513 0.04366 -0.59058 -0.088852 -0.43852 -0.18741 -0.88359 -0.13209 -0.091005 -0.12096 -0.58396 0.22857 0.064844 0.19311 -0.3086 -0.063199 0.59 0.69847 -0.22878 -0.41587 0.76298 0.10254 -0.016359 -0.17897 0.036956 -0.23516 -0.1426 0.60461 0.27385 0.17578 0.30119 0.90448 -0.24463 0.35749 -0.42452 -0.27491 0.45291 -0.33309 0.64405 -0.11062 -0.56365 0.3948 0.45798 -0.1938 0.46269 -0.91295 -0.30405 1.0796 -0.18549 -0.53362 -0.56691 -0.13585 -0.063265 -0.23781 -0.059252 -1.152 0.06679 -0.59541 -0.13008 -0.053627 -1.0413 -0.6139 0.25016 0.23236 0.40053 -0.028394 0.19242 0.88466 -0.29482 -0.54906 0.36877 0.27221 -0.10593 -0.34339 -0.63291 -0.5366 0.57703 0.66652 -0.48166 -0.72592 -0.056935 0.13211 -0.33212 0.15691 -0.81883 -0.068401 0.028996 -0.2782 -0.32141 0.22756 -0.45679 0.76473 0.71476 -0.014136 0.21167 -0.46522 0.039162 
biti_všeč 0.22466 0.19238 -0.22265 0.23743 -0.0092704 0.35666 0.12002 -0.33946 -0.126 0.0481 0.30181 0.39311 -0.10476 0.14485 0.16579 -0.090383 0.26554 -0.12679 -0.36515 0.45297 0.24305 -0.28061 0.025474 -0.10468 0.12995 -0.53585 -0.30008 0.51068 -0.094064 0.13655 -0.23827 -0.1007 0.12487 0.42542 0.83648 0.0024804 0.31646 -0.22979 1.697e-05 -0.23716 -0.03208 0.086004 -0.42263 -0.076995 -0.30727 0.0049542 -0.33166 0.36722 0.24136 -0.44065 0.0017726 -0.1486 -0.62636 -0.1027 -0.047611 -0.19548 -0.16764 0.10016 -0.43714 -0.29293 0.039207 0.052547 -0.002265 -0.52545 -0.070079 0.42382 0.38836 0.28112 -0.0056787 -0.12836 -0.1852 0.42856 -0.36114 -0.2656 0.1047 -0.084445 0.27413 -0.18281 -0.28355 0.057441 0.25388 0.44191 -0.1272 -0.52963 0.030637 -0.2905 -0.39969 -0.14338 -0.16778 0.18207 0.49814 -0.075867 0.38921 -0.29776 -0.059193 0.27228 -0.029435 -0.034792 0.068183 -0.19459 
na_volja_biti -0.036298 -0.33656 0.0045932 0.0080288 0.29653 -0.39622 0.59475 0.62332 0.13869 0.27031 0.12636 0.3703 -0.45448 -0.35185 0.28078 -0.13837 0.35807 0.50032 -0.38991 0.68156 0.23606 -0.40228 -0.29116 0.59002 0.47176 -0.32506 0.12442 0.66983 0.27856 -0.024276 0.14747 -0.20639 0.033697 -0.051522 0.52429 0.28123 0.18098 -0.39438 0.55409 0.1963 -0.067136 0.15254 0.12105 -0.04622 0.51465 -0.045946 0.41496 0.039739 -0.38406 0.15516 -0.40041 0.12524 -0.10881 -0.42324 -0.14655 0.54107 0.3643 -0.43402 -0.74466 0.062916 -0.072399 0.021861 -0.0072555 -0.49686 0.52394 -0.45405 -0.012132 0.054448 -0.45962 -0.45487 -0.035174 -0.032829 -0.142 -0.16832 0.84358 -0.070254 0.20382 0.090929 0.014033 -0.23676 -0.25676 0.48179 0.1325 -0.20311 0.4596 0.012792 0.23904 -0.062165 0.86187 0.4558 -0.025034 -0.033273 0.37984 -0.39424 -0.014965 0.39665 -0.098048 0.083596 -0.035717 0.25551 
priskočiti_na_pomoč -0.34195 -0.069769 -0.58128 -0.64786 -0.21523 0.18424 0.055087 -0.52554 0.095872 0.57501 0.53677 -0.18796 0.24304 -0.037822 0.45588 0.26587 0.01052 -0.079285 0.090214 0.040693 0.54792 -0.57129 -0.25699 -0.36858 -0.58911 0.3927 0.39985 0.5403 0.46162 -0.39643 0.37851 -0.38155 -0.089716 0.33329 0.72819 -0.53455 0.34953 -0.27658 0.113 0.56595 0.41765 -0.14105 -0.63106 -0.42941 0.059015 -0.21414 0.57427 0.64486 0.16539 -0.32046 0.36462 0.32427 -0.06381 -0.3654 -0.5629 -0.0089192 -0.055173 -0.12553 -0.71077 -0.11742 0.071423 0.3089 -0.35086 0.13331 -0.23513 -0.4487 0.24145 0.14161 0.35777 -0.22875 -0.095556 -0.23061 -0.091963 -0.39929 0.10807 0.13355 0.75921 -0.70074 0.051731 0.82685 0.43261 0.15027 -0.50223 -0.47138 -0.21116 -0.098165 0.15117 -0.16641 0.16746 0.51659 -0.0059266 -0.59356 -0.11569 0.20205 0.12713 0.32813 -0.022674 -0.18709 -0.44494 -0.23242 
biti_v_čast -0.33505 0.067738 -0.15747 0.042705 0.41013 0.030372 -0.49437 0.24018 0.080469 0.20562 -0.30656 0.029134 0.15674 -0.39016 0.090086 -0.017281 0.0048571 -0.50552 -0.077027 0.42143 0.10802 -0.05296 -0.31515 0.0095692 0.42721 -0.078249 0.058282 0.1813 0.28358 0.16253 -0.11741 0.42168 0.11201 -0.042971 0.45722 0.47899 0.076751 -0.26915 0.21219 0.3194 -0.09261 -0.13614 0.17733 0.1271 -0.44624 0.049443 -0.38042 0.24989 -0.51961 -0.55333 -0.32378 -0.08381 -0.54087 -0.10696 -0.15608 -0.23589 0.43844 0.25514 -0.13765 0.11525 -0.14095 0.12489 -0.10667 -1.2648 -0.06721 -0.2767 0.70254 0.61496 -0.27449 0.32656 0.016973 -0.25452 0.13186 -0.58559 0.23645 -0.027772 0.12292 -0.33706 -0.40394 0.21616 0.65484 0.38146 0.52864 -0.63993 -0.20043 -0.16229 -0.04569 -0.38963 0.8795 -0.51065 0.30207 0.0090897 0.49266 0.095976 -0.18429 -0.030107 0.16005 -0.31434 -0.43066 -0.32763 
imeti_v_roka -0.13766 0.18953 -0.19503 -0.18128 0.12182 0.28327 0.41776 0.068426 -0.10191 0.011098 0.096955 -0.054171 0.02565 -0.41877 0.24677 -0.14843 -0.16681 -0.15881 0.29969 0.19102 0.14622 -0.4126 0.21672 0.577 0.20802 0.15654 -0.49726 0.57787 -0.048289 0.29758 -0.40717 -0.25705 -0.055575 -0.23395 0.71894 0.017074 0.033254 0.1448 0.092971 0.16118 -0.24735 0.29214 0.23255 -0.26054 -0.57797 -0.25023 -0.35763 -0.13429 -0.19639 -0.63807 -0.050966 0.25065 -0.72859 -0.51603 0.15273 0.10903 0.15978 0.22824 -0.32303 -0.32352 0.0053897 -0.38888 -0.11802 -0.42977 -0.086932 -0.20907 0.10681 0.18114 -0.24897 -0.0059567 -0.47561 -0.38102 0.23837 0.26482 -0.27058 0.131 0.23243 -0.28662 0.11748 -0.064606 0.53567 0.18982 0.35133 -0.13134 0.13462 -0.062974 -0.17865 -0.32646 0.39988 0.016397 0.34668 -0.020307 0.073744 0.10002 0.034894 0.56311 -0.0023603 -0.44165 0.40001 0.12345 
uspeti_velik_met -0.12882 -0.18418 -0.4878 0.046715 0.3894 0.05968 -0.23914 0.087173 0.23841 0.46281 -0.016847 0.23643 0.015237 -0.082685 -0.3099 0.021244 0.4909 -0.095939 0.29599 0.090891 -0.3277 -0.44053 0.59349 0.16561 0.27747 0.21362 0.30508 0.037722 -0.28251 0.29708 -0.26956 0.29424 0.26565 0.071733 0.59786 0.01376 0.31139 0.034222 0.66984 0.58802 0.23035 0.95782 -0.10488 0.011575 0.38457 -0.25195 -0.66264 0.14506 0.09498 -0.60905 0.3771 0.16769 -0.22293 -0.16689 0.15987 -0.036824 -0.51187 -0.28019 -0.093162 0.00062935 -0.11201 -0.087195 0.1241 -0.035318 0.3915 -0.17486 0.30447 0.98912 -0.46384 0.17167 -0.023992 -0.40123 -0.52274 0.14784 0.041388 -0.015405 0.60098 -0.041135 -0.22518 0.19501 -0.25322 0.19743 -0.47653 0.41092 0.069307 0.43772 0.66112 -0.3061 0.38085 -0.12722 -0.073245 -0.058375 0.29438 -0.040494 -0.08272 0.52488 -0.34005 0.34833 -0.031727 -0.14188 
prav_biti 0.51724 -0.21684 -0.26655 -0.3829 0.12216 -0.014203 -0.44018 -0.045463 0.41273 -0.38309 -0.013316 0.073242 0.072146 0.081363 0.23183 -0.31617 -0.046242 -0.026402 -0.26829 0.39561 0.26116 -0.093097 -0.018808 -0.3942 -0.062893 0.1746 -0.3928 0.46625 -0.20938 -0.52218 0.073976 0.40826 -0.015964 -0.15982 0.68454 0.25269 -0.10027 -0.091805 0.21927 0.39063 -0.008552 -0.066254 0.11243 0.15813 -0.34502 -0.060473 -0.081342 0.38844 -0.017348 -0.28818 0.22123 -0.03732 -0.22527 -0.53029 -0.061028 -0.1027 -0.34168 -0.22509 -0.32769 0.35602 -0.12795 0.15113 -0.44165 -0.30489 0.027668 0.17749 0.056628 -0.029106 -0.27247 0.44378 -0.32945 -0.43666 -0.19864 -0.078176 0.12517 -0.20577 0.16187 -0.29668 -0.10919 0.28163 0.12561 0.026461 0.34801 -0.11403 0.5144 -0.09624 -0.027043 -0.22859 0.2383 0.22704 -0.13278 -0.15661 -0.0014897 -0.25147 0.26579 0.4907 0.2256 -0.26694 -0.027152 0.12543 
v_zrak_biti -0.52454 -0.2694 -0.51517 0.10776 -0.53375 0.35331 0.14783 0.43233 -0.086624 0.39039 -0.15142 0.35079 0.031397 -0.38039 -0.33444 -0.73977 -0.26024 -0.39925 0.014076 0.047715 0.59616 0.068013 -0.10743 0.015037 0.32463 -0.73964 0.55693 0.36319 0.12868 -0.01198 0.59775 0.036847 0.30451 -0.083488 0.5383 0.0070144 0.64764 0.094708 -0.29621 0.68916 -0.24849 -0.034583 -0.32067 0.5219 -0.0030642 -0.12371 0.54639 -0.15244 0.3626 -0.26769 0.063956 -0.5101 -0.27748 -0.19962 -0.12165 -0.026141 0.65799 0.0026236 -0.57194 0.042609 0.061297 -0.17485 0.13945 -0.079827 -0.073505 -0.57455 0.30549 0.38269 -0.4582 0.21328 -0.36435 0.076043 0.68272 -0.17088 0.11012 -0.5738 0.29155 -0.58569 0.23266 -0.4368 -0.15296 -0.56977 0.38795 -0.33085 -0.38409 0.27474 0.10569 -0.041935 -0.32714 0.36958 -0.28141 0.11978 -0.062154 -0.55249 0.36843 -0.3064 0.3258 0.099402 0.096044 0.1442 
na_pomoč_poklicati 0.40293 -0.14663 -0.11855 -0.061254 0.40813 -0.17166 -0.096662 -0.44307 0.27468 0.21842 0.41815 -0.61809 -0.0096534 -0.48452 0.61262 0.27189 0.021383 -0.02862 -0.37971 0.58897 -0.058933 0.19959 0.72539 -0.44225 0.35989 -0.41417 -0.13242 0.033686 -0.35149 0.025894 0.40311 -0.11095 0.23168 -0.39862 0.60378 -0.17367 -0.0049705 -0.61937 0.23733 0.091809 -0.43632 0.071068 -0.13725 0.03945 -0.17746 0.30133 0.30855 0.1354 0.16272 -0.12748 0.40807 0.090591 -0.74552 0.65742 -0.23937 0.16169 -0.25767 -0.39168 -0.61339 -0.2683 -0.11737 -0.16715 0.28014 0.31946 0.2206 -0.26172 -0.0088089 -0.12765 -0.14524 0.08464 -0.19521 0.15547 0.11688 0.12019 0.25231 0.36509 0.7122 -0.6861 0.099189 0.076883 0.29726 0.20033 -0.13266 -0.16999 -0.32434 0.51374 0.11586 -0.27447 -0.1395 0.28904 -0.039889 -0.10894 -0.27309 0.15488 -0.31338 -0.018949 0.62848 -0.66077 -0.27112 -0.50525 
rad_imeti 0.7837 -0.41395 0.29476 0.34298 0.1563 0.10711 -0.14624 0.24543 -0.31877 0.40135 0.10305 0.54729 -0.14214 0.58494 0.066461 -0.52917 0.54462 -0.22478 -0.20007 0.5238 -0.71538 -0.36231 -0.017246 0.18116 0.3031 -0.34248 0.12874 0.58965 0.12215 0.23852 0.27214 -0.23806 0.44778 0.080711 0.43269 0.051764 0.19184 -0.057348 0.33809 0.35707 -0.32909 0.027512 0.015825 -0.054221 -0.21212 -0.35709 -0.0095551 -0.035389 0.23319 -0.018676 -0.55046 -0.085335 -0.66573 -0.32742 -0.50972 0.13091 0.22622 -0.08842 -0.44558 -0.44128 -0.27871 -0.21592 -0.03636 -0.91889 -0.63336 0.46771 0.56875 -0.42287 -0.19537 0.3541 -0.19445 0.24512 -0.24845 0.009029 -0.28106 0.14147 0.69776 -0.2296 -0.36838 0.23228 1.1375 0.71702 0.047472 -0.36769 -0.30985 -0.48551 -0.2068 0.054911 0.13878 0.043016 0.073743 -0.47668 -0.23862 -0.37404 -0.57814 0.48403 -0.27505 0.45402 -0.93299 0.26469 
res_biti 0.305 -0.25445 -0.22801 -0.03369 -0.1493 0.20059 -0.16678 -0.068128 0.2358 0.17172 0.32466 0.18397 -0.23511 -0.1298 0.15882 -0.283 0.062213 -0.020668 0.10671 0.15944 -0.1543 -0.11631 0.38139 -0.26385 0.076579 0.0745 -0.26301 0.14525 0.024893 0.15935 0.1309 0.11123 0.051666 -0.040938 0.30973 -0.029547 0.42346 -0.048838 0.12965 0.4014 -0.22187 -0.15785 0.035442 -0.092197 -0.062016 -0.022237 -0.14399 0.222 0.21962 -0.4428 0.097414 0.007131 -0.46209 -0.53615 -0.055829 -0.16324 -0.23146 -0.17635 -0.26613 0.27163 0.024232 -0.078388 0.010827 -0.26545 -0.25032 -0.179 -0.19904 0.20319 -0.2338 0.16274 -0.48456 0.034241 -0.1624 0.22565 0.042494 -0.30027 0.17539 -0.52106 -0.19463 0.091152 -0.13982 -0.13963 0.13443 -0.044095 -0.27048 0.027795 -0.028601 0.010575 -0.10139 0.054255 0.14106 0.030506 0.16311 -0.29068 -0.02799 0.26787 -0.28876 -0.020032 -0.034543 0.19008 
vzeti_nase 0.023286 -0.35576 -0.66898 0.4613 -0.50155 -0.040196 0.14756 -0.15269 0.34609 -0.42512 -0.0081828 0.38063 0.071394 -0.67934 0.67179 -0.61264 0.57658 0.48246 -0.17365 0.11923 0.21691 -0.8785 0.15442 -0.21964 -0.33464 0.00013136 0.87773 0.32762 -0.036771 -0.24022 -0.40564 0.39091 0.36933 -0.169 1.2261 0.6306 -0.059525 0.41034 0.29659 0.51874 0.08756 0.34585 0.046264 0.55384 -0.80823 -0.28953 -0.3319 0.42585 0.35817 -0.55089 0.59241 0.74219 -0.22262 -0.57737 0.079137 0.35459 0.34003 -0.27318 -0.22196 0.23568 -0.30767 -0.33545 0.093388 -0.022488 -0.18028 -0.46115 -0.070645 -0.086413 0.045765 0.020361 0.3468 -0.054267 0.51494 0.36663 -0.050736 -0.088853 0.45634 -0.13691 0.70173 0.78808 -0.054089 0.18938 0.17025 -0.61323 0.16504 0.052183 -0.64498 -0.48442 -0.33267 0.49905 0.176 0.035437 -0.4271 0.38685 0.82121 0.39443 -0.031447 0.24896 -0.095755 0.0212 
iti_predaleč -0.11522 0.087304 -0.71101 0.27794 -0.3525 0.04306 0.18401 0.59558 -0.037757 -0.35875 -0.03214 0.82486 0.30109 -0.010936 0.15494 0.044487 0.33063 -0.57072 -0.17788 -0.013525 -0.76405 -0.28567 -0.37227 0.16095 -0.11505 0.10446 -0.23682 0.19541 0.17891 -0.19008 0.25007 0.066268 0.096501 0.13593 0.40485 0.47006 0.0074423 0.077302 0.30988 0.77163 -0.15407 -1.1082 -0.43451 -0.0807 0.25282 -0.14045 -0.67542 0.18098 -0.11311 -0.21832 0.24508 0.029906 -0.82194 -0.58507 -0.34914 -0.027429 0.38198 -0.23663 -0.61998 0.10459 -0.20963 0.036741 -0.71018 -0.15836 -0.26165 -0.059718 0.20399 0.63714 -0.22142 -0.20621 -0.27098 0.0046353 -0.30184 -0.21231 0.48323 0.21225 0.15947 -0.54685 -0.37162 -0.11854 -0.21452 -0.71568 0.28737 -0.015928 -0.38479 0.46964 0.17826 -0.092144 0.12978 0.68586 0.14922 -0.049468 -0.57498 -0.57037 0.2463 -0.24239 0.19637 -0.30996 0.24994 -0.077424 
zravnati_z_zemlja 0.22785 -0.14918 -0.60384 0.059456 0.52895 0.45477 0.53856 0.19235 0.025371 0.54394 0.1861 -0.15943 -0.26557 -0.032225 0.21032 0.21805 0.16724 -0.43121 0.097009 0.16045 -0.22237 0.15968 0.091677 0.14679 0.3125 0.098375 -0.23088 0.59939 -0.11986 -0.089126 -0.26276 0.18722 -0.38519 -0.23067 0.24487 0.20744 0.24599 -0.28903 -0.073489 -0.12573 0.31524 0.41648 0.13124 0.50385 -0.40423 -0.12361 -0.51902 0.078322 0.006792 0.32238 0.58071 0.5548 -0.91525 -0.63048 -0.30748 -0.59684 -0.0399 -0.17582 -0.34391 -0.35304 -0.060599 -0.19623 0.072148 0.25265 -0.14272 -0.65754 0.94061 -0.081 -0.57298 0.20965 -0.28402 -0.24438 -0.41204 0.27382 -0.65531 -0.091837 -0.34716 -0.41347 -0.12693 0.42139 -0.021555 0.58804 0.49387 -0.62062 0.073224 0.2318 -0.18093 -0.56032 0.61132 0.13897 -0.48085 -0.90088 -0.30563 -0.25413 0.0076237 0.47811 0.14729 -0.68014 0.08256 -0.21844 
iti_v_nič -0.48969 -0.75239 -0.39696 0.67339 -0.72527 0.0010982 -0.079014 -0.21887 -0.014076 0.38506 -0.2031 0.56618 0.26512 -0.10188 -0.1371 -0.53575 -0.050094 -0.10354 -0.050875 0.92804 0.47162 -0.027889 -0.68084 0.10627 0.66987 -0.45483 -0.096586 0.44617 0.39765 0.61804 -0.24585 -0.061353 -0.29237 -0.050991 0.015374 0.35534 0.14245 -0.44692 0.10994 0.35329 0.37652 -0.030365 -0.27962 -0.26789 0.44121 -0.60353 -0.31122 0.1062 -0.26551 0.2406 0.60487 0.79908 -0.4647 -1.0715 -0.11215 -0.48311 0.46804 -0.060781 -0.44271 0.40789 0.0070731 0.14957 -0.49707 0.19905 -0.11387 -0.20778 0.2854 -0.26777 -0.20527 -0.47883 -0.11695 -0.029551 -0.25847 -0.05632 -0.14521 -0.38657 0.40205 -0.091703 -0.33143 0.0025462 -0.99905 -0.052372 -0.2612 -0.032967 -0.81357 -0.12473 0.1442 -0.26596 0.20338 -0.19351 0.54863 0.1911 0.54711 -0.43159 -0.38258 -0.52543 0.81321 -0.60233 -0.28287 0.25705 
postati_jasen -0.058625 0.044809 -0.08073 0.78672 0.076184 -0.16163 0.15167 -0.15833 0.30987 0.004801 0.41979 0.22208 0.43762 0.56644 0.47419 0.23563 -0.033687 -0.1844 -0.55775 0.8583 -0.045647 -0.32753 -0.10534 0.36477 -0.20718 -0.43581 -0.19088 -0.040016 0.68618 -0.1923 -0.089154 0.030086 0.17492 -0.52755 0.62793 0.25873 -0.28613 -0.13943 -0.048247 0.12572 -0.18903 0.022074 0.19348 -0.15951 -0.31719 -0.12085 -0.81563 0.43023 0.35981 -0.77942 -0.14635 0.33292 -0.19466 -0.54323 0.14699 -0.43839 0.34833 -0.31604 -0.065037 0.054301 -0.34162 -0.21135 0.25387 -0.18573 -0.011238 -0.46545 0.17223 -0.37056 -0.49986 -0.22111 -0.48816 0.37725 0.080568 -0.12477 -0.2333 -0.90503 0.12304 -0.32096 0.41984 -0.61881 -0.14399 0.21303 0.069014 -0.69164 -0.18158 -0.027047 -0.056563 0.00011571 -0.050101 0.71375 0.1659 0.14118 -0.17425 0.29432 0.29961 -0.15927 0.12856 -0.086444 0.24471 -0.30958 
biti_v_zrak 0.22002 -0.36447 -0.1288 0.2087 -0.11007 0.32694 0.24543 0.2834 0.30387 0.076028 0.053888 -0.17604 0.14139 -0.45778 0.14511 -0.10823 0.1857 -0.21545 -0.18065 0.16337 -0.3229 0.16787 0.038575 -0.20365 0.31351 -0.90688 0.0085951 0.037537 -0.031349 0.067392 0.45162 0.17299 0.32177 -0.38468 0.59707 -0.11848 0.19841 0.1508 0.22105 0.095918 -0.093863 -0.17607 -0.10656 0.088511 -0.22947 -0.031811 0.62962 0.18186 0.40435 -0.086004 -0.11195 -0.11449 -1.0207 -0.51651 -0.03054 -0.55298 0.76127 0.34531 -0.14698 -0.4937 -0.23416 0.13322 -0.032129 -0.15197 -0.34254 -0.073451 0.32487 0.14666 0.043168 0.080432 0.064071 -0.12535 -0.093477 0.22417 0.099664 -0.42059 0.24775 0.06681 -0.19932 0.026645 0.26919 0.053413 0.3727 -0.61708 0.4875 0.039477 0.31965 0.19703 -0.088594 0.10174 0.16612 -0.51638 0.0057055 -0.13189 0.1245 -0.0034749 0.41992 0.098358 0.39812 -0.053463 
imeti_rad 0.24042 -0.088689 -0.19825 -0.27879 -0.036167 -0.17552 0.067391 -0.043341 0.12659 -0.18284 0.081079 0.73833 -0.47135 0.19038 -0.073388 -0.34085 0.75001 -0.072844 -0.33862 0.16238 0.15709 -0.47302 0.35581 -0.14263 0.17293 0.37351 0.16099 0.23588 0.02073 0.21082 -0.18174 0.15292 0.4519 0.088108 0.67303 0.27645 0.33002 0.075215 -0.00066963 0.11403 0.072566 0.079335 -0.54977 -0.16718 -0.24684 0.022278 0.28095 -0.2044 -0.1234 -0.44209 0.36939 -0.24246 -0.66747 -0.29868 -0.32055 0.40655 -0.2704 -0.14378 -0.57892 -0.33934 0.59411 -0.31596 -0.11996 -0.33226 -0.4111 0.13521 0.4124 -0.086672 -0.028182 -0.465 -0.24266 0.30485 -0.23863 -0.54875 -0.21065 0.1542 0.66323 -0.49839 -0.063021 0.60257 0.61049 0.070297 0.13473 -0.67566 0.16322 -0.37545 0.074594 0.15473 -0.10479 0.32829 0.29718 -0.3134 -0.20731 0.20469 0.32392 0.40784 0.17124 0.045759 -0.61997 -0.39618 
priti_do_živ 0.32023 -0.025803 -0.264 -0.065712 0.27207 -0.31528 0.13564 -0.20287 -0.48662 0.37349 -0.18482 -0.079444 -0.0025657 -0.58404 0.038542 0.019006 0.25747 -0.25838 -0.28616 0.32802 -0.050106 -0.18557 -0.068914 0.098893 0.16215 0.080677 0.46808 -0.26924 0.54915 0.19562 -0.098132 -0.14141 0.35148 0.0011746 0.54687 -0.023889 0.69533 -0.2482 0.17839 -0.020707 -0.1932 -0.36953 0.0032768 0.29696 -0.43026 0.25409 -0.69222 0.020574 -0.6075 -0.49808 0.1665 0.19193 -0.44352 -0.89853 0.11439 -0.18422 0.39104 -0.086766 0.15605 0.073309 -0.37196 0.24135 0.45223 -0.48671 0.077536 0.080369 -0.061832 0.57278 -0.34813 0.39479 0.21445 0.20756 0.080867 -0.031746 -0.34663 -0.71442 -0.16885 0.085168 -0.055241 -0.044843 0.077552 0.25381 -0.46083 -0.13538 0.07759 -0.30857 0.4975 -0.1078 -0.020585 -0.01731 0.67465 -0.10886 0.19815 -0.39346 0.55842 0.11208 0.38949 -0.91769 -0.042645 0.29846 
biti_stvar 0.65911 -0.40754 0.34994 -0.085565 0.41526 -0.20038 0.1414 -0.05675 0.22438 -0.10651 0.11889 0.17986 -0.056508 -0.1316 -0.013599 0.16046 0.445 0.0035519 -0.42147 0.081268 0.2837 -0.29501 -0.068806 -0.062312 -0.17948 0.022151 0.40737 0.15633 0.12134 -0.11294 0.04868 0.42181 0.10802 -0.22173 0.53948 -0.11146 -0.26223 0.14422 -0.22191 0.13448 -0.24839 -0.063195 -0.31724 -0.34058 -0.015477 0.1838 -0.041593 0.12166 -0.18698 -0.71936 -0.04999 0.58157 -0.71792 -0.3106 -0.11462 -0.040976 0.0093649 0.016562 -0.029265 -0.30784 0.34424 -0.0056353 0.082998 -0.41944 -0.18539 -0.17967 -0.1222 -0.023176 -0.42463 0.61336 -0.46668 0.33568 -0.17231 -0.74086 -0.13335 -0.53741 0.85478 0.24745 0.10551 0.038007 0.20659 -0.024462 -0.25796 -0.26182 0.0088608 0.0040454 0.044904 0.35406 0.59732 0.083043 -0.31225 0.16373 0.65903 -0.23176 0.45886 0.11411 0.10666 -0.26338 -0.051086 0.10467 
povedati_svoj 0.58781 -0.34929 -0.32164 -0.11142 0.19569 -0.27108 -0.2248 -0.078272 0.23525 0.16037 0.26404 0.16441 0.25032 -0.26123 0.45008 -0.11021 0.093538 0.54188 -0.17637 0.17429 0.23727 0.025995 -0.0098828 -0.55866 0.019589 -0.55117 -0.017585 0.1576 -0.052778 -0.30877 -0.18751 0.046687 0.22932 0.046532 0.60723 -0.11573 -0.18735 -0.32711 0.31107 0.21692 -0.26483 -0.14043 0.097694 0.25742 -0.51005 0.12646 -0.21246 0.064286 -0.30974 0.013069 -0.011611 0.11792 0.01921 -0.049638 -0.2163 0.023937 0.089971 -0.143 -0.11778 -0.27969 -0.031889 -0.66295 0.15643 0.016631 -0.26636 0.20163 0.16678 0.37222 -0.21446 0.31343 -0.076645 0.13217 0.091878 -0.070801 -0.074655 -0.075503 -0.17604 -0.74591 -0.11095 0.39243 0.37803 -0.03128 0.17028 -0.2264 -0.47691 0.35101 -0.024861 -0.55438 0.11941 -0.23572 0.15166 -0.27271 -0.16252 -0.23732 -0.06738 0.19491 0.10621 -0.54193 -0.12902 -0.28733 
prirasti_k_srce -0.16155 -0.14138 -0.3321 0.06962 0.44608 -0.11971 0.16843 -0.49583 -0.51194 0.45249 -0.55902 0.76066 0.10313 0.084049 -0.4173 -0.13885 0.79101 0.23651 0.046842 0.78921 0.8261 0.081868 -0.10946 0.049985 -0.0079569 -0.41556 -0.045809 0.37623 0.60542 0.26438 0.17189 -0.39118 0.79802 0.045216 0.94125 -0.01458 0.68183 -0.46315 -0.060896 0.67305 0.30395 -0.41086 -0.20465 0.29617 0.22835 0.060785 0.23948 0.24501 0.30659 -0.50363 -0.23013 0.035125 -1.0997 -0.74495 -0.066434 -0.17012 -0.33556 -0.0017636 -0.65209 -0.037473 0.03766 0.14846 0.14262 -0.22541 0.044136 0.015733 0.40742 0.64388 -0.13449 0.27387 -0.039092 0.02064 -0.0085659 -0.40925 0.038162 -0.042125 0.62316 0.11288 -0.32246 -0.17417 0.19557 0.42073 0.31021 0.0423 0.58039 0.014857 -0.12275 -0.48225 -0.14912 0.064249 0.20508 -0.5903 -0.0068846 -0.071964 0.50701 -0.16854 -0.06326 -0.10028 -0.12928 -0.051631 
priti_skupaj 0.28763 -0.26023 -0.10956 0.00012316 0.51092 -0.38576 -0.30671 0.094865 -0.45118 0.44324 0.0065332 -0.3424 0.10665 -0.035569 0.24051 0.076262 0.13793 -0.013299 -0.4154 0.45433 0.42779 -0.39507 -0.41387 -0.10522 0.36535 -0.32246 -0.014503 0.99441 -0.11983 -0.030125 0.4277 -0.22501 0.1295 0.15509 0.57218 0.23585 0.63354 0.20207 -0.016713 0.15282 0.026328 0.68731 -0.052977 0.29924 -0.60218 -0.13715 -0.81591 0.46816 0.35695 0.031383 0.17791 0.31351 -0.60844 -0.35377 0.085291 -0.076284 -0.18402 0.21771 -0.79774 0.093526 0.12739 -0.39078 -0.079748 -0.22211 0.29283 0.53435 -0.07234 0.33796 -0.27448 -0.18513 0.01932 0.23937 0.19105 0.036554 -0.0065168 0.25048 0.29202 -0.40468 0.18549 0.45125 0.40363 -0.15634 -0.32598 -0.34451 -0.12711 -0.82033 0.34456 -0.55282 0.010959 0.010909 -0.23454 -0.15003 0.12563 0.014573 -0.030139 0.045759 0.31457 -0.068158 0.12203 -0.22723 
stati_ob_stran 0.48192 0.14092 -0.57994 -0.089793 0.22839 -0.12422 -0.076445 -0.6043 0.28119 -0.051164 0.3557 0.044922 -0.084383 -0.12614 0.46009 -0.12581 0.80703 -0.22887 -0.24601 0.38626 0.39692 -0.055658 0.55417 -0.083792 0.0040491 -0.055135 0.12695 -0.15121 1.0781 0.42128 -0.03114 0.089931 0.55438 0.29612 0.87508 -0.50525 0.030835 -0.23236 -0.16934 0.53412 -0.12249 0.4349 -0.10401 -0.06322 -0.090404 0.14157 -0.24823 0.12965 0.4992 -0.22897 0.13334 -0.043138 -0.64961 0.32835 -0.27502 0.60897 -0.086658 -0.46182 -0.085422 -0.40786 0.57546 -0.25584 -0.45508 -0.45372 -0.39133 0.073321 0.1472 0.3772 -0.21627 0.11779 -0.64093 0.51113 0.30827 -0.013302 0.039766 -0.10115 0.28986 -0.74533 0.2324 0.28535 -0.0846 -0.24817 -0.17398 -0.13557 -0.18811 0.5857 -0.22578 -0.0017834 0.26069 0.41162 0.027812 -0.26101 -0.35815 0.25932 0.16893 -0.62815 0.41496 -0.49801 -0.69771 -0.047483 
plačati_cena 1.2498 -0.34499 -0.60209 0.53561 0.032692 -0.30758 -0.036303 0.16935 -0.30227 0.11436 0.065617 0.55365 -0.39799 -0.33478 0.28946 -0.19592 -0.089243 -0.26837 -0.34175 -0.41429 0.013402 0.37276 0.18773 -0.021838 0.44979 0.13575 0.30151 -0.18736 0.67355 0.14288 -0.11913 0.18645 -0.44539 0.066346 -0.055054 0.055985 0.75147 -0.42401 0.60974 0.53925 0.1154 -0.77976 0.089142 -0.11612 -0.68911 0.098062 -0.20702 1.6293 -0.16212 -0.91156 -0.15543 -0.10596 -0.13784 -0.14981 -0.03953 -0.1033 0.059372 0.065791 -0.77316 -0.68793 -0.72707 -0.42391 -0.6277 -0.20376 0.20999 -0.2281 0.073721 -0.025072 -0.56661 -0.001757 0.028977 0.14955 -0.08667 -0.58451 0.27168 -0.56602 0.39391 -0.44005 -0.32985 -0.40854 0.023592 0.26363 -0.92975 -0.26248 -0.59436 0.14478 0.15604 0.55534 0.2351 0.50923 -0.0625 -0.17392 -0.12484 -0.70559 -0.42772 0.21543 -0.01064 -0.43244 0.9978 0.53256 
obrniti_na_glava 0.071476 0.0011354 -0.22503 -0.083071 -0.48818 -0.41773 -0.28019 0.016585 0.19758 -0.25218 0.12893 -0.19993 0.32613 -0.58919 0.64424 -0.39357 -0.23468 -0.12123 -0.20704 0.36761 0.29487 -0.12122 0.091023 0.36786 -0.23125 -0.072659 -0.19179 0.6376 -0.16514 0.32776 0.1962 0.15933 0.15105 -0.17187 0.68244 0.2315 0.49125 -0.24634 0.40818 0.04123 0.073698 -0.2929 0.12184 -0.2182 -0.2555 0.21657 0.045208 0.75466 -0.39168 0.1069 0.11764 0.30946 0.27663 -0.12636 -0.080731 0.28152 0.012585 -0.079367 -0.33919 -0.12635 -0.43626 0.54638 0.1536 -0.046166 -0.12238 -0.10384 -0.0042844 0.36303 -0.75386 0.2453 -0.21858 -0.20229 -0.13047 0.22141 0.31366 -0.12917 0.21226 -0.11364 0.021563 -0.21579 0.23723 -0.50067 -0.0091459 -0.70777 -0.061237 -0.24039 -0.041764 -0.080448 -0.24313 0.40804 0.031764 -0.12744 0.11651 -0.12016 0.1426 0.15186 0.29804 -0.34668 0.2845 -0.61182 
vzeti_pod_drobnogled 0.086744 -0.51575 -0.10774 -0.33504 -0.29515 -0.33376 0.25409 -0.44997 0.24602 -0.13541 0.17588 -0.27259 0.38418 -0.29823 0.92019 -0.47253 -0.18727 0.10741 0.21226 0.34279 0.062934 -0.32896 0.42259 -0.14288 0.2286 -0.0871 0.42812 0.015855 0.080233 -0.21557 -0.088038 -0.36377 0.19801 -0.20269 0.13799 -0.19924 0.12221 -0.34489 0.39777 0.28918 -0.24608 0.29149 -0.26643 -0.11236 0.23903 -0.28634 0.39489 0.55275 0.11315 -0.41727 0.5032 0.41221 0.078894 -0.3347 0.11477 0.10347 -0.011594 -0.70995 -0.36751 -0.16807 -0.3032 -0.12325 0.49273 0.33792 -0.26052 -0.32261 0.4467 -0.23314 -0.55847 -0.1903 0.35062 -0.56848 0.44254 0.013654 0.31017 -0.28897 0.31769 -0.09729 0.26402 0.72188 -0.30545 0.56363 0.44259 -0.5706 -0.48866 0.046304 -0.059172 0.38262 0.31016 0.20522 0.22525 0.2103 -0.7543 -0.060886 -0.2637 0.75329 0.011446 -0.038379 -0.35615 -0.05634 
na_ogled_biti 0.22467 0.68691 -0.037028 0.23962 -0.071605 0.072483 -0.045376 0.91911 0.11692 0.318 0.45941 0.47311 0.14435 -0.66418 0.19842 0.2729 -0.092015 0.093093 -0.44122 0.37899 1.0934 -0.17266 -0.065536 0.26542 0.24966 -0.26653 0.0054578 0.12853 0.62601 0.55762 0.17222 0.25925 -0.635 0.13948 0.53763 0.26559 0.55984 -0.074319 0.69602 0.5342 -0.60841 0.38957 -0.78701 -0.0012905 -0.061066 0.010819 -0.48285 -0.59021 0.049447 0.11417 0.10649 -0.059494 -0.13226 0.24499 0.87224 -0.69649 -0.32616 -0.019375 -0.28866 -0.3173 -0.38143 -0.50696 -0.33743 -0.16942 -0.51198 0.24717 0.46424 0.34388 -0.13851 -0.15746 -0.50826 -0.019213 0.48118 0.50534 0.041643 0.33371 0.92155 -0.26067 0.15392 0.12223 -0.034217 -0.10731 -0.25467 -0.39022 -0.18358 0.2603 0.61107 0.047732 0.44949 0.21048 -0.066688 -0.035979 0.9952 -0.21509 0.13069 -0.24074 -0.1141 0.045621 0.31628 -0.14503 
bog_vedeti 0.17856 -0.50787 0.33724 -0.42818 0.069517 0.20962 -0.49063 0.024771 0.012091 0.71948 -0.15366 0.7011 -0.046896 0.0894 -0.31028 -0.10796 0.50362 0.054313 -0.021622 -0.14072 0.49385 0.20068 0.62048 0.32641 -0.30897 -0.59734 -0.16731 0.33248 0.57779 -0.31134 -0.44904 0.47193 -0.22331 -0.23432 0.87621 0.30964 0.22928 -0.061833 0.17224 0.16427 0.18419 -0.048688 -0.067935 0.0014831 -0.6614 0.011729 -0.28045 0.55607 -0.18975 -0.72533 0.19638 0.50295 -0.49317 -1.0065 0.14457 -0.061587 -0.044719 -0.051085 -0.07843 0.41091 -0.18022 0.31789 -0.0030226 -0.20288 -0.60516 0.47183 0.5613 0.065022 -0.11059 0.068784 -0.2842 -0.58007 -0.26737 -0.6824 -0.057727 -0.94605 0.3355 -0.62747 -0.15265 -0.037964 0.166 -0.34207 0.0042324 -0.22031 -0.70645 0.59617 -0.20299 -0.013971 -0.27946 0.47656 -0.19564 -0.15721 0.58314 -0.30241 0.3321 -0.38092 0.85826 0.014408 0.42181 -0.2001 
imeti_v_misel 0.14576 -0.33824 0.3524 0.023359 -0.021256 -0.027765 -0.11597 0.0080136 -0.16515 0.1592 0.43555 -0.0071427 0.39507 -0.52042 0.41097 -0.10161 -0.22558 -0.41774 0.017749 0.071719 0.16179 -0.074357 0.089986 0.32844 0.079372 -0.63775 0.19788 0.41248 0.23015 -0.079518 -0.27878 -0.41252 0.28286 -0.50217 0.58929 -0.28291 0.28303 0.10675 -0.16676 -0.12523 -0.36549 0.34889 -0.021929 0.12622 0.44768 0.049938 -0.056378 -0.1406 0.06699 -0.79836 -0.02854 0.31649 -0.33248 -0.66887 -0.19451 -0.090769 -0.2382 -0.081145 -0.12894 0.013218 0.013965 -0.56376 -0.094405 0.17744 0.1706 -0.11261 0.15754 -0.034716 -0.37329 0.30999 -0.81559 -0.071554 -0.59177 0.15972 -0.10094 0.064681 0.33231 -0.49979 -0.43471 0.019329 0.53289 0.28643 -0.1453 -0.28406 0.35674 -0.089753 -0.067596 0.11666 -0.12775 0.16115 0.7045 -0.067474 -0.49472 0.041348 -0.081783 0.2843 -0.58941 -0.11577 -0.033727 -0.10843 
imeti_na_razpolaga -0.57107 0.17604 -0.23665 0.080731 0.12715 0.22709 -0.10708 0.32453 -0.45022 0.81112 0.11183 0.10707 0.081938 -0.88273 0.41492 -0.40026 0.66235 -0.19523 0.21857 1.2492 -0.58116 -1.0251 0.15011 0.32966 0.52487 -0.12269 0.35457 0.4183 0.44868 0.13085 -0.39886 0.52821 -0.057491 -0.21239 0.21665 0.24081 0.35991 0.41193 0.39914 -0.13993 0.026755 -0.055168 -0.011828 -0.11175 0.45825 -0.32617 0.6884 0.10425 0.36227 -0.28508 -0.1646 0.2788 -0.40099 -0.17407 -0.36873 0.15373 0.34159 -0.044487 0.10536 0.5152 -0.23077 -0.15857 0.16796 -0.025598 -0.17131 -0.039362 -0.23793 -0.023545 -0.25965 -0.13706 -0.19091 -0.055866 -0.43754 -0.080921 -0.29678 0.17741 0.96477 -0.38355 0.045786 0.2342 -0.17695 -0.52435 -0.63936 -0.11995 0.14549 -0.39904 -0.35464 -0.3976 0.20849 0.29904 0.045324 -0.211 -0.69 -0.98589 0.42324 0.13722 0.39314 -0.35255 0.34533 0.27152 
biti_v_vloga -0.20311 -0.44224 -0.50576 -0.068797 0.12756 0.25197 -0.4584 -0.039985 -0.11592 -0.071837 -0.27902 -0.46783 -0.38319 -0.20336 0.59817 -0.29725 0.7206 0.18032 -0.54971 0.46213 -0.49392 -0.37287 0.60652 0.046666 0.34396 -0.028142 0.021164 -0.093807 0.20079 0.60836 0.0065954 0.38574 -0.37021 0.042884 1.0513 -0.10459 0.23578 -0.23104 0.11244 0.24632 0.4974 0.48991 0.24262 0.36929 -0.039488 0.37419 -0.22634 0.46272 0.14316 -0.90184 0.028032 0.22484 -0.63564 0.43955 0.1418 -0.37267 -0.24312 -0.16667 -0.027083 -0.55063 -0.26022 -0.38297 -1.0402 0.26063 -0.058009 0.27825 0.19778 -0.08449 0.12691 0.47615 -0.56887 0.23457 0.14254 0.58103 -0.35764 -0.42834 0.62395 -0.83559 -0.46194 0.078186 -0.11117 -0.24415 -0.29284 0.13146 0.55715 -0.18205 0.15493 -0.18054 0.6865 0.19335 0.0043357 0.089516 0.10135 0.60651 -0.068238 0.041586 -0.0045759 -0.84065 -0.063581 0.12828 
priti_pod_roka -0.27159 0.067922 -0.16266 0.10493 -0.015649 0.00679 -0.21978 -0.20207 -0.1145 0.010206 0.038007 0.20655 0.081372 -0.54967 0.0010103 0.024432 0.45065 -0.38843 -0.2946 -0.2785 0.4245 -0.55689 -0.30111 -0.30217 0.58576 -0.28402 0.06633 0.20054 0.18005 0.18991 -0.25471 -0.56811 0.43358 -0.32236 0.69653 -0.46827 0.37988 -0.42287 -0.22298 -0.017299 0.34079 0.16545 -0.42025 -0.0165 -0.4608 0.015993 -0.39304 0.61069 0.15022 -0.35341 0.24139 0.40139 -0.21541 -0.47401 -0.17075 -0.26773 -0.11133 0.36198 -0.79899 0.35588 -0.29787 -0.27001 0.22642 -0.27227 -0.08173 -0.18692 0.276 0.56311 -0.43712 0.35956 0.43036 0.1473 -0.14456 -0.01595 0.15862 0.0018608 0.42144 -0.62302 -0.11181 0.11894 0.38315 0.070526 0.18732 -1.0079 0.30326 0.173 0.077403 0.33309 0.38269 0.49794 -0.40864 0.58668 -0.20185 -0.11972 0.40724 0.039605 0.042417 0.010576 -0.29233 -0.30192 
nositi_ime -0.7688 -0.11275 0.2134 -0.80355 0.20229 -0.2968 0.59051 -0.079878 0.027267 -0.35032 -0.24962 0.33987 -0.40407 -0.075773 0.70204 -0.25136 0.49028 0.34769 -0.040527 0.71162 0.62417 -0.30248 0.4737 -0.50731 -0.37102 -0.095955 -0.50229 -0.63498 -0.54483 0.20657 0.18862 -0.3037 -0.32381 -0.33252 0.60427 0.27025 0.28496 0.29194 0.11863 1.2592 0.76207 0.48483 -0.36035 0.069714 0.38055 0.30116 0.21473 0.10456 -0.19822 0.38167 0.74149 -0.15563 -0.39402 -0.64671 0.24002 0.10024 0.54398 0.46374 -0.66926 -0.55078 -0.25133 -0.25527 -0.32235 -0.31418 -0.77426 0.35155 0.25037 0.76001 -0.71946 0.16447 -0.005592 0.18994 -0.45261 -0.33999 -0.017604 0.25958 0.35107 0.12866 0.11562 -0.49223 -0.073286 0.4067 0.1464 -0.23786 -0.061168 0.27076 0.035617 -0.47654 0.21678 0.44915 0.47321 -0.41096 0.070101 -0.3543 0.039581 0.19944 -0.43999 0.2401 0.019656 -0.29571 
ujeti_v_past 0.45848 0.51125 -0.3914 -0.29495 0.10498 0.65491 0.16798 0.15119 0.027496 -0.064542 -0.26881 0.5112 0.05919 -0.31749 -0.16772 -0.34938 -0.27993 -0.058961 0.076928 -0.20848 0.071906 -0.20597 -0.26467 0.29294 -0.011571 -1.0864 0.27431 0.0032782 0.10646 -0.29829 -0.85587 -0.38189 0.24038 0.38559 0.77649 0.5435 0.25236 -0.55692 1.0625 0.4677 -0.3776 0.11562 -0.39183 -0.13489 -0.5152 -0.35198 -0.24665 0.13294 -0.60045 0.0014429 -0.34942 0.16812 -0.8664 -0.48111 0.43197 -0.25894 0.25408 0.30399 -0.19617 0.074117 0.34412 -0.041373 0.087977 -0.26175 -0.20164 -0.16962 0.53695 0.27228 -0.89412 -0.11603 -0.46309 0.03244 -0.19512 0.50883 -0.5042 0.62853 0.31178 -0.4041 0.032137 0.32683 0.45945 0.23105 -0.35879 -0.63975 0.24049 0.2813 -0.29858 -0.11598 0.877 -0.97683 -0.38316 -0.74049 -0.2782 0.26056 0.014493 0.57552 0.010014 -0.87748 -0.63139 0.36832 
vleči_za_nos 0.053522 -0.20619 -0.74634 0.373 0.50525 0.14949 0.29731 0.043321 0.27668 0.071199 -0.37878 -0.12481 0.42883 -0.21257 -0.17061 -0.16717 -0.1758 -0.049766 0.20118 0.53166 -0.10267 -0.2019 -0.0046737 0.48486 -0.022743 -0.22497 -0.4309 0.44932 -1.087 -0.46433 0.76579 0.20664 0.43246 -0.12152 0.56421 0.38011 0.58 0.40642 1.2237 0.48412 0.57755 -0.65292 0.068476 0.55284 0.036303 -0.42642 -0.29072 0.17241 -0.093457 -0.55782 1.1061 0.15814 -0.45253 -1.0459 0.41592 -0.64504 -0.30788 -0.35855 -0.17486 0.17306 -0.040492 0.57136 -0.23616 -0.22724 0.27399 -0.17985 -0.0081715 0.18851 -0.13622 0.23721 -0.4294 -0.036236 -0.41575 0.062161 -0.14073 -0.25099 0.062374 0.31308 -0.16464 -0.11826 0.30308 -0.037941 -0.21904 -0.64206 -0.34046 0.40425 0.18697 -0.48183 -0.089336 0.50761 0.063446 -0.36206 0.044704 0.1052 0.18956 -0.026829 0.49326 -0.013164 -0.12859 -0.19496 
potegniti_črta 0.5442 0.28601 0.07571 -0.062814 -0.055492 -0.48489 -0.0072836 0.20071 1.023 0.6685 0.096637 0.7469 0.60663 -0.25705 0.39169 -0.48268 0.73112 0.2346 0.024007 0.15618 -0.49409 -0.10173 0.24746 0.45549 -0.39766 -0.21652 -0.37014 0.66065 -0.96333 0.0037133 -0.13968 -0.28677 0.067529 -0.53621 0.52278 -0.34404 0.5849 -0.26246 0.11075 0.14556 0.077419 0.53747 -0.80102 -0.12002 -0.19032 -0.23082 -0.41854 -0.19592 0.12109 -0.16836 -0.62856 1.1719 -0.72053 -0.71276 0.16371 -0.18518 0.19598 -0.089311 0.25814 0.055642 -0.12128 0.12944 -0.27002 -0.53413 -0.47693 -0.43419 0.48329 0.062865 0.29944 0.37214 -0.13976 -0.38871 0.021425 -0.14094 0.0011638 -0.71273 0.91389 -0.20941 -0.3977 -0.40701 0.96629 0.032384 -0.005366 0.46535 -0.67666 -0.62053 -0.13621 -0.75798 0.020471 0.45269 0.64459 0.1338 -0.65063 0.32859 -0.035823 0.33598 0.093103 -0.49457 0.35881 0.014314 
biti_se_moči_pomagati 0.19819 -0.15817 -0.032753 -0.20761 -0.13552 -0.30724 -0.42217 -0.17468 0.086432 0.10508 -0.0037818 -0.12315 -0.13888 0.18158 -0.033863 -0.074681 0.23341 -0.26542 -0.24118 0.40643 0.46481 -0.015662 -0.23567 -0.39382 0.23172 0.13807 -0.29986 -0.042472 0.21558 0.09151 0.046429 0.14249 0.53885 0.10428 0.86115 -0.2168 0.56611 -0.13416 0.20581 0.54652 -0.084362 0.26197 -0.33602 -0.01669 0.021712 0.10259 0.16265 -0.065248 -0.21858 -0.61801 0.19692 0.38888 -0.4409 -0.3171 0.39176 0.037743 -0.040115 0.13262 0.021042 0.14481 -0.021557 -0.32084 -0.37166 -0.39928 -0.2677 0.13274 0.35686 -0.008731 -0.12896 0.25949 -0.23611 -0.30348 -0.29262 0.23814 0.18342 -0.056137 0.29779 -0.23197 -0.12912 0.54551 0.096106 0.076343 -0.040926 -0.19038 0.072988 0.45786 -0.16119 -0.52036 -0.086004 0.21106 0.051629 0.2609 -0.51624 -0.068359 0.11368 0.082083 -0.03266 -0.25015 0.046774 0.26117 
imeti_opravek_z -0.084226 -0.74828 -0.23842 0.21593 0.63898 0.35185 0.02897 -0.32562 -0.39995 0.050024 0.089163 0.14691 0.40313 -0.40313 0.19413 -0.23881 0.10701 -0.3198 -0.34107 -0.51691 0.047733 -0.33053 0.56451 0.058221 -0.73154 -0.17898 -0.12901 -0.22454 -0.11955 -0.53789 0.016612 -0.23128 0.34967 -0.095992 0.23653 0.27452 -0.33683 -0.28589 0.74004 0.61307 -0.25736 -0.5556 -0.14146 -0.20574 -0.16185 -0.29911 -0.02278 0.90277 -0.52147 -0.77342 0.38316 0.61938 -0.71433 -0.3523 -0.022888 0.42589 -0.33799 -0.059091 -0.3126 -0.30736 -0.75845 -0.02816 0.15452 -0.05081 -0.1389 -0.054871 0.27847 -0.38588 -0.57349 -0.334 -0.6112 0.20063 -0.2787 -0.43213 -0.19771 0.18498 0.24541 -0.73532 -0.13283 0.18617 0.37763 0.30789 0.31486 -0.60133 -0.38842 -0.45779 -0.076636 0.010824 0.35258 0.14734 0.04937 -0.30182 0.38917 0.13659 0.089132 -0.38043 -0.21338 -0.15851 -0.19902 -0.77016 
odpreti_usta -0.33674 -0.37524 -0.034125 0.36072 -0.056043 -0.33218 0.28923 0.33212 0.28582 -0.056337 -0.10561 -0.13497 -0.35643 -0.34857 0.27477 -0.26374 0.49677 0.21549 0.48692 -0.39779 0.16384 -0.18676 -0.26497 -0.012864 -0.25982 -0.78505 -0.11979 0.66682 -0.23944 0.14948 0.6551 0.02011 0.44555 -0.19608 1.1936 0.37231 0.45369 -0.45997 0.50867 0.20566 -0.2374 -0.43115 -0.23841 0.44809 -0.074129 0.066222 -0.33948 -0.27098 0.34945 -0.39601 0.020058 0.30132 -0.94838 -0.77779 -0.36689 0.11959 -0.16708 0.39312 -0.48742 0.36182 -0.069641 -0.12454 -0.020825 -0.18438 0.62284 -0.26361 -0.28413 0.45216 -0.5341 0.047889 -0.13062 -0.56141 -0.06035 -0.31944 0.4647 -0.70029 0.14016 -0.10853 0.59383 0.30471 0.1577 -0.73964 0.063079 -0.39414 -0.34563 -0.61449 -0.52544 -0.5009 0.28065 0.18573 -0.63305 -0.039929 0.064464 -0.10788 0.23762 -0.14096 0.36834 -0.75659 0.3647 -0.11765 
izgubljati_živec 0.70275 -0.039099 -0.7308 0.47678 0.40547 -0.057917 -0.19239 -0.099502 0.21152 -0.056133 0.27911 0.47742 0.074733 0.093044 -0.63584 -0.44299 0.74017 0.24428 -0.67241 0.31446 0.43133 0.065024 0.0083025 0.19114 -0.076855 0.25908 0.21449 0.28467 0.35738 0.34393 0.89329 -0.7162 0.068897 0.21707 0.55537 0.42623 1.1974 -0.50968 -0.10136 0.2861 -0.24461 0.059926 -0.1568 0.038157 0.22321 -0.53221 -0.42971 0.1661 -0.17289 -0.7961 0.22491 0.31692 -0.87197 -0.87275 -0.30875 -0.015067 0.18106 -0.029256 -0.53392 -0.025024 -0.25086 -0.2206 0.10372 0.35965 0.15527 0.26122 0.42926 0.87313 -0.14559 -0.43276 0.48166 0.25357 0.19513 -0.16525 -0.61203 -0.15837 0.24673 -0.67435 0.52201 0.30486 0.21376 0.069919 0.75589 -0.4663 0.073814 0.47206 0.034768 -0.47325 0.063978 0.59106 0.17954 0.14016 0.085442 0.0094318 -0.82735 -0.039424 0.02592 0.026062 0.17655 0.4512 
izgubiti_živec 0.47734 -0.029794 -0.40752 0.26486 0.18929 0.057116 0.030372 -0.38431 0.35216 -0.57858 0.50268 0.38375 0.46838 -0.42336 -0.57332 -0.33513 0.17639 -0.25089 -0.32664 0.99123 0.37675 0.15835 -0.10092 -0.085578 -0.025951 -0.074632 0.54007 0.27316 -0.039557 0.49579 0.4927 -0.4514 0.00345 -0.2116 -0.19344 0.3104 0.96907 0.20602 -0.3095 0.75868 0.25691 -0.18364 0.099253 0.31072 -0.2138 -0.20233 -0.033429 0.28299 -0.02188 -0.30918 0.3926 0.41499 -0.7577 -0.49275 -0.093618 0.019518 0.044857 0.20512 -0.64019 -0.18852 -0.59082 -0.24863 0.15441 0.10589 -0.18054 -0.17647 0.66534 0.15331 -0.30716 -0.14908 -0.072835 -0.5812 0.44588 0.027121 -0.76002 -0.023636 0.19548 -0.18145 0.4038 0.19055 0.16529 0.14358 0.45691 -0.48685 -0.17866 0.26305 -0.11923 -0.35676 0.15483 1.5491 0.083874 0.040719 -0.058131 0.034248 -0.18387 -0.22044 -0.17466 -0.25947 0.14147 0.11512 
obrniti_hrbet -0.39952 -0.20621 -0.055441 -0.10708 0.22982 -0.49273 -0.61084 -0.34807 0.52879 -0.44976 0.48038 0.54873 -0.23656 -0.32518 0.6202 -0.17564 0.046088 -0.1467 -0.20929 0.28878 0.73299 0.36663 0.48803 -0.10962 0.17036 -0.30019 -0.15748 0.27751 0.057294 0.041811 -0.49488 0.35782 0.11213 -0.16414 1.2625 -0.17366 -0.29658 -0.082917 0.54484 0.33387 0.10613 -0.55606 0.22304 -0.042217 -0.086169 0.049001 -0.54245 0.8851 0.1438 -0.70197 0.68503 0.40439 -0.17108 0.012545 -0.2436 0.51877 0.30792 -0.29084 -0.52536 0.14545 -0.37855 0.98128 0.13638 -0.039051 -0.079089 0.073907 -0.34005 0.35298 -0.51478 0.22266 -0.23914 -0.35123 0.15215 0.14555 0.014419 -0.46766 0.13211 0.21423 0.02842 0.41856 0.20915 -0.25905 0.21419 -0.54928 0.18096 0.2301 0.28565 -0.01919 0.36031 -0.25847 0.41476 0.17006 -0.13328 -0.15816 -0.25249 0.082366 0.1912 -0.84907 0.44132 0.30914 
hoteti_hoteti 0.38897 0.23728 -0.11522 -0.078636 0.058203 -0.25303 -0.47431 0.46354 -0.1546 -0.063076 -0.15542 0.61456 0.012108 -0.048966 0.13549 0.11395 0.0056152 -0.11891 -0.034669 0.022167 0.055472 -0.052991 -0.22682 -0.79465 -0.27352 -0.46441 -0.17442 0.54454 0.39631 -0.2768 0.47268 -0.18684 0.021542 0.0044946 0.37258 0.24551 -0.15568 -0.19395 -0.21277 0.23077 -0.74121 0.07934 -0.51574 -0.49228 -0.47933 0.22552 -0.12169 0.66797 0.0063955 -0.45701 0.2376 0.22904 -0.48227 -0.1426 -0.034209 -0.28613 -0.24128 0.073137 -0.24164 -0.37033 -0.20611 0.10565 0.13027 0.0042289 0.18606 -0.023417 0.565 0.012095 -0.45332 0.43837 -0.21445 -0.44315 -0.22913 0.23381 -0.098949 0.13155 0.28727 -0.4748 -0.51085 0.41723 0.174 0.59422 0.024292 -0.46456 -0.12974 0.12916 -0.03709 -0.014351 0.066814 0.1827 0.02893 -0.21083 0.10335 -0.0023125 0.57916 0.38653 -0.28594 0.03591 -0.049958 -0.21259 
briti_norec 0.020078 -0.0472 -0.34155 -0.3931 -0.1534 -0.28332 -0.61739 0.4333 0.42574 -0.45666 -0.059064 1.0753 0.4239 0.23453 -0.14383 -0.18945 0.20701 0.48999 -0.53277 0.26589 0.83832 -0.1204 0.065918 0.18447 0.63553 -0.11749 0.53802 1.0919 0.53684 0.68416 0.089453 0.28641 0.52915 0.47063 0.58212 -0.69115 0.27358 0.090381 0.47337 0.84594 -0.41276 -0.50938 -0.30429 -0.39392 -0.73422 -0.85315 -0.042422 0.30206 -0.57585 -0.33879 0.16678 -0.045136 -0.83583 -0.91818 -0.44601 -0.23783 0.37907 0.081323 -0.14147 -0.53067 -0.96169 -0.5086 -0.48793 -0.13191 0.10078 0.22339 -0.19628 0.37003 -0.11339 0.37215 0.39402 0.45232 -0.20484 -0.53518 -0.17849 -0.35714 0.70989 -0.83603 0.44513 0.69179 0.0056171 -0.15529 0.56965 -0.64131 0.036793 -0.22212 0.25261 0.51666 0.86864 -0.045089 -0.38345 0.0089491 0.2235 -0.33076 0.070395 0.32786 0.50675 -0.32956 -0.33926 -0.03951 
vtisniti_v_spomin -0.1965 0.44364 -0.1789 0.13222 -0.48592 0.49237 0.29738 -0.16246 0.26338 0.71634 -0.075865 -0.024961 0.020659 -0.077047 0.046912 -0.41531 -0.30398 0.036621 0.42722 0.59689 0.21428 -0.028995 0.56306 0.41639 -0.19032 -0.3995 -0.2138 -0.13322 0.11653 0.42146 0.36359 -0.58484 -0.22261 -0.17252 0.9962 0.05494 0.095221 -0.26161 0.67692 0.15458 0.36377 -0.13126 -0.31456 -0.19889 0.38278 0.038665 0.13893 -0.0046799 -0.32617 -0.6845 0.51134 -0.2598 -1.0274 -0.24419 -0.44273 -0.64974 -0.14404 0.33999 -0.68585 0.19801 -0.052405 -0.43496 -0.42145 -0.20152 -0.48005 -0.24443 0.14902 0.28491 0.42896 0.081044 -0.86778 0.091753 -0.62176 0.30427 0.16238 0.28004 -0.090269 -1.1735 0.30995 0.17775 -0.037643 -0.38942 -0.081306 -0.76247 0.026012 -0.37008 0.12065 -0.0788 0.31411 -0.13921 0.48791 0.24093 0.24133 -0.33247 0.026618 0.28901 0.31403 -0.045507 -0.15852 0.27019 
biti_prav 0.16164 -0.20446 -0.086362 -0.01701 0.0041941 -0.011905 -0.03775 0.044047 0.024464 -0.11701 0.063769 0.14021 -0.089013 -0.060042 0.25011 -0.021173 0.10993 -0.031349 0.060827 0.33435 0.27641 -0.17799 0.066857 -0.23008 0.029136 -0.003515 -0.14007 0.053751 0.0082306 -0.10981 -0.082715 0.0289 -0.11017 -0.096243 0.54943 0.010333 0.25316 -0.16704 0.11964 0.30682 -0.044091 0.021863 0.059999 -0.13503 0.12425 -0.29145 -0.28475 0.039198 -0.134 -0.29599 -0.031988 0.091425 -0.44829 -0.14501 0.046204 -0.1724 -0.012022 0.0095614 -0.17638 0.10185 0.011043 -0.07202 -0.033486 -0.14319 -0.093158 0.002137 -0.028925 0.072602 -0.27938 0.20121 -0.049963 -0.1628 0.059136 -0.14858 0.15026 -0.28549 0.12725 -0.22755 -0.20791 0.048585 -0.019733 0.034375 0.0087535 -0.25242 0.096659 0.12466 0.14478 0.014059 0.37072 0.12104 0.15375 -0.074858 0.26719 -0.0065393 0.0087609 -0.066228 -0.020544 -0.29275 0.011166 -0.075011 
ta_biti_tako 0.10441 -0.22336 -0.21722 0.16073 -0.0074165 -0.07268 0.095262 -0.035931 -0.04848 0.17744 0.32874 0.076449 0.0036498 0.04291 -0.024377 -0.28719 -0.0010549 -0.044765 -0.12337 0.21339 -0.1635 -0.35534 0.21125 0.0053016 0.23641 -0.10887 -0.060693 0.054143 -0.26386 0.088925 0.21687 -0.13391 0.0021908 0.17451 0.58776 0.10229 0.24921 -0.058531 0.1051 0.13841 -0.30247 -0.087032 0.26161 -0.010016 0.12695 0.14998 -0.063608 0.22946 0.16833 -0.27265 0.03337 0.10999 -0.51026 -0.35634 0.017545 -0.21132 0.1738 -0.15078 -0.10723 -0.1933 0.014213 0.28293 -0.075291 -0.10786 0.16956 -0.15248 -0.022677 0.37141 -0.27352 0.28797 -0.41374 -0.12621 -0.1717 -0.13571 0.22855 -0.33816 -0.093137 -0.25609 -0.087579 0.078468 -0.15778 0.11718 0.018639 -0.085571 0.17774 -0.05444 0.25349 0.2664 0.040788 0.10236 0.34021 -0.20431 0.041812 -0.066216 -0.084411 0.05596 0.29195 -0.22953 -0.074158 0.13595 
iti_dol -0.28511 0.090921 0.19206 -0.11149 -0.24269 -0.45142 -0.54722 0.28574 -0.080673 0.12571 0.53051 0.51915 0.40485 -0.034663 0.18792 0.051656 -0.37391 -0.57048 0.28665 0.40756 0.40193 -0.063405 0.015202 -0.22641 0.07651 0.52024 0.53636 0.53936 -0.44727 0.63599 -0.081985 -0.19915 -0.016663 -0.24233 0.57608 -0.13056 0.30261 -0.03108 0.31885 0.53506 -0.6196 0.1323 -0.089973 -0.87918 -0.30975 -0.18159 -0.068362 0.9894 -0.5088 -0.19026 0.26268 0.33862 -0.81728 -1.0563 -0.16869 0.42342 -0.68075 0.46289 -0.47795 0.27913 -0.18109 -0.18655 0.32782 -0.53071 -0.21941 0.027238 -0.47764 0.84757 -0.51401 0.74538 0.35235 -0.1325 -0.47053 -0.34075 0.12634 0.12624 0.84404 0.053404 -0.55297 0.29133 -0.32372 -0.04324 -0.031328 -0.58518 -0.078338 0.077555 0.047715 0.18315 0.1426 0.58052 0.12243 0.33211 0.41196 -0.37655 0.37537 -0.32971 0.21218 -0.23499 0.13793 0.33074 
stisniti_zob -0.50645 0.36532 -0.74903 0.19121 -0.37407 0.12986 -0.12366 -0.1376 0.096822 -0.010312 0.37571 0.051464 0.20552 -0.064088 0.20129 -0.46607 -0.0098473 -0.1966 -0.1137 0.17076 0.4323 -0.34742 0.0077782 -0.034738 -0.49213 -0.87729 -0.76562 0.3653 -1.0883 -0.12469 -0.36493 -0.34588 0.49199 -0.14985 0.63386 -0.16236 1.1149 -0.59645 0.45764 0.40551 0.21417 -0.56683 0.23385 -0.34003 0.1811 0.22907 0.14793 0.59658 -0.045586 -0.076915 0.46041 0.43894 -0.43252 -0.78163 -0.066739 0.028957 0.33376 0.90051 0.049155 -0.12752 0.30952 -0.12169 0.044857 -0.94416 -0.1554 -0.16732 0.77969 0.83001 -0.04838 -0.13148 -0.51776 0.2034 -0.73445 0.51797 0.29135 0.24721 0.24628 -0.40172 0.19542 -0.43158 -0.31341 -0.61951 -0.31257 -0.87975 0.84199 -0.21202 0.079734 -0.3773 0.15617 0.47403 0.19874 -0.35906 -0.053038 -0.19317 0.83769 -0.25584 0.43347 -0.80707 -0.25871 0.26878 
gledati_na_ura 0.10029 0.1868 0.053113 -0.31465 0.15087 0.41532 0.22967 0.077217 0.28384 0.5048 0.058165 0.015115 0.19077 0.046615 0.453 0.06125 0.34047 -0.032617 -0.031721 0.32623 0.43818 -0.33969 0.53553 0.14279 0.35822 -0.3153 0.50877 0.072167 -0.13327 0.23737 -0.1685 -0.027593 0.37415 -0.094562 0.96045 0.3999 0.44539 -0.38311 0.34964 0.22385 -0.19787 0.10746 -0.17923 -0.23669 -0.046004 0.26136 -0.23275 0.61985 -0.26329 -0.077251 -0.03 0.094498 0.046543 -0.60914 0.061946 0.65286 -0.39675 0.2165 -0.4475 -0.18438 -0.47012 0.59849 -0.19411 0.13492 0.033576 -0.016051 0.13006 0.65792 -0.13155 0.76242 0.10679 -0.15034 -0.41533 0.51829 0.42055 0.19342 0.34787 -0.24261 -0.55209 0.18687 0.089828 0.24718 0.087497 0.071799 -0.25788 0.07929 0.19652 -0.4462 -0.08153 0.63574 0.14315 0.33961 -0.47919 -0.55135 0.77873 -0.54383 -0.073924 -0.35626 -0.14726 0.76058 
dati_beseda 0.25195 -0.58853 -0.49445 0.13873 0.24324 -0.39031 -0.011013 0.67259 -0.067278 -0.16543 -0.10178 -0.34398 0.61497 0.046236 0.33963 0.042285 0.54713 0.082645 0.10154 -0.00045437 0.28143 -0.54349 0.40417 -0.055325 0.1312 0.13962 0.34703 0.20848 -0.28387 0.16732 -0.0018723 -0.42508 0.041835 0.64816 -0.18154 -0.27998 0.098718 -0.11148 0.45147 0.29137 -0.45145 -0.31888 -0.00024889 0.45203 -0.62193 0.17227 0.027023 -0.53771 -0.28556 -0.81976 0.25617 -0.32307 0.049106 -0.90866 0.22329 -0.21494 -0.78555 0.0018183 -0.73694 -0.26748 -0.37012 -0.19009 0.48279 0.53162 -0.33674 0.14895 0.019606 0.005499 0.18725 0.23582 -0.65511 -0.73168 -1.2796 -0.52107 -0.02044 -0.7686 0.38024 -0.41213 0.18303 -0.11696 0.066584 -0.08069 -0.20163 -0.12677 -0.77767 0.38251 0.17458 -0.014663 0.83131 -0.4165 0.22467 -1.2161 -0.16049 -0.1995 0.22693 0.39094 0.079946 -1.2685 0.53382 -0.12965 
narediti_korak -0.13454 -0.46327 -0.67918 -0.10666 -0.66909 -0.071281 0.44112 -0.59064 0.48583 -0.18757 0.17845 -0.16259 0.2545 -0.792 0.12438 -0.043175 -0.091155 0.050418 0.28033 -0.1098 0.44493 -0.78002 -0.21058 0.0039542 0.31097 -0.66295 0.15571 0.1145 -0.35545 0.10898 -0.032888 -0.21858 -0.65057 0.55646 0.71846 0.2279 0.12443 -0.37977 0.36783 0.28374 0.12169 -0.14791 -0.20309 0.31568 0.053662 0.0057596 -0.21476 0.37097 0.39945 0.052742 -0.0052984 0.31983 -0.34938 -0.25457 -0.23672 0.096562 0.081359 -0.12969 -0.60198 -0.30206 0.58574 -0.19289 -0.11777 -0.21408 0.08545 0.10931 -0.044906 0.043367 0.24754 0.83122 -0.34258 0.58795 -0.71199 -0.43728 0.21654 -0.63621 0.64331 -0.16391 -0.25707 -0.21336 0.20999 0.19318 -0.32986 0.034855 -0.17434 -0.25937 1.078 -0.0046172 0.072465 0.41961 -0.41454 0.20506 0.0063832 -0.24372 0.059011 0.17052 -0.052902 -0.41554 -0.36583 0.33034 
zavijati_z_oči -0.013845 0.053262 -0.14299 0.11877 -0.3624 0.048485 0.29543 0.048943 -0.63316 0.65229 0.5395 0.77579 -0.35399 0.14959 0.22554 -0.20928 0.35692 0.052882 -0.094694 -0.042337 0.64804 -0.315 0.23233 -0.054336 0.18792 -0.60784 0.69555 0.51938 -0.10269 0.20202 1.0317 -0.00028216 0.89913 0.1027 0.60583 -0.62785 0.0089135 -0.44117 0.26358 0.59402 0.38287 -0.62621 0.62701 -0.089399 -0.073199 -0.095401 -0.75012 -0.4425 0.41121 -0.091038 0.11572 -0.28873 -0.88323 -0.8018 -0.45316 -0.21853 -0.24638 -0.11861 -0.57463 0.035971 -0.078756 0.19267 -0.32603 0.36279 -0.28249 0.22365 0.3265 0.39501 0.0097759 0.55194 -0.91321 0.33298 -0.53255 -0.31182 -0.11923 -0.71173 0.2209 -0.40111 0.032119 0.73234 -0.048402 0.096571 0.056873 -0.27503 -0.2582 0.032275 -0.20459 0.24127 0.16551 0.11903 0.6392 0.077343 -0.031022 -0.17137 0.19148 0.29273 0.4066 -0.41075 -0.13325 -0.045748 
biti_kos -0.13464 -0.21436 -0.29037 0.20895 0.078526 0.25284 0.028868 0.90796 -0.064189 0.25133 0.15526 -0.095073 -0.0018414 0.065031 0.28737 -0.34258 0.20535 0.27379 -0.83042 -0.27425 0.0056588 -0.3855 0.050464 0.097769 0.24948 -0.70574 0.18311 0.20223 -0.0689 -0.39529 0.35141 0.19722 -0.47246 -0.35175 0.77863 0.084817 0.03733 -0.025126 0.35531 0.70616 0.30194 -0.10903 0.026005 0.1331 -0.20513 0.021606 -0.18264 0.15217 -0.35491 -0.32341 0.122 0.21358 -1.3631 0.0082729 0.51434 0.38773 0.51899 -0.21798 -0.32296 0.071987 -0.0095301 -0.33191 0.40258 -0.5326 0.08991 0.38893 -0.21572 0.3168 -0.6974 0.22665 0.15386 0.27675 -0.057845 0.24485 0.35084 -0.19567 0.20045 -0.34491 -0.15092 0.064319 -0.23022 -0.063765 0.065348 -0.098696 0.52447 -0.31102 0.024958 0.04674 0.42581 0.62102 0.015742 -0.26396 0.049589 0.1356 -0.37703 -0.095167 -0.033609 -0.055226 -0.32861 -0.27822 
iti_od_roka -0.13868 -0.18516 -0.4808 0.31002 -0.14008 -0.0045952 -0.31238 -0.082157 0.080106 -0.080037 0.51139 0.26283 0.47052 -0.092283 -0.25756 -0.16576 0.98212 0.28432 -0.58682 -0.067225 0.40236 0.10633 0.28267 -0.37718 0.14568 0.14086 -0.0093475 0.68913 -0.094179 0.27504 0.039066 -0.26825 0.19645 -0.10454 0.6949 0.23647 0.46663 -0.59548 -0.19929 0.49167 0.12298 -0.081022 -0.57453 -0.047828 -0.12388 0.089473 -0.16462 0.23826 -0.11834 -0.16804 0.42844 0.022864 -0.2486 -0.95667 -0.16077 -0.80693 0.12572 0.53293 -0.24151 0.5527 0.20917 -0.27784 0.0661 -0.30979 0.10376 -0.16678 0.092298 0.68313 -0.031313 0.00078705 0.013256 0.14367 0.37866 -0.81297 0.33027 0.068931 0.81649 -0.80737 0.38476 0.32094 0.28909 -0.26442 0.27163 -0.73831 0.36755 -0.062892 -0.18277 -0.22454 0.4091 0.59018 -0.20225 0.42738 -0.20606 -0.0052246 0.41417 0.15155 0.25502 0.011143 -0.29847 0.040559 
doseči_vrh -0.47343 0.716 -0.75011 0.3036 0.84393 -0.81774 0.0077903 0.22921 -0.23214 0.23994 -0.16777 -0.24278 0.39277 0.25549 0.1269 -0.8685 -0.098067 0.23465 0.14582 0.74128 -0.22698 -0.16774 0.31495 0.21235 -0.38082 0.19751 -0.69103 -0.038941 -0.31322 0.68493 0.020594 -0.5332 -0.68524 -0.58684 0.5996 -0.40613 0.95134 -0.4811 -0.22937 0.046177 -0.41343 1.1588 -0.2151 -0.041498 -0.12828 -0.0078952 0.21994 0.67503 0.12959 -0.92814 0.25932 -0.63376 -0.23898 -0.0002028 -0.17294 0.10412 0.17723 0.74721 -0.062922 0.26644 -0.010465 0.51934 -1.0219 0.071565 -0.86477 0.12774 -0.3367 0.6151 -0.60295 -0.23058 -0.14412 -0.72258 0.34042 0.84819 -0.48749 -0.94848 0.3753 -0.47489 0.17803 -0.030264 -0.060034 0.081607 0.045952 -0.50246 -0.063893 0.038432 0.7003 -0.06899 1.4023 0.65396 -0.2264 -0.33417 -0.43918 -0.11951 0.13272 0.58868 0.87162 -0.38127 -0.47447 0.83841 
imeti_pojem 0.5224 -0.59523 0.29881 -0.028738 0.1855 -0.0038847 0.25463 -0.17118 0.24913 0.54049 -0.25794 0.22774 0.17954 0.55559 0.45655 -0.23765 0.44377 0.85578 -0.047289 0.23854 -0.012058 -0.59681 0.23501 -0.46485 -0.28615 -0.2593 -0.24029 0.2319 0.027425 -0.022951 0.21842 0.21797 0.064831 -0.22908 0.17897 0.010478 0.4403 0.15574 -0.31017 0.54122 -0.062246 -0.0098106 0.15135 -0.35794 -0.65672 0.3599 -0.82724 0.45215 -0.84801 -0.60058 0.17235 0.47571 -0.22822 -0.5025 0.11919 0.16331 -0.56013 -0.30723 -0.44232 0.067613 -0.45606 0.33965 -0.096236 0.15319 0.19835 0.13823 -0.068088 -0.29904 -0.86131 0.38686 0.15276 -0.52747 0.34574 0.23735 -0.09419 -0.40069 0.82399 0.20165 -0.042397 0.15511 -0.59417 -0.68294 0.28108 -0.59621 0.079132 -0.29927 0.00090143 0.060199 -0.19583 0.12825 0.12086 0.32454 -0.32968 -0.5164 0.070703 0.095278 -0.43045 -0.23343 -0.049789 -0.30952 
prav_imeti 0.72497 -0.15754 -0.3642 0.24913 0.18995 -0.048564 -0.19332 0.19232 -0.20302 0.066479 0.4145 -0.036106 -0.0097709 0.48003 0.071239 -0.35055 0.16501 -0.065912 0.21488 0.28088 -0.14512 -0.58156 0.043919 -0.096614 -0.045721 0.1538 -0.1395 0.56184 -0.2123 -0.098442 0.11791 0.41035 0.44148 0.13858 0.77621 -0.14289 0.47283 0.22211 0.36309 0.46904 0.020896 -0.66169 -0.11195 -0.19656 -0.43753 0.041824 -0.74394 0.38693 0.24393 -0.41133 -0.54676 0.1445 -0.5338 -0.75409 -0.43393 -0.016693 -0.23018 -0.40014 -0.19988 0.13597 -0.46972 -0.30615 0.21385 -0.23852 -0.54855 0.6457 -0.11518 -0.11507 -0.44517 0.43146 -0.12844 -0.80423 0.0060413 -0.34377 0.42253 -0.21415 -0.17162 -0.42413 -0.10679 -0.061655 0.083649 0.040565 0.69912 -0.27384 -0.022079 -0.63777 0.045472 -0.35029 0.24228 -0.088797 0.020611 0.26109 -0.22771 -0.13387 -0.10813 0.44999 -0.017441 -0.39392 0.31372 0.080086 
v_roka_dobiti 0.13582 -0.3734 -0.25048 0.46556 -0.34574 0.34259 -0.18312 0.36881 0.14942 0.16113 0.40789 0.17802 0.20654 -0.8541 0.2215 -0.20444 0.11354 -0.16882 0.2016 0.33519 0.214 -0.62443 0.30066 -0.059308 -0.21459 -0.21747 0.1721 0.39033 -0.46678 0.07402 -0.28289 0.13011 0.24723 -0.61629 1.0814 0.085536 -0.05473 -0.60597 0.26085 0.36875 -0.41545 -0.085753 -0.08991 -0.036322 -0.30701 -0.06195 -0.1765 -0.14612 -0.19662 0.3424 0.082023 0.23989 -0.036133 -0.49588 0.35365 0.4406 -0.19994 -0.28262 -0.43455 -0.14966 0.046934 0.20707 0.029673 -0.51034 -0.30227 0.27133 0.22293 0.76349 -0.34662 -0.22188 -0.048836 -0.1557 0.37262 -0.057297 -0.27988 0.5186 0.2092 -0.30059 0.29254 0.020673 -0.21103 0.079587 0.48248 -0.16721 -0.14242 -0.13037 0.25967 0.22671 0.24685 0.059654 0.24706 -0.12098 0.32734 -0.03229 0.047147 -0.59032 0.43045 -0.11852 -0.14002 -0.25846 
pasti_v_nemilost -0.16615 0.40214 0.097135 0.20359 -0.3722 0.28025 -0.063078 -0.4735 0.24045 -0.25435 -0.23433 -0.66563 0.89167 -0.16273 -0.30865 -0.43598 0.014499 -0.31734 0.048009 0.37055 -0.095723 0.96745 -0.010617 0.2932 0.73117 -0.56759 0.68296 -0.031096 -0.26918 -0.39101 -0.4692 0.22232 0.45304 0.1868 0.42921 -0.12835 0.61011 0.34342 -0.25826 1.5618 0.21747 -0.1294 -0.20613 -0.010309 -0.08301 -0.13565 -0.36606 0.50252 -0.3711 -0.18425 0.13807 -0.0063895 -0.78985 -0.61456 0.41556 -0.58469 0.2495 -0.064592 -0.88586 -0.27896 -0.3644 0.25316 -0.18841 0.02267 -0.48186 -0.46778 0.57155 0.13126 -0.78408 0.007995 -0.35431 -0.34693 0.2062 0.075024 -0.25773 -0.3126 0.068317 -1.002 -0.6376 0.51444 -0.4143 0.30436 0.093874 -0.10789 -0.20534 0.05839 1.1058 -0.41693 0.40421 0.31606 0.070032 0.13574 0.095681 0.089668 0.13184 -0.33586 -0.51213 -0.44999 0.15853 0.65636 
imeti_na_vest 0.30985 -0.024507 0.14556 0.48878 -0.20061 0.031806 0.13902 -0.31699 0.34589 0.13905 -0.12906 0.53228 0.5281 -0.21058 0.37605 0.16248 0.28824 0.26725 0.36936 -0.097558 0.031953 -0.29864 -0.33581 -0.10549 0.091357 -0.10094 -0.23725 0.29516 -0.0061088 -0.24315 -0.18035 0.068688 -0.025785 0.26284 0.4341 0.35016 -0.045438 0.026612 0.3338 0.48424 -0.074988 0.10788 -0.32329 -0.33031 0.06059 -0.35141 -0.15361 0.078647 -0.26166 -0.1397 -0.090469 0.12688 -0.945 0.010151 0.091337 0.077278 0.33395 0.11648 -0.34525 0.018233 -0.14987 0.38085 -0.91568 -0.21993 -0.12872 -0.27227 0.00096217 0.3724 -0.55169 0.19291 -0.1234 -0.10856 0.079708 -0.053342 -0.32895 0.066078 0.47307 -0.44189 -0.26382 -0.054701 -0.30317 -0.35814 -0.31036 -0.44357 0.55385 -0.14523 0.025388 -0.16025 0.13285 0.59978 0.14079 0.053639 0.07324 -0.19861 0.58537 -0.070613 0.0053007 -0.24441 -0.15861 0.046316 
dvigniti_roka_od -0.47314 0.036296 -0.41906 -0.16607 -0.27134 0.41501 -0.083475 0.37728 -0.11701 -0.23717 -0.072897 0.21894 -0.25587 -0.035305 0.46875 -0.055803 -0.011785 0.33403 0.090139 0.22188 0.66964 -0.44366 0.56256 -0.22731 -0.11933 -0.032472 0.28141 -0.3637 -0.28962 0.32661 0.47433 0.063695 0.72093 0.32303 0.3937 0.22787 0.36182 -0.35279 0.69567 0.51589 -0.40334 -0.2594 -0.45077 -0.033034 -0.39956 -0.00052328 -0.30132 0.064835 -0.18018 -0.16202 -0.16132 0.22524 -1.0753 -0.50972 -0.2665 -0.2487 -0.21645 -0.17743 -0.62185 -0.2889 -0.47697 -0.15514 -0.090351 -0.21 0.20721 -0.049722 0.56549 0.44677 -0.070901 -0.1173 -0.95069 0.56828 -0.065905 0.34823 -0.019652 0.016035 0.22193 -0.47947 0.61452 0.12958 0.38412 -0.78283 -0.22807 -0.24035 -0.97132 -0.23542 0.41641 -0.15852 0.15178 0.15972 -0.21818 0.37005 0.13255 -0.052644 0.5935 -0.065011 0.12968 -0.10226 0.20218 0.0686 
kar_se_dati -0.096261 -0.39004 -0.47207 0.35093 -0.78685 -0.45497 -0.067618 0.13249 -0.24101 0.1601 -0.34739 0.4749 0.02673 -0.36166 0.49639 0.046617 -0.26035 -0.31083 0.27999 0.32571 0.65522 -0.33827 -0.40548 0.22286 0.1601 0.38153 0.047901 0.36397 0.30967 0.39579 -0.059794 -0.17087 0.12863 0.0064833 0.55184 -0.45223 0.35553 -0.046439 0.45634 -0.21418 -0.58164 -0.12248 -0.17958 -0.10541 -0.51015 0.2688 -0.10786 0.035963 -0.25348 -0.040422 0.16056 -0.0072935 -0.32872 -0.0081171 0.0022353 -0.12346 0.27149 -0.58116 -0.16987 -0.14804 0.18645 -0.49772 0.02758 -0.33473 -0.24695 0.28596 -0.32175 0.33511 -0.28433 -0.1528 -0.42521 0.34345 -0.46131 -0.27703 0.11561 -0.044282 0.53997 -0.53855 -0.042053 0.048326 -0.071819 -0.23269 -0.52131 -0.13538 -0.016243 0.20155 0.21022 -0.23481 0.098118 0.64822 -0.095893 0.2085 -0.28506 -0.4151 0.19052 -0.10788 -0.070578 0.23592 0.13871 -0.36844 
zadeti_žebljica_na_glavica 0.14492 0.19379 -0.30595 0.32597 -0.34709 -0.10667 -0.20234 -0.19125 0.59495 0.094022 0.3283 -0.16865 0.22878 -0.16048 0.0065676 0.17072 0.33303 0.2437 -0.63656 0.19315 0.23011 0.24584 0.15919 0.21692 -0.1668 -0.047429 0.011868 -0.083108 -0.35939 0.14749 0.53062 -0.31142 0.52997 0.39878 0.92082 0.52621 0.55496 -0.38306 0.1371 0.41202 0.007747 0.20027 0.34447 -0.092769 0.19087 -0.0065373 -0.39354 1.0317 0.59699 -0.060918 -0.15716 0.20824 -0.7384 -0.44854 -0.29515 0.14651 -0.15637 -0.19244 -0.65005 -0.49308 -0.19222 0.079102 0.24242 -0.18302 0.12605 0.11269 0.37445 0.50717 -0.76205 0.37493 0.084193 0.3438 -0.22294 0.1492 -0.18716 0.12094 0.014383 -0.74542 0.17891 -0.13801 -0.2801 0.013935 -0.37631 -0.60291 -0.0067021 0.0065489 0.66929 -0.29822 -0.028392 0.36177 -0.88359 -0.55386 0.42952 -0.33249 0.39423 0.45615 0.078342 0.027385 -0.18246 0.033763 
zmajevati_z_glava 0.029878 -0.52909 -0.27671 0.33543 -0.16474 -0.014118 -0.033674 0.43577 -0.20713 0.58813 -0.064736 -0.21761 -0.47947 -0.21838 0.86319 -0.18518 0.74175 -0.92956 -0.080282 0.3854 -0.27147 0.018614 0.1477 -0.68978 -0.068002 -0.45822 0.52402 0.14897 -0.55754 0.20326 -0.059796 -0.12232 0.61366 -0.5975 0.79756 -0.065836 0.36823 0.31507 -0.051444 0.23411 -0.38031 -0.6613 -0.013565 0.42061 -0.21788 0.37095 -0.65486 0.13972 -0.75394 0.28803 -0.44453 -0.15737 -0.78967 -0.61932 -0.51882 -0.014239 -0.0030108 0.01082 -0.94862 0.3088 -0.45898 -0.13221 -0.29648 0.099022 0.020101 0.35907 0.20245 0.10959 -0.58088 0.10756 -0.18217 -0.99528 -0.50303 0.50076 -0.32771 -0.69602 -0.14621 0.25959 0.39536 0.16877 0.39574 0.081697 -0.35106 -0.20809 0.22391 -0.35662 -0.45822 -0.25044 0.13938 0.38261 0.38739 -0.22589 0.31006 -0.26879 -0.050123 -0.031475 -0.27514 -0.31347 0.15128 0.26369 
pljuniti_v_roka -0.3831 0.67914 -0.16364 -0.0534 0.10228 0.12918 0.092714 -0.11913 0.422 0.49088 0.063226 -0.014057 0.10085 -0.30468 0.23177 -0.15797 0.0909 -0.12916 0.10991 -0.2052 0.53768 -0.53319 0.33948 0.77867 0.32946 -0.093037 -0.41951 0.65711 -0.49389 0.17674 0.27684 0.1011 0.45907 -0.2727 0.78918 -0.18153 0.40051 -0.048916 -0.081232 0.24664 -0.27645 -0.40587 0.2215 -0.28436 -0.24293 -0.19387 -0.1085 -0.12245 -0.036591 -0.33699 0.36185 0.25255 -1.029 -0.84803 -0.3799 -0.52829 0.26969 0.37335 -0.72187 -0.007885 -0.42914 -0.045873 -0.57341 -0.14863 -0.044489 -0.09017 -0.061316 0.13185 0.074063 0.64407 -0.40026 -0.41439 0.3024 0.13415 0.043059 -0.48268 -0.13082 -0.38846 0.27888 0.13575 0.45674 0.11179 0.1169 -0.38302 -0.07843 -0.21377 -0.22245 -0.043128 0.48807 0.62032 -0.18412 -0.32941 0.13071 -0.22875 0.31531 0.51335 0.37966 -0.36929 0.75174 0.13735 
imeti_na_volja -0.085123 -0.30444 0.089231 -0.13792 0.24507 -0.15665 0.24787 0.35708 0.20629 0.35749 -0.01709 0.6041 -0.27951 -0.51215 0.24394 -0.084298 0.51618 0.21646 -0.0019859 0.13055 0.099117 -0.8034 0.0026802 0.023583 0.12894 0.38298 0.13327 0.65408 -0.13412 0.28007 0.095206 -0.30911 -0.062339 -0.024543 0.37206 0.48791 0.0095881 -0.18885 0.18791 -0.14346 0.069246 0.46752 0.12482 -0.091398 -0.054927 -0.51124 0.10449 0.43014 0.026046 -0.13999 -0.14137 0.70656 -0.42187 -0.29348 -0.10876 0.39941 0.13327 -0.35551 -0.043688 -0.10738 -0.20397 -0.049738 -0.45155 -0.42034 0.10975 0.02665 -0.16485 0.023163 -0.80714 -0.03344 -0.046349 0.18912 -0.32409 0.12402 0.51511 0.0578 0.75957 -0.33947 0.087995 -0.28372 -0.3024 0.044676 -0.35782 -0.27469 0.40782 -0.56512 -0.082753 -0.0099298 0.67505 0.79045 -0.44337 0.1887 -0.039917 -0.25926 0.26643 0.13373 -0.27256 -0.19653 0.07853 -0.028887 
biti_priča -0.017867 0.32488 0.032313 -0.28171 0.093684 -0.14285 0.097692 -0.2124 -0.35359 0.27434 0.26595 0.19213 0.040922 -0.26562 0.27851 -0.37091 -0.070473 0.2214 -0.20816 0.065881 -0.4463 -0.16643 -0.079496 0.19932 0.26035 -0.42207 -0.27683 -0.12936 -0.0031357 -0.0092697 0.078257 0.19735 -0.061887 0.23211 0.41095 0.35465 0.18154 0.11855 0.34373 0.21971 0.10341 0.018285 0.21523 -0.10047 0.099077 0.06567 0.06318 0.10234 0.36067 -0.29219 0.27608 0.30505 -0.49187 -0.2761 0.40283 0.087899 0.42801 -0.17865 -0.64512 0.24613 -0.68799 -0.011151 -0.24892 0.034072 0.12726 -0.39078 0.16696 0.22575 -0.55767 -0.03336 -0.22258 -0.029523 0.47015 -0.36983 -0.22909 -0.17899 0.12594 -0.073948 0.10929 0.15703 0.20382 -0.011097 0.16597 -0.5508 -0.23739 0.050003 0.34962 0.30216 0.40885 0.25102 -0.26716 -0.26283 -0.22514 -0.018166 0.00084397 0.35253 -0.055946 -0.5036 0.13944 -0.026364 
kruh_služiti 0.57385 -0.22404 -0.29876 0.094546 0.32499 0.38101 0.12584 0.61144 0.2868 0.031219 0.11956 0.17773 0.29202 -0.15435 0.06706 0.075516 0.25799 -0.071547 0.50003 0.45032 0.27095 -1.1622 -0.19972 0.090931 0.30441 -0.56275 -0.066606 -0.16973 -0.19755 0.2043 0.15975 -0.6918 -0.25529 -0.12497 0.75782 -0.29673 -0.12928 -0.59572 0.41102 0.8046 -0.20634 0.33182 0.39044 -0.34284 0.086037 -0.14866 -0.065406 0.027857 -0.43562 -0.23215 -0.13005 -0.16216 0.37125 -0.18471 0.37733 0.14573 0.54958 0.37485 -1.128 -0.14184 -0.21614 -0.64168 -0.46285 -0.5613 -0.0044712 0.13868 0.34021 0.47746 -0.15384 0.36936 0.066356 -0.33723 0.32585 0.62132 -0.46385 0.025593 0.66052 -0.11485 -0.21956 0.43875 0.54912 -0.32966 0.46353 -0.62678 0.15685 0.07631 -0.1283 0.036738 -0.22186 0.77088 -0.034109 0.42861 -0.34597 0.20672 -0.37324 0.37368 -0.035277 0.031728 -0.53518 0.44845 
