pod_vpliv 0.83972 -0.77836 0.43557 0.19958 0.2789 0.23048 0.56787 -0.31186 0.23948 0.47912 -0.82278 0.45778 0.011695 -0.91662 -0.094842 -1.1061 0.31798 0.66525 -0.47814 0.279 0.30862 -0.84992 -0.15574 -0.42732 -0.0062592 0.014558 0.10966 0.75252 -0.16257 -0.69874 0.0044355 -0.098557 0.23946 -0.52139 0.1941 -0.29265 0.40507 -0.21934 0.29601 0.13173 -0.19679 0.32262 -0.53497 0.14729 -0.2096 -0.22571 0.22488 0.49735 0.68457 0.19642 -0.03929 0.66861 -1.6631 0.040914 -0.17405 0.18242 -0.023164 0.55348 0.24463 0.41935 -0.88427 0.59199 -0.44815 -0.0062934 -0.24118 -0.090189 -0.24494 0.86609 -0.9682 -0.19547 -0.11656 -0.47732 0.78743 -0.41227 -0.54797 -0.49657 0.74225 -0.084039 0.17037 -0.092733 -0.52834 0.047809 0.31595 -0.34155 0.34388 -0.38152 0.29887 0.40265 -0.14844 -0.70633 -1.0483 -0.34415 0.34191 -0.37819 -0.52155 0.95397 -0.18155 -0.29057 -0.36655 -0.10444 
in_on_ponuditi -0.3767 0.22755 -0.40942 0.27712 -0.29656 0.1781 -0.05457 0.19297 0.11587 0.26599 0.78694 0.31357 0.2428 0.21677 0.29104 -0.082458 0.44848 -0.20979 -0.445 0.4212 0.31824 -0.64398 0.70814 0.040178 0.19812 0.6284 0.15858 0.48642 -0.31552 -0.52728 -0.5579 -0.47454 -0.24102 0.4063 0.67999 -0.85204 -0.19015 -0.76261 0.49662 0.53471 -0.13225 -0.048081 0.24289 -0.57237 0.43446 -0.032832 0.023981 0.20504 -0.2773 0.376 -0.024463 0.48956 0.14853 -0.31187 -0.52259 0.12614 -0.5485 0.26476 -0.62598 0.25064 0.12233 0.28764 0.073262 -0.38274 0.21476 -0.024335 0.73248 0.028165 0.020919 0.051806 -0.17409 -0.16482 -0.29214 -0.10748 -0.18611 -0.010345 0.76134 -0.74199 0.52559 0.19322 -0.33348 -0.27793 -0.46358 -0.4601 0.12744 0.40622 0.26994 -0.031719 0.41336 1.1061 0.60918 -0.20819 0.024946 0.26917 0.3711 -0.1784 0.60564 -0.40923 -0.3998 -0.10864 
glas_ki_se -0.37126 -0.17532 -0.59497 -0.17896 -0.24479 0.084762 -0.24695 0.81679 0.26697 -0.31333 0.74208 -0.3156 -0.0056935 -0.48068 0.30943 0.14644 0.89565 0.53956 0.33017 0.29814 -0.047438 0.20324 -0.019853 0.7233 0.068099 -0.14509 -0.16211 -0.08748 -0.21277 -0.68248 -0.10793 0.039503 0.58619 -0.43895 0.088685 -0.069277 0.36959 0.29426 0.1719 0.5701 -0.34235 0.15496 -0.14284 0.20144 -0.01538 0.095127 -0.67665 0.39636 0.61035 -0.6516 -0.1387 0.28812 -0.11039 -0.98252 -0.20037 -0.24949 -0.2468 -0.33337 -0.95345 0.15922 -0.54774 0.042795 -0.23044 0.17988 -0.3584 0.59396 -0.10867 0.37309 -0.34115 0.16122 -0.38341 -0.58155 -0.39849 0.86935 -0.2998 -0.25173 0.25839 0.12405 0.22277 0.12347 0.23378 0.6403 -0.11542 -0.37757 -0.15418 -0.40059 0.078671 -0.087492 0.0004015 -0.29622 0.28727 0.14976 0.0022621 0.0058161 0.26965 0.17807 0.079936 0.015353 -0.29875 -0.45426 
biti_zabavati 0.026525 -0.14176 0.33724 0.092159 0.3104 0.1287 -0.37722 0.065989 -0.21906 0.1993 0.099936 0.23047 -0.54904 -0.27113 -0.18374 -0.081171 0.24467 0.05707 -0.035739 0.11563 0.38791 -0.26221 0.20268 0.020176 -0.0061948 -0.66406 0.26755 0.41541 -0.25141 -0.4764 0.23012 -0.026371 0.016854 0.32454 1.0693 -0.33762 0.38868 0.22914 0.070416 0.68324 0.17143 -0.015695 -0.37215 0.20858 -0.45074 0.035303 -0.34481 0.4312 -0.35094 -0.54603 -0.073289 0.30326 -0.65648 -0.0036192 0.15851 0.36261 0.37236 -0.11675 -0.18395 -0.12475 -0.16948 0.1889 0.59388 -0.4121 -0.16483 0.32099 -0.079137 0.82557 -0.47889 0.21216 0.061324 0.00080187 0.35743 0.32583 0.52515 0.18534 0.26439 -0.23722 -0.099356 0.44784 0.40558 -0.26596 0.077118 0.0084213 -0.80239 -0.10746 -0.12856 -0.2153 0.07651 0.4396 0.40587 -0.095962 0.23312 0.30393 0.043683 0.56757 0.25543 0.087318 -0.2101 -0.31211 
pri_prijatelj 0.10392 -0.20139 0.32117 0.30141 -0.26855 0.45054 0.045856 0.093521 0.071865 0.45105 0.28999 -0.061764 0.095102 -0.61007 -0.26781 0.027494 0.23544 0.36204 -0.46344 1.1901 -0.23456 0.34456 0.31469 0.37099 0.154 -0.1701 0.10552 -0.052144 0.061229 0.09532 0.59952 -0.31063 1.0357 0.18573 0.707 0.055638 0.39143 -0.54154 0.25079 0.6111 -0.036685 -0.46524 -0.13922 -0.0097165 -0.12973 -0.20091 -0.21053 0.027179 -0.42971 -0.20225 0.2232 0.18427 -0.35577 -0.60489 -0.14103 -0.24751 -0.54221 -0.28326 -0.16516 -0.14171 0.92457 0.023261 0.03923 -0.27912 -0.14347 0.56612 0.092701 0.67982 -0.21673 -0.25617 -0.245 -0.27925 -0.031824 0.3294 0.24585 -0.028199 0.51535 -0.026493 0.22478 0.24059 -0.085086 0.29393 0.12808 -0.29033 -0.68411 -0.097087 0.41806 -0.25773 -0.40197 0.46892 0.013066 -0.13157 0.19483 0.2954 -0.43842 0.12824 0.097612 -0.01784 -0.11634 -0.25242 
dva_stran -0.27123 -0.40007 0.046827 -0.17071 -0.22596 0.015486 0.51489 1.0309 0.034792 -0.45033 0.51762 0.052083 0.82007 -0.15743 0.8556 -0.1904 0.48522 0.079948 0.41957 0.13366 -0.02968 -0.14809 0.22276 0.55385 0.60625 -0.45861 -0.13099 0.076073 -0.41718 0.29799 -0.032361 0.071708 -0.082986 -0.16699 0.53796 0.31054 0.7963 0.0096104 0.10722 -0.041127 -0.27483 0.59965 -0.33286 -0.79508 -0.078381 0.15356 0.15088 -0.10925 -0.14044 0.81086 0.087281 0.48917 -0.83346 -0.20671 0.3337 0.15736 0.137 -0.35527 -0.17808 0.24879 0.35196 0.010439 0.17481 -0.017552 0.43558 0.18829 0.19558 0.34908 -0.68115 -0.032834 -0.54084 -0.45016 -0.24241 -0.52495 0.6448 -0.91734 0.32109 -0.38984 0.17158 0.27822 -0.35426 -0.41685 -0.50803 -0.85371 0.43019 -0.39867 -0.010707 -0.11246 0.18096 0.64637 -0.23715 -0.38747 0.10003 0.095409 -0.31092 -0.51237 -0.1797 -0.13303 0.42301 0.35954 
za_predsednik_država -0.20587 0.52167 0.13552 0.41369 0.39726 0.33512 0.4257 0.74931 0.20533 0.21159 0.21274 0.11506 0.38513 0.06883 0.63686 0.099373 0.68568 -0.94535 -0.0046536 1.0638 0.32391 -0.51125 -0.26631 0.44315 -0.2389 -0.17223 -0.57248 0.20961 0.90836 -0.55795 0.29889 0.23321 -0.36178 -0.0032548 -0.52267 -0.010137 0.48863 0.57107 1.2344 0.046572 0.26002 -0.20708 -0.028708 0.081183 -0.44105 -0.54648 0.026292 0.55883 0.0010567 -0.64554 0.15211 -0.1932 -0.4939 0.068941 0.06073 -0.88178 -0.016528 -0.59783 -0.13253 0.12087 -0.011561 -0.63503 0.90819 -0.21353 -0.081381 -0.27097 0.16432 0.38158 -0.33655 0.15014 -0.71131 -0.26818 -0.20657 0.069696 -0.11573 0.22898 0.58299 -0.74506 -0.54674 0.68076 -0.09627 0.22225 0.20557 -0.65982 -0.53513 -0.048844 -0.078363 -0.23486 0.35255 -0.27601 -0.083007 -0.56012 0.35957 0.053774 -0.48991 0.71168 0.027113 -0.27717 0.44794 -0.5804 
ta_biti_vendar 0.07684 0.087272 -0.47771 0.056201 0.18681 -0.36179 0.13792 0.0029144 0.44953 0.44778 0.21505 0.20494 -0.34197 -0.25619 0.26546 0.060924 0.17564 -0.035801 -0.040704 0.30957 0.16004 0.24305 0.0113 -0.10344 -0.25616 0.048884 -0.19823 0.27114 -0.16434 0.21518 0.43113 0.028608 0.41517 -0.00071205 0.67586 0.076903 0.17046 -0.030576 0.54736 0.093514 -0.5605 -0.15294 -0.013727 -0.083449 -0.18332 -0.21218 0.11854 0.38591 -0.053349 -0.23211 0.32553 0.091831 -0.7269 -0.11364 0.11384 -0.11837 -0.022243 0.10448 -0.69477 0.37252 0.57834 -0.018183 -0.29203 -0.22614 0.12038 -0.28043 -0.023728 0.37889 0.071991 -0.0023483 -0.34736 -0.51579 -0.19626 -0.22784 0.28724 -0.38584 0.11581 -0.38398 0.019336 -0.067255 -0.24284 0.053357 -0.25942 -0.41849 0.10425 -0.07589 -0.18637 -0.53196 -0.38828 0.2527 0.0090717 0.25028 0.11744 0.44143 -0.058568 -0.19329 0.083756 -0.6615 -0.062532 -0.34987 
imeti_pravica_da 0.43161 -0.14853 0.048368 -0.12377 0.15908 0.48528 -0.12379 -0.50264 0.47152 -0.16375 -0.053772 0.27998 0.3234 0.29264 0.71605 -0.052121 0.22788 0.08441 -0.097505 1.0494 -0.14571 -0.62793 -0.055572 -0.39159 0.27732 -0.22409 0.020721 0.097758 0.29027 -0.16496 -0.23896 0.065445 0.14455 0.31088 -0.33456 -0.13586 0.093629 0.044737 0.19742 -0.33996 -0.2241 0.54896 -0.079086 -0.20303 0.068056 -0.18708 0.17 0.048135 -0.064423 -1.0996 0.50193 0.68964 -0.44315 -0.72781 -0.041217 0.21147 0.22149 -0.18453 0.25511 -0.52207 0.18043 -0.010847 -0.30108 -0.15843 -0.37093 0.51451 0.0094618 -0.28371 -1.2938 -0.19572 -0.5073 0.35105 0.10055 -0.1603 -0.15701 -0.42853 0.74715 -0.049357 0.027435 -0.40168 0.18885 -0.012986 0.30902 -0.56531 -0.49904 -0.060748 -0.50174 -0.039883 0.11768 -0.0054566 0.02339 -0.59717 0.44497 -0.04214 -0.091246 0.32681 -0.23597 -0.57101 -0.55136 0.046162 
po_ta_pogodba 0.21796 -0.056986 -0.25166 -0.048176 0.16962 0.142 0.02269 0.50411 0.040803 0.69039 -0.17662 0.47164 -0.49432 -0.97258 0.19312 -0.074672 0.25176 -0.76571 -0.025368 0.53772 -0.27166 -1.4035 -0.50315 0.070408 0.12109 0.066393 -0.022095 -0.72926 0.37513 0.63023 -0.047574 -0.031733 0.17891 -0.60511 -0.72461 0.60416 0.23098 0.10663 0.29945 0.12436 -0.0062959 0.16671 -0.23319 -0.32076 0.52555 -0.11804 0.066277 1.311 -0.36179 -0.65858 0.79124 0.34598 -0.65657 0.40361 0.072959 0.17063 -0.14137 -0.56964 0.69857 -0.48816 0.031509 -0.10553 0.38401 -0.57882 -0.02172 0.32941 0.6989 0.69344 -0.73971 -0.046932 -0.41499 -0.91052 0.28262 0.059399 0.57959 0.008595 0.83742 -0.64981 -0.53015 -0.036871 0.6503 -0.041982 -0.14425 -0.37357 -0.50241 0.014981 -0.02663 0.088267 -0.14504 0.15643 -0.1177 -0.10065 0.38186 -0.61437 -0.14484 0.15155 0.19277 -0.76287 -0.1183 0.022464 
biti_pojaviti_v 0.12069 -0.42524 0.066888 0.032588 0.20439 -0.43637 0.064218 0.16816 -0.087235 0.17437 -0.33258 0.30319 0.3641 -0.65828 0.016681 -0.10921 0.26491 0.12646 -0.19713 -0.25882 0.52258 0.061044 0.43988 -0.058683 0.28981 -0.083956 -0.40401 -0.33476 0.44107 -0.018073 0.63585 0.010241 -0.15977 -0.071859 0.16479 0.31836 0.12072 0.11498 -0.034655 0.27437 0.12938 0.2134 -0.42286 -0.042146 -0.14842 -0.067867 -0.20339 -0.099462 0.44568 -0.24854 -0.23383 0.30023 -0.37324 -0.18685 -0.031984 -0.2947 -0.012525 -0.21263 -0.03305 -0.12504 -0.60486 0.11255 -0.40195 -0.2048 -0.028883 0.11388 0.01072 0.34372 -0.49827 0.54507 -0.29646 -0.45832 0.36227 -0.14479 -0.049861 -0.75445 0.18356 -0.4267 -0.24993 -0.43223 0.011909 0.015685 -0.22241 -0.72983 0.19124 0.035554 0.36044 -0.61473 -0.10853 0.53864 -0.21277 0.54053 0.081026 -0.50157 0.40018 0.034033 -0.1913 0.23594 -0.32872 -0.28789 
pri_uporaba 0.077944 -0.39983 -0.69861 0.3979 0.15991 -0.66783 0.073085 -0.052075 0.5173 0.42993 -0.40818 0.51108 -0.25268 -0.4865 0.58534 -0.50764 0.29374 0.60025 -0.45429 -0.25028 0.57961 -0.7279 0.17228 -0.09061 0.5301 -0.86947 -0.1858 0.12151 -0.051903 0.49429 0.128 0.63014 0.049111 -0.19146 0.35203 0.19081 0.75546 -0.23171 -0.77904 0.51672 0.33471 0.1064 0.025358 0.069303 -0.058814 -0.076113 0.23351 0.29249 0.054927 0.069101 0.11932 0.30547 -0.95643 0.05132 -0.37956 0.33617 -0.30709 -0.33548 0.35599 -0.42748 -0.1896 -0.088761 -0.16068 0.24675 0.63857 -0.35271 -0.13522 0.24933 -0.84188 -0.032951 -1.083 -0.79601 -0.51888 0.673 0.35616 0.18449 0.26525 -0.3583 -0.17601 -0.26166 0.073411 0.33356 0.14341 0.19062 -0.028557 -0.03316 0.2683 -0.83173 0.1113 0.17969 0.22128 -0.56134 0.16429 -0.079 -0.37314 0.47564 -0.079255 0.54094 0.30269 -0.23714 
se_obrniti_na -0.13068 0.048467 -0.33851 -0.35395 -0.61991 -0.16596 0.12191 0.48714 0.087484 0.069362 -0.064127 0.028676 0.34058 -0.55483 0.7164 -0.26776 -0.23874 -0.21934 -0.081308 0.47387 0.65816 -0.26424 -0.31464 0.15342 -0.2264 -0.62408 -0.013829 0.43263 -0.26921 0.51322 -0.2952 0.35579 0.1318 -0.37446 0.41749 0.049875 0.57655 -0.32082 0.2312 0.32931 -0.13201 0.30527 0.01357 -0.13716 -0.089652 -0.063687 0.14867 0.18893 -0.28897 -0.030902 0.73209 0.004306 0.14868 0.17347 0.01495 0.23167 -0.29613 -0.36033 0.13108 -0.26685 -0.55167 0.018845 0.15202 0.31706 0.072008 -0.35742 -0.15063 -0.20932 -0.36213 -0.013734 -0.31604 0.18021 0.060447 0.29502 0.065991 -0.19658 0.96603 -0.4279 -0.082331 -0.33193 0.27354 0.25964 -0.25297 -0.059594 0.047126 -0.61385 0.079173 -0.19226 0.28165 0.57424 0.095056 0.59503 -0.041633 -0.15474 0.19993 -0.19043 0.065856 0.12412 0.31986 0.24541 
pokojninski_zavarovanje 1.2817 -0.52675 -0.38322 -0.20429 0.47011 -0.70965 0.50539 0.46182 0.15544 0.19558 0.50111 1.1542 -0.77479 -1.1623 0.98095 0.82694 0.74038 0.0093183 -0.50408 1.2608 0.29226 -1.1596 -0.95847 0.18474 1.2042 -0.20569 0.16937 -0.028956 0.62461 -0.88614 -0.59963 0.26643 -0.68633 -0.16125 -1.1252 0.46343 0.92137 -0.77083 0.55727 0.34818 0.081676 -0.34663 -0.24589 -0.32929 -0.12699 -0.12597 0.33127 -0.36848 0.90705 -0.81409 0.6922 -0.46137 -0.50354 -0.22258 -0.32117 0.032312 1.254 -0.0023063 -0.56615 -0.095397 0.51969 0.87624 0.79375 0.065524 -0.21224 -0.22454 0.83145 0.6217 -1.3781 0.49096 0.56209 -0.55164 -0.2705 1.0602 0.074518 -0.79577 0.68981 -0.15396 0.85837 -0.35951 0.51984 0.079081 -0.37336 -0.52993 -0.76417 -0.018496 -0.8608 -0.50142 -0.32377 0.083458 -0.11227 0.79868 -0.4578 -0.36166 -0.29022 -0.28374 0.070369 0.084662 0.01876 -0.28517 
izbrati_biti_tudi 0.010433 -0.20329 0.0086911 -0.21736 -0.56513 -0.20727 -0.0031296 -0.077417 0.11651 -0.015558 -0.2941 -0.18945 -0.013769 -0.29401 -0.014443 -0.3094 0.067669 -0.22131 -0.060624 0.37077 0.0026683 -0.46911 -0.21687 0.073449 -0.12526 -0.26693 0.43256 0.075457 -0.01744 0.14675 -0.045359 0.44373 0.16955 -0.15705 0.52689 0.055753 0.71474 -0.49497 0.34902 0.28007 0.022222 0.41467 -0.0203 0.041698 0.44954 -0.092744 -0.20928 -0.11713 0.16045 0.070881 0.11267 0.050154 -0.088649 -0.22193 0.00083035 0.27825 -0.052968 -0.38436 -0.064178 -0.14394 0.38031 0.15671 -0.32828 0.031801 0.10519 0.00031592 -0.037103 0.58534 -0.31208 0.2364 -0.37144 0.51045 -0.032601 -0.09179 -0.18208 0.047533 0.28372 -0.37046 -0.09098 -0.17868 0.23788 0.24185 0.074159 -0.43268 0.092179 0.12814 0.45876 -0.048677 0.6658 0.15287 0.10993 -0.23038 -0.067313 0.001058 -0.026167 0.070825 0.26252 -0.14113 0.013703 0.38795 
ostati_prazen_roka 0.18514 -0.32169 0.10853 -0.12814 0.09016 0.1758 0.66557 -0.22288 0.22867 -0.073111 -0.12834 -0.3152 -0.059258 -0.19134 -0.063595 0.018103 0.1764 -0.69608 0.11297 0.054983 0.24709 0.088632 0.29289 -0.21713 -0.29485 -0.48903 0.32849 -0.40436 0.034997 -0.046288 0.37848 -0.43089 0.26398 0.28653 0.25244 0.16231 0.75902 -0.12084 0.054891 0.3592 0.13851 0.16659 -0.5386 0.072297 -0.076315 -0.2081 -0.20636 0.13192 0.036858 -0.37816 -0.064094 0.43343 -0.16107 -0.20727 0.20821 0.29498 0.22485 -0.24873 0.02622 -0.055602 -0.36722 0.33047 -0.16242 -0.048345 -0.32244 -0.43779 0.36134 -0.032542 -0.1553 0.45734 0.060198 -0.34503 -0.33509 -0.32612 0.077962 -0.10647 0.78107 -0.38176 0.241 -0.060743 0.21373 -0.59924 0.41227 -0.37675 -0.13906 0.035156 0.49743 -0.18055 0.72719 0.44465 -0.37736 0.16263 0.1193 -0.48254 0.01189 0.008123 0.31935 -0.32095 0.12551 0.0037177 
veliko_človek_se 0.25161 -0.14824 -0.12057 0.0068859 0.53897 -0.30791 0.12317 -0.53357 0.42793 -0.59778 0.24001 0.070246 -0.39011 0.42034 -0.064066 0.18831 0.1717 0.31626 -0.31717 0.55705 -0.56612 -0.059658 0.55982 0.0071454 0.21343 -0.5076 -0.011967 0.16664 -0.40122 -0.19119 -0.16854 0.31848 0.4511 0.31188 0.70641 -0.48768 0.030941 0.30217 -0.013482 0.31476 0.50322 -0.096813 -0.097123 -0.089291 -0.31891 -0.16954 -0.16757 0.27049 0.31168 -0.63367 0.21783 -0.12547 -0.6373 -0.45446 0.082645 0.45486 0.10943 -0.13175 -0.55845 0.096775 0.060088 0.53267 -0.53594 -0.5977 -0.014412 -0.20441 0.3164 0.33189 -0.63949 -0.42131 -0.49449 -0.12321 0.16618 0.016011 0.39818 -0.48345 -0.089315 -0.11917 -0.12252 0.47216 0.83176 0.22825 -0.18923 -0.33846 0.24566 -0.020757 0.2183 0.31366 0.43791 0.10709 0.29334 0.13361 0.38964 0.078086 -0.048053 0.28679 0.085897 0.075728 0.00067436 -0.17176 
hudo_ranjen_biti 0.32441 0.25277 0.37929 -0.21807 -0.033832 0.40366 -0.24611 -0.66042 0.59955 0.18085 0.15626 0.022013 0.17053 -0.21296 0.6975 -0.91957 -0.39466 -0.035421 -0.33273 0.49207 0.1659 -0.92598 0.50979 -0.037996 -0.74071 -0.27569 0.879 -0.047254 0.076974 -0.68676 1.0031 -0.33876 0.28833 0.03501 0.26591 0.33058 0.69444 -0.15931 -0.12819 0.75362 -0.082463 0.072361 -0.19495 -0.09455 -0.55516 -0.25152 0.61484 -0.26764 0.4699 0.072773 0.15104 -0.091835 -0.65866 -0.36672 0.091445 0.0094626 0.30517 -0.20355 -0.27307 -0.5351 -0.6906 0.045497 0.16221 -0.4291 -0.50014 -0.89064 0.65963 0.56673 -0.82037 -0.29299 0.13172 -0.76751 0.057669 0.24545 0.58584 -0.21085 0.049499 -0.36695 0.012493 0.70421 -0.015914 -0.26195 0.61486 -0.22701 -0.67982 0.055917 0.49889 0.29682 -0.16768 0.40014 0.39191 -0.59034 -0.44062 -0.10621 0.35785 0.058368 -0.0084421 -0.43774 0.30727 0.40581 
ne_moči_zgrešiti 0.2616 -0.076931 -0.6881 -0.055518 0.43367 0.23674 0.046035 0.59628 -0.59399 0.027241 0.42299 0.14483 0.32956 0.14045 -0.25414 -0.48032 0.084939 0.27988 0.21004 0.11213 0.17247 0.43615 0.11786 0.36952 0.11707 0.016048 0.043399 -0.16795 0.33195 -0.071855 0.31983 -0.050957 -0.2095 0.045113 0.86716 0.057548 0.64929 -0.23423 0.64201 0.44095 -0.39243 -0.24191 -0.34899 -0.45866 -0.53126 -0.010631 0.59617 -0.21635 0.40488 -0.5992 0.36062 -0.15885 -0.37578 -0.92132 -0.57711 0.057467 0.024877 -0.34665 0.1277 0.022167 -0.27203 -0.036512 0.1228 -0.35569 -0.073158 0.47076 0.12702 0.58918 -0.67205 0.25609 0.24608 0.29435 -0.25747 0.13725 0.19609 -0.1968 0.11908 -0.20982 0.13318 0.15049 0.15991 0.86034 0.047878 -0.17486 0.19249 0.1755 0.21655 -0.21433 0.063659 0.012516 0.36421 -0.29525 -0.34424 -0.22843 -0.17518 0.64946 0.73628 -0.30931 -0.093031 -0.66244 
biti_vsakič_ko -0.074108 -0.053336 -0.73658 0.67761 -0.37111 0.042032 0.21169 0.19962 0.11305 -0.34471 -0.20759 -0.0030794 -0.32523 -0.12504 0.49102 0.080576 0.048006 -0.064814 -0.20772 0.12677 -0.15794 -0.16137 0.551 0.21858 0.32353 -0.048438 -0.27792 0.37742 0.10795 -0.20584 0.060455 0.3806 0.29973 -0.40406 0.2807 -0.040924 0.1855 0.33642 -0.015447 0.62359 -0.37525 0.033406 0.079078 -0.48402 -0.040544 0.67297 -0.32321 0.37063 0.34848 -0.61346 -0.40674 -0.32958 -0.42092 -0.99752 -0.1547 -0.39664 -0.45117 -0.26235 -0.81165 -0.27756 -0.37432 -0.2239 -0.5685 -0.15526 -0.0075633 -0.02628 0.38926 0.19126 -0.28252 0.63892 -0.32879 -0.37284 0.31157 -0.4208 -0.4939 -0.043769 0.062759 -0.71566 -0.36237 -0.67172 0.033557 -0.28509 0.0037264 -0.73584 -0.02196 0.50797 -0.29973 0.016612 -0.067983 0.32608 0.24248 0.54327 -0.5833 -0.062607 0.070511 0.27215 -0.44494 0.54341 -0.92561 -0.2788 
skupen_jezik -0.70049 0.40639 -1.0314 -0.065843 0.28136 -0.6776 -0.19172 0.442 -0.01696 0.33223 0.24432 -0.099991 0.083509 -0.6324 0.56887 -0.26118 -0.096898 -0.45661 0.0060636 -0.2909 -0.14848 -0.71936 0.44783 0.010008 0.088339 -0.17643 0.097896 0.19371 0.50672 0.29416 0.10132 -0.27922 -0.60154 -0.087758 0.46461 -0.40729 0.082299 -0.0078849 0.068749 0.88192 0.418 0.71449 -0.14799 -0.33318 -0.18968 -0.79673 0.041947 -0.033881 -0.53812 -0.67474 0.56427 -0.06897 -0.12069 -0.94167 0.064254 -0.52616 -0.3087 0.19179 -0.65883 -0.11711 -0.047171 -0.20335 -0.5855 -0.35142 -0.27611 -0.14771 0.081765 0.17434 -0.019514 0.10003 -0.6706 0.064634 -0.060216 0.49307 -0.37665 -0.71135 0.4994 -0.34092 0.4678 -0.2216 0.10987 0.46295 -0.71095 0.31641 0.027916 -0.14036 -0.42137 0.17387 -0.40503 0.34707 -0.0039372 0.70403 -0.26289 -1.0176 -0.30859 0.75287 0.066605 -0.22952 -0.34794 -0.3039 
zdeti_kot_da -0.19827 -0.2583 -0.38052 0.30618 0.17801 0.84014 0.04293 0.071822 -0.42579 -0.22736 -0.12229 -0.10486 -0.45344 0.36968 -0.074026 0.064436 -0.034927 -0.083496 -0.28138 0.99182 -0.26483 0.1642 0.0036619 -0.11758 0.57323 -0.52248 -0.56433 -0.41168 -0.063334 0.1214 0.136 0.17245 0.37319 -0.18489 0.91635 -0.0868 -0.020405 -0.80963 0.47444 0.058359 -0.32648 0.44279 -0.17276 0.33317 0.50936 0.21642 -0.1166 -0.2046 -0.087142 -0.42442 0.18333 0.04196 -0.55711 -0.64923 0.23568 -0.12545 -0.21754 0.37854 -0.15522 0.029979 -0.16121 -0.085929 0.073852 -0.10757 0.025625 0.24887 -0.079923 0.42083 -0.025179 1.0845 -0.19105 -0.50822 -0.66616 0.0047206 -0.72573 -0.15126 0.28358 -0.26946 -0.32488 0.11139 0.37298 0.07065 0.28288 -0.88049 -0.060125 -0.00087516 0.1074 0.16911 0.29879 -0.18142 0.1785 -0.3472 0.25741 -0.36131 0.37931 0.086185 -0.1399 0.53177 0.29329 0.13275 
zakon_tako_določati 0.26551 -0.5926 -0.53026 0.086948 0.2975 -0.22634 0.61893 0.066651 0.57089 -0.0063314 0.50643 -0.032126 -0.18791 -0.50217 0.82187 0.13842 0.99755 -0.029154 0.023508 1.0893 0.74709 -0.75303 0.167 0.32433 -0.013805 -0.11272 0.22769 -0.048143 -0.16312 -0.087644 -0.32036 0.23074 -0.30844 0.45602 -1.0032 -0.58657 0.30904 -0.073944 0.38231 -0.26223 -0.23429 0.57655 -0.43348 0.56195 -0.31619 0.16339 -0.056249 0.58061 0.2973 -0.17203 0.2794 0.10104 0.076091 -0.43107 -0.44923 -0.098866 0.068623 0.15125 0.086249 -0.057621 -0.28682 -0.23891 0.30716 0.097551 0.38413 -0.054556 -0.15561 -0.062386 -1.3661 0.65687 -1.0123 -0.31671 -0.09758 -0.68405 -0.30255 -0.56506 0.35537 -0.33387 -0.28501 0.22944 -0.13302 0.13628 -0.027658 -0.19227 -0.38562 0.44325 0.43012 -0.34412 0.40164 -0.61419 -0.094337 -0.047052 -0.22315 -0.7326 0.027369 -0.012101 0.32671 -0.56669 -0.25785 -0.11645 
iz_soba -0.40885 -0.47139 -0.37104 0.78997 -0.46611 0.70041 0.53824 -0.1824 -0.24641 0.36744 0.0093117 0.24482 -0.51512 0.1142 0.1523 -0.012442 0.3248 -0.89656 -0.18137 0.50386 0.096317 -0.13985 0.0074105 -0.62573 0.46554 -0.043801 0.17465 0.9458 -0.43911 -0.041063 -0.20553 0.1134 0.47845 -0.7194 0.79473 0.2605 1.0139 -0.45456 0.40853 0.7262 -0.50808 -0.43465 -0.139 0.011573 0.82605 -0.94987 -0.414 -0.63124 -0.45441 -0.6619 0.37154 0.3357 -0.86225 -0.21971 -0.46621 0.72227 -0.15814 -0.20321 -0.16611 0.65998 -0.059908 -0.23968 0.15104 -0.14336 0.25224 0.4045 0.36672 0.67145 -1.0124 0.71486 -0.36584 -0.24711 -0.12628 0.22557 0.10175 -0.26444 0.75627 -0.31116 0.692 0.78423 0.51499 -0.62895 -0.35999 0.022707 -0.15363 -0.54474 -0.428 -0.02323 -0.69312 0.44893 0.08305 -0.17198 1.2053 -0.16153 0.35164 -0.352 0.413 -0.55343 -0.66676 -0.035105 
tiho_biti 0.21607 0.41995 -0.35325 0.0047917 0.58239 0.44792 -0.099291 0.4474 0.52305 0.19959 0.4521 0.25943 -0.27929 0.16901 0.67766 -0.079937 0.39769 -0.44838 -0.18794 0.61583 0.022597 -0.41424 0.2125 -0.084838 0.24496 -0.072323 -0.67463 0.58547 0.3918 -0.6238 -0.018167 0.15795 0.35467 -0.0023915 0.23607 0.35528 0.63499 -0.3792 0.58824 0.23944 -0.52814 -0.16133 -0.40875 0.23218 0.017426 -0.073582 -0.5691 0.11099 0.54903 -0.38641 -0.25223 0.20413 -0.66594 -0.29313 -0.19242 0.45122 -0.11927 0.12781 -1.1496 -0.38893 -0.80291 -0.053532 0.1287 0.061235 -0.22174 -0.14641 0.13738 0.38064 -0.51574 0.39394 -0.17743 -0.44972 -0.14938 -0.80545 0.23683 0.15439 -0.39704 -0.36107 -0.39019 0.020688 -0.054986 -0.35674 -0.088282 -0.056775 -0.072152 -0.65244 -0.36893 0.19714 -0.13668 0.11532 -0.15953 0.042404 -0.097374 0.21386 0.16505 -0.030481 0.74683 -0.53756 0.23199 -0.21823 
krog_se_biti -0.18218 -0.013465 0.17923 -0.40403 -0.26574 0.36102 -0.18404 -0.24789 -0.11573 -0.10612 -0.16296 -0.0080447 0.27875 -0.73494 0.39263 -0.14272 -0.013495 -0.050426 -0.047189 0.6835 -0.028308 -0.046213 -0.10626 0.05567 0.29598 -0.38259 0.10985 0.085131 0.093609 -0.8033 0.31991 -0.15965 0.078602 0.088022 0.8807 0.16835 0.37587 -0.3829 -0.012724 0.81641 -0.030887 0.4401 0.30871 0.20071 0.29495 0.21595 0.1055 -0.014112 -0.094983 0.22866 -0.68969 -0.028578 -0.50955 -0.19953 0.19338 -0.50197 0.20379 0.30096 -0.078517 -0.21491 -0.32906 -0.33569 -0.047212 -0.19485 0.016983 -0.29157 0.01811 0.59402 -0.21024 -0.02886 0.071131 -0.23674 0.0054564 -0.38749 0.050896 -0.44912 0.5104 0.1573 0.48498 -0.22434 -0.23125 -0.068726 -0.024122 -0.38219 0.33386 0.013611 0.32497 -0.11928 0.35378 0.73776 -0.07221 -0.46187 0.034174 0.24791 0.26807 -0.028688 0.45408 -0.27665 -0.33876 -0.56155 
nikar_ne_skrbeti 0.57833 0.063053 -0.22285 0.25734 0.061332 -0.10843 0.34678 0.0056769 -0.054564 -0.44857 0.31469 -0.30708 -0.29735 -0.092082 0.4349 -0.13847 -0.51649 0.082397 -0.35678 -0.034833 -0.035335 0.34623 -0.47644 -0.026606 0.16558 0.18133 -0.020496 -0.29328 -0.4629 0.10328 0.28693 -0.078359 0.86807 0.27471 1.262 0.33199 0.11585 -0.34561 0.32784 0.27739 -0.26369 0.035535 -0.50267 -0.039338 0.043109 0.21506 -0.47897 0.22139 -0.43729 -0.46337 0.41134 -0.18273 -0.56498 -0.58928 0.32052 0.12988 -0.01323 -0.34227 -0.30121 0.015117 0.091675 0.43588 0.042894 -0.032742 -0.24702 0.44551 0.58536 0.25782 0.049141 -0.016769 -0.02822 0.13737 -0.059086 0.3973 0.61578 0.28787 0.78762 -0.67018 -0.2272 0.66357 0.48327 -0.32503 0.14505 -0.73283 -0.36379 -0.19301 -0.16637 -0.54311 -0.14748 0.32225 -0.094363 -0.058775 0.29527 -0.13235 -0.13061 0.099886 0.23247 -1.2149 -0.69838 -0.16245 
na_misel 0.64198 -0.50378 0.084766 -0.48977 0.65802 0.50609 -0.82542 0.25618 0.18957 0.41033 0.29995 -0.12609 -0.093957 -0.39349 0.27436 0.0026529 -0.12226 -0.224 0.014663 0.1389 0.64676 0.38358 -0.10302 0.33915 -0.27656 -0.39977 0.064635 0.2726 0.14906 0.21277 -0.46716 0.31241 0.82141 0.33751 0.13755 -0.18715 0.33963 -0.66027 -0.03385 0.49264 -0.36871 0.072658 0.2618 -0.62243 -0.13133 0.034449 0.4411 0.053231 0.052022 -1.419 0.49358 0.36827 -0.57037 -0.44276 -0.07932 0.013551 -0.3557 0.15457 -0.53787 0.20463 -0.51169 -0.6958 -0.75825 -0.076147 0.16119 -0.25659 0.64851 0.46522 -0.61309 0.45751 -0.10646 -0.47023 -0.35349 0.35906 -0.16409 -0.19836 0.32438 -0.69705 -0.11629 0.70773 0.25824 0.75265 0.81509 -0.88707 0.27766 -0.32343 -0.18533 -0.25624 -0.61189 0.11642 -0.39353 -0.50449 0.5667 -0.031869 0.90657 -0.62202 0.23252 0.20453 -0.079298 -0.80771 
slika_in_on -0.029472 -0.34351 -0.043153 -0.19956 0.58523 -0.51321 0.43337 0.64789 -0.038476 -0.45371 0.13158 0.37341 0.20252 -0.254 0.24434 0.27253 0.55674 -0.41807 0.231 0.065131 0.020488 -0.24831 -0.042714 0.27584 -0.12319 0.062471 -0.61836 0.4131 -0.33583 -0.61429 -0.11092 0.24451 0.15932 -0.0076239 0.45277 -0.13145 0.44147 -0.94729 0.0067439 0.14648 -0.12376 0.23261 -0.088851 -0.36191 -0.051305 0.096943 0.070813 0.22959 0.25845 0.020009 -0.47719 -0.45119 -0.33096 -0.78834 -0.1811 -0.49425 0.0018295 -0.32153 -0.25821 -0.58112 -0.043634 0.057744 -0.15255 -0.13308 -0.59837 0.39843 0.1314 -0.15309 -0.84756 0.58474 0.068633 -0.43404 0.060522 0.29792 0.20684 -0.14591 0.12245 -0.54747 -0.18201 0.35588 0.22106 -0.35749 0.10092 -0.21078 0.18223 -0.37901 0.19165 -0.29126 0.34823 0.21461 -0.53859 -0.23828 -0.14361 0.21107 0.38263 0.24899 0.50781 -0.1163 0.65058 -0.11637 
in_znanje 0.47804 -0.19818 -0.96863 0.47345 -0.27965 -1.1303 -0.0089991 0.67758 0.095125 0.73081 0.31235 0.4921 0.40892 -0.69468 0.68722 -0.0097856 0.37171 0.68516 -0.24081 0.83195 -0.38246 -1.0638 -0.42621 0.4275 0.63971 0.44619 -1.0737 -0.12949 -0.41673 0.20608 0.50221 -0.38759 -0.063083 -0.54629 0.81377 0.073591 0.15201 -0.27625 -0.31753 0.3071 0.20305 -0.05215 0.17742 -0.18392 -0.093314 0.18158 -0.023767 -0.26971 -0.22707 0.32084 0.96249 -0.29951 -0.25792 0.37229 -0.026696 0.11868 -0.6434 -0.83506 -0.42233 0.16946 -1.3008 -0.31999 0.19272 -0.1527 -0.63941 -0.45203 0.49529 -0.27787 0.30034 -0.38497 -0.27118 -0.15216 0.19119 0.56352 0.35469 -0.70713 1.3847 -0.60756 0.64754 -0.748 0.048582 0.46596 -0.015727 -0.18432 0.63656 0.53697 0.34656 -0.5236 -0.14021 -0.094797 0.96061 0.10999 -1.1908 0.99647 -0.26588 0.28896 0.86397 -0.2875 -0.1404 -0.61062 
strah_v_kost 0.017944 0.078143 -0.47574 0.31986 0.78193 0.40948 0.27109 -0.39915 -0.17299 0.19985 0.54522 0.68153 0.13863 -0.31202 -0.08724 -0.044601 0.347 0.02879 -0.16841 0.22592 0.45607 0.32645 0.31206 0.68937 -0.03251 -0.59414 -0.01997 -0.41813 0.58928 -0.72972 0.096592 0.18036 0.057342 0.2608 1.3487 -0.099054 -0.11561 -0.20491 0.73828 -0.19587 0.219 0.13941 -1.099 0.44074 0.11366 0.6824 0.23944 0.20975 -0.34046 -0.45687 0.36039 -0.44686 -0.96483 -0.3312 0.7509 -0.16993 0.5439 -0.26997 -0.21577 0.15496 -0.22375 0.60856 -0.1453 -0.014698 0.39566 -0.30708 0.41339 0.79813 -0.45918 0.10057 -0.31049 0.52558 0.26829 0.0044609 -0.48062 0.10261 0.35153 -0.74482 0.041906 0.30072 0.63349 -0.041549 0.013555 -0.99688 -0.95133 -0.12531 0.36653 -0.31238 -0.14834 0.36875 0.50282 0.37362 0.28473 0.24274 0.86552 0.61346 -0.05235 0.002994 -0.094711 0.63065 
seveda_biti_pozabiti 0.22872 -0.013666 -0.37717 -0.25578 -0.12395 0.0041634 0.015792 -0.17097 -0.14529 0.17494 -0.0081652 -0.02219 -0.27184 -0.29815 0.1706 0.26463 0.10561 -0.15546 -0.15556 0.39202 0.083548 -0.060607 -0.38728 -0.067698 0.14027 -0.13061 -0.0072856 0.21718 0.098945 -0.16913 -0.037762 0.011601 -0.0097797 -0.33513 0.63229 -0.30654 0.11228 -0.48017 0.078425 0.33179 0.1984 0.15837 -0.20618 -0.12119 -0.047072 -0.12909 -0.077034 0.15359 0.091414 -0.31207 -0.085696 -0.062444 -0.68947 -0.28633 -0.10941 -0.15557 -0.21196 0.08123 -0.39442 -0.074214 0.055172 -0.14066 -0.24183 -0.13476 -0.11039 -0.079479 -0.059594 -0.15386 -0.12189 0.26222 0.064061 -0.017689 -0.11992 -0.10648 -0.21231 -0.24316 0.15623 -0.28173 -0.20871 0.018653 0.11927 -0.18429 0.16302 -0.2376 0.1356 -0.08708 -0.092596 -0.30575 0.27684 0.2203 -0.0015263 0.029491 -0.090384 0.018552 -0.085249 0.039721 0.21924 -0.13882 -0.13629 0.087299 
kraj_zločin -0.53349 -0.63131 -0.051974 -0.092641 -0.22327 0.77883 -0.35447 0.39577 -0.48077 -0.093291 0.24514 -0.089101 -0.58789 0.37569 -0.038541 -0.18286 0.21188 0.049368 -0.1387 0.14065 0.53235 0.19854 0.52967 0.77351 0.3674 -0.27632 0.13715 -0.32425 -0.040749 -0.33185 -0.1051 0.085182 0.29544 -0.17365 0.77242 -0.89127 0.081477 -0.98045 1.1241 0.74661 -0.27501 0.2 -0.36976 -0.49951 0.75247 0.70357 -0.5427 -0.29803 -0.48246 -0.48958 -0.23724 0.30889 -1.6056 -0.020671 0.36717 0.21063 0.63557 -0.2085 -0.23134 -0.63281 -0.51287 -0.43552 -0.42167 -0.46709 -0.046105 0.22749 0.68731 0.52774 -0.49479 0.19008 -0.59438 0.2296 -0.26627 0.14542 0.58698 0.45878 0.58754 0.076071 -0.57119 0.28474 0.42837 -0.85317 -0.029153 0.37224 0.15201 0.2533 0.58285 -0.24147 0.5275 -0.36664 -0.51 0.051102 -0.98102 0.48459 0.75695 0.45427 -0.072187 -1.0258 -0.052356 0.07524 
on_biti_verjetno -0.017313 0.21523 -0.066136 -0.16866 0.21281 -0.038776 0.024302 0.11626 0.035942 0.02671 0.21247 -0.021681 0.24924 -0.79296 0.32774 -0.23526 0.36727 0.030027 -0.55779 0.047232 0.13371 0.15503 -0.11194 -0.22135 -0.028834 0.095504 0.18064 -0.15842 0.014987 0.15214 0.041101 -0.08323 0.37599 -0.14465 0.41382 0.46525 0.3649 -0.38656 0.43755 0.38418 0.37431 0.061973 0.13804 0.33475 0.24311 0.25126 0.20859 0.19517 -0.070918 -0.15274 0.31678 0.047811 -0.42337 -0.1071 0.19501 -0.058821 0.00081121 -0.34961 -0.099061 -0.26494 -0.031828 -0.051209 0.1096 0.037381 -0.36065 -0.070017 -0.14189 0.29592 -0.25875 -0.15126 -0.070267 -0.33271 0.0054184 0.27079 -0.010825 -0.15714 0.2884 -0.27532 -0.40416 0.30193 0.23849 -0.32159 0.25125 -0.46345 0.00053053 0.22441 0.19291 0.29632 0.25666 0.29847 0.36662 0.14442 -0.14598 -0.12026 0.54015 0.12883 -0.20196 -0.012735 0.20132 0.10043 
v_večeren_ura 0.15139 -0.22167 -0.44652 0.033224 0.00967 0.19688 -0.0057075 -0.42054 -0.079813 0.1041 0.056563 -0.58582 -0.1207 -0.40095 -0.7527 -0.61422 -0.4026 -0.56501 0.58807 1.3964 0.25504 -0.24621 -0.16591 0.31688 0.11753 -0.22936 0.18729 0.41457 -0.03663 0.0030638 0.78923 0.028449 0.16904 0.11166 0.59633 -0.17739 0.44932 -0.48647 0.60229 0.26285 0.21324 -0.2329 -0.32678 -0.069274 0.20635 -0.13039 0.36208 0.15832 -0.31197 0.32459 -0.06938 -0.7186 -0.36484 0.56224 0.032003 -0.53171 0.2472 -0.40826 -0.60637 -0.025327 -0.60474 -0.12215 -0.0465 -0.98334 0.1853 -0.50698 -0.29967 0.70249 -0.26577 0.40971 -0.25904 -0.22488 0.31547 0.21377 -0.25357 0.44173 0.44912 0.028799 -0.23498 -0.078438 0.21806 0.10391 -0.36199 -0.68485 0.13203 0.15753 0.27736 -0.46141 0.48373 -0.75957 0.48258 -0.42761 -0.12685 0.06128 -0.49711 0.31726 0.05153 -0.58731 0.77935 -0.76683 
vinski_trta -0.35485 -1.2036 0.62993 -0.49028 0.48714 -1.2485 -0.43084 0.79289 0.30094 0.39212 0.067804 0.45198 -0.15721 -0.23277 0.11079 0.27083 -0.058969 0.16007 -0.27646 0.36898 -0.024912 -0.82333 -0.10362 -0.36393 -0.019428 0.29349 0.085142 0.023305 -0.67345 -0.20647 0.22851 0.13626 0.75346 0.059683 0.72639 0.17098 0.25094 -0.27311 0.4085 -0.28669 -0.55695 0.21729 -0.2617 0.23642 0.11294 -1.1905 0.27009 0.4655 0.21521 0.73355 -0.20141 0.9095 0.46978 -0.45164 0.19959 -0.46378 -0.46391 -0.45699 -0.21415 0.25348 -0.98397 0.45439 -0.049446 -1.0673 -0.32364 -0.34487 0.45213 0.24181 -0.59023 -0.061068 -0.32755 -0.48281 0.76841 -0.27995 0.056817 -0.17676 1.2655 -0.71689 0.22094 0.52317 0.76282 0.71504 0.77105 -0.20192 -0.57195 -0.80222 0.61263 -0.32773 0.18136 0.19393 0.13124 -0.4294 0.23603 -0.86108 -0.39205 0.64183 0.45086 0.030644 -0.12867 -0.01438 
na_leto_in 0.2721 -0.83978 -0.24605 -0.041278 -0.081599 -0.20406 -0.1495 0.17877 0.2847 0.90195 0.80993 0.15184 -0.59529 -0.58106 -0.18527 0.38796 0.33135 -0.15297 0.72856 0.40169 0.25793 -0.38854 0.36764 0.2995 0.15742 -0.056691 0.39657 -0.052083 0.46418 0.42465 -0.20488 -0.16139 -0.25885 0.11135 0.67481 -0.16359 0.50858 0.22075 0.64203 0.83489 -0.61391 0.39917 -0.38181 -0.18882 0.31742 0.51413 0.32745 0.41898 0.17983 -0.48457 0.10532 -0.068915 -0.15646 0.39714 0.10594 0.15626 -0.055927 -0.42287 -0.11528 -0.05191 -0.35414 -0.43156 -0.28146 0.16391 0.19436 -0.5365 0.4423 0.41115 -1.0146 0.10679 -0.092052 -0.32207 0.32377 0.16572 -0.30583 -0.051605 0.52996 0.54804 0.24521 0.27636 0.81486 -0.011947 0.00070422 0.22081 0.14415 0.32015 0.12187 -0.039737 0.203 0.12883 -0.040301 0.2339 -0.2948 -0.039364 -0.43973 -0.28645 -0.041728 0.45312 0.33549 -0.58135 
rad_ta 0.3358 -0.7543 -0.088869 -0.23829 -0.44846 -0.15206 -0.31746 -0.14895 0.39105 0.55029 0.40454 1.2181 -0.32113 0.1855 0.97063 -0.27111 0.19365 -0.61004 0.075223 0.59926 -0.11029 -0.49909 -0.2211 0.30586 0.42139 -0.72633 -0.034683 -0.35728 0.19828 -0.58437 -0.10741 -0.36824 1.2881 -0.20977 1.1714 0.085421 0.8509 -0.4045 -0.57778 0.43243 -0.43527 -0.62956 0.51369 0.1518 -0.70711 -0.58214 -0.14048 0.15685 -0.20592 -0.20538 -0.041578 0.43508 -1.3255 -0.96756 -0.41353 0.11842 -0.57254 0.29074 -0.50524 -0.48806 -0.34074 -0.58648 0.28665 -0.33926 -0.22347 0.46973 0.53089 -0.54424 -0.3061 0.40671 -0.14949 -0.12198 -0.5724 -0.092195 -0.27092 0.11471 -0.23036 0.08072 -0.11893 0.74726 0.80115 -0.43108 0.45405 -0.18976 -0.36837 -0.097671 -0.0075248 0.12181 -0.2984 -0.093804 0.292 -0.14237 0.37123 -0.15272 -0.12664 0.16929 0.24618 -0.97027 -0.51222 -0.39599 
naš_račun 0.30437 -0.73627 -0.64694 -0.80269 -0.77319 -0.31041 -1.0819 -0.31432 0.2151 0.78258 0.68814 0.48013 -0.69683 -0.6119 0.052327 -0.084158 -0.02205 -0.16121 -0.046079 0.20284 -0.50934 -0.28411 -0.15635 0.258 0.26105 0.42435 0.067552 -0.16281 0.14352 -0.059333 -0.36085 0.35144 -0.64925 -0.36859 -0.031374 -0.29767 1.1776 0.029472 0.46344 1.2732 -1.0629 -0.26679 0.13273 -1.3134 0.35807 -0.15009 -0.2373 -0.62435 -1.1557 -0.83166 0.1045 0.25 -0.37682 -0.8429 0.036016 0.13505 -0.12125 0.53036 -0.3941 0.18854 -0.88005 -0.13327 0.23978 -0.377 -1.0511 0.12133 0.47739 0.56028 -0.22752 0.65485 0.33801 0.15887 -0.59247 -0.10835 0.63404 -0.2315 0.35996 -0.71049 -0.11909 -0.49152 -0.11504 0.076725 -0.31575 -0.22736 0.32797 -0.20744 -0.051994 -0.080873 0.67616 0.31434 -0.17008 -0.069358 0.18702 0.5542 0.24603 0.10156 -0.64798 -0.35303 -0.42404 -0.29051 
iti_za_človek 0.38854 -0.12989 -0.17446 -0.0063519 0.074929 0.27491 -0.1816 -0.2745 0.11901 0.079991 0.016681 -0.26323 0.12171 -0.082748 -0.2604 -0.21747 0.22351 0.15747 0.34896 0.021669 -0.16028 -0.50267 -0.55547 0.090655 -0.023471 -0.371 0.085874 0.28044 -0.23895 0.42511 -0.12429 -0.51373 0.12169 -0.0024617 0.56391 -0.21179 0.66356 0.13849 0.4245 -0.0027823 0.033503 0.33122 -0.32952 -0.11721 0.39871 -0.42325 0.011352 0.11006 -0.067346 -0.25007 0.58815 -0.011663 -0.49879 -0.2922 0.3418 -0.12504 0.10613 -0.051476 -0.39993 -0.37077 0.056323 0.16426 0.22943 -0.29486 0.038396 0.17561 0.38116 0.3294 -0.17571 -0.29889 -0.050503 0.11183 -0.18872 -0.0087269 0.092672 -0.51997 0.72509 0.11583 0.0064174 -0.11629 0.18062 0.12996 -0.3578 -0.036331 0.1362 0.51626 0.326 0.1601 0.50426 -0.413 0.099094 -0.070713 -0.073426 -0.14548 -0.27298 -0.048786 -0.097713 -0.66492 -0.17202 0.21194 
biti_biti_pa 0.037106 -0.094562 0.016311 0.023585 0.14711 0.33237 -0.10738 0.00012774 0.17071 0.24234 0.0323 0.18791 0.079024 -0.16534 0.2556 -0.28748 0.16021 -0.35562 0.13207 0.25707 0.32879 -0.16145 -0.23968 0.066593 -0.078468 -0.1294 -0.061587 0.13376 0.19109 -0.1024 0.20016 0.088855 -0.2826 0.034827 0.48727 0.29235 0.39105 -0.19508 0.083883 0.49073 0.075911 0.14873 0.16451 0.045562 -0.40449 -0.13869 -0.053735 0.39716 0.0003481 -0.63822 0.081966 0.14553 -0.21874 -0.20006 0.032538 -0.12834 -0.020883 -0.16096 -0.34644 0.21667 -0.31754 -0.18735 0.14903 -0.027383 -0.018005 -0.049314 0.028581 0.1634 -0.35229 0.29088 -0.02604 -0.16656 -0.071047 -0.082265 -0.34518 -0.73811 0.15895 0.26746 -0.037677 -0.048279 -0.39079 -0.14636 0.26198 -0.14592 -0.036442 0.12279 0.15732 0.027981 0.19224 0.06179 -0.016499 0.029267 0.15287 -0.35107 -0.28041 0.041554 -0.11808 -0.234 0.095262 -0.16873 
biti_drugače 0.27656 -0.15685 0.2838 0.29048 0.050746 0.28367 0.38837 0.3148 0.20003 0.32256 0.43452 0.014239 0.063629 -0.065233 -0.028051 -0.24322 -0.12849 -0.15632 0.017527 0.35499 -0.096496 -0.019798 0.039738 -0.003835 -0.5176 -0.090019 0.072323 0.26316 0.034478 -0.24524 0.0095377 -0.43169 0.014306 -0.27064 0.052751 0.016649 0.12985 -0.39528 -0.17231 0.52283 0.099136 -0.068 -0.21661 -0.25551 -0.16261 -0.094366 -0.37879 -0.23211 0.046053 -0.16837 0.59318 0.39055 -0.43399 -0.45073 0.36538 -0.065899 -0.49323 -0.14549 -0.33593 0.48326 0.078545 -0.31941 0.072043 -0.52366 -0.65147 0.09862 0.31944 0.397 -0.030197 -0.10096 -0.67725 -0.11376 0.54223 -0.5802 0.20655 -0.31518 0.027113 -0.19391 -0.24103 0.26453 -0.034836 -0.27028 0.51224 -0.66737 0.13846 0.42021 0.1567 -0.11887 0.44891 0.38251 -0.042749 0.17409 0.54998 0.34268 -0.49725 0.2227 0.27033 0.17052 0.086494 0.041879 
terjatev_zavarovan_z 0.84212 -0.11986 -0.34235 -0.22441 0.799 -0.97609 0.16062 0.47168 -0.039073 0.079002 0.41844 0.38924 -0.22613 -0.69588 0.74909 0.49408 0.359 0.49575 -0.89154 0.95271 0.32016 -0.81145 -0.91261 -0.049766 0.4265 0.16824 0.33522 0.23349 0.087305 -0.25109 -0.87882 0.90296 -0.331 -0.10237 -1.0361 0.46141 0.33866 -0.2955 0.56748 0.71768 0.62753 0.47167 -0.056941 -0.28636 0.35041 0.19618 0.1561 -0.08055 0.21978 -0.68537 0.95949 -0.0099563 -0.39745 -0.25334 -0.57561 0.054412 0.52446 -0.48038 -1.1389 -0.015836 -0.23224 0.32542 0.44122 -0.45219 0.0054911 -0.13002 0.78111 0.74307 -1.1683 0.22313 -0.46168 -0.088207 -0.50698 0.61798 -0.1381 -1.1549 0.54352 -0.071038 0.4105 -0.34509 0.76933 -0.45405 -0.20587 -0.30653 -0.28961 0.97283 -0.22017 -0.3371 -0.1872 -0.16181 -0.0019806 0.12018 0.19841 -0.6566 0.04392 0.065463 0.58472 0.24254 0.16847 0.16682 
noga_in_roka 0.32071 -0.10114 -0.26667 -0.29111 -0.30281 -0.12042 0.50607 0.56762 -0.024165 0.14872 0.67777 -0.12579 0.25156 -0.24289 -0.069168 0.12354 0.61204 -0.67981 0.03086 -0.34228 0.59759 -0.13427 0.10234 0.32173 -0.10715 -0.024042 -0.90449 0.0027586 -0.22539 -0.17368 -0.078146 -1.1103 0.33304 0.11053 0.65676 -0.18532 0.41942 -0.73345 0.23247 0.030169 -0.5006 0.15502 -0.49815 0.51271 -0.22449 0.38848 -0.308 0.095156 -0.19054 -0.79489 0.41683 -0.13723 -0.42497 -0.55627 0.4787 0.5531 0.21363 0.26339 0.008218 -0.37567 -0.47954 0.03373 -0.5004 -0.3053 -0.14767 -0.025362 0.18108 0.15409 -0.10664 0.46636 -0.092648 -0.29922 0.30569 0.24834 0.27501 -0.16733 0.48212 -0.57088 -0.33389 -0.0052815 0.010538 -0.014003 0.42435 -0.4267 -0.35836 0.5268 0.42967 -0.32226 0.54334 0.8221 -0.84971 0.64002 -0.61029 0.35684 0.53484 -0.30619 1.0597 0.15344 0.59187 0.45493 
in_šport_dr. 0.34491 0.27505 -0.50106 0.12143 -0.30352 0.47978 -0.15191 0.90098 1.0419 0.43664 -0.50771 0.7766 0.67853 -0.72378 0.46469 -0.91224 0.7051 -0.90377 -0.43224 1.3114 0.086753 -0.87845 -0.96399 0.16621 -0.40711 -0.032301 0.044727 -0.28302 1.3162 -0.44304 0.026951 0.44841 -0.39014 0.62352 0.40159 -0.60091 0.76948 0.019814 0.43849 1.1516 -0.30378 0.68854 -0.6235 0.84061 -0.52357 0.17381 -0.2154 -0.45096 0.15786 0.19895 -0.5368 -0.99563 0.79216 0.033863 -0.40742 -1.0188 -0.43744 0.16886 0.3485 -0.68554 -0.31165 -0.37481 -0.28154 -0.2903 -0.30113 0.11424 0.4105 0.50339 -0.69045 0.23257 -0.3669 -0.53587 0.058644 0.091241 0.55986 -0.55711 1.976 -0.83178 -0.42425 1.4059 -0.41112 -0.61118 0.44323 -1.0315 -0.37501 0.32161 -0.12604 -0.12147 1.1283 0.091219 0.27788 -0.28881 0.18397 0.30704 -0.25693 1.1103 0.16278 -0.95722 0.69261 -0.59454 
v_Kanada -0.051124 0.21895 0.12582 0.38024 0.11163 0.23539 0.27828 0.17715 0.065738 -0.52309 0.13533 -0.43736 0.02156 -0.26871 0.48272 0.61955 -0.11242 0.078143 0.48658 0.69983 0.38825 -0.18903 0.73111 -0.13248 0.33473 -0.72322 0.27866 -0.43722 0.49871 0.28789 -0.11097 -0.9014 -0.060015 0.13061 0.4049 0.034414 0.7201 -0.44362 0.14367 0.54265 -0.10294 0.30387 -0.3186 0.31361 -0.28719 -0.10592 -0.070591 -0.29011 -0.30505 0.26479 -0.36816 0.50416 -0.3741 0.43319 -0.71248 -0.37751 -0.10758 0.66239 -0.42899 -0.09086 -0.52198 -0.76195 0.43961 -0.64075 -0.10006 -0.23739 0.57858 0.30655 -0.36016 0.42281 0.18672 -1.2012 -0.32716 -0.78395 0.16428 -0.75075 0.50115 -0.68063 -0.26376 0.24348 0.62404 0.24563 1.1995 -0.031271 0.30207 0.32318 0.51946 -0.034523 0.67265 0.39854 0.44722 -0.43996 0.58877 0.14716 -0.15561 -0.43669 -0.2209 -0.49785 -0.15604 -0.11654 
drugače_biti_biti 0.14494 -0.045013 -0.20404 0.24381 -0.10515 0.08017 -0.18343 0.052156 -0.10945 -0.036819 0.13879 0.18032 0.14419 0.29117 0.35675 -0.21292 0.096985 -0.16312 0.32779 0.05328 0.17263 -0.34953 -0.11126 0.0039952 -0.11327 -0.42033 -0.1377 0.074034 0.25571 -0.096513 0.2939 -0.21516 0.40722 -0.21263 0.12437 0.18127 0.19416 -0.6086 -0.038258 0.54464 0.21792 0.17825 0.04092 0.19131 0.078151 -0.30239 0.029457 0.39812 0.13635 -0.21267 0.053147 0.25904 -0.37666 -0.43954 -0.086951 -0.24161 -0.136 -0.17608 -0.29222 -0.26846 -0.11585 -0.31289 0.1836 -0.34879 -0.15283 -0.13179 0.13374 0.059664 -0.41394 0.45145 -0.10214 -0.19021 0.0057171 -0.37529 -0.62189 -0.14817 -0.0025297 -0.29527 -0.36507 0.22877 -0.36407 -0.18017 -0.044416 -0.49401 -0.42605 0.038394 -0.11382 0.050468 0.080233 0.19994 -0.092208 0.091598 0.23477 -0.35737 0.1489 0.49982 -0.19363 0.1154 -0.060453 -0.014323 
nadaljnji_študij 0.028983 -0.39861 0.26137 -0.25592 -0.061893 0.26954 -0.24589 1.1658 0.34154 -0.15729 0.29002 0.25639 -0.39056 -0.58219 0.16476 -0.45074 0.087641 -0.16505 -0.15611 0.37896 -0.49632 -1.6489 -0.24384 0.20639 -0.808 0.37659 0.21094 -0.66921 -0.29633 -0.13108 0.2397 0.1645 -0.021825 -0.69478 -0.14107 0.055051 1.2021 -1.282 0.31667 0.3405 -0.11924 -0.11217 -0.10229 0.16758 -0.15009 -0.28598 -0.27502 0.00075428 -0.40922 -0.52351 0.73243 -0.013738 -0.33547 -0.32561 -0.23394 0.87635 -0.030422 0.14595 0.025638 -0.72183 -0.66395 0.39068 -0.27583 -0.47867 0.7925 0.59636 0.5247 -0.13255 -0.27689 -0.044666 -0.93287 -0.40845 0.49334 -0.8239 0.087248 0.23864 1.1183 -0.3829 0.15388 -0.71092 0.11455 0.072015 0.49569 -0.46861 -0.29917 0.61788 0.04025 -0.28526 0.62 -0.12878 -0.010931 -0.3901 0.1812 0.57623 -1.1309 0.39002 -0.08441 -0.45991 -0.31833 -0.65817 
Natalija_Verboten 0.74779 -0.0013343 0.26026 0.544 -0.17044 0.24106 0.092496 -0.39452 -0.21981 -0.15658 -0.32269 0.11014 -0.57516 -0.45042 0.29492 0.27919 0.12984 -0.49259 0.29824 0.50206 0.41701 -0.17468 0.079072 -0.04701 0.31067 -0.18153 -0.41982 -0.43297 0.38978 -0.25395 0.45768 -0.26722 0.56785 0.94803 0.81171 0.22956 0.422 -0.30183 0.89188 0.39717 0.075166 -0.055173 -0.033438 -0.13237 -0.57795 0.11002 -0.21883 0.13446 0.13197 -0.098416 0.38056 -0.29995 -0.51647 0.2597 0.41518 -0.52799 0.23062 -0.18983 -0.0032635 -0.44976 -0.39368 -0.040104 0.20781 -0.030114 -0.45871 -0.042389 0.56038 0.27726 -0.14272 0.25373 -0.11965 0.38386 0.10451 0.033308 -0.58462 -0.24042 0.85753 -0.29049 -0.45712 0.28461 -0.065837 -0.017309 -0.22757 -0.7575 -0.3489 0.30329 -0.15306 0.13925 0.44639 0.32512 0.29511 0.021232 -0.14582 -0.13111 0.22767 0.17586 -0.21532 -0.066528 -0.46085 0.95771 
da_imeti_tako 0.32131 -0.57771 -0.1834 0.017637 0.058192 -0.48816 -0.016924 0.15076 0.29693 -0.072384 0.25748 -0.05443 0.11957 -0.086585 -0.27156 0.11513 0.10546 0.031816 -0.074416 0.31847 0.2674 -0.14806 0.20409 0.0084128 0.056933 0.1762 -0.21166 0.4116 0.16588 -0.3959 0.15577 -0.17938 0.42975 0.2613 0.38351 -0.10531 0.61119 -0.15735 0.06871 0.1969 -0.048616 -0.0056869 0.3889 -0.096028 -0.065143 0.32315 -0.463 -0.016578 -0.061571 -0.7549 -0.16962 -0.036475 -0.49719 -0.33602 0.091017 -0.50313 0.65567 -0.45256 0.15197 -0.76132 -0.12438 0.45016 -0.070574 -0.31719 0.24124 0.15073 0.14496 0.14958 -0.81404 0.53955 -0.737 -0.29499 -0.19592 -0.19249 0.046938 0.23641 0.16626 -0.13546 -0.25203 0.47333 -0.024737 -0.6953 0.83831 0.17677 0.10248 -0.26453 0.23119 -0.1028 -0.087924 -0.19657 0.51352 0.23692 0.34647 -0.34798 0.23478 0.24171 0.1383 0.13657 -0.27593 0.45654 
na_ura -0.16003 0.42214 -0.85869 0.034335 -0.1795 0.44398 -0.39896 0.48578 -0.19887 0.17292 0.01556 0.34845 -0.0084395 -0.10431 0.70151 -0.072957 0.34573 -0.49092 0.35848 0.18218 -0.085254 0.18099 0.53496 -0.33029 1.2233 -0.26778 0.55562 0.29814 0.10664 0.54188 0.042472 -0.33859 0.18768 0.32651 0.88402 0.98701 0.25701 -1.0032 1.1154 0.26731 0.32054 0.4879 -0.12086 -0.17153 0.50921 0.19071 -0.26672 0.4698 -0.25182 -0.86976 0.11544 -0.38728 0.30508 -0.42491 0.31633 0.62415 -0.22936 0.16833 -0.94378 0.048711 -0.47789 0.64623 -0.10502 0.011086 0.334 -0.28532 0.92881 0.28033 -0.49851 0.29674 0.0043684 -0.36399 -0.066605 0.21218 0.4139 0.37763 -0.096915 -0.091586 -0.084083 0.049093 0.11018 0.3554 -0.050188 -0.046041 -0.52474 0.26056 0.56461 -0.17162 0.18372 0.84921 0.082708 -0.092423 -0.98985 -0.80619 0.2791 0.053472 0.14246 -0.35719 0.34441 1.3778 
na_Hrvaško_biti 0.37613 0.45248 0.13622 0.23444 -0.066616 0.083384 0.0075754 -0.39888 0.59665 0.22086 0.65505 -0.016626 0.14717 -1.1901 -0.042123 0.022998 0.20158 -0.39702 0.32772 0.1357 -0.26561 -0.54668 0.41101 -0.029426 -0.64884 -0.1608 0.44181 -0.07107 0.38504 -0.095766 0.43638 -0.4936 0.027404 -0.31112 0.76659 0.19018 0.62011 -0.0097311 -0.096057 0.53731 -0.02726 0.088171 0.29116 0.58026 0.26506 0.24052 -0.054493 0.20205 0.33718 0.19532 -0.021912 0.44791 -0.3965 -0.21288 -0.083823 -0.15971 0.0060108 -0.02427 -0.62357 -0.055485 0.11694 0.008159 -0.17371 -0.63555 -0.26719 -0.23095 0.85035 0.28027 -0.5654 -0.20329 -0.21033 0.34705 0.25531 0.17905 0.14543 -0.62467 0.32216 0.16611 0.080282 -0.10956 0.11797 0.13726 -0.24326 -0.088961 0.24222 -0.36301 -0.035719 0.057483 0.61261 -0.55521 0.012281 -0.37653 0.19141 -0.33275 -0.3053 -0.084509 0.34309 -0.61731 0.84064 0.3057 
lasten_potreba 0.867 -0.10297 -0.29159 -0.12709 0.60026 -0.78634 -0.20251 0.018363 0.30404 0.62962 0.33655 0.69645 0.32117 -0.65296 0.0088907 -0.073447 0.11531 -0.22695 -0.36494 0.22719 0.18024 -0.35643 -0.35941 0.4988 -0.51542 -0.062343 0.28591 -0.37529 0.14828 -0.50963 -0.12614 0.3307 0.17214 -0.069922 0.50164 0.02166 4.4084e-05 -0.1125 -0.16759 0.58753 -0.032461 1.1947 -0.49473 0.24157 0.33353 -0.25702 0.42011 -0.75909 -0.13069 0.050948 0.04871 0.31028 0.27036 -0.089568 -0.0057384 0.36545 0.020317 -0.2533 -0.23401 0.048865 0.50752 -0.196 -0.56548 0.46626 -0.11512 0.35426 0.54268 0.061509 -0.79715 0.26673 -0.2516 -0.34183 -0.58132 0.13091 0.24484 -0.69034 0.80527 -0.085195 -0.16702 0.068084 0.65982 0.8185 0.045174 -0.30509 0.065452 -0.04341 0.37477 -0.46799 0.39877 0.89485 -0.26401 0.45334 -0.52033 0.49302 0.11254 0.23965 -0.24603 0.10449 -0.45327 -0.0056393 
primer_ne_moči 0.17139 -0.13801 -0.69003 0.25573 0.29781 -0.33206 0.27643 -0.13765 0.35316 0.066167 0.21013 0.19102 -0.45895 -0.8453 -0.066598 -0.13339 0.16167 0.28375 -0.64117 0.45082 0.2591 0.34085 0.43373 0.3458 -0.097039 0.40277 0.25161 0.0068635 0.0991 -0.082357 -1.0453 0.08061 -0.058945 0.072356 -0.12265 0.095809 0.11403 -0.31547 -0.03868 0.53684 -0.089802 0.68407 -0.096472 -0.055057 0.41302 0.047545 -0.096006 0.13614 -0.1713 -0.36696 0.5981 0.22331 -0.28733 -0.30879 0.61476 -0.010137 -0.1587 -0.10275 0.46826 -0.16692 -0.3547 0.31238 0.078971 -0.016495 0.41577 -0.12412 -0.099473 0.047464 -0.75292 0.32192 -0.068787 0.027949 -0.062006 0.68618 0.34525 -0.67267 0.30011 -0.37097 0.045634 0.15941 -0.18612 0.15475 -0.2098 -0.021662 -0.56147 -0.31687 0.36113 -0.25625 0.59326 -0.25771 0.20552 -0.39582 -0.14395 -0.11789 0.21105 0.16151 0.11219 -0.7976 -0.26458 -0.35512 
se_želeti_tudi 0.68027 -0.66681 0.0906 -0.44259 0.32737 -0.62217 0.35525 0.21033 -0.045755 -0.06655 -0.37418 0.58773 -0.58278 -0.32576 0.00211 0.056146 0.20325 0.072436 -0.16306 0.12468 -0.15526 -0.10661 0.32852 0.30864 -0.12977 -0.33222 -0.29146 -0.10346 0.70862 0.092665 0.056763 -0.23554 0.22793 -0.089908 0.50614 0.0048992 0.45668 -0.1873 0.41476 -0.018708 -6.2601e-05 -0.23658 0.13553 0.042647 -0.18569 0.047179 -0.090838 -0.20441 0.18432 -0.39434 0.041663 -0.15955 -0.3023 0.12682 -0.20574 -0.15062 0.44241 0.049703 -0.40767 -0.58001 -0.17592 -0.39315 -0.14901 -0.13868 -0.63838 -0.22483 0.22323 0.42214 -0.24179 -0.12508 -0.42391 0.089068 -0.09756 -0.022874 0.39801 0.27794 0.61818 -0.37603 -0.50608 0.69655 0.3284 0.31197 -0.32338 -0.17141 0.16006 -0.082175 0.50205 -0.13166 0.11326 -0.03558 0.52804 -0.10754 0.2572 -0.32908 0.26692 0.093811 -0.30207 0.3591 0.1004 0.093172 
se_lahko_od 0.97291 -0.23135 -0.71834 -0.30555 0.057764 0.15557 0.60137 0.21905 -0.19821 0.32518 0.078549 0.38685 0.081587 -0.20202 0.19133 0.045789 -0.49936 0.30006 -0.21654 0.47874 -0.51189 -0.41421 0.19084 0.74836 -0.039931 -0.028754 -0.075383 0.50925 -0.35925 0.40186 0.07462 -0.43394 0.42251 0.033845 -0.15186 0.16165 0.088671 -0.26626 0.39486 0.44852 0.15882 0.19072 -0.20247 0.016091 0.3676 -0.14392 -0.8439 -0.52667 0.059098 0.19666 0.23784 0.15813 -0.40438 -0.092531 -0.14033 -0.036453 0.15247 -0.14035 -0.53371 -0.148 -0.20422 0.59597 -0.32628 -0.47633 0.19291 -0.1805 0.23196 0.14309 -0.29084 -0.56788 -0.62827 1.0908 -0.17956 -0.36434 0.34733 -0.41171 0.56053 -0.40674 -0.10401 -0.22527 0.29387 -0.11631 -0.38666 -1.0753 -0.26517 0.4735 0.017505 0.2051 0.43335 -0.07375 -0.34975 0.074299 -0.087331 -0.11108 -0.28364 0.40162 0.040475 0.38354 0.86797 0.44632 
v_kateri_navajati -0.08867 -0.51554 0.080372 0.49329 -0.12072 -0.22592 0.46576 0.74072 -0.10853 0.47876 0.25014 -0.0088324 0.15497 -0.78804 0.062607 -0.12736 0.10574 0.302 0.078718 0.82855 -0.030323 -0.67642 0.42301 0.12594 -0.28877 -0.19137 0.19704 -0.23989 -0.30092 -0.077459 -0.35584 0.065242 -0.45072 -0.098617 -0.25115 -0.76785 0.21773 -0.37479 0.29771 0.61832 -0.5729 0.46951 -0.13459 -0.37007 0.24762 -0.10235 0.24153 0.20778 -0.34773 -0.59423 0.65491 0.42929 0.065752 -0.13027 -0.12804 0.0034087 0.222 0.075707 0.30291 0.16884 -0.19796 0.39484 -0.30252 -0.58886 0.22957 0.27372 0.4453 0.4373 -0.41512 0.23883 -0.39519 -0.43047 0.90137 0.02573 -0.13624 -0.39632 0.037461 0.24197 -0.028994 0.56368 0.014099 -0.057338 -0.69929 -0.4075 0.15444 0.34665 0.058205 -0.3837 0.61448 -0.24727 0.61918 -0.46149 -0.10916 -0.39304 0.80206 0.21558 -0.14807 -0.72512 0.091426 -0.10635 
dati_jaz_biti -0.020627 -0.31525 0.071628 0.11247 -0.033794 -0.23812 -0.12427 0.2895 0.12218 0.26353 0.047318 -0.043946 -0.050737 0.28006 0.32754 0.23733 -0.0082544 0.12 -0.011353 0.077379 -0.091438 -0.13612 -0.15638 0.11471 0.15362 -0.16838 -0.1727 0.18553 -0.10055 0.23903 0.2183 -0.23324 0.21118 -0.008151 0.81468 0.025342 0.39804 -0.32591 0.15929 0.75407 -0.25968 0.015276 -0.096986 -0.10667 -0.55303 0.48065 -0.086461 -0.031919 -0.30639 -0.66306 0.10574 -0.031722 -0.20593 -0.55309 -0.20725 0.31958 0.038751 0.22921 -0.47353 0.10315 -0.58245 -0.18731 0.050322 -0.22951 -0.019675 -0.094963 0.24611 -0.18547 -0.33503 0.39084 -0.33088 0.19295 -0.1161 -0.095514 -0.28629 -0.51712 0.016187 -0.2606 -0.040013 0.026002 -0.024569 -0.097227 0.031788 -0.52096 -0.10337 -0.055666 0.012217 -0.15376 -0.4995 -0.058161 -0.4479 -0.47215 0.04958 0.050724 0.16714 0.44565 -0.31006 -0.22959 0.10868 -0.32974 
velik_škoda -0.61736 -0.60321 -0.89484 0.21224 -0.025637 -0.32938 -0.26267 0.18935 0.21273 0.036404 0.6922 0.48627 0.21029 -0.71469 -1.1087 -0.48779 -0.68203 0.32708 0.18427 0.63246 -0.0072241 -0.029202 0.36358 -0.43068 -0.043251 0.21491 1.1613 0.031493 -0.050094 -0.38901 -0.51299 -0.0068685 -0.63334 -0.16537 0.24233 0.35314 0.75533 0.14472 0.24825 0.51242 -0.3737 0.58938 0.32221 0.34687 0.3342 -0.43375 -0.53871 0.080144 0.36617 -0.21874 0.41907 0.10985 -0.13946 -0.96556 -0.79888 -0.44249 0.09788 -0.93428 -0.53382 -0.65866 -0.10731 0.23274 0.16883 -0.62515 -0.29232 -0.12149 0.53654 0.065003 -0.00076661 0.58244 -0.073245 -0.35302 -0.031679 0.24606 -0.36495 -0.92043 0.28897 -0.36708 0.13126 0.053584 0.3361 -0.31242 0.44312 0.043577 0.63897 0.3517 0.0022339 -0.080031 -0.2338 -0.079615 -0.14074 -0.075231 0.0032725 -1.1161 -0.049928 0.75943 -0.61869 -0.18853 -0.42051 0.1311 
1,5_meter 0.41256 -0.17098 -0.25005 -0.4947 0.43386 -0.2247 -0.38952 0.37241 -0.81276 0.62709 0.11383 0.21718 -0.35397 -0.34028 0.37421 0.081528 0.18224 -0.41861 0.355 0.088889 -0.3455 0.076747 0.34989 -0.031207 -0.19944 0.67422 -0.16003 0.61961 0.064113 -0.29666 -0.44672 -0.10903 -0.19975 -0.2505 0.69433 0.042181 -0.16548 0.22169 -0.15439 0.30407 0.52425 0.36623 -0.3769 -0.55759 0.50654 -0.20079 -0.12892 -0.31086 0.45435 0.025074 0.099574 0.059974 -0.64001 -0.77048 -0.078007 0.40367 0.0092513 -0.73866 -0.98288 -0.24953 -0.62944 -0.23507 0.12616 -0.79748 -0.34009 -0.68573 -0.11003 0.070637 -0.72108 0.24804 0.43411 -0.2559 0.11534 0.60607 0.20625 -0.57907 0.93812 -0.42897 -0.47588 0.60131 0.032803 1.1154 -0.28677 -1.0146 -0.21275 -0.28688 0.43434 -0.76367 0.45422 0.45539 -0.50441 -0.35202 -0.18818 -1.1767 -0.50097 0.32645 0.51973 -0.19443 0.96525 -0.023999 
med_mešanje_pražiti 0.18151 -1.2737 -0.71065 0.45488 -0.34749 -0.014147 0.22109 0.17081 -0.34704 -0.11637 0.12713 0.30348 -0.046685 -0.34547 -0.033259 -0.070002 0.24741 -0.11928 -0.23979 0.44267 1.1786 -0.52994 -0.089151 0.27792 0.54592 -0.76524 0.011939 0.31055 0.21654 0.52367 -0.13405 -0.13516 0.098328 1.0628 0.43229 0.21462 0.33536 -0.57876 0.59125 0.81886 -0.20666 0.64346 -0.13632 -0.31889 0.14838 -0.35014 -0.061306 -0.43702 0.057684 1.6548 -0.55702 -0.27353 -0.51917 -0.7258 -0.2371 0.17326 -0.22665 0.24926 -1.2791 0.0084402 -0.030591 0.82078 0.50709 0.3562 -0.27296 0.00043488 0.24954 -0.18818 -0.50412 0.44809 -0.65501 -0.26606 -0.48837 0.088359 -0.55129 -1.026 2.2675 -0.55951 -0.48029 0.42596 -0.24203 0.3253 -0.02774 -1.2446 -0.082438 0.39609 -0.038728 -0.68369 -0.39104 0.87429 0.96396 0.12811 -0.3507 -0.32326 0.3508 0.50484 0.45735 -0.60206 -0.38027 -0.15247 
telo_biti_biti -0.44225 0.079883 0.28497 -0.15265 0.073251 -0.20604 -0.12657 0.2303 0.68453 0.42699 0.0090366 -0.36307 0.28627 -0.040008 0.3214 -0.064294 0.0064123 -0.031241 -0.030413 -0.0015043 0.38549 0.012138 0.24185 0.2189 -0.51029 -0.36583 -0.11898 -0.042638 0.084769 0.37266 -0.025334 -0.039298 0.014799 -0.17692 0.94486 0.40843 0.041529 -0.32357 -0.095336 0.25145 0.11947 0.31054 -0.21445 0.37657 0.18088 -0.091545 -0.048379 0.059245 0.10693 -0.048979 -0.059285 -0.0035816 -0.43078 -0.32394 -0.0246 -0.080909 0.3683 -0.19063 -0.68532 0.28852 -0.30743 0.21362 -0.06707 -0.14341 0.23484 -0.021513 0.43829 -0.074901 -0.46983 0.027445 -0.58278 -0.22998 0.10671 -0.01946 -0.10395 -0.14695 0.21381 -0.44478 -0.34101 0.058125 -0.12996 0.18844 0.057901 -0.65605 0.20987 0.13311 0.025904 0.13653 0.015534 0.49102 -0.38419 0.2232 0.038155 -0.29454 0.31841 0.19129 0.23626 -0.17049 -0.51497 -0.054262 
med_prijatelj -0.084764 -0.40706 -0.23569 0.079287 -0.25515 0.28542 -0.15993 -0.38873 -0.19157 0.21269 0.15423 -0.34351 -0.30481 -0.77587 -0.18394 0.0092507 0.52144 0.47702 -0.19959 1.0592 0.11055 0.28215 0.22352 -0.28902 0.052947 0.1961 0.094845 -0.075721 0.082893 -0.097556 0.52891 -0.46797 0.68207 0.29743 0.91346 -0.044342 0.16616 -0.57039 0.31076 0.87077 -0.10199 -0.019138 0.13382 0.032909 0.46315 -0.02663 -0.05526 -0.21341 -0.48536 0.14734 0.047496 0.23839 -0.1781 -0.38098 0.33692 -0.059764 -0.30884 -0.23222 -0.63531 -0.10438 1.0622 0.76333 0.20879 -0.35607 -0.64086 0.77506 0.77999 -0.1241 -0.56214 -0.10775 0.32268 -0.40938 0.29382 0.15226 -0.13772 -0.35262 0.31486 0.20245 -0.26742 0.18684 0.2887 -0.013535 0.062738 -0.84404 -0.29088 0.23507 0.72385 0.054329 0.28866 -0.095104 0.040259 -0.39426 0.69156 0.11358 0.049621 0.45077 -0.054973 0.11225 -0.48379 -0.21052 
naslednji_poglavje 0.16211 -0.50562 -0.54894 -0.59151 -0.0021475 -0.61455 0.96006 0.089599 0.30692 -0.26401 0.53959 -0.46481 -0.0074612 -0.53448 0.47213 -0.82112 0.48976 0.39343 -0.07399 0.36785 -0.12796 0.08449 -0.15321 0.25346 -0.2715 -0.15927 -0.2151 0.80214 -0.50667 -0.36324 -0.6002 0.65517 0.041622 -0.057815 -0.3845 -0.26308 0.44936 0.073879 0.6429 -0.16088 -0.22677 0.42631 -0.3801 -0.32135 0.096628 -0.60376 0.040734 0.014541 -0.076546 -0.3408 0.63744 0.41023 -0.94007 -0.6401 -0.16031 0.35624 0.27863 0.17468 -0.031751 0.29569 -0.29982 -0.55065 0.32278 -0.54086 0.39591 0.052978 0.30594 0.31013 -0.64865 0.90555 -0.044625 -0.34289 0.1621 -0.20807 0.69065 0.14155 0.26603 0.61843 0.69603 0.34045 -0.09537 0.64477 -0.030164 -0.73413 0.075437 0.36152 -0.33689 -0.95101 0.0724 0.32887 -0.018646 -0.10229 -0.098574 0.12123 -0.045861 0.018859 -0.32679 -0.46938 0.097806 -0.070668 
za_mlad_in 0.15645 -0.12156 -0.14356 0.21216 0.0021956 -0.24725 0.39187 -0.147 -0.283 0.062603 0.49439 0.52512 -0.64385 0.59073 0.32984 0.072677 -0.67359 -0.2429 -0.51432 0.60414 -0.088348 -0.047476 -1.1448 0.24269 0.46448 -0.082447 0.20285 -0.42301 0.56821 -0.15843 0.32943 0.22625 -0.16238 0.21717 0.29531 0.18741 -0.35499 -0.24308 0.10782 0.14705 0.43068 0.65418 -0.5718 0.030671 -0.58782 0.36604 -0.024212 0.22393 0.20553 -0.4439 0.50732 -0.60999 -0.23387 -0.23187 -0.91072 0.03667 -0.48367 0.093183 -0.54854 -0.037728 0.16184 -0.01194 -0.03162 -0.93464 -0.098185 0.43878 0.26377 0.18289 -0.39198 0.90355 0.037507 -0.14349 0.053308 -0.47828 -0.1056 -0.44121 1.2602 -0.38556 0.16701 0.63755 0.12732 0.88332 0.21089 -0.56463 0.24362 0.4118 -0.017164 -0.55143 -0.38767 0.028857 0.14246 -0.83139 -0.97735 0.18729 0.06995 0.92265 -0.6005 0.26595 0.079012 -0.36035 
svoj_ideja -0.19006 -0.91372 -0.3001 -0.020565 0.13162 -0.051608 0.11834 0.30255 -0.20297 -0.048254 -0.28067 0.93406 0.10206 0.2708 0.53306 0.058938 0.080096 0.28582 -0.0019571 0.741 -0.16402 -0.66018 0.20095 -0.18243 0.10809 -0.16266 0.066119 0.4733 -0.3089 -0.099504 0.1844 0.33873 0.32449 0.019828 0.88038 -0.39349 -0.44156 -0.27037 1.1099 0.67752 0.14035 0.20183 0.32164 -0.43058 -0.07513 -0.36869 0.056325 -0.23653 0.25347 0.14918 0.30395 0.07443 -0.17143 -0.68619 0.15492 -0.048168 0.11043 0.15217 -0.58808 -0.32573 -0.089709 0.09676 -0.39002 -0.64718 -0.26801 0.097988 0.58893 -0.34093 -0.062616 -0.064259 -0.10723 0.15266 0.37377 -0.43579 0.5034 -0.013918 0.45366 0.14482 -0.39551 -0.15631 0.59131 0.3238 -0.2496 -0.12261 0.094374 -0.21303 0.19602 -0.044172 -0.14665 -0.06935 0.032637 -0.21567 -0.51139 0.068967 0.039343 0.28867 0.54326 -0.4749 -0.40925 0.093647 
biti_smešen -0.091157 -0.44557 -0.61523 -0.56282 0.11375 0.81382 0.43133 -0.48356 0.3606 0.38174 -0.091476 0.52284 0.056007 -0.168 0.15323 0.12873 0.55262 -0.49684 0.11258 0.244 0.1112 -0.15287 0.28091 -0.72563 0.51708 -0.7333 -0.38021 0.0078385 0.15809 -0.54005 0.7696 -0.14921 -0.12664 -0.0055506 0.59226 0.21603 0.64948 -0.12229 0.15976 0.27315 0.12429 -0.063529 0.49689 -0.32211 -0.44464 0.45532 -0.23946 -0.15648 -0.17414 -0.45533 0.29903 0.42869 -0.677 -0.44588 -0.14373 -0.15677 0.65565 0.18458 -0.34318 0.19257 0.33464 0.45403 0.25431 0.29409 -0.11269 0.083692 0.18473 0.22085 -0.42817 -0.35528 -0.54766 -0.087961 0.20648 -0.64829 0.71491 -0.0050082 0.061171 0.2284 -0.2744 -0.030525 0.095077 0.12687 -0.23911 -0.15557 -0.37566 0.27861 0.70257 -0.17219 0.5031 -0.082289 -0.055168 0.36561 0.18824 -0.28927 -0.51861 0.18093 -0.021183 -0.5231 -0.2436 -0.13364 
od_kateri_vsak 0.087783 -0.58301 -0.4757 0.35797 0.13608 -1.0937 -0.22694 0.30936 0.1674 -0.3184 -0.63278 0.048352 -0.16497 -0.24955 0.39471 -0.41478 0.20796 0.22645 0.095492 0.344 -0.67564 -0.30916 0.079387 0.48422 0.33649 -0.17698 0.13141 0.23432 -0.24194 -0.074603 -0.28608 0.94723 -0.49105 -0.0075444 -0.35888 -0.14428 0.55676 0.23476 0.46623 0.51029 -0.12991 0.24413 -0.60718 -0.37355 0.025584 -0.61175 -0.11655 0.67512 -0.143 -0.37842 0.35163 0.34008 -0.39171 -0.25835 0.17997 0.089861 -0.04934 -0.23503 -0.12525 -0.76196 0.23621 0.19947 -0.28572 0.030164 0.13528 0.037426 0.24353 0.53288 -0.49283 0.21928 0.1567 0.10439 0.44815 -0.12564 -0.28562 -0.47242 0.61328 -0.98878 0.42663 -0.30583 -0.31589 0.11853 -0.21309 -0.80649 0.21267 0.018757 0.64388 0.077466 0.34698 0.20113 -0.2985 0.11357 -0.023191 -0.31361 -0.23928 0.37817 0.19049 0.16985 -0.15223 -0.054912 
klirinški_depoten_družba 0.15915 -0.67195 -1.0265 -0.20096 0.05169 -0.14469 0.80205 0.5699 -0.46829 0.44217 -0.32401 0.097247 -0.13714 -0.57256 0.7289 0.11871 0.72937 0.21617 -0.32375 2.3578 0.39968 -1.2158 -0.4455 0.47876 0.21198 -0.22862 -0.18605 -0.098709 0.283 -0.35541 -0.13359 0.3586 0.36131 -0.53903 -1.8845 0.075154 0.66591 0.11926 0.97127 0.5481 0.037289 -0.14888 -0.83362 -0.41678 -0.61668 0.01064 0.010247 -0.10681 -0.48093 -0.41632 -0.11561 0.11376 -0.69109 -0.10691 0.51971 -0.054799 -0.046315 -0.3176 -0.44137 0.29287 0.028387 0.087598 0.2749 -0.52931 0.20207 -0.24218 0.36267 0.29632 -1.075 0.44404 -1.0871 -0.064667 -0.099394 0.06162 0.2609 -0.62144 0.34951 -0.80055 0.070103 0.33497 0.52143 -0.46222 -0.54514 -0.58873 0.059701 0.48851 0.43084 -0.085308 0.07758 0.5193 0.1165 0.05719 -0.50941 0.63558 0.38823 0.60318 0.76573 0.021887 0.098998 -0.49593 
na_Gorenjsko 0.65831 -0.26033 0.14941 -0.09113 -0.24726 0.60893 0.32585 -0.1791 0.55981 0.40398 -0.44218 0.48164 -0.27389 -0.088831 -0.040014 -0.24465 0.63765 -1.4118 -0.78484 0.27567 0.44056 -1.112 0.43527 -0.1656 0.62974 -1.223 0.5731 -0.29794 0.059997 -0.76963 0.92861 0.71296 -0.66036 -0.020776 -0.1021 0.33216 0.91274 -0.22129 -0.03637 0.30661 0.13012 0.32919 -0.36348 0.52747 0.38915 -0.65122 0.37261 -0.13804 0.79016 0.56037 0.27247 -0.36888 -0.39868 -0.15464 -0.38575 -0.3251 -0.11224 -0.051448 -1.6113 -0.49068 0.80835 -0.47054 -0.17229 -0.49849 0.47124 -0.30325 0.42468 -0.20053 -0.13294 -0.51787 -0.84151 0.49769 0.2244 -0.16883 -0.042443 -0.58702 0.58065 -0.63505 -0.45057 0.51263 -0.23629 -0.18328 0.31406 -0.19577 0.12451 1.234 0.26183 0.48054 1.0423 -0.45474 0.54991 -0.42246 0.4056 0.4628 0.024531 0.58145 0.18478 -0.4305 -0.085147 0.40644 
o_davčen_postopek 0.38177 -0.49827 -0.46116 0.7842 0.56697 -0.57981 -0.16454 0.96327 -0.10438 0.68835 0.49414 -0.30759 -0.078496 -0.88219 1.1676 0.50925 0.22763 -0.63935 -0.3055 1.7169 -0.083324 -0.89616 -0.49542 0.30945 0.15524 -0.47293 0.48822 -0.10301 -0.80296 -0.13193 -0.48345 0.17469 -0.38165 -0.26159 -0.88258 0.13062 -0.0037258 0.14446 0.70867 0.302 -0.33898 0.087901 -0.097103 0.018424 -0.1742 0.18064 -0.34504 0.82712 -0.33245 0.038788 0.23407 -0.53587 0.39213 -0.3097 -0.16878 -0.29817 0.71693 -0.34779 0.033271 -0.44079 -0.29577 0.12779 0.018395 -0.24007 0.37988 0.016716 -0.29974 -0.01935 -1.1965 -0.27406 -0.84106 -0.028418 -0.013793 -0.22247 -0.96075 -0.21832 0.67238 -0.93535 -0.64188 0.69643 0.25787 -0.08638 -0.22946 -0.81878 0.35763 0.22266 0.45791 -0.68627 -0.17515 -0.19778 0.37425 0.046095 -0.56269 -0.59081 0.087258 0.4627 -0.20567 -0.37653 -0.17526 -0.36716 
v_Postojna 1.1785 0.57408 -0.78937 -0.35525 -0.44268 0.41574 -0.24578 -0.48634 -0.2013 -0.41505 0.085681 -0.144 1.0063 -0.78399 0.10498 -0.16389 0.2065 -0.25937 -0.011344 0.77923 0.6056 -0.58632 -0.10855 -0.84854 -0.61546 -0.65895 0.15334 0.026381 0.52744 -0.021454 -0.57649 -0.59496 0.051865 -0.009433 0.57523 0.14217 0.9562 0.010265 0.54051 0.72427 -0.4975 0.41763 -0.70833 0.046535 -0.23316 0.29404 0.43797 0.17114 -0.40591 1.0273 0.099974 -0.055783 0.15095 -0.67829 -0.020058 0.23339 0.10524 0.43594 -0.33168 -0.64192 -0.8902 -0.49913 0.077845 0.20757 -0.077981 -0.0089664 -0.17344 0.034781 -0.8424 -0.65519 -0.56836 -0.64537 0.9695 0.18958 -0.51137 -0.27853 0.79792 0.32751 -0.43763 -0.22295 -0.28782 0.48243 0.16099 -0.46339 0.47961 0.093725 0.3594 -0.41183 0.13664 0.56062 0.0010043 -0.303 0.04796 -0.8207 -0.24462 -0.035587 -0.31692 -0.55378 0.082973 0.74981 
v_restavracija_biti 0.047355 -0.28363 0.34129 -0.095183 -0.048729 0.060941 0.61297 0.17228 -0.71218 0.53028 0.40997 0.17893 -0.25685 -0.042282 0.49604 0.50261 -0.13419 -0.5172 -0.65024 0.38436 -0.19736 -0.40428 0.37191 -0.49431 0.40622 -0.10927 0.31677 -0.075497 0.047359 -0.18916 0.35808 -0.13888 0.72161 -0.84381 0.31511 0.020189 0.4131 -0.24941 0.043037 0.077652 -0.44324 -0.03113 -0.26098 0.15389 -0.19138 -0.0046578 -0.22394 0.033396 -0.335 0.11428 0.39452 -0.34894 -0.066038 0.10737 -0.05538 0.39277 0.07777 0.18077 -0.93605 0.52962 -0.24171 -0.25758 -0.33823 -0.56452 -0.17123 -0.16604 0.29801 0.12302 -1.3246 0.078662 -0.2096 -0.12282 -0.6355 0.15091 -0.4589 -0.34242 -0.078723 -0.63429 0.065353 0.45818 -0.26391 -0.07692 -0.12143 0.015265 -0.13515 0.15283 0.31442 -0.079008 0.42942 0.70165 -0.032362 0.070388 -0.17447 -0.0094559 -0.085436 0.032206 0.39625 0.11747 -0.059633 -0.047626 
igralski_zasedba_biti -0.20825 -0.16234 0.031568 0.30347 -0.0027123 0.82001 0.36018 0.5758 0.36701 -0.26864 0.10691 0.64398 -0.65951 -0.38452 0.14244 0.20698 0.42642 0.026204 -0.11552 0.94616 0.022182 -0.31008 -0.050861 -0.46263 0.44415 0.27381 0.015826 -0.18252 0.1815 -0.55855 -0.56308 -0.0028692 -0.55988 0.13594 0.39012 0.088022 0.33424 -0.76554 0.36295 0.60623 -0.51873 0.35247 -0.21097 0.11307 -0.53512 -0.22464 0.24082 -0.11685 0.24945 -0.27802 0.17441 0.043616 -0.54541 -0.20364 0.1692 -0.37547 0.391 -0.39294 0.011191 -0.17244 -0.036682 0.026531 0.033955 -0.1818 -0.17985 -0.095184 0.68906 0.26178 -0.50356 0.60499 -0.49106 0.21361 0.83937 0.34268 -0.18752 0.18026 0.42435 -0.15022 -0.30213 0.30472 -0.031799 0.035593 -0.38997 -0.49088 0.45156 0.15884 0.024553 -0.43182 -0.31213 0.28039 0.22172 0.095092 0.40178 0.054713 -0.55404 0.13649 0.3645 -0.059654 0.22494 0.12034 
in_mali 0.029401 0.24623 -0.41578 -0.05768 0.36725 -0.81135 -0.1023 -0.32112 -0.62329 0.56914 0.1649 0.49044 -0.21403 -0.37153 0.08705 0.16163 -0.0039058 -0.76078 0.1504 0.84708 0.087671 0.13859 -0.061078 0.73689 0.564 0.13756 -0.45083 -0.071406 0.040793 0.058908 0.00024953 -0.21496 -0.11029 0.48978 0.2878 0.78983 0.40619 -0.87101 0.78983 -0.096969 -0.07839 0.58335 -0.16341 0.028479 0.073265 -0.58364 0.034031 -0.37284 -0.36267 -0.0070361 0.36211 0.11914 -0.44732 -1.0607 0.73312 -0.019036 -0.0064407 -0.0086236 -0.45297 0.080845 -0.329 0.0055502 -0.0094461 0.20364 0.066693 -0.038343 -0.023838 0.61347 0.25014 0.20522 -0.10221 0.061085 -0.35016 -0.10488 -0.11453 -0.046541 1.2772 0.65033 0.77128 0.7811 0.038973 0.096967 0.43717 -0.43652 0.10236 -0.73965 -0.018637 -0.024861 0.94774 0.3077 -0.18968 -0.60459 -0.19318 0.66849 -0.13754 0.49343 0.66446 -0.17724 -0.37923 -0.12006 
zaprt_vrata -0.58186 0.41998 -0.38579 -0.50493 0.37724 -0.47687 -0.54801 -0.24481 -0.21338 0.51966 -0.45721 -0.38103 -0.018487 0.4928 -0.063627 -0.08667 -0.10187 0.14956 -0.64564 0.48627 -0.56385 0.30168 0.25722 -0.48718 -0.11821 -0.22773 -0.13327 -0.15839 0.19526 0.38486 1.5443 0.80583 -0.22647 0.24552 0.46676 -0.35572 0.88701 -0.025256 0.89663 0.68605 -0.18696 -0.19136 0.35403 -0.33623 -0.38059 -0.73696 0.1691 0.21429 -0.070228 -0.52511 0.041677 -0.15103 -0.20334 -0.27099 -0.18702 -0.31848 -0.34576 0.070697 -0.028687 -0.060824 0.68597 0.57259 0.13725 -0.84995 -0.30757 -0.63389 0.51208 0.91152 -0.29862 0.53235 -0.012341 -0.23884 0.062221 -0.06172 0.58597 -1.2519 1.4112 -0.61968 -0.026389 0.085683 -0.15252 -0.17921 -0.16056 -0.30522 -0.060691 0.23034 -0.3809 0.28492 0.22601 0.64987 1.0446 0.12996 -0.2159 -0.11981 -0.30344 0.066687 0.13738 -0.56745 -0.13063 0.13378 
kaj_biti_povzročiti 0.50997 -0.17081 -0.29276 0.055355 -0.1076 -0.13362 -0.1844 -0.29142 0.36223 -0.061677 0.010651 0.092247 0.10177 -0.03017 -0.37067 -0.44478 -0.060114 0.16345 0.047285 0.17112 0.2822 0.080233 0.25485 -0.0086764 -0.39069 -0.28854 0.52649 0.04553 -0.26755 0.020328 0.12887 0.085726 -0.066433 -0.35276 -0.17919 0.26357 0.24195 -0.35478 0.52349 0.24317 -0.31783 0.38641 0.012153 0.40773 -0.10452 0.23878 0.20248 0.53423 0.0098535 0.20704 -0.16961 0.17859 -0.47878 -0.4961 -0.38592 -0.10377 -0.1118 -0.10445 -0.02492 0.0080688 -0.28272 -0.39708 0.30931 -0.43618 -0.17822 -0.11991 0.33758 0.044042 -0.307 -0.10431 -0.6709 -0.29909 -0.077582 0.2105 0.11723 -0.51066 0.45364 -0.32754 0.050861 -0.49758 0.12181 0.15705 0.34363 -0.11009 -0.21107 -0.023858 0.34578 0.1446 -0.15293 0.24531 -0.035156 -0.17535 -0.16729 -0.60179 0.17157 0.043952 0.44804 -0.051882 -0.24097 -0.26318 
za_kakšen 0.29658 -0.23918 -0.058726 -0.17029 -0.39044 -0.39381 -0.25378 0.083038 -0.14546 0.28662 0.11711 -0.12653 0.6165 0.051186 0.62552 0.24328 0.079927 -0.58021 -0.62837 0.71253 0.035827 -0.61698 0.052402 -0.14477 0.17895 -0.92834 0.19268 0.5727 -0.41191 -0.090495 -0.2438 -0.10335 0.59328 0.12079 0.45415 -0.1113 0.20567 -0.28731 0.35115 0.025514 -0.70083 0.20329 0.20519 -0.6076 -0.44414 0.099635 -0.62314 -0.1492 0.1009 -0.78866 -0.19479 0.79126 -0.49569 -0.46576 -0.11919 0.28551 0.075331 0.082041 -0.4807 0.52311 -0.22465 -0.18831 -0.081254 0.37636 -0.38126 0.094551 0.026363 0.32288 -0.55689 0.32753 0.44918 0.27515 0.14125 -0.14403 0.23882 0.31953 0.21988 -0.16769 0.089043 0.067515 -0.315 0.4042 0.10954 -0.14894 -0.07828 -0.037367 0.012177 -0.24454 -0.023259 -0.62984 0.19437 0.27183 -0.23021 -0.071007 -0.35603 0.35489 0.16988 0.14478 0.16783 -0.29722 
stalen_gledališče -0.2515 0.46218 0.05587 0.49367 0.1437 -0.14259 -0.055775 0.65842 0.2873 0.45522 0.64149 -0.34926 -0.4779 -0.52541 0.12182 -0.43735 0.96152 0.19866 0.086277 -0.025312 -0.26115 -1.2654 0.9499 -0.50793 0.7258 -0.179 -0.38298 -0.48794 -0.45318 -0.011191 0.098351 -0.14575 0.36208 0.056901 0.44562 0.72838 0.54905 -0.55178 0.71895 0.37138 -0.31281 -0.015312 -0.16019 0.16281 -0.22284 -1.1471 -0.53029 -0.44864 0.0011935 0.35999 -0.27083 0.02224 -0.44862 0.44348 0.90658 -1.0608 0.69864 -0.054369 -0.81359 -1.0374 -0.70348 0.60759 -0.15846 -0.32818 -0.085653 0.43275 0.59 1.0783 0.75857 0.80994 -1.8499 0.0088904 0.43058 0.045329 0.26593 0.48135 0.77325 -0.72334 -0.74906 -0.38729 -0.82515 -0.62755 -0.3049 -0.88985 -0.19962 0.26359 0.46433 0.28456 0.13805 -0.069165 0.16087 -0.5174 0.24959 0.011995 0.065776 0.47093 0.049698 -1.0723 0.016262 -0.28429 
zdravje_ki_biti 0.41851 -0.65381 0.03471 -0.10809 -0.30059 -0.32624 -0.063517 0.11325 0.20981 0.076334 0.24937 -0.11095 0.39517 -0.14874 -0.14537 -0.42335 0.79054 0.19181 0.021997 1.013 0.32904 -0.067212 0.083702 0.39832 0.16339 -0.44042 0.038471 -0.65425 -0.11448 -0.20431 0.35703 0.048604 -0.80744 -0.16829 0.15436 0.13733 0.2009 -0.14501 0.14128 0.25191 -0.14862 0.42599 0.25831 0.68768 -0.63694 -0.15419 0.23331 -0.15238 -0.12956 0.032942 -0.18182 0.86044 -0.17312 -0.45053 0.80609 -0.2895 0.05766 -0.69473 0.12281 -0.18856 -0.43094 0.049431 -0.55649 0.68427 0.030722 0.13763 0.18445 -0.15974 -0.15617 0.34808 -0.39021 -0.10382 -0.17667 -0.32413 -0.025775 -0.74738 0.29041 -0.71687 0.41082 0.13055 0.20479 0.5187 0.11054 -0.16895 -0.17911 0.85639 0.32762 0.45492 0.59931 0.89363 0.3614 -0.052192 -0.0032752 -0.61543 -0.25648 -0.037771 0.19598 0.031483 0.25014 0.14488 
doseči_cilj 0.16743 -0.0028152 -0.32024 0.044068 0.62364 -1.0333 0.25309 -0.011424 -0.44593 0.50847 0.67077 0.18695 0.43551 0.33386 -0.029191 -0.30209 0.50562 0.18902 -0.37319 0.61257 -0.034475 -0.69712 0.20209 0.25583 -0.32283 0.25934 -0.234 0.4453 -0.33265 0.77337 0.2442 0.58981 -0.44946 0.16897 0.82858 -0.067621 0.73586 -0.83737 -0.30035 -0.072992 -0.26382 0.69213 -0.63568 0.20827 -0.63127 0.35848 -0.49897 0.22989 0.51966 -1.0261 0.20502 -0.26939 -0.36875 -0.45722 -0.62742 0.15089 0.063442 -0.086872 -0.19244 0.49794 0.49085 0.58843 -0.67841 -0.032271 0.01297 0.30987 -0.26623 -0.1335 -0.65595 0.1273 0.57952 0.080885 -0.19558 0.34445 -0.0066888 -0.74888 0.87952 -0.032007 -0.089608 0.21045 0.21411 0.57541 0.25593 -0.23461 -0.048731 0.25593 -0.012691 -0.10034 0.37246 0.72065 -0.027141 -0.59167 -0.34051 -0.011621 -0.10431 0.49 -0.061099 0.14941 -0.64846 -0.25611 
sredstvo_vložen_v 0.018998 -0.61068 -0.87218 -0.085079 0.16636 -0.33127 0.77124 0.14608 0.21664 0.33199 0.083914 -0.18232 -0.037465 -0.10626 0.33035 -0.32723 0.959 -0.72 -0.43756 0.97808 -0.091143 -1.0457 0.24305 0.23133 -0.62307 -0.26876 0.54964 -0.13161 -0.090496 0.46184 -0.44231 0.050395 -0.70688 -0.30058 -0.91544 0.38124 0.11435 0.06754 0.85793 0.063193 -0.16418 0.27233 -0.17972 -0.50641 -0.533 0.42432 -0.81132 -0.24286 0.22596 -0.50402 0.46156 0.23117 -0.32475 0.19933 -0.23544 0.034258 -0.66046 0.23434 0.091545 -0.83911 -0.011967 0.15003 0.20385 0.079795 0.029403 0.22597 0.04315 0.25371 -0.75481 0.098785 -0.44131 -1.2487 0.38135 0.062433 0.20384 -0.31357 0.67646 -0.50264 -0.21741 0.43926 0.021658 0.14436 0.13413 -0.15319 -0.26136 0.2392 0.43046 -0.31264 1.1287 0.12851 0.70528 -0.34444 0.29996 0.12814 -0.11222 0.13958 -0.24421 -0.16239 0.044356 -0.27545 
kateri_ne 0.07971 -0.43948 -0.4311 -0.18396 0.17072 0.17245 0.30828 0.25662 -0.094346 -0.3491 0.19145 0.36379 -0.098542 0.085847 0.35912 0.32064 0.5145 0.19619 0.10692 0.71275 0.63338 -0.47561 0.36643 0.67061 -0.17403 -0.10271 0.21149 -0.29483 -0.19638 -0.45219 0.36575 0.30878 0.1822 -0.32938 0.18806 0.067284 -0.12348 0.0103 -0.029193 0.61392 -0.10598 0.37923 -0.23468 0.072825 0.32964 0.51964 -0.22015 0.28179 -0.046507 0.042265 0.64052 1.0583 -0.16597 -0.28974 -0.13073 -0.15883 0.4688 -0.63278 0.20648 -0.5177 0.29724 0.0056308 -0.32053 0.0031912 0.58602 0.40514 0.4675 0.089696 -0.1477 -0.43069 -0.83425 -0.20117 -0.70176 -0.38287 -0.16919 0.091744 0.50951 -0.39113 -0.1678 -0.11496 -0.29725 -0.14963 0.114 -0.093023 0.22826 0.18063 0.31997 -0.25975 0.66069 -0.47122 0.18801 -0.10358 0.18619 0.2517 0.22745 0.08745 0.3902 0.13392 0.32194 0.0064095 
še_kaj 0.63144 0.10015 1.0752 0.16845 -0.46071 -0.27593 0.41427 0.24892 -0.14877 -0.62325 0.5765 0.42069 -0.12765 -0.6195 0.33794 -0.13164 -0.36509 0.54646 0.023513 -0.28608 -0.13109 -0.85106 -0.25355 -0.66044 -0.021887 -1.0148 -0.043217 0.47272 -0.26505 -0.17559 0.18495 0.36857 0.16154 -0.15241 0.82916 0.27765 0.55358 0.09297 0.23787 0.21017 -0.94845 0.12566 -0.44634 -0.0044918 -0.20311 0.72241 -0.4608 0.076241 0.16607 -0.72952 -0.24493 0.4153 -0.22667 -0.22766 -0.038404 -0.18502 0.10463 0.16744 0.017889 -0.22424 -0.48009 -0.20018 -0.30868 0.46027 0.27093 0.72346 0.57851 0.19165 -1.0214 0.11686 -0.035655 0.39286 -0.3188 -0.28349 -0.45507 -0.24032 0.88824 -0.4789 -0.20175 -0.012569 -0.58488 -0.0030601 0.26819 -0.17753 0.34607 -0.39095 0.26122 0.23994 -0.45489 -0.13901 0.11842 0.42204 -0.11764 -0.96907 -0.44938 0.27998 0.46637 -0.18629 0.42258 0.51826 
biti_spet_začeti 0.52385 0.50235 0.14514 0.36199 0.18913 0.35816 -0.41025 -0.14551 0.28381 0.11164 0.14365 -0.43016 0.20005 0.012449 0.30455 -0.0010167 -0.31691 -0.37221 -0.20504 0.31697 -0.1669 -0.25048 -0.036442 0.21485 0.073654 -0.34622 0.023238 -0.067614 -0.34612 -0.0073824 -0.057158 -0.0080484 -0.048297 0.1275 0.22925 0.071221 0.26786 -0.70932 0.68323 0.19265 -0.22406 0.054713 0.16283 -0.042008 0.15526 -0.035687 -0.2812 0.018857 -0.04051 0.19248 0.28282 0.1699 -0.4835 -0.86435 0.34731 -0.13112 0.24698 -0.14666 -0.11055 0.2225 -0.17251 0.050667 -0.22744 -0.33645 0.3877 -0.26515 0.48711 0.43426 -0.35806 0.20582 -0.047373 -0.31238 -0.054344 -0.05734 0.13036 -0.34237 0.29525 -0.24328 -0.12063 -0.023748 -0.030795 -0.19636 -0.6228 -0.32102 -0.2173 0.41839 -0.25871 -0.17231 0.008952 0.27028 0.055884 0.15988 -0.036227 -0.27868 -0.21907 -0.23705 0.57454 0.26332 0.16463 0.039546 
odtlej_se_biti -0.29033 0.42962 0.12668 -0.27639 0.12943 -0.21746 -0.79808 -0.35194 -0.19504 0.29931 0.10081 -0.2975 -0.26437 -0.10116 0.063109 0.15667 0.021529 0.31571 0.046925 0.15223 -0.16491 -0.2661 -0.31045 -0.31542 -0.021879 -0.68759 0.23127 -0.46816 0.11297 -0.073507 0.41337 0.14834 -0.035045 -0.065947 0.55278 -0.57335 0.58444 0.14663 0.18024 0.52077 -0.019592 -0.043234 -0.33369 0.15099 0.10244 0.060557 -0.32843 0.12768 0.0064755 -0.45325 0.040515 0.050004 -0.46672 -0.63456 -0.034964 -0.11549 0.10224 -0.33991 -0.32353 -0.052267 -0.19217 -0.54588 -0.31335 -0.10985 -0.39185 -0.13671 0.19525 0.27504 -0.1867 0.64767 0.0081318 -0.13231 -0.2274 0.078517 0.22895 -0.85175 0.45018 -0.10534 -0.26183 -0.090595 -0.060219 0.046959 0.029312 -0.38553 0.38658 0.36587 0.157 -0.23682 0.20732 -0.14269 -0.14206 -0.29123 -0.25371 -0.11136 0.41542 0.10977 -0.28918 -0.34833 0.2618 -0.38401 
čisto_vse 0.066636 -0.14467 0.39433 0.29595 0.8443 0.29026 0.40977 0.8409 -0.19443 -0.28129 0.54642 -0.31025 -0.34145 -0.12873 0.57692 -0.31047 0.0021718 -0.1367 0.14006 -0.15353 0.36603 -0.32803 -0.071547 0.27315 0.31165 0.5048 -0.52077 0.49641 0.13159 0.68213 0.04604 -0.44947 0.15661 0.066855 0.38866 0.40192 1.1517 -0.18272 0.91587 1.601 -0.3692 1.0066 -0.27596 -0.49387 -0.6996 0.15528 -0.84987 0.8128 0.089006 -0.80069 0.72119 0.47848 -0.53182 -1.1985 0.33901 0.12395 -0.41863 0.21436 -1.1421 -0.90874 0.098066 -0.72797 0.1014 0.016196 -0.2492 -0.2377 0.30962 -0.13468 0.76765 0.26042 -0.43955 -0.50551 -0.26941 -0.13243 -0.351 -0.42824 0.56289 0.032785 0.2612 0.080512 -0.2087 -0.33831 0.067998 0.37634 -0.7774 -0.60033 0.61768 0.15476 0.14674 0.4534 -0.20109 0.57577 -0.17392 0.24619 0.17665 0.027744 -0.50027 -0.19355 0.18931 -0.61586 
tako_biti_še -0.052111 -0.16404 0.023085 -0.093869 0.053157 -0.25888 0.12002 0.11998 0.035358 0.20022 -0.1158 -0.075192 -0.15832 0.10633 0.093013 0.0032336 0.19638 -0.11464 0.042774 0.27561 -0.098907 -0.39628 0.03066 -0.054322 -0.062056 -0.23185 0.1044 -0.14899 -0.089879 -0.22961 0.13757 0.1414 -0.08602 0.067212 0.63312 -0.12793 0.5368 -0.39974 -0.091745 0.29677 -0.21412 0.1319 -0.048098 -0.53594 0.026829 -0.27618 0.37028 0.24235 0.066576 -0.068124 0.33573 0.04657 0.04941 -0.45426 -0.064071 -0.089448 0.058532 -0.41164 -0.26003 -0.0096979 -0.19891 0.22199 -0.31108 -0.13115 0.048269 -0.12826 0.094726 0.1362 -0.10381 0.15278 -0.2476 0.025987 0.16323 0.13704 0.22382 -0.38227 0.2638 0.18139 0.14184 0.1899 -0.10967 0.10526 -0.48645 -0.15184 0.20962 0.037504 0.003358 0.12075 -0.10749 0.049917 0.21906 -0.029828 -0.10659 -0.15171 -0.13066 0.056049 0.15362 -0.15428 0.082686 0.13954 
odvisen_od_njihov 0.46847 -0.43724 -0.56298 0.20303 0.30717 -0.37478 0.62957 0.11157 0.287 0.18014 -0.69027 0.029032 0.4098 -0.24085 0.37137 0.18283 0.0022888 0.26992 -0.11816 0.53397 -0.15622 0.25196 0.15879 0.24123 -0.10191 0.086391 0.53283 0.24261 -0.088317 -0.33039 0.0015983 0.40459 0.015096 0.29707 0.49842 0.35014 -0.026376 0.24028 0.42437 0.26983 0.13896 0.14711 -0.58629 0.096628 0.32823 -0.8804 0.14218 0.31192 0.057148 -0.058427 0.36515 -0.16747 -0.70392 0.18075 0.10996 0.18114 0.14195 -0.18709 0.10164 0.27822 0.20584 -0.16779 0.041141 -0.32562 0.24966 -0.15886 0.19511 -0.32833 -0.75774 0.12447 -0.48123 0.20304 -0.33586 -0.16903 0.37636 -0.28601 0.45224 -0.19115 0.31161 -0.053153 -0.029047 0.39507 -0.42305 -0.44676 -0.37793 0.20233 0.68883 -0.41205 0.3951 -0.17124 -0.07671 -0.20886 -0.27974 -0.39688 0.13565 0.15244 -0.195 0.37247 0.25585 0.41384 
telesen_temperatura 0.6053 -0.97501 0.18715 0.4181 -0.31027 -0.88141 0.067499 -0.1015 -0.17257 -0.21116 0.093244 0.50228 0.77853 0.09819 0.086865 -0.22405 0.42903 0.18752 -0.71421 0.22648 0.89084 -0.55091 -0.054143 0.48728 -0.84829 -0.25541 0.3917 0.52657 -0.48848 -0.060657 0.32994 0.82265 -0.45578 0.043842 0.39312 0.77877 0.10069 -0.39731 0.28442 0.87435 -0.54922 0.7837 -0.12044 0.39038 0.5995 0.97516 0.35888 -1.1797 -0.51093 0.079082 -0.36299 -0.46143 -0.2974 -0.6006 0.24033 -0.71835 -0.38301 0.046657 -0.10178 -0.11728 0.73096 -0.30653 0.015064 0.1056 0.18986 0.097515 0.071163 0.35038 -0.67868 -0.28568 -0.088253 -0.024638 -0.4301 0.22078 -0.15084 -1.0991 0.74826 -0.89972 -0.43524 -0.17152 -0.91256 1.1046 -0.16996 -0.51599 0.10403 0.10348 -0.20093 -0.30247 0.26001 0.61622 0.41772 -0.50642 -0.021952 -0.64647 0.090553 0.18603 0.36319 0.67903 -0.066297 -0.089354 
kot_drug_biti 0.22222 -0.22638 -0.21618 -0.030903 -0.37107 0.47395 -0.1224 0.65806 0.52196 0.21699 -0.2781 0.0099473 0.20846 -0.18303 -0.19937 0.1287 -0.051817 0.25563 0.14382 0.68318 0.51467 -0.24849 0.10436 -0.25817 0.43835 -0.012486 -0.0013604 -0.65032 0.44075 0.33058 -0.062134 -0.22041 0.17014 -0.39105 0.43958 -0.08962 0.46692 -0.34705 -0.22777 0.58915 0.033956 0.11244 -0.24292 -0.10899 -0.13551 -0.27632 -0.47788 0.5626 0.15181 -0.15569 -0.22858 0.45018 -0.25167 -0.090929 -0.13419 -0.085357 -0.10937 -0.06641 -0.40809 -0.22746 -0.033134 0.40215 -0.1919 -0.31096 0.20785 0.17723 -0.026543 0.52887 -0.11117 -0.021264 -0.44928 -0.18077 -0.0045524 -0.21036 -0.08473 -0.55156 0.1242 -0.58398 0.11307 0.017969 -0.015731 0.36298 0.012996 -0.0036506 -0.3027 0.0026881 0.26513 -0.014549 0.33534 0.3678 0.48907 0.46041 -0.091923 0.19021 0.34006 0.11355 0.058977 0.039941 -0.48973 0.11052 
biti_takšen_da 0.14164 -0.23248 -0.03014 0.053869 0.39072 0.20262 -0.071115 0.11034 -0.33628 0.19691 0.29043 -0.3043 -0.12929 -0.40343 -0.27584 -0.43268 -0.044773 0.040692 0.21642 0.79177 0.094448 0.12378 0.14806 0.49769 0.026456 -0.51325 -0.18201 -0.26032 -0.14541 0.0055372 0.28119 0.21659 -0.01368 0.096298 0.43092 -0.21177 -0.18283 -0.39844 0.11468 -0.54289 0.19283 0.095801 0.0089532 0.019207 -0.075741 -0.15133 -0.311 -0.057274 -0.33953 -0.78358 0.3493 0.49628 -0.74393 -0.082186 -0.026038 0.16065 0.28959 -0.038402 -0.20008 -0.47105 0.21835 0.22939 -0.31538 -0.17714 0.12077 -0.53662 -0.2517 0.67446 -0.76867 0.32798 -0.31546 -0.47375 -0.25142 -0.098177 0.33427 -0.42468 0.35027 0.07887 -0.23441 0.36518 -0.021013 0.26325 0.1535 -0.28397 0.39448 -0.026625 -0.20557 0.18775 0.09978 0.22288 0.096628 -0.0042872 0.48232 0.01364 -0.1356 0.1362 0.57672 -0.24486 0.31819 0.024226 
prehitevalen_pas 1.0271 -0.3136 -0.8358 0.6807 -0.49135 0.10024 -0.0066978 -0.57859 0.097663 1.1353 -0.1392 -0.068977 -0.28081 -0.9194 -0.06439 -0.41961 0.9006 0.31955 -0.12591 0.0024546 -0.24199 -0.18883 0.42815 -0.2789 -0.3205 -1.0281 0.48261 0.40144 -0.11441 -0.21046 0.35746 -0.40198 -0.39003 0.45585 -0.16452 -0.014146 1.1015 -0.013472 1.8492 0.44268 -0.48841 -0.6161 0.83482 0.39838 -0.3895 0.33627 -0.040513 0.3481 0.03984 -0.47367 0.12544 -0.22662 -0.57024 -0.073347 0.60954 -0.46378 -0.31042 0.085122 0.26386 0.21325 0.39383 1.2483 0.082536 -0.76513 -0.63361 -0.35531 0.19213 0.029608 -0.465 0.17569 0.07885 -0.63353 -0.15868 -0.046528 -0.45039 -0.40998 0.49213 -0.59552 -0.066258 0.14393 -0.13727 -0.23657 0.014765 -0.17226 -0.26838 0.14939 0.56069 -0.23993 0.40514 0.37916 0.69363 -0.37863 -0.92069 -0.59342 -0.49153 0.75231 0.53564 -0.27934 0.45589 0.23465 
od_leto_1970 -0.30198 0.52055 0.34397 -0.074247 0.174 -0.13022 -0.68174 0.28178 -0.30984 -0.032194 -0.61494 0.40606 -0.19872 0.24865 0.87719 0.31835 0.2642 0.46784 -0.15 0.59062 -0.36814 -0.27533 -0.52967 -0.54278 0.99813 -0.23023 0.55195 -0.30758 0.51861 0.040946 -0.15904 -0.38722 -0.146 0.14796 0.77272 0.05516 -0.094943 -0.018098 0.62636 0.7939 -0.069304 0.804 -0.56918 0.0055924 -0.22575 -0.097051 -0.019156 0.22702 0.00074187 0.3164 0.1618 -0.41349 -0.66096 0.14971 0.33581 -0.40579 1.0952 -0.47599 -0.17271 -0.083359 -0.88839 -0.019855 -0.76166 -0.12625 -0.17198 -0.20032 0.40152 0.027032 -1.1281 0.081834 -0.49241 -0.042079 -0.63427 0.62016 -0.094058 -0.46278 0.67132 -0.63327 -0.46631 -0.34218 0.059348 0.67347 -0.20852 0.16238 0.30541 0.066429 0.24607 -0.12302 0.72127 -0.41847 0.12413 -0.54647 -0.48019 -0.91694 0.087734 0.59767 -0.49281 -0.15675 0.25834 0.48822 
imeti_danes 0.33401 0.21889 -0.26895 -0.45999 -0.044905 0.22581 0.052548 -0.45686 0.29758 0.19869 0.19528 0.58155 0.1618 0.0010755 0.032211 0.13415 -0.17994 0.022291 0.12758 0.61707 -0.184 -0.15677 0.11104 -0.063994 -0.3874 -0.27026 0.29349 0.14383 0.44891 0.25504 0.038997 -0.11867 0.37204 -0.17385 0.65006 0.10442 0.066485 0.63585 0.17453 0.36751 -0.12287 0.14993 -0.10857 0.42462 -0.12233 0.18305 -0.2507 0.53757 -0.26447 -0.20329 -0.39675 -0.0059038 -0.44739 -0.38963 -0.16634 0.10394 -0.41069 0.092267 -0.30684 -0.10191 -0.11282 -0.21871 0.12746 -0.1563 -0.2403 0.010721 0.40086 0.48254 0.090524 -0.15496 -0.14329 -0.56009 0.18165 -0.2081 0.14346 -0.30303 0.63997 -0.083173 -0.62246 -0.14737 -0.21692 -0.20889 0.011608 -0.49002 -0.2142 0.24114 -0.27438 0.31807 0.20808 -0.52526 0.29222 0.25604 -0.36638 -0.30303 -0.45681 0.16833 -0.27117 -0.8739 -0.24346 -0.42288 
ki_biti_jaz 0.039112 -0.081333 -0.37836 -0.098994 -0.041664 -0.20647 0.31009 0.035863 0.22683 0.19189 0.19894 -0.10424 -0.074403 -0.24488 0.082008 -0.12822 -0.04083 0.060108 0.06784 0.21169 0.29968 -0.14493 -0.21234 0.24507 -0.0062402 -0.20803 0.075807 0.21976 -0.076037 -0.016045 0.13427 0.24076 0.27258 0.17962 0.38218 0.24123 0.39876 -0.18486 -0.016041 0.65003 -0.26172 0.17396 -0.35134 -0.022658 -0.19835 -0.14303 -0.1325 0.21652 -0.023545 -0.46405 0.11771 0.15721 -0.57429 -0.20063 0.037889 0.13037 0.15436 -0.064115 -0.19428 -0.073135 -0.092694 -0.12119 -0.08151 -0.11114 0.13908 -0.24078 0.38794 0.069372 0.19009 0.065309 -0.29234 0.17398 -0.03465 -0.1084 -0.12554 -0.18859 0.12563 0.0084771 -0.30652 0.31894 -0.037046 -0.089904 0.39508 -0.20435 -0.067546 0.19042 0.04324 0.43335 0.091507 -0.032187 -0.034497 -0.23249 -0.0093547 -0.068626 -0.054048 0.10472 -0.33615 0.12843 0.033986 -0.0052271 
slovenski_zunanji_minister 0.28178 0.84876 -0.094462 -0.042221 0.42714 0.13021 0.45573 0.10098 0.44101 -0.15103 0.56781 0.29623 0.24747 -0.62704 0.005555 -0.42017 -0.17157 -0.47941 0.16609 0.52438 -0.19628 -1.0341 -0.22578 0.47912 0.029247 0.040422 -0.4921 -0.63573 0.78478 -1.0916 0.12785 0.23615 -0.44231 0.32803 0.26602 0.32993 0.7251 -0.54183 0.29342 0.58141 -0.30995 -0.039679 -0.55527 0.39799 -0.68864 0.1914 -0.05035 -0.10194 0.48311 -0.44535 -0.26269 -0.36916 -0.050724 -0.39725 0.13507 -0.45129 0.077339 0.45467 -0.70509 -0.41027 -0.57066 -0.23352 0.0687 0.32395 -0.053975 0.36114 0.033383 0.30358 -0.44374 0.25463 -0.34183 -0.12924 0.090395 0.12847 0.45239 -0.71767 0.53405 -0.29952 0.072792 0.074807 -0.52997 0.22402 -0.49061 -0.61053 -0.44547 0.46315 0.55523 0.2604 0.093975 0.11928 -0.35856 0.27474 0.28682 0.00014999 0.18172 0.66382 0.22633 0.30377 0.13729 -0.28107 
do_določen_mera 0.11799 -0.17013 -0.75996 -0.12077 0.29571 0.14948 0.78108 0.59499 0.27258 0.31436 -0.039736 -0.099959 -0.33297 -0.80243 -0.17944 -0.20588 0.12276 0.13731 -0.36298 0.56212 -0.14379 -0.3048 -0.014736 -0.5488 -0.06628 -0.29161 0.48161 -0.5749 0.5304 0.37516 -0.33851 0.535 0.1797 0.19954 -0.49234 0.053559 -0.15484 0.16073 0.9788 -0.5685 -0.49669 0.13779 -0.39205 -0.058573 -0.029418 -0.78057 -0.10001 0.598 -0.076251 -0.44949 0.015205 -0.2479 -0.77962 -0.30344 -0.13238 0.092043 -0.1579 0.2371 0.29615 0.51487 -0.20592 -0.14595 -0.11743 -0.12453 0.80582 0.47522 0.11891 0.1416 -1.0298 0.67099 -0.97042 0.41562 -0.0068559 -0.013057 -0.22469 0.025038 1.4188 -0.14607 -0.27709 0.41867 0.32517 0.010379 -0.029518 -0.35758 -0.049777 -0.089178 0.91672 0.24298 0.17629 -0.052618 -0.1488 0.162 -0.5285 -0.15361 0.074093 -0.24545 0.34646 -0.048368 -0.17439 0.44732 
pripovedovati_zgodba_o 0.54139 0.33378 -0.021615 -0.12252 -0.22352 -0.078345 0.98635 -0.074845 -0.031193 -0.01083 -0.13254 0.037178 -0.33026 -0.48367 0.33318 -0.0053704 0.56169 -0.015952 0.15433 0.56362 0.35484 0.026537 0.02147 0.3952 0.4846 -0.71991 0.24667 -0.10679 -0.12127 -0.23258 0.1259 0.57641 0.65477 -0.0094847 0.67507 0.4711 0.05709 0.18067 0.68146 0.27172 0.0057662 0.11786 -0.46476 -0.66801 0.29429 -0.38429 -0.02064 -0.062409 0.30175 0.1235 0.42564 -0.18918 -0.24337 -0.74594 -0.27467 0.11563 -0.0020832 -0.086567 -0.38915 -0.58254 -0.11349 0.40917 -0.31457 -0.32257 -0.72938 0.6958 0.87088 0.3113 0.095252 0.15133 -0.38496 0.15457 0.67541 0.32381 -0.19725 -0.18464 0.34625 -0.024878 -0.14809 0.074143 0.33415 0.29327 -0.05074 0.34013 0.16235 0.0066904 -0.019004 -0.22691 0.23795 0.15059 0.28395 0.20239 -0.013332 0.017266 0.19032 -0.0013613 0.11334 0.0047879 -0.44261 -0.20901 
ti_povedati_da 0.39638 -0.19394 -0.19475 -0.49725 -0.28856 0.141 -0.095986 -0.16862 -0.25125 -0.1041 0.14037 -0.22709 -0.019024 0.05109 -0.036219 -0.25325 0.37187 0.12432 0.15313 0.6617 -0.13782 -0.081223 -0.24007 -0.20723 -0.045262 -0.58693 0.42507 -0.054529 0.16707 -0.32088 -0.22215 0.010861 0.49708 0.11619 0.31965 0.024002 0.71513 -0.49645 0.54182 0.40455 0.25571 -0.2572 0.11848 0.37793 -0.26738 0.42861 -0.080414 0.18664 -0.153 -0.13598 0.029275 0.19398 -0.14864 -0.3666 -0.1662 -0.11921 -0.10354 0.12348 -0.22672 -0.12391 -0.48005 -0.12772 -0.22766 -0.45238 -0.033424 -0.040952 0.26209 0.069794 -0.23124 0.29095 -0.12841 -0.15264 -0.33324 0.20488 0.13008 0.25708 0.15923 -0.42668 0.22144 0.56717 0.40138 -0.2069 -0.052151 -0.058247 -0.21775 0.15558 0.19228 -0.25367 -0.52022 0.0091198 0.077864 -0.0075026 -0.032106 -0.15699 0.42629 2.1504e-06 -0.13533 -0.25752 -0.11343 -0.24054 
ukvarjanje_z_šport 1.483 -0.80686 0.054195 0.47961 0.33042 0.16526 1.2967 0.14989 -0.67345 0.76196 -0.199 0.28883 -0.3142 -0.51122 -0.033032 -0.33377 -0.42524 -0.033381 -0.69234 -0.17691 0.20906 -0.47465 0.12542 -0.24078 0.25147 -0.091707 0.11846 -0.82615 -0.20604 -0.30495 0.18541 -0.34521 -0.077356 0.12393 0.42939 0.04824 0.22554 -0.33566 0.082621 0.26512 -0.85208 0.12664 -0.13107 -0.14022 -0.011809 -0.42212 -0.50697 -0.21801 -0.31593 -0.56482 0.06926 -0.056416 0.074992 -0.099217 0.26953 0.060288 -0.36987 -0.52577 0.065725 0.1084 -0.83278 0.22518 0.21462 -0.63637 0.47826 -0.10943 -0.12675 -0.55677 -0.013821 0.5203 -0.61987 -0.24365 0.028088 0.35331 -0.033199 0.13744 0.81623 -0.516 0.24927 0.70434 0.043579 0.1947 0.13835 -1.0108 -0.31368 0.12483 -0.052605 -0.39863 -0.38634 0.68298 0.44372 -0.52073 -0.28427 -0.3262 -0.21345 0.36825 -0.080512 -0.1044 0.13852 -0.55261 
v_leto_dan -0.51182 -0.26046 0.032623 0.64133 0.42964 -0.37453 -0.13389 0.046019 0.091221 0.36 0.0056749 0.32115 -0.22344 -0.2542 -0.36686 -0.19836 0.047471 -0.19255 0.56742 0.66089 -0.47521 -0.34859 0.007441 0.037934 0.44347 -0.16117 -0.19239 -0.30568 0.22924 -0.22023 -0.23576 -0.31617 -0.26756 -0.24585 0.40534 -0.0077962 0.61737 -0.057624 0.21463 0.37982 -0.56219 0.67926 0.10078 -0.40749 -0.61568 -0.55105 0.033442 0.21494 -0.52753 -0.58418 -0.092576 -0.27133 -0.83489 0.35944 -0.3935 -0.0715 0.026339 -0.048251 -0.6327 -0.31969 0.30568 -0.2376 -0.2113 -0.33895 -0.12427 -0.50749 0.89207 0.15826 -0.73638 0.15505 0.2058 -0.17367 0.051787 0.23391 -0.084029 -0.40927 0.6292 -0.069317 0.34217 0.1319 0.46303 -0.12561 0.0704 -0.61177 -0.10597 0.073584 -0.329 -0.18264 -0.65016 -0.16178 0.23206 -0.79983 -0.46711 0.39015 0.33716 -0.16002 0.15548 0.41028 0.3142 -0.41578 
ta_člen 0.76909 -0.26352 -0.56555 0.58671 0.83433 -0.20393 0.57114 -0.42498 0.84492 1.4029 -0.078279 0.12051 0.4672 -0.50564 1.3761 -0.51768 0.11434 -0.68642 0.12637 1.6097 0.96317 -0.93106 -0.88614 0.76997 0.2105 0.58982 -0.41699 -0.64763 -0.14096 0.6262 0.15787 -0.15466 0.24035 -1.0349 -2.3008 0.80806 0.32939 0.32261 0.80761 0.27826 -0.58582 0.43044 -1.2351 0.099154 -0.26172 0.86469 0.31963 0.46946 -0.12558 0.068528 -0.049007 0.60298 -0.69204 -0.73268 0.69009 0.22099 -0.46026 0.28186 -0.8316 -0.50949 -0.54475 0.33267 0.21737 -0.052807 -0.13462 -0.031987 0.072497 0.48304 -0.86729 -0.00046233 -0.86254 -0.79787 -0.8399 0.1741 0.0017468 -1.1155 0.62011 0.063232 -0.6753 -0.068829 0.052521 0.49424 -0.60954 -0.52818 0.087076 0.10527 0.11524 0.039191 0.7247 -0.21893 -0.054654 -0.25536 -0.35438 -0.061075 0.19035 1.1233 0.71009 -1.112 0.30162 -0.60285 
in_davčen_številka 0.27893 -0.97397 0.17513 0.68113 0.040936 -0.26896 0.042707 0.42098 0.1025 0.51899 0.18385 -0.70268 0.10656 -0.19909 0.53291 -0.51933 0.15504 -0.026087 0.061849 1.5125 0.5564 -0.4389 0.1132 0.15511 0.078469 -0.41674 0.0047862 0.10355 0.54486 0.2506 -0.96692 0.29835 -0.26048 0.32369 -0.57364 0.14239 0.5761 -0.29994 0.93192 1.054 -0.039633 0.56008 -0.78544 -0.44436 0.39119 1.2476 0.43147 -0.35734 -0.53271 0.094294 0.37621 -0.43816 -0.28361 -0.4754 0.083292 0.0084428 0.73212 -0.28402 -0.80401 -0.40277 -0.076064 -0.35849 -0.30918 -0.48185 0.078776 -0.34986 0.22567 -0.30269 -0.56704 -0.041808 0.12358 0.63356 -0.28851 -0.75165 -0.33779 0.55271 0.50152 -0.025202 -0.37467 0.36242 0.33823 0.20275 -0.65768 -0.099398 0.47629 -0.15433 0.029818 -0.19276 -0.21505 0.27531 0.58188 -0.24717 -0.20307 -0.064253 -0.082332 0.45885 -0.1612 -0.57457 0.41225 -0.12995 
delati_biti_biti -0.41744 0.38172 -0.11757 0.025842 0.025952 0.17893 -0.40786 0.16739 0.34234 0.081592 0.18125 -0.26481 0.074317 0.23743 0.17727 -0.20052 0.3696 -0.4752 -0.058888 0.37751 0.11892 -0.097455 -0.087906 -0.24435 -0.25655 -0.42275 0.28093 0.23681 0.13292 0.072137 0.32584 -0.20684 0.31589 0.13289 0.49522 0.19806 0.27538 -0.57205 -0.12312 0.48117 -0.12431 0.47693 -0.080982 0.0076849 -0.18257 -0.33008 -0.094788 0.60009 -0.042707 -0.27868 -0.057795 0.41899 -0.31944 -0.20664 0.13579 -0.41396 -0.070753 -0.19357 -0.47721 -0.24963 -0.044027 -0.45397 -0.30987 -0.31925 -0.10286 0.032584 0.25267 0.038206 -0.67381 0.29213 -0.13673 0.076716 -0.054584 -0.22376 -0.052837 -0.34199 0.35108 0.060407 -0.075471 -0.17625 0.14263 0.0076627 0.046059 -0.12509 -0.05097 0.28058 0.063447 0.29618 -0.15779 0.16143 -0.13807 -0.071838 0.30673 0.14761 -0.012545 0.018722 -0.14754 -0.054485 -0.10156 -0.11085 
mali_malica -0.18686 0.20922 -1.0389 0.78758 0.49536 0.28409 -0.001002 -0.27228 -0.28516 -0.0081579 0.15009 0.90888 -0.3727 -0.629 0.27212 -0.47036 0.15889 0.44829 0.061072 0.14667 0.23846 0.67866 0.40409 0.026989 -0.062251 -0.46158 -0.54274 -0.10511 0.53493 -0.13893 0.26554 0.062033 0.076737 0.27862 0.70191 0.3018 0.53938 -0.77208 0.55457 0.75564 -0.75718 -0.43 0.011387 0.61952 -0.23975 -0.37465 -0.27312 0.2126 -0.08421 -0.49849 0.64832 -0.32624 -0.36746 -0.34366 0.075609 0.30201 0.34772 0.68378 -0.61246 0.066698 -0.0036554 -0.24455 -0.31708 0.39115 -0.20894 -0.48285 0.068082 -0.52131 -0.20673 0.45428 -0.4271 0.020192 0.20149 0.074563 -0.46149 0.050744 0.97689 -0.40627 0.12617 -0.21127 0.3553 -0.3962 -0.11084 -0.47515 -0.13016 -0.22307 0.54164 -1.0736 0.22031 -0.26622 -0.23792 -0.067269 -0.23786 -0.092005 -0.16838 0.3611 -0.18405 -0.09016 -0.37335 0.15727 
saj_ne_vedeti 0.40566 -0.22739 -0.11778 0.17935 0.11759 -0.086279 -0.027403 -0.038879 0.4395 -0.39992 0.49167 0.38677 -0.46129 0.13793 -0.0062557 -0.090398 0.11353 -0.12957 0.084267 0.44001 -0.26877 -0.11813 0.26881 -0.0064771 0.33057 -0.43173 0.30288 0.25616 0.094762 -0.13201 0.00059435 -0.38526 0.16793 0.039508 0.75905 0.10588 0.61864 -0.42819 0.65803 0.26043 -0.48327 0.19589 0.34534 -0.067172 -0.59092 0.50865 -0.10827 0.36603 -0.38437 -0.61799 0.5064 0.027808 -0.66604 -0.39363 -0.058786 -0.011864 -0.27911 0.15905 0.23779 -0.011078 -0.58501 -0.16846 0.17608 -0.33423 -0.34132 0.16787 0.34862 -0.19692 -0.19272 0.44012 0.12111 -0.040012 -0.49323 0.075373 -0.052625 -0.15794 -0.036344 -0.21685 0.2551 0.10327 -0.1274 -0.43179 0.026627 -0.053616 0.45084 -0.19202 -0.44976 -0.45615 0.081122 0.0026207 -0.32288 -0.14816 0.04648 -0.02248 -0.021262 0.25481 0.075576 -0.27904 0.20855 0.43674 
oligolektičen_vrsta_vezan 0.34977 -0.67375 -0.44219 0.033417 0.19612 -0.53771 0.32513 0.38071 1.1208 0.95854 -0.26121 0.060083 -0.31747 -0.67236 0.448 -0.10618 0.55624 0.16736 0.15791 0.55285 -0.12697 -0.13359 0.42662 0.092925 -0.064991 0.12995 0.088122 0.93211 -0.68736 -0.4203 0.14293 0.37654 0.28487 -0.77001 -0.068963 -0.023106 1.0907 0.0011404 0.54415 0.4988 -0.19337 0.80715 -0.73035 0.093542 0.36996 0.16218 -0.20179 -0.47252 0.44269 -0.17392 -0.013364 0.0047132 0.0013733 -0.77689 -0.5169 -0.20812 0.50522 0.049225 -0.69154 -0.51139 0.033068 -0.24795 -0.52976 -0.6587 -0.33165 -0.096113 0.4709 0.34094 -0.030034 0.96528 -0.95099 0.26429 -0.56015 -0.20764 0.045144 -0.53587 1.0696 -0.64169 -0.70111 -0.34038 0.018222 1.1223 0.29706 -0.89967 0.021581 0.40557 0.8022 -0.52399 0.85981 0.43673 0.20953 -0.22893 -1.1074 -0.64331 -0.23968 -0.026535 0.28262 -0.17763 0.18683 0.020183 
v_skupina_biti -0.13637 0.15894 -0.10442 0.12185 0.094335 -0.35543 0.11391 0.33082 0.31735 0.31848 -0.15767 -0.51512 -0.17009 -0.77613 0.080798 0.027532 -0.1802 0.11649 -0.31455 0.40412 -0.11792 -0.59052 0.48118 0.045306 0.39905 -0.31946 0.21907 0.090772 0.23994 0.49186 -0.061288 0.10147 0.34229 0.49154 0.63314 -0.52905 0.2063 -0.44707 -0.063376 -0.040847 0.21838 0.47263 -0.18685 -0.39971 -0.28098 -0.38963 -0.31904 -0.11084 -0.1731 -0.11914 0.26658 0.053678 -0.14811 -0.076711 -0.012914 0.023539 -0.078624 -0.15656 -0.41634 0.14322 -0.26237 -0.16546 -0.28119 -0.10929 0.087595 -0.15389 -0.074316 -0.10479 -0.64976 -0.27752 -0.51856 -0.29357 0.087875 0.59828 0.19805 -0.042812 0.90134 -0.23271 -0.12228 -1.0912 0.072904 0.21546 -0.42318 -0.45596 0.44344 -0.19608 0.96399 -0.63516 0.22206 -0.11338 0.085496 -0.10275 -0.40782 0.11861 -0.011887 0.58587 -0.58856 -0.18345 0.40192 0.013766 
in_led -0.32331 -0.29625 -0.41361 -0.1461 -0.020107 0.63569 0.56449 -0.067676 0.80962 0.46134 0.44353 0.14634 0.064068 -0.45591 0.23587 -0.46302 0.25126 0.1892 0.50439 0.4785 0.23421 -0.32513 0.66856 0.48902 -0.77444 -1.0073 0.24254 -0.13407 0.38385 -0.05273 -0.19816 0.16668 -0.1105 -1.1642 0.30363 -0.42124 0.42354 0.37064 0.80775 0.40413 -0.59971 0.53146 -0.27824 -0.61638 -0.22881 0.30136 -0.14936 -0.73312 -0.51847 -0.19234 -0.34562 0.82166 -0.4577 -0.69163 0.31828 -0.38428 -0.56776 0.19752 -0.62304 0.14 -0.23904 -0.51653 -0.1586 0.038496 0.24032 -0.67865 0.63881 -0.81317 -0.060091 0.40349 -0.32221 0.014463 -0.0048518 -0.074362 0.4239 0.15439 0.63414 0.49383 -0.34608 -0.17307 -1.1295 -0.58522 0.87946 -0.77218 0.70865 0.19465 -0.018821 -0.77768 0.674 0.76673 0.26932 -0.31713 -0.46601 -0.68422 -0.29726 -0.04003 0.11979 0.48301 0.092254 0.2146 
in_se_zamisliti -0.18423 0.088406 0.25394 0.2309 -0.21882 0.11699 0.080237 0.13272 -0.1451 -0.46462 0.043895 0.35789 -0.28311 -0.26687 0.089676 -0.10505 0.40715 0.019408 -0.28852 0.4838 0.28482 -0.14461 -0.024024 0.12115 -0.11997 -0.61796 -0.46048 0.27931 -0.17189 -0.092256 0.10857 0.048438 0.40437 -0.099 0.61618 0.10038 0.61463 0.051788 0.6606 0.46274 0.21725 -0.16624 -0.0028734 0.062891 0.41146 0.062565 -0.23326 -0.19347 -0.36805 0.12048 0.24662 0.093245 -0.39933 -0.33739 -0.17505 0.11302 0.0013948 -0.22558 -0.65962 -0.20846 0.030692 -0.099869 -0.085658 -0.026036 0.13021 0.2738 -0.18229 0.28329 -0.063788 0.053373 -0.015712 0.11447 -0.33588 0.032589 -0.34092 -0.3048 0.23863 -0.24398 -0.23304 0.7791 -0.19868 0.10261 -0.1224 -0.47126 -0.048625 0.031551 -0.54586 -0.37571 0.20647 0.75479 -0.048987 0.32282 -0.40437 0.19465 0.23433 0.057223 0.067168 -0.36406 -0.015567 -0.29022 
toda_kaj_biti 0.036996 -0.17283 0.49351 0.38268 -0.14878 -0.1434 -0.32732 -0.53955 -0.01921 0.1189 -0.056714 0.079685 -0.14868 -0.040408 0.40178 -0.067723 -0.035462 0.092181 -0.043714 0.079199 0.14601 -0.087465 -0.09738 0.096475 -0.0020822 -0.21909 -0.31294 0.14219 0.031594 -0.36228 0.021339 -0.089982 -0.018177 -0.079158 0.42355 -0.2323 0.30211 -0.31949 0.0074123 0.61121 0.093811 0.18345 -0.066717 -0.23482 -0.30223 0.041902 0.12082 0.41913 -0.12169 -0.6939 0.43176 0.19366 -0.74602 -0.63921 0.26736 0.017897 0.34141 -0.0022924 0.21957 -0.12338 0.049043 -0.18835 -0.083811 0.17966 0.24219 0.10159 -0.056553 -0.10608 0.090326 0.055751 -0.62173 -0.35769 0.29737 -0.13583 0.078476 -0.29973 0.36452 -0.43562 -0.065121 0.32752 0.19111 0.17906 -0.10361 -0.41199 0.46084 -0.080398 -0.15014 0.065708 0.29813 0.025722 0.022225 -0.038297 -0.15252 -0.30876 0.32566 0.43698 -0.43617 -0.00046345 0.038565 -0.24092 
se_ugotoviti_da 0.50009 -0.51869 -0.68278 0.05026 -0.1349 -0.39232 0.45373 0.32232 0.04689 0.20713 0.19116 -0.070332 0.16184 -0.30093 0.085831 -0.21846 0.079276 -0.42123 -0.11763 1.5046 0.43412 -0.44485 0.51852 0.11186 -0.043302 -0.29075 -0.13716 -0.22488 -0.071898 0.20374 0.078438 0.32978 0.12171 -0.53553 -1.1926 0.015864 0.12262 -0.19762 0.5154 0.51688 -0.43359 0.028973 -0.44697 0.037786 -0.092948 -0.33945 -0.15488 0.47823 -0.34505 -0.51588 -0.089997 0.30985 -0.23365 -0.1646 -0.11905 -0.25474 0.2834 0.060261 0.071806 0.22946 0.22269 0.19997 -0.18034 0.016366 0.58129 0.20343 0.45957 0.29724 -0.48605 0.046116 -0.77407 0.044682 0.039335 0.11251 0.21367 -0.27814 0.62325 0.0045988 -0.21128 0.29373 -0.27996 0.017417 0.0044235 -0.16487 -0.0059663 0.4993 0.028274 0.10216 0.014878 -0.19206 0.35891 -0.25314 0.21906 -0.30695 0.44944 0.54157 0.059804 -0.055539 -0.099609 -0.16675 
v_kanalski_dolina -0.24112 0.48363 0.13516 -1.2332 0.30969 0.3871 0.44276 -0.48849 0.0053438 -0.56145 -0.22092 0.1055 -0.19161 -0.49868 -0.3296 0.57782 0.01002 -0.69679 0.7715 0.36706 -0.01086 -0.59017 0.67178 -0.34659 0.40353 -0.15678 0.79502 -0.18355 0.64023 -0.29161 -0.26188 -0.16765 -1.0679 -0.4285 0.25712 0.32423 0.69281 0.18212 0.65658 0.38587 -0.74259 0.55126 0.13147 -0.42982 0.59043 -0.12372 -0.42219 0.030394 0.32404 -0.10493 0.41486 0.092448 -0.68344 -0.1072 0.18084 -0.11868 -0.88106 -0.24513 -0.49249 -0.10225 -0.50688 -0.33069 0.40175 0.18501 -0.050813 0.16244 0.869 0.13442 -0.43395 0.60799 -0.71483 0.12329 0.18386 -0.67638 -0.21623 -0.39881 1.1813 -1.2115 -0.25912 0.10319 -0.6416 0.03964 -0.38904 -1.5918 0.098436 0.37453 0.61779 -0.16552 0.26374 0.28136 0.70854 -0.20543 -0.35881 -0.13156 -0.31385 -0.27287 -0.14634 0.43082 0.4063 0.22766 
