biti_po_volja 0.15323 0.59675 0.29878 0.52294 0.42832 -0.16388 0.3281 -0.10306 -0.35261 0.19918 0.26745 0.60988 0.27373 0.25022 -0.20481 0.34779 0.28662 -0.00049095 0.1701 0.31532 0.24502 0.067135 -0.053392 0.086161 -0.16653 0.34912 0.17444 -0.20529 -0.46811 0.27002 0.022564 -0.037606 -0.22619 -0.31552 0.36201 0.40504 0.13295 0.0051756 0.052471 -0.082375 -0.32288 0.12855 0.23552 0.028919 0.15187 0.21239 0.19969 0.40823 0.048916 -0.57243 -0.25594 0.072618 0.14893 -0.017551 0.46806 0.051513 0.35966 0.37389 -0.060092 -0.48679 -0.29727 0.36763 0.13978 0.55319 0.28285 -0.53754 0.074215 -0.51746 0.27113 0.081456 -0.45006 -0.13027 -0.26533 0.12284 -0.041215 0.20972 0.20895 -0.26409 -0.06797 -0.29009 0.056831 -0.083533 -0.3276 0.088479 0.1348 0.15673 -0.10898 0.2708 -0.67701 -0.78038 0.59005 0.0034331 -0.15977 -0.78949 -0.26246 0.22866 -0.090547 -0.19794 0.31141 -0.38641 
biti_zatisniti_oko 0.15071 0.67725 0.22563 0.11108 0.051756 -0.030206 0.10707 0.0069522 -0.39527 0.29351 0.0065573 0.6049 0.31662 0.51245 -0.59432 0.59612 0.77479 -0.020412 0.20851 0.44249 0.24748 0.083802 0.27174 -0.17157 -0.073478 0.20376 -0.32805 -0.231 -0.067232 0.2228 0.069706 -0.72434 -0.024432 -0.07019 0.6603 -0.023717 0.33602 0.66129 -0.24321 0.071914 -0.4972 0.20441 0.15746 0.035746 -0.40095 0.38428 0.31989 0.32602 -0.15766 -0.63632 0.12589 0.36937 0.00052266 -0.22243 0.32337 0.22745 0.049506 0.67125 -0.17504 -0.52402 -0.23974 0.49817 -0.080635 0.88679 0.12212 -0.64967 -0.38292 -0.63088 -0.015782 -0.1507 -0.18643 -0.12845 -0.42482 -0.13559 -0.058025 0.1457 -0.18152 -0.44812 0.22789 -0.10901 0.011694 -0.70588 0.44341 0.0978 -0.017049 -0.10467 -0.21824 0.39075 -0.40485 -0.30242 0.0082619 -0.14058 -0.15524 -0.38053 -0.067766 0.20939 -0.21867 0.03658 0.26146 0.28 
biti_na_krmilo 0.27421 0.75656 0.37829 0.3812 -0.12087 -0.14618 0.37152 -0.1337 -0.41573 0.4194 0.088598 0.91353 0.44203 0.50475 -0.37008 0.89677 0.55999 -0.12403 0.4731 0.79189 -0.12675 -0.084999 -0.2144 -0.34147 -0.072646 0.27301 0.21224 -0.30382 0.019605 0.14552 0.11357 -0.58576 -0.10639 -0.5036 0.16113 0.60659 -0.1022 -0.12723 -0.16817 0.024051 0.14758 0.01432 0.16007 -0.066753 -0.043511 0.20132 0.36875 0.34359 0.071187 -0.66247 0.50603 0.30047 0.022351 -0.08264 0.32796 0.12438 0.28599 0.098889 -0.01758 -0.4623 -0.15815 0.18565 -0.17993 0.69041 -0.028396 -0.66963 -0.2154 -0.34138 0.2122 -0.24895 -0.21959 -0.016764 -0.20294 0.012003 -0.40496 0.063205 -0.42594 -0.19566 -0.19229 -0.13839 0.51636 -0.28276 0.084926 -0.14589 -0.080676 0.030352 -0.45866 0.049235 -0.44737 0.020936 0.65119 -0.088945 -0.2527 -0.3505 -0.23691 0.34379 -0.20793 -0.11064 0.3637 -0.057304 
sesuti_v_prah 0.26096 0.61366 -0.078225 0.33436 -0.28225 -0.30421 -0.34288 0.095183 -0.0071865 0.094949 -0.15445 0.15633 0.35929 0.25924 -0.32913 -0.10088 0.64448 -0.19118 -0.11713 1.4039 -0.12726 0.46037 0.23514 0.13133 -0.1362 0.49463 -0.19797 0.27139 -0.19235 0.84932 0.2171 -0.041833 -0.21554 0.078113 0.34207 -0.24487 0.31842 0.13611 -0.37249 -0.14761 -0.31944 -0.15735 0.34852 -0.24779 -0.093785 0.19641 0.27288 -0.014123 -0.42577 -0.56755 -0.14481 -0.23184 0.29794 0.075605 0.10882 0.062736 -0.084238 0.63986 0.0019888 -0.77637 -0.18655 0.28346 0.17291 1.1704 0.2065 0.10266 0.14108 -0.099588 -0.12559 -0.053243 -0.34933 0.082573 -0.035919 -0.20576 0.21889 -0.0026781 -0.42817 0.075521 -0.063191 0.30474 0.25452 -0.16446 0.12478 0.45952 0.42493 0.066209 0.24977 0.18176 -0.34829 0.20473 0.71275 0.16668 -0.19783 -0.30163 -0.45295 -0.11715 0.18206 0.061403 0.45666 0.2137 
skomigniti_z_rame 0.075446 0.45946 -0.083222 0.68536 0.41307 -0.67073 -0.027034 0.15319 -0.00026939 0.74271 0.26831 0.93129 -0.0067107 0.55929 -0.0074455 0.50428 0.46272 0.0081257 0.21701 1.0539 -0.039416 -0.1951 0.29711 0.080998 0.00062302 0.33459 -0.43156 0.11326 -0.065276 0.19963 -0.082174 -0.14482 -0.22554 0.2595 0.39007 0.055404 0.64599 0.18668 -0.21672 -0.23914 -0.094263 -0.3296 0.21302 -0.037036 -0.31882 -0.089713 0.029387 -0.1131 -0.10199 -0.28566 0.18061 0.018871 0.10226 -0.079451 -0.28661 0.17348 -0.025306 0.27953 -0.048918 -0.75587 0.045851 -0.15765 -0.34506 0.074298 0.15767 -0.45578 -0.26593 -0.20736 -0.15332 -0.22372 -0.59208 0.33461 -0.060152 -0.46566 0.41292 -0.091571 -0.45288 -0.56486 -0.18596 -0.2668 -0.14326 -0.5103 0.11005 0.10948 -0.32623 0.094677 0.091259 0.53945 -0.28514 -0.31358 0.58562 0.08544 -0.34286 -0.46369 -0.07198 -0.43191 0.030045 0.2046 0.38906 0.32099 
vzeti_se_čas 0.2469 0.48462 -0.11485 -0.0446 0.52289 -0.30469 -0.35074 0.27473 -0.09768 0.56309 -0.18391 0.34884 -0.070105 0.78491 0.063719 0.15613 0.23909 -0.24173 0.2726 0.71446 0.29586 0.29122 0.026098 0.34462 -0.23955 -0.0056338 0.056527 0.084705 -0.20239 0.23068 0.044487 -0.76552 -0.30023 -0.17083 -0.010572 -0.27082 0.50934 0.63621 -0.29126 -0.31323 -0.39178 -0.40195 0.75268 -0.0026297 -0.23612 0.030523 0.33496 -0.32063 -0.50661 0.0046094 -0.0257 0.29613 0.41285 -0.51523 -0.010354 0.30001 -0.14094 0.37476 0.4756 -0.41735 -0.1853 0.30243 -0.10084 0.37789 0.098486 -0.67148 -0.030152 -0.21606 0.45542 -0.090154 -0.45752 0.25139 0.072283 -0.25456 0.12612 0.19908 0.35238 -0.48293 0.15825 -0.18431 0.31918 -0.32083 0.53299 -0.26769 0.22688 0.28767 -0.11637 0.57656 0.29708 -0.27088 0.36059 0.41096 -0.2341 -0.31444 0.23002 -0.083527 0.16475 -0.63218 -0.22683 -0.39835 
zamižati_na_en_oko -0.1749 0.47566 0.2475 0.74843 0.0079477 -0.43383 -0.2743 0.33475 -0.092722 -0.071262 0.070851 0.3248 0.23006 0.40112 -0.60941 0.15813 0.5787 -0.11223 0.7734 0.77906 0.12726 -0.037508 -0.29207 0.27447 -0.34799 0.17516 0.24408 -0.039263 0.20583 -0.0046074 0.17819 -0.20905 0.20937 -0.41557 0.15343 -0.25007 -0.15447 0.11406 -0.23415 -0.075118 -0.26591 -0.075375 0.71954 -0.35059 -0.3933 -0.088418 0.31452 0.082315 -0.072103 -0.49151 0.034035 0.45196 -0.12122 0.10519 -0.014283 0.17112 0.14118 0.049907 -0.032881 -0.42256 -0.028658 0.63199 -0.0074577 0.36049 0.47545 -0.007646 -0.51645 -0.46507 0.42259 -0.21741 -0.21594 0.41127 -0.21612 -0.48981 -0.18805 0.26817 -0.24381 0.068961 0.018122 0.21858 0.254 -0.11515 0.097694 -0.039211 0.11083 -0.035651 0.031362 0.32097 -0.32458 -0.010642 -0.032625 0.14439 -0.47241 -0.68015 0.053209 0.06454 -0.038835 -0.33386 0.013348 0.18207 
na_svet_biti_priti 0.27743 0.83088 0.21408 0.37364 0.16982 -0.19982 0.26859 -0.16247 -0.53446 0.43852 0.12528 0.79134 0.33407 0.23854 -0.58226 0.44192 0.43505 -0.60891 0.16954 0.28507 0.20462 0.18456 0.1743 -0.070364 -0.36857 0.59277 0.18142 -0.40445 -0.27689 0.21362 0.032152 -0.39135 0.015942 -0.23209 0.46807 0.29587 0.10227 0.088405 -0.035063 -0.087703 -0.24419 0.2196 0.27373 -0.13406 0.19447 0.38792 0.21073 0.41452 -0.33826 -0.49102 0.19105 -0.0093088 0.10086 -0.009842 0.40792 0.19879 0.30781 0.35438 -0.15904 -0.32803 -0.4987 0.60813 -0.016626 0.96195 0.2745 -0.57293 -0.075842 -0.49559 0.1415 0.25183 -0.23264 0.26777 -0.27337 0.05537 0.050677 0.40712 0.22043 -0.36318 -0.10021 -0.11607 0.26279 -0.39425 -0.084753 0.10496 0.45461 -0.013631 -0.12674 0.29028 -0.34909 -0.45944 0.47182 -0.066594 -0.30053 -0.70337 0.03864 0.25408 -0.20937 0.0064292 0.29845 -0.1396 
prav_priti 0.25889 0.55306 -0.12044 0.038696 0.55882 0.13226 0.11603 0.22429 -0.061972 0.71338 0.039717 0.92393 0.28434 0.24294 -0.55772 0.38811 0.26635 -0.45404 0.47416 0.29804 0.37937 -0.15538 -0.14507 0.33175 0.056292 0.49768 -0.097097 0.18247 0.14729 -0.1213 0.44314 -0.35047 -0.12323 -0.4275 0.031275 0.4661 0.35998 0.15482 -0.6074 -0.26489 -0.26754 0.19253 0.71538 -0.069898 -0.13108 0.040676 0.15386 0.42035 -0.25097 -0.64294 0.11514 0.01105 0.51218 -0.2701 0.56502 0.28843 0.22774 0.6457 0.29541 -0.61759 -0.30282 0.79031 -0.43985 0.29932 0.56604 -0.27203 -0.3805 -0.50329 0.43304 -0.11351 -0.6503 0.41638 -0.25656 -0.044729 0.28429 0.1555 -0.29064 -0.80024 -0.18239 0.23583 0.22296 -0.34203 0.29483 0.037704 0.26918 -0.11348 -0.09706 0.37013 -0.58751 -0.23322 0.11755 0.093187 -0.42252 -0.38803 -0.060184 -0.060679 0.10665 -0.67156 0.15976 0.064503 
imeti_proti 0.15087 0.20013 0.33978 0.55439 0.551 0.023867 0.12596 0.36483 -0.15596 0.51634 0.17274 0.62544 0.56448 -0.049017 -0.87177 0.31643 0.40466 -0.42658 0.53441 0.95306 0.36254 0.27872 0.13106 0.08889 0.046658 0.54798 0.13512 0.23134 -0.39402 -0.022136 0.33875 -0.51779 -0.38386 -0.43285 0.48407 0.063792 0.28048 0.2439 -0.27422 -0.13787 -0.12509 0.15041 0.46514 -0.075616 -0.098929 0.52539 0.10876 0.17659 0.041339 -0.52408 0.22129 -0.25269 0.51703 -0.12488 0.39217 0.3199 0.41341 0.37369 0.045643 -0.65981 0.028716 0.55888 -0.29656 0.32172 0.45243 -0.26377 -0.36467 -0.61805 0.24512 -0.23137 -0.44844 0.1799 -0.33692 -0.34592 0.16869 0.20075 -0.11299 -0.15 0.26195 0.0068769 -0.18819 -0.42338 -0.30451 -0.17675 0.3636 -0.055948 -0.12433 -0.062955 -0.32573 -6.551e-05 0.34725 0.10353 -0.4068 -0.62554 -0.13465 0.18871 -0.15856 -0.16139 0.22458 0.18151 
imeti_zadosti 0.0098213 0.14889 -0.10032 0.82384 0.37111 -0.33874 0.38482 0.1393 -0.22176 0.59726 -0.20631 0.54176 0.23428 -0.018201 -0.54716 0.36824 -0.0038526 -0.090185 0.25522 0.65263 0.31902 0.46016 -0.52556 0.70867 0.083028 0.35799 0.0057134 -0.091201 -0.035012 -0.09204 0.30681 -0.15765 -0.20482 -0.41225 0.12708 0.085552 -0.031823 -0.099209 0.049193 -0.3857 -0.16366 -0.023353 0.40992 -0.053119 0.11485 0.090786 0.10837 0.012939 -0.38613 -0.26073 0.27351 -0.19614 0.42251 -0.020168 0.27069 0.64258 0.47157 0.24484 -0.068821 -0.78778 -0.23519 0.21999 -0.20424 0.21827 0.67037 -0.63292 -0.39072 -0.20338 0.67007 0.05941 -0.44224 0.59421 -0.15163 -0.45791 0.2241 0.08303 0.20527 -0.30761 -0.14057 -0.21565 -0.13379 -0.2684 -0.28851 0.21068 0.3182 0.069343 -0.17358 0.64587 -0.65253 -0.10001 0.51829 0.45811 -0.28418 -0.29211 -0.073383 -0.24661 0.34037 -0.56588 0.080126 0.026303 
pomesti_pred_svoj_prag 0.33447 0.051955 0.16979 0.64547 0.15898 -0.13204 0.11833 0.19238 0.019713 0.45662 0.0071583 0.3053 0.34667 -0.074708 -0.34838 -0.077001 0.14165 -0.48688 0.74517 0.56221 0.3799 0.23787 -0.035912 0.0071839 -0.15 0.21605 -0.018344 0.13201 -0.40011 0.28027 0.45329 -0.39671 -0.11819 -0.48649 -0.23289 -0.13629 0.44734 0.29649 -0.3355 -0.28785 -0.47327 -0.0072609 0.5705 -0.045261 0.31495 0.20794 -0.10391 0.3314 0.19725 -0.39044 -0.22368 -0.19262 0.32484 -0.19655 0.53275 0.20488 0.58742 0.41823 -0.074733 -0.18003 0.16206 0.51957 -0.23327 0.19956 0.46348 -0.42572 0.16265 -0.40876 0.047273 0.10986 -0.22906 0.4479 -0.18247 -0.26849 0.28659 0.25049 0.066001 -0.24325 -0.099407 0.12514 -0.036497 -0.23491 0.005663 0.17802 0.36812 -0.17702 0.064258 0.15921 -0.26439 -0.39169 0.31577 0.19224 -0.36808 -0.60012 -0.34285 -0.035804 0.18861 -0.22212 -0.05619 0.20257 
zamahniti_z_roka -0.021961 0.31289 0.16534 0.488 0.29058 -0.33182 -0.22974 0.39024 0.025882 0.33056 0.262 0.82986 -0.011327 0.5299 -0.112 0.37995 0.64027 -0.30941 0.10168 0.84507 0.045092 0.20081 0.027766 -0.020315 -0.057556 -0.071292 -0.28483 0.12828 -0.12013 0.28688 0.15152 -0.4322 -0.48586 0.10357 0.29485 0.12789 0.36405 0.51409 -0.28278 -0.013159 -0.21272 0.14944 0.0085565 -0.12558 -0.25263 -0.072731 -0.14061 -0.15828 0.27723 -0.28787 0.03009 0.1141 0.17114 -0.29873 -0.07818 0.42712 0.34722 0.23078 -0.0038177 -0.76885 -0.048353 0.37813 -0.18359 0.55224 0.16918 -0.55547 -0.41377 -0.29022 -0.25887 -0.39971 -0.37656 -0.17147 -0.33314 -0.35757 0.078621 0.082833 -0.32515 -0.30549 -0.068615 -0.44458 -0.17585 -0.23269 0.12658 -0.16782 -0.31135 0.12518 0.035086 0.38936 -0.25335 -0.11742 0.27992 0.11936 -0.14735 -0.39094 -0.11853 -0.16563 0.37884 -0.14588 0.28413 0.33334 
roditi_sad 0.21409 0.87786 -0.34494 0.53914 0.64309 -0.051799 -0.39207 0.14457 -0.37309 0.20465 0.41415 0.18349 0.12617 0.24227 -0.64668 -0.054039 -0.080369 -0.43265 0.43889 0.28627 0.22243 0.15805 0.50764 0.26224 -0.057169 0.28312 -0.22963 -0.66554 -0.94809 0.69344 -0.28415 -0.22379 0.23389 -0.10787 0.76651 0.063606 -0.013865 -0.027364 0.33528 -0.17282 -0.63669 -0.052861 0.70547 0.15502 0.35776 0.19477 -0.015347 0.64387 -0.46771 -0.27748 0.45947 -0.076958 0.006992 0.41212 -0.34052 0.39709 -0.011133 0.2516 -0.032279 -0.35521 -0.53662 0.60745 -0.41359 0.64455 0.66224 -0.309 -0.18365 -0.035681 0.20202 0.25917 0.36548 0.23405 -0.018684 -0.39684 0.043975 0.3356 0.41881 -0.37297 -0.45392 -0.19552 0.061851 -0.02271 -0.11941 0.098537 0.18473 -0.027879 0.2672 -0.069577 0.09606 -0.37378 0.15255 -0.50332 -0.12785 -0.35665 0.19811 0.085393 -0.48749 0.18371 0.24794 0.27878 
dati_ves_od_se 0.74767 -0.086902 -0.089967 0.49924 0.24005 0.21389 0.30435 0.059567 -0.037899 0.82416 0.49109 0.12087 0.33188 0.28111 -0.53553 0.31131 0.72625 -0.25438 0.94289 0.9589 0.078452 0.15937 0.14507 0.20533 -0.12157 0.27589 -0.57945 0.43176 -0.63407 0.0001816 0.61021 -0.70168 -0.29387 -0.38138 -0.21761 0.35475 0.046344 -0.11599 -0.37814 -0.57726 -0.17625 -0.065615 0.73789 0.19337 0.099259 0.088192 -0.11759 -0.21645 -0.15696 -0.34775 0.11475 0.086076 0.42315 -0.26807 0.27869 0.18357 -0.03608 0.51955 0.20717 -0.7147 0.18993 0.61441 -0.15907 0.43129 0.14889 -0.35552 -0.38397 -0.41126 0.60773 0.25201 -0.15445 0.17577 0.1347 -0.45229 0.17838 0.29389 0.14453 -0.30186 -0.063508 -0.034717 -0.11425 -0.55437 -0.19518 -0.039787 0.60544 0.27082 -0.18703 0.27348 -0.54249 -0.071772 0.15837 -0.040617 -0.35996 -0.40056 -0.30727 0.16406 0.1977 -0.37729 0.1396 0.088052 
priti_do_izraz 0.088857 0.23683 0.11741 0.075547 0.70963 0.43476 0.14749 -0.31037 0.21789 0.19015 -0.11209 0.3714 0.14833 0.46313 -0.35612 0.12368 0.22167 -0.061509 0.45375 0.72934 0.03679 0.28144 -0.17578 0.067199 -0.15038 0.34328 0.18594 0.3423 -0.3228 0.074632 0.59346 -0.31213 0.0023165 -0.29936 -0.21419 0.91313 0.11224 -0.16562 -0.16365 -0.22749 -0.32734 -0.057974 0.52125 -0.18463 -0.20636 0.047256 0.2894 0.15523 -0.27795 -0.34575 0.12683 -0.14159 0.22551 0.10068 0.15299 -0.10207 0.12205 0.079405 0.58498 -0.85873 -0.064667 0.37481 -0.033805 0.45251 0.33825 -0.62937 -0.46978 -0.033712 0.1469 -0.19297 -0.32573 0.13023 -0.35631 -0.26556 -0.38634 -0.19829 -0.068226 -0.37065 0.21791 -0.045746 0.02838 0.045561 -0.068037 -0.40074 0.19536 0.26889 -0.26918 -0.12159 -0.48176 -0.23295 0.39127 -0.27747 -0.25938 -0.67379 -0.082589 0.26489 -0.011835 -0.5212 0.15662 0.20615 
biti_res 0.38772 0.47822 0.073636 0.84974 0.598 -0.089979 0.4357 -0.032963 -0.35858 0.41972 0.4391 0.98832 0.34717 0.43255 -0.43005 0.57785 0.39054 0.020136 0.2798 0.17313 -0.10111 0.16588 0.3899 -0.060498 -0.10811 0.48388 -0.35084 -0.30365 -0.35375 0.1217 0.048232 -0.79356 -0.43272 -0.24577 0.97192 0.43214 -0.042829 -0.094555 -0.10539 -0.20818 -0.25757 -0.062973 -0.023817 0.085686 -0.15824 0.24083 0.22804 0.35568 -0.13497 -0.80892 0.078684 -0.078893 0.27061 -0.36584 0.29146 0.20473 0.62131 0.10313 -0.076312 -0.33223 -0.23607 0.58286 -0.173 0.37528 0.26094 -0.87892 -0.033713 -0.35821 0.41432 0.019342 -0.7074 0.030982 -0.41123 0.012189 0.09841 0.00059118 0.35438 -0.47421 0.06438 0.044243 0.2062 -0.023871 -0.22717 0.096557 -0.0015566 0.33513 -0.36546 0.33679 -0.59923 -0.65192 0.35576 -0.38671 -0.055137 -0.57069 0.15927 0.52813 -0.052084 0.20305 0.23689 -0.19233 
biti_na_vrh 0.40788 0.54481 0.45106 0.0506 0.066065 -0.019508 0.13011 -0.22277 -0.24658 0.54428 0.11812 0.74618 0.74581 0.16961 -0.69372 0.43993 0.26612 -0.45642 0.36126 0.32101 0.39067 -0.045854 0.34394 -0.18593 -0.13013 0.5381 -0.12025 -0.21782 -0.25176 0.15704 0.223 -0.67573 -0.43298 -0.54831 0.15741 0.41245 0.011252 -0.30726 0.0055853 -0.22924 -0.17163 0.21883 0.0070831 -0.059707 -0.24691 0.47394 0.36542 0.23893 -0.45841 -0.752 0.52253 0.28106 0.22528 -0.17266 0.3058 0.14229 0.21121 0.34614 -0.19934 -0.48632 -0.26735 0.82908 0.079993 0.83479 0.039445 -0.60789 0.026282 -0.34674 0.19368 -0.15554 -0.60075 0.24869 -0.548 0.10822 0.060974 0.42017 -0.16457 -0.27304 0.22777 0.062906 0.22167 0.068366 -0.25872 0.026967 0.25719 0.14184 -0.43653 -0.13821 -0.53823 -0.70662 0.67568 -0.21646 -0.23311 -0.8049 -0.12788 0.29805 -0.14016 -0.10859 0.3755 -0.1013 
pribiti_na_križ -0.0040132 0.51533 0.43904 0.43395 0.91252 -0.12394 0.015287 0.19844 -0.56754 0.070353 -0.047653 0.69195 0.35414 0.31118 -0.55677 0.49456 0.67292 -0.028122 0.46359 0.39056 0.22103 0.52498 -0.031457 0.054747 -0.19838 0.39128 -0.38761 -0.31737 0.19181 0.26342 -0.18567 -0.12356 -0.20919 -0.43951 0.29035 0.22377 0.20058 0.55448 -0.3782 -0.01167 -0.23642 0.40158 0.13748 -0.38309 -0.01005 0.37556 0.19253 0.25673 -0.014142 -0.48404 0.068746 0.2205 0.14474 -0.20435 -0.048844 0.15516 0.62894 0.27335 0.23494 -0.40019 -0.20239 0.62498 -0.10523 0.77831 0.37489 -0.48507 -0.047819 -0.34218 -0.014964 0.23848 -0.084388 0.12147 -0.33102 -0.10067 0.052658 0.0046314 0.15363 -0.21055 -0.10853 -0.094726 0.038549 0.13965 0.37544 0.16891 0.1124 0.27835 -0.52905 0.50651 -0.68737 -0.039432 0.36349 0.028115 -0.20239 -0.35199 0.025086 0.092359 0.23744 -0.39968 0.22415 0.30991 
igrati_vloga -0.046662 0.96791 0.38806 0.52187 0.31947 -0.094308 -0.053399 0.092573 -0.18773 0.27437 0.27176 0.2041 0.32403 0.6474 -0.22856 0.22703 0.1155 0.11667 0.79043 0.67915 0.18135 0.27998 0.029082 0.23774 -0.086131 0.2956 0.067962 -2.4829e-05 -0.81798 0.21687 -0.086558 0.037572 0.16806 -0.43788 0.099186 0.39785 0.030898 -0.14222 -0.11687 -0.39084 -0.23857 0.035718 0.54079 -0.01003 0.02206 0.032265 -0.25926 -0.051649 0.029673 -0.59415 0.074219 -0.31196 0.2499 0.078762 -0.016961 -0.39122 -0.21297 0.095545 0.55351 -0.14773 -0.031194 0.17179 -0.078497 0.62864 0.56415 -0.27487 -0.055613 -0.12325 0.45199 0.44428 -0.10741 0.019435 0.18886 0.23237 -0.0070041 -0.1101 0.4065 -0.15955 -0.25279 -0.18233 -0.26633 0.16622 -0.15861 0.27263 0.67883 -0.045671 -0.023692 0.078711 -0.37711 0.13141 0.16239 0.0088005 -0.16867 -0.049575 0.18892 0.21363 -0.12047 -0.42874 -0.10544 0.38007 
biti_moč 0.41009 0.61495 0.20035 0.30494 0.58865 0.17832 0.54323 -0.062848 -0.2572 0.11478 0.25786 0.85338 0.42823 0.54653 -0.27998 0.58632 0.043379 0.34563 0.45257 -0.013277 -0.0068661 0.17711 0.081386 -0.228 -0.17293 0.69418 0.29557 -0.21585 -0.41647 -0.033853 0.065934 -0.68059 -0.42454 -0.40988 0.39396 0.8106 -0.23602 -0.234 0.063879 0.0021121 -0.4005 -0.027185 -0.0029019 0.12205 -0.01879 0.27537 0.69224 0.42763 -0.51243 -0.69609 0.3372 0.12204 -0.094757 -0.16951 0.38122 0.36233 0.32633 0.18221 -0.13081 -0.36579 -0.36352 0.42928 -0.029264 0.76577 0.11254 -0.75222 -0.1666 -0.24809 0.48914 -0.1333 -0.49039 0.047608 -0.39214 0.11507 -0.16517 -0.10759 0.55206 -0.48824 0.19762 -0.20026 0.30666 -0.13798 -0.088036 -0.21828 -0.24605 0.052618 -0.56442 0.25078 -0.64659 -0.5205 0.4966 -0.42394 -0.045715 -0.64861 0.18241 0.38243 -0.12858 -0.1489 0.27889 -0.38706 
ustreliti_mimo 0.44592 0.78099 0.52309 0.69181 0.021518 -0.076773 0.049609 0.27142 -0.47976 0.049037 -0.028975 0.33666 0.25912 0.50508 0.039769 0.49514 0.56677 0.035589 0.41301 1.0602 -0.17461 0.11792 0.45145 -0.36477 -0.36488 0.31505 -0.16228 0.21427 -0.64742 0.37305 -0.28375 -0.051645 -0.16925 -0.085503 0.20152 -0.33484 0.67018 0.19477 -0.54859 -0.047169 -0.14512 -0.10733 0.10469 -0.17859 -0.17638 0.47355 0.052552 0.66497 0.30754 -0.54763 0.11881 0.17894 -0.11001 0.23281 0.14263 0.1234 0.2685 0.33272 -0.004128 -0.23308 -0.035312 0.13626 -0.13384 0.49087 0.041807 -0.33198 -0.36297 -0.34715 -0.30652 -0.12936 -0.15759 0.083882 -0.6509 -0.36879 0.13253 -0.083111 -0.48625 -0.094294 0.30626 0.23869 0.60425 -0.40342 0.24826 -0.052835 -0.23268 -0.044471 0.15743 0.48283 -0.16389 0.14514 0.25856 0.13518 -0.32356 -0.17764 -0.182 0.2487 0.17701 -0.032465 0.56571 0.47879 
biti_malo_čez_les 0.14379 0.67099 0.22667 0.61985 0.28314 -0.26195 0.2182 -0.46147 -0.24402 -0.066088 0.12529 0.43483 0.12005 0.50215 0.11735 0.24354 0.29922 -0.3895 0.13136 0.14121 -0.2358 0.095009 -0.11183 0.0398 -0.054641 0.04054 -0.23264 -0.067336 -0.47634 0.14734 0.071953 -0.44133 0.1185 -0.22819 0.43237 0.16905 -0.059543 0.0039228 -0.16311 -0.27264 -0.29071 -0.19054 -0.020992 0.086266 -0.1733 -0.19106 0.065121 0.38685 0.0017761 -0.44155 0.13274 -0.20206 0.11329 -0.40241 0.036021 0.0031371 0.5916 0.53195 0.20624 -0.26255 -0.13236 0.49129 -0.25903 0.29049 0.14273 -0.35204 -0.13205 -0.39063 0.46508 -0.097886 -0.3742 -0.044638 -0.18039 -0.083468 0.35894 -0.070282 -0.11545 -0.24366 -0.51365 -0.015195 0.1085 0.056204 0.18592 -0.075088 -0.21746 0.15175 -0.39268 0.3026 -0.41442 -0.30375 0.25556 -0.12517 -0.47548 -0.32155 -0.016379 -0.17863 -0.12038 -0.013698 0.18141 -0.082195 
delati_družba 0.1843 0.6072 -0.071723 0.048078 -0.13331 -0.0080709 -0.03701 0.031929 -0.37956 0.50821 0.040387 0.10273 0.2804 0.36812 -0.16325 0.3088 0.12557 -0.59554 0.49758 0.50795 -0.1365 -0.25996 0.062934 0.25194 -0.22585 0.25333 -0.087241 -0.20367 -0.34799 0.22062 -0.0348 -0.20998 0.032986 -0.13836 0.14835 -0.018678 0.11787 0.043545 -0.055362 -0.1871 -0.37341 -0.22299 0.74813 0.15854 0.22846 0.12369 -0.088452 0.48437 -0.40046 -0.51993 0.016211 -0.18953 0.5113 -0.16784 -0.22174 0.019043 -0.18338 0.17293 0.32335 -0.38984 -0.21284 0.18469 -0.4832 0.48848 0.13751 -0.45435 -0.15636 -0.10444 0.39532 0.064426 -0.16884 0.33991 -0.35303 -0.17661 0.20949 0.31276 0.14298 -0.24501 -0.14894 -0.14938 0.38698 -0.28953 0.5421 0.15475 0.44583 -0.012444 0.12267 0.3019 -0.40676 -0.18242 0.37227 0.17215 -0.44932 -0.27219 -0.068082 -0.12585 0.30305 -0.42851 -0.0046452 0.070938 
kdo_vedeti -0.26778 0.58852 0.21492 0.81663 0.34073 -0.1842 -0.054839 0.54859 -0.20862 0.36947 0.1607 0.58026 0.4729 0.41338 -0.15826 0.50672 0.38911 -0.69917 0.79951 0.50955 0.25291 -0.16046 -0.014235 -0.12541 -0.26407 0.34882 -0.022628 0.082292 -0.24428 -0.063523 0.055998 -0.42836 0.04816 0.1775 0.27852 0.058376 -0.035887 0.16845 -0.23736 -0.40058 -0.33235 -0.02585 0.40571 0.0034561 -0.07031 -0.19903 0.11345 0.32878 0.052126 -0.29513 0.18048 -0.049505 0.32786 0.15124 -0.075175 0.25936 0.033464 0.14954 0.28715 -0.06984 -0.097549 0.67869 -0.26604 -0.03872 0.39586 -0.031984 -0.11735 0.034877 0.42042 -0.18737 -0.57708 -0.19389 -0.033543 -0.19509 0.10887 -0.045219 -0.11022 -0.30616 0.065745 0.20973 -0.046314 -0.44262 0.3633 -0.052026 0.12213 0.2096 0.18901 0.43619 0.15325 -0.14731 0.28532 -0.24481 -0.14214 -0.42108 -0.31724 0.2409 0.0013311 -0.2023 0.15841 0.26708 
luč_svet_ugledati -0.15161 0.2794 0.26147 -0.11267 -0.18139 0.00191 0.12431 0.43438 -0.36629 0.10924 -0.5129 0.16024 0.28266 0.32521 -0.23758 0.28553 -0.052139 -0.45447 0.48239 -0.060483 0.15902 -0.40435 0.21518 -0.16232 -0.45966 -0.063953 0.13286 0.14447 -0.48814 1.0041 0.34433 -0.18357 0.26386 0.11855 0.13742 0.2849 -0.11505 -0.076298 0.33739 -0.24632 -0.21771 0.065837 0.45719 -0.077798 0.58645 0.29095 -0.036307 0.58528 -0.82547 -1.0911 0.026947 -0.045027 -0.60128 0.2353 0.0050336 0.083633 0.055819 0.21926 0.60578 0.19333 -0.007851 0.13386 -0.45388 0.27442 0.4512 -0.22771 0.022151 -0.085579 0.3495 -0.07829 0.064168 -0.30035 -0.037101 -0.15839 -0.057314 -0.066804 -0.075439 0.0208 -0.37612 -0.020288 0.21299 -0.24467 -0.035845 0.33852 0.21099 -0.32951 0.042032 0.2782 -0.53734 -0.32324 0.70041 0.16532 -0.10612 0.073758 0.028108 -0.17076 -0.59227 -0.29141 0.43829 0.16203 
držati_korak_z 0.22156 0.17157 -0.39392 -0.1741 -0.0072253 0.38941 0.18426 -0.15597 0.0099293 0.24522 0.0060101 0.21088 0.40735 0.30717 -0.11748 0.082465 0.73322 -0.39112 0.58432 1.0176 0.20167 0.045545 -0.043348 -0.1452 -0.063675 0.14026 0.084501 0.52665 -0.20097 0.023346 0.36036 -0.078745 -0.34794 -0.29833 -0.59431 0.70681 -0.087946 -0.28021 -0.22043 -0.0094513 -0.38806 -0.25923 0.34982 0.014515 -0.1455 -0.0076325 0.12845 0.29719 -0.099682 -0.59233 0.50445 0.1491 0.099083 -0.14737 0.13461 -0.022602 0.13009 0.44726 0.022513 -0.49647 0.02099 0.18525 -0.14564 0.23655 0.21432 -0.41133 -0.25092 -0.15633 0.51397 -0.028143 -0.14196 0.37528 -0.20737 -0.25565 0.12191 0.2345 -0.16978 -0.23482 -0.15283 -0.35346 0.10615 -0.19592 -0.20333 -0.04373 0.4794 0.12117 -0.23187 -0.14321 -0.2156 0.015382 0.32508 0.15548 -0.14219 -0.69353 -0.23504 0.19639 0.098472 -0.6374 0.26329 0.36386 
stopiti_v_stik 0.33909 0.74182 -0.2144 0.17471 0.62128 -0.23773 -0.081539 0.071957 -0.1729 0.20169 0.21609 0.35891 0.24075 0.50046 0.085851 0.28224 0.16216 0.08046 -0.052543 0.65683 0.37278 0.64616 -0.51917 0.27763 0.039281 0.01715 0.035641 0.065907 -0.55305 0.35797 0.31586 -0.25189 0.16223 -0.042438 0.26584 -0.29518 0.24436 0.27984 -0.3591 0.13671 -0.19537 0.0081006 0.15539 -0.10952 0.16461 0.15426 -0.046638 0.35504 0.012439 -0.33036 0.20953 -0.10478 0.1399 -0.18637 0.068618 0.00065008 -0.25806 0.29677 -0.064669 -0.50913 -0.39 0.14592 -0.24387 0.38856 0.095179 -0.41269 -0.069511 -0.5416 -0.081204 0.35144 0.022495 0.14145 0.24918 0.3481 -0.26194 0.36343 -0.058693 -0.48559 -0.13405 -0.28225 0.096704 -0.42211 0.26106 -0.16518 0.060834 -0.051206 -0.068806 0.45276 -0.38687 0.029452 0.3052 0.13122 -0.20613 -0.27053 -0.12483 0.26666 -0.28131 -0.1336 0.19804 -0.0039083 
v_igra_biti 0.60234 0.45444 0.27027 0.33651 0.11579 0.29009 0.61604 -0.35885 -0.34961 0.17105 0.62158 0.56661 0.36727 0.4563 -0.43974 0.66582 0.57678 -0.48863 0.88022 0.61188 0.11057 0.31646 0.40344 -0.14302 0.022613 0.28773 0.1719 0.15877 -0.7242 -0.036405 0.1958 -0.44262 -0.21238 -0.45278 -0.1007 0.59534 0.056 -0.30283 -0.012758 -0.10768 -0.2832 -0.19746 0.031488 -0.14589 -0.22542 0.46228 0.10833 0.22352 0.12104 -0.59293 -0.017191 -0.21829 0.061295 -0.25817 0.29126 -0.12857 0.15902 0.201 0.13245 -0.58856 0.0146 0.31218 0.16456 0.35861 0.021809 -0.47212 -0.33478 -0.50129 0.55001 0.13704 -0.14259 0.23575 -0.18638 -0.13928 -0.20203 0.033975 0.13313 -0.57279 0.21326 -0.078004 0.13314 0.0093981 -0.15568 -0.35222 0.13786 0.16062 -0.51767 -0.080638 -0.83213 -0.62269 0.2056 -0.12412 -0.076436 -0.79563 -0.14165 0.84841 -0.26359 -0.065661 0.29587 -0.053268 
biti_na_volja 0.23004 0.64321 -0.086406 -0.35802 0.06916 0.34459 0.27062 -0.23627 -0.42802 0.40815 -0.39821 1.0323 0.54135 0.51648 -0.46905 0.73159 -0.34764 -0.27765 -0.00012798 -0.25141 0.52672 0.020537 -0.64711 -0.010599 -0.088644 0.12512 0.35179 -0.077774 -0.014183 -0.014436 0.18405 -0.73674 -0.12215 -0.29265 0.40673 0.80355 -0.13339 -0.16393 -0.073228 -0.41363 -0.22247 0.15701 0.53404 0.12189 -0.17257 0.20197 0.46822 0.34521 -0.39838 -0.97734 0.69148 0.12667 0.08243 -0.50202 0.52321 0.15206 0.18516 0.38002 0.37334 -0.17761 -0.3615 0.28486 -0.43034 0.7654 0.1269 -0.71282 -0.047737 -0.41356 0.86047 -0.17902 -0.48173 0.044006 0.029899 -0.12863 -0.36159 -0.15859 0.4332 -0.48863 -0.23224 0.091924 0.23765 -0.31254 0.19107 -0.11892 -0.25019 0.02165 -0.40936 0.29874 -0.6839 -0.14323 0.52498 0.085914 0.072603 -0.35447 0.28035 0.52142 -0.3707 -0.39402 0.24205 0.01122 
najti_prostor 0.19977 0.63351 0.020501 -0.3984 0.26085 0.33992 0.37412 -0.029835 -0.1374 0.36194 -0.47801 0.37815 0.44662 0.50617 -0.1009 0.41709 -0.14644 -0.51997 0.2851 0.24576 0.27191 0.071381 -0.36518 0.22109 0.16246 0.43872 -0.0076775 0.21175 -0.031063 0.2875 0.36985 -0.19571 -0.24085 -0.316 -0.34697 0.48788 0.25389 -0.15892 -0.33775 -0.21108 -0.67942 0.15962 0.33167 -0.1037 -0.090426 0.072293 -0.030368 0.47869 -0.10317 -0.36544 -0.040312 -0.15704 0.24431 -0.15753 0.072116 0.322 0.27837 0.58161 0.33514 -0.78308 0.014774 0.38659 -0.23302 0.31587 0.49654 -0.48099 -0.34851 -0.29742 0.13971 -0.057176 -0.23212 0.04655 -0.15771 -0.47692 -0.056475 -0.066835 0.12064 -0.64754 -0.10614 -0.097529 0.095634 -0.072649 0.076964 -0.038418 -0.031437 0.046976 0.0018144 0.43215 -0.51217 0.096596 0.20504 0.14929 -0.29558 -0.44566 0.076383 -0.27078 -0.16396 -0.52799 0.37607 0.34446 
obroditi_sad 0.13503 0.33595 -0.11403 -0.015446 -0.18318 0.11582 0.2367 -0.027104 -0.14291 0.12485 0.41189 0.075375 0.20509 0.15746 -0.21806 -0.11926 0.20729 -0.18016 0.16815 0.56466 0.35631 0.3013 0.22049 0.27395 0.016264 0.2211 -0.22884 -0.083498 -0.50859 0.28462 0.22962 -0.16445 -0.21547 -0.57495 -0.049788 0.35837 0.064192 -0.065326 -0.072715 0.0047112 -0.30397 0.05244 0.21325 -0.12474 0.1445 0.22431 -0.1891 0.21015 0.18387 -0.28004 -0.30163 -0.12767 0.10116 -0.198 0.34782 0.23052 0.11298 0.50726 -0.019039 -0.59412 -0.057077 0.52171 0.12273 0.39979 0.22293 -0.42531 -0.42549 -0.22405 0.23998 0.0010695 -0.11924 0.11519 0.048566 -0.57675 0.14231 0.085344 0.034433 -0.51392 0.34633 -0.57738 0.20057 -0.41116 -0.073201 -0.23053 0.090318 -0.14148 0.13486 0.091581 -0.19472 -0.12197 0.35359 0.033294 -0.23196 -0.3749 -0.074312 0.30186 -0.2806 -0.061159 0.2671 0.010345 
delati_razlika -0.34933 0.13798 -0.53414 0.70814 0.4212 -0.22342 0.18627 0.19418 0.31245 0.35798 -0.00035634 0.34336 0.18374 -0.010622 -0.42564 0.29316 0.44249 -0.543 -0.00074408 0.19679 0.099109 0.57037 0.16556 0.22312 -0.011876 0.45251 -0.13009 0.19971 -0.59093 -0.13292 0.35964 -0.47072 0.0049144 -0.10074 0.42496 0.32622 -0.056556 0.15041 -0.29739 -0.23805 -0.44161 -0.018188 0.80861 0.21871 0.10751 0.15004 -0.032453 0.024991 0.033018 -0.032178 0.42315 -0.21267 0.22249 -0.1898 -0.24664 0.1961 0.31172 -0.054555 0.109 -0.75869 -0.21951 0.40649 -0.30421 0.18923 0.3149 -0.59742 -0.33037 -0.14398 0.52068 0.22824 -0.50841 0.67758 0.058766 -0.37611 0.060553 0.19614 0.012128 -0.39156 -0.12826 0.31316 -0.38963 -0.057278 -0.058784 0.17861 0.39599 -0.2617 0.13449 0.25299 -0.022269 -0.016654 0.06318 -0.010786 -0.17938 -0.4705 -0.14143 0.072824 0.31742 -0.35176 -0.081687 0.3395 
pustiti_pri_mir 0.26926 0.42084 -0.090249 0.58153 0.29773 -0.32425 -0.23313 0.383 -0.17569 0.35936 0.14856 0.55515 0.25918 0.64569 -0.23011 0.39414 0.31554 -0.12852 0.12632 0.71279 0.28145 0.25441 0.01171 -0.005109 -0.11362 0.1713 -0.21051 -0.058538 -0.38808 0.074884 0.13574 -0.35254 -0.44811 0.046067 0.45275 -0.30812 0.0085066 0.078412 -0.50727 -0.37094 -0.20297 -0.08324 -0.049696 0.226 -0.066885 0.09209 0.085964 0.28643 0.0085539 -0.26621 -0.018593 -0.13324 0.19469 -0.43005 0.064282 0.32909 -0.080025 0.47092 -0.010597 -0.65969 -0.41152 0.41959 -0.11509 0.6245 0.38389 -0.55257 -0.028045 -0.40614 0.035944 -0.23756 -0.07498 0.041688 -0.14463 -0.19361 0.09181 0.064963 -0.07481 -0.069265 -0.2478 0.052999 0.12647 -0.21285 0.26695 0.22238 0.14736 0.15168 0.027203 0.61417 -0.18601 0.038254 0.064538 -0.059266 -0.18454 -0.57528 -0.013571 0.09727 0.14624 0.068791 0.24167 0.17596 
iti_na_živec 0.163 0.58934 0.078456 1.0228 0.63779 -0.37567 0.36931 0.321 -0.5682 0.31212 -0.072241 0.53346 0.12703 0.33739 -0.34023 0.33552 0.34932 -0.17505 0.67462 0.60486 0.08365 0.0076673 0.19643 0.17389 -0.1683 0.097115 -0.30601 0.0024991 -0.16089 0.28471 0.01414 -0.70566 -0.18211 -0.12603 0.72738 -0.12989 0.33126 0.55225 -0.26662 -0.366 -0.17993 -0.1712 0.3023 -0.10548 -0.10159 -0.17192 0.10418 0.11648 0.0043368 -0.3489 -0.001046 0.11042 0.39843 -0.45624 0.058772 -0.0073813 0.62506 0.1708 0.43489 -0.74579 -0.24128 0.4145 -0.58305 0.39542 0.20214 -0.37563 -0.031632 -0.23123 0.60035 0.1789 -0.47114 0.067907 -0.26537 -0.18282 0.22534 -0.052508 0.10295 -0.34755 -0.25172 0.19923 0.11943 0.024529 0.022752 0.24278 0.27915 0.27471 0.069664 0.40337 -0.36246 0.053373 0.18902 -0.076952 -0.072043 -0.46873 -0.00078664 0.01779 -0.067657 -0.21738 0.037115 -0.023243 
prešteti_na_prst_en_roka -0.14367 0.51961 -0.18804 0.07274 -0.31743 0.485 -0.04585 0.012708 0.021703 0.15147 0.33387 0.154 0.34174 0.21906 -0.39466 0.25887 0.51297 -0.83587 0.091038 0.40737 -0.10028 0.4956 -0.148 -0.11499 -0.085191 0.29697 0.278 -0.12248 -0.13064 0.10758 0.51102 -0.2332 -0.036691 -0.42669 -0.17555 0.30894 0.029526 0.49607 -0.23079 -0.16481 -0.1786 0.091771 0.41326 0.040274 -0.046041 0.11609 -0.23257 0.47125 0.26292 -0.24917 0.40469 -0.1573 0.26619 0.11869 0.43122 0.38817 -0.078433 0.20832 0.57825 -0.51006 0.16105 0.37758 -0.40281 0.42863 0.17829 -0.32314 -0.14917 -0.17721 0.10879 -0.22636 -0.33342 0.10478 -0.024556 -0.36171 0.11387 0.032423 -0.31702 -0.081594 -0.27933 0.18188 0.27992 -0.23361 -0.14815 0.38892 0.49099 -0.19785 0.14418 0.20095 -0.52029 -0.29018 0.37092 0.17291 -0.41079 -0.50581 -0.33703 -0.037955 0.27094 -0.22182 0.28636 0.53534 
na_misel_priti 0.12869 0.16971 0.19354 0.48683 0.3937 -0.37544 -0.1756 0.16716 -0.22157 0.21997 -0.051503 0.79164 0.36689 0.54973 -0.50778 0.54814 0.60617 -0.11897 0.53512 0.72561 0.31388 0.08648 0.088492 -0.1189 0.011275 0.3052 -0.19022 0.35231 -0.3239 0.1278 0.18759 -0.28434 0.16914 -0.075424 0.17761 0.022761 0.23669 0.35943 -0.44565 -0.3091 0.014699 0.22645 0.28752 -0.29012 0.034805 0.28238 -0.12643 0.38627 -0.33477 -0.4358 0.068077 -0.28905 0.21588 -0.13434 0.39305 -0.0077885 0.29474 0.42671 0.20252 -0.71969 0.11145 0.35562 -0.46932 0.4224 0.46748 -0.28723 -0.47979 -0.35337 -0.031978 0.26286 -0.41006 0.14346 -0.13515 -0.11255 -0.096667 0.16491 0.10793 -0.52103 -0.15725 0.0054192 0.015262 -0.67157 0.074312 -0.063879 0.16348 -0.14742 0.032959 0.66652 0.04843 -0.42533 0.27194 -0.49866 -0.13329 -0.56405 -0.12377 0.17378 -0.01624 -0.20208 0.27806 0.22158 
trd_presti 0.011092 0.011367 -0.22114 0.795 0.20634 0.16283 0.168 0.73949 -0.36928 0.061743 -0.19979 0.23532 -0.012385 0.52001 -0.72896 0.37013 0.085986 -0.45364 0.33536 1.0853 0.13139 0.10864 0.16063 0.02188 0.039865 0.48372 -0.2484 0.48691 -0.61099 0.27991 0.094026 0.11456 -0.13721 -0.51169 -0.22747 -0.096058 0.067059 -0.18333 -0.15161 -0.2592 -0.43756 -0.24356 0.041418 -0.13366 0.0562 0.2787 0.043628 0.52508 0.06115 -0.65168 0.17131 -0.18703 0.17154 -0.22138 0.32885 0.14038 0.0036977 0.40684 0.14882 -0.57584 0.095506 0.17946 -0.25623 0.60522 0.35872 -0.4824 -0.76161 -0.24768 -0.1633 -0.21748 -0.36671 -0.093616 -0.30786 -0.53326 0.40738 -0.43915 -0.305 -0.33551 -0.086799 0.099209 0.016545 -0.62711 0.037847 0.19911 0.053349 0.30132 -0.025137 -0.045931 -0.58211 -0.037345 0.021103 0.30709 -0.31582 -0.58849 -0.41205 0.11578 0.015813 -0.48929 -0.46202 0.20056 
boleti_kurec 0.15539 -0.31203 0.25156 1.2073 0.079681 0.005252 0.54441 0.14738 -0.40781 0.55701 0.1962 0.33595 0.077355 0.55236 -0.53206 -0.027233 0.69442 -0.48429 0.036433 0.70952 -0.18941 0.30965 0.022271 0.13944 0.034289 0.19023 -0.56759 0.1514 -0.43009 0.20404 -0.093014 -0.53819 -0.24478 0.079604 0.81823 -0.40386 -0.24164 0.33053 0.057039 -0.78838 0.15087 -0.058021 0.57279 0.3229 0.17467 0.10665 -0.33304 0.16386 -0.070693 -0.60842 -0.16983 -0.17619 -0.21932 -0.37281 -0.12604 0.65328 0.14943 0.57954 0.33466 -0.027084 -0.28124 0.29113 -1.0873 -0.31269 0.13619 -0.027802 -0.54363 -0.44626 0.061956 0.031575 -0.46247 0.26721 -0.41829 -0.57471 0.01364 -0.08993 -0.12128 -0.15588 -0.11463 0.40102 0.28008 -0.7208 0.0023846 0.42196 -0.032425 0.20871 0.39658 0.13699 -0.20344 0.088287 0.021141 0.44089 0.018009 -0.30703 -0.074116 -0.28266 0.4835 0.55714 0.31411 0.31151 
iti_v_pozaba 0.11521 0.77875 0.11136 0.4207 0.59958 0.24161 0.051869 0.022797 -0.22625 0.26696 0.0367 0.3139 0.23104 0.21332 -0.21828 0.43587 0.16063 -0.37316 0.91745 0.45874 0.11751 0.35964 0.19173 -0.0067763 -0.083959 0.51921 0.21079 0.0095633 -0.40794 0.34442 0.64453 -0.053829 -0.19066 -0.32204 -0.037313 0.25161 -0.11065 -0.00014036 0.12005 -0.14264 -0.22291 -0.15651 0.48665 0.23688 0.17906 0.11868 0.042178 0.57103 -0.44645 -0.50604 -0.27628 -0.045667 0.028281 0.083394 0.34238 0.3331 0.2104 0.43298 0.32433 -0.24322 -0.24938 0.90078 -0.33333 0.34329 0.38563 -0.25318 -0.074736 0.072593 0.14863 -0.1499 -0.60041 -0.07674 -0.33157 -0.25234 0.57841 0.089087 0.057333 -0.13728 -0.17942 0.20195 -0.15181 0.32798 -0.086142 -0.065847 0.32733 0.37229 -0.064429 0.16983 -0.036095 -0.42183 0.18039 -0.20491 -0.069439 -0.48923 -0.079008 -0.19817 -0.059099 -0.54459 0.31592 -0.066531 
dajati_videz -0.25608 0.26076 0.085652 0.19374 0.86012 0.080397 0.18037 0.056728 -0.44041 0.095593 -0.86171 0.050572 0.29939 1.0303 -0.24381 0.14984 0.10315 0.04892 0.44075 0.30162 0.12506 0.027236 -0.29182 0.38567 0.14656 0.088159 0.25317 -0.085365 0.32412 0.46688 -0.05737 -0.50333 -0.41039 -0.26234 0.065794 0.2176 0.16499 -0.15586 -0.011886 -0.43019 -0.22704 -0.040201 0.44426 0.21452 -0.02246 0.086118 0.16236 0.69372 -0.68918 -0.79982 0.11679 -0.098673 0.27415 0.067871 0.078174 0.13061 -0.11234 0.35982 0.81246 -0.48568 -0.16598 0.48436 -0.46404 0.62644 0.2326 -0.33215 -0.1714 -0.079292 0.23201 0.02162 -0.53855 0.28085 -0.38177 -0.26277 -0.3943 -0.05624 -0.02693 -0.23304 0.05512 -0.25249 -0.047502 0.40277 -0.050485 -0.034729 -0.025108 0.20246 0.19782 0.17386 -0.51347 -0.039013 0.54227 0.15984 -0.23577 -0.46085 0.30504 -0.10733 -0.10879 -0.45401 0.15776 0.056956 
postaviti_ob_bok -0.031852 0.8098 0.0014512 0.015155 0.15894 -0.261 -0.34842 -0.061942 -0.093976 0.35261 -0.065622 0.11194 0.47526 0.52894 -0.13254 0.056824 0.39358 -0.20128 0.27969 0.36501 -0.052505 -0.09101 -0.48256 -0.16826 0.084658 0.015007 0.22618 -0.053785 -0.25488 0.29847 0.51011 -0.07304 -0.028791 -0.47243 -0.27143 0.683 -0.26528 -0.46293 -0.076041 -0.29877 -0.15949 0.048546 0.33094 -0.20627 0.22136 0.14384 0.020451 0.10105 -0.41345 -0.67805 0.258 -0.10384 0.041295 -0.16001 0.21126 0.25481 -0.22293 0.32569 0.46322 0.021084 -0.094331 0.44019 0.10955 0.65345 0.12914 -0.63476 -0.27832 0.01375 0.078695 0.052717 -0.60164 -0.17893 -0.037776 0.081741 -0.11876 0.13952 0.21576 -0.21028 -0.33166 -0.16826 0.26604 0.178 -0.015757 0.088508 0.33355 0.094111 -0.252 0.031532 -0.52261 0.029304 0.40208 -0.085934 -0.12632 -0.51186 -0.02093 -0.15956 -0.32126 -0.50865 0.3232 0.40037 
priti_prav 0.38505 0.41185 -0.0075252 0.086264 0.54479 0.14984 0.10726 0.064669 -0.27777 0.62224 -0.19452 0.83314 0.4496 0.43534 -0.62501 0.47064 0.085675 -0.32918 0.46524 0.2573 0.26162 -0.11797 -0.33477 0.13165 -0.078094 0.40454 0.27131 0.042674 -0.13567 0.089909 0.36642 -0.42807 -0.070947 -0.32894 0.39898 0.54037 0.17598 0.042118 -0.32244 -0.39217 -0.22166 -0.034307 0.40014 0.088834 -0.12233 0.22971 0.1035 0.46919 -0.43767 -0.70505 0.29691 -0.12583 0.36296 -0.24609 0.45452 0.3484 0.12083 0.35881 0.22829 -0.74151 -0.26414 0.55769 -0.24711 0.66212 0.37738 -0.59328 -0.35371 -0.28319 0.50189 -0.31141 -0.38308 0.18299 -0.2811 -0.096875 0.12094 0.0054474 0.13262 -0.63235 -0.10321 0.14212 0.26405 -0.22654 0.10327 -0.10548 0.03417 -0.073801 -0.33738 0.47487 -0.37421 -0.15079 0.34625 -0.026103 -0.33421 -0.51781 0.05567 0.13266 -0.059832 -0.41316 0.091637 -0.010937 
postaviti_pod_vprašaj 0.019079 0.51963 0.24506 0.54183 0.42211 -0.067928 -0.0025367 0.32843 -0.2587 -0.15968 -0.2596 0.16728 0.45496 0.032763 -0.071455 0.17133 0.32761 -0.030715 0.32463 0.68757 0.2131 0.48376 -0.25334 0.090253 -0.060136 0.12977 0.29355 -0.0051753 -0.45696 0.058625 0.58176 0.080447 0.041726 -0.3552 -0.21047 0.31416 0.25103 -0.16559 0.048557 -0.33608 -0.21453 -0.021179 0.49045 -0.29633 0.43211 0.26003 0.16646 0.085328 0.05012 -0.40185 0.049114 -0.21722 -0.15359 -0.081385 0.57792 0.24113 -0.11136 0.11462 0.2693 -0.36541 0.092084 0.45083 0.20903 0.47734 0.45363 -0.46752 -0.13693 -0.25497 0.16205 0.073168 -0.26453 0.24921 0.090502 -0.043832 0.087055 0.2713 0.18708 -0.10892 -0.21842 -0.24163 0.27064 -0.15836 -0.32362 -0.038771 0.35467 0.06381 -0.043034 -0.15364 0.12499 -0.11578 0.44292 -0.085215 -0.39481 -0.61397 -0.16615 0.13672 -0.1327 -0.21695 0.32799 0.15175 
spraviti_v_dober_volja 0.32019 0.65601 0.20909 0.23812 0.54338 -0.097116 -0.047373 0.066742 -0.25886 0.12155 -0.012748 -0.063176 0.082236 0.39894 -0.1934 0.14042 0.36416 -0.12686 0.68698 0.78523 0.041741 -0.21005 0.0028214 0.29982 0.10498 0.084604 -0.11765 0.22395 -0.19617 0.091417 0.2659 -0.11211 -0.31757 -0.24735 -0.033796 -0.20081 0.43647 0.31098 -0.2642 -0.15241 -0.46431 -0.063795 0.50784 0.014878 0.18756 0.046699 0.098811 0.013301 -0.22108 -0.48685 -0.065204 0.024275 0.29321 -0.32065 0.29163 0.22213 -0.15638 0.45839 0.3159 -0.43206 -0.15305 0.57199 -0.033246 0.2804 0.25609 -0.41452 -0.03654 -0.39285 0.27656 0.11985 -0.3663 -0.16876 -0.30421 -0.36666 0.18744 0.17642 -0.11834 -0.29436 -0.10146 -0.030195 0.20706 -0.42846 0.2803 0.13711 0.35634 0.11512 -0.046646 0.29952 -0.16393 -0.23902 0.32735 0.10575 -0.18206 -0.24905 -0.11248 0.050759 0.17944 -0.29178 0.20236 -0.026293 
vzeti_čas 0.37961 0.3497 -0.039902 -0.064672 0.43276 -0.31355 -0.27786 0.16207 -0.087574 0.41821 -0.37426 0.49718 -0.0073999 0.57355 0.048972 0.27792 0.34934 -0.33398 0.098268 0.51429 -0.016643 0.002042 -0.14489 0.45203 -0.25299 -0.15141 -0.30394 0.011962 -0.20443 0.079198 0.26613 -0.56042 -0.41207 -0.16667 -0.070046 -0.26831 0.66068 0.4308 -0.2491 -0.34753 -0.30277 -0.3057 0.64686 0.13559 -0.033424 0.0099482 0.1234 0.094607 -0.35663 -0.23265 -0.020508 0.10967 0.45758 -0.70389 0.18664 0.14562 -0.18373 0.42429 0.39332 -0.065258 -0.079923 0.40856 0.1625 0.1865 0.12701 -0.46216 -0.052993 -0.3287 0.60275 0.11645 -0.39852 0.064717 -0.37813 -0.35715 0.38386 -0.1074 0.18156 -0.54341 -0.055517 0.036392 0.093133 -0.29294 0.38793 -0.30402 0.39272 0.1429 0.14434 0.52366 0.028145 -0.12733 0.39117 0.51009 -0.46805 -0.44966 0.15939 -0.086941 -0.11608 -0.36669 -0.035981 -0.34807 
biti_plat_zvon 0.47804 0.6438 0.16965 0.83867 -0.22155 0.054469 0.773 0.26592 0.2664 0.19281 0.27755 0.37821 0.025512 0.41337 -0.030953 0.58757 -0.018697 -0.4753 -0.27184 0.0014037 0.23878 0.44022 -0.0074365 -0.27129 -0.198 0.14399 -0.017779 -0.061443 -0.30269 0.35942 -0.051757 -0.52841 -0.21624 -0.31646 0.21139 0.36761 -0.12198 -0.10603 0.2519 -0.35368 -0.38749 0.31143 -0.080894 0.017951 0.59194 0.15849 0.22231 0.24168 0.18312 -0.37239 0.17894 0.11494 0.2043 -0.30374 0.22521 0.49965 0.12283 0.36204 -0.22419 0.0074513 -0.39099 0.75792 0.5006 0.24132 0.24532 -0.32663 0.13521 -0.31873 0.6438 -0.27542 -0.60888 0.019422 -0.30932 -0.35234 0.30015 0.0067901 0.11279 0.072287 -0.11537 0.06197 0.080697 -0.37411 0.025957 0.34973 -0.3586 0.27137 0.32922 -0.19525 -0.4939 -0.63716 0.55661 -0.070072 -0.30806 -0.28499 0.04844 0.32582 -0.085304 0.1142 0.084193 -0.22384 
vreči_čez_prag 0.048634 0.57171 0.40158 0.38374 0.14359 -0.5564 -0.43907 0.099315 -0.033226 0.24309 0.032093 0.1991 -0.046501 0.40535 -0.13703 0.18661 0.28574 -0.24249 0.36357 0.46626 0.029983 0.3081 -0.055828 -0.10098 -0.10567 0.088235 -0.49898 0.41308 -0.68215 0.29057 -0.19362 0.13764 -0.099221 -0.043587 0.1293 0.096604 0.28911 0.059704 -0.47672 -0.36782 -0.3594 -0.45053 0.43226 0.20434 -0.15017 0.010829 0.36585 0.34611 0.2457 -0.21265 0.10217 -0.08078 0.38644 -0.20593 -0.0042904 -0.31289 0.38368 0.29999 0.65784 -0.32569 0.22806 0.37569 -0.018295 0.46627 0.35711 -0.023146 0.23713 -0.37339 -0.014779 -0.16936 -0.29959 0.18122 -0.18544 -0.47913 0.23112 -0.011981 -0.19099 -0.057951 -0.59625 -0.04574 0.054533 -0.44221 0.28338 0.11991 -0.32638 -0.14386 0.12361 0.15715 0.22023 -0.30047 -0.11947 -0.13666 -0.064313 -0.41426 0.078203 -0.34089 0.48537 -0.068128 0.36832 0.52536 
pred_vrata_biti 0.28868 0.55247 0.2736 -0.32045 0.14984 -0.21289 0.36862 -0.040444 -0.37645 0.34465 0.1433 0.78834 0.22164 0.4868 -0.38333 0.59923 0.37448 -0.44391 0.10972 0.60309 0.26919 -0.029554 0.20398 -0.080066 0.021186 0.40486 -0.37914 0.20331 -0.38513 0.14781 0.27487 -0.26396 -0.32368 -0.16449 0.22499 0.2082 0.46558 0.1105 -0.26595 -0.23543 -0.53968 0.078008 0.18333 -0.22033 -0.18572 0.4307 0.12948 0.29573 0.05838 -0.60484 0.31485 0.17497 0.21348 -0.26954 0.63739 0.092856 0.45296 0.41876 0.117 -0.35184 -0.2429 0.2489 -0.23252 0.65987 0.061066 -0.038946 -0.38378 -0.38076 0.13774 0.084695 0.051114 -0.2088 -0.20478 -0.25988 0.22341 0.027531 0.1413 -0.53643 -0.065907 -0.20326 0.32103 -0.30407 0.1059 -0.0011292 -0.23002 0.19986 -0.23692 0.26844 -0.65466 -0.11123 0.43284 -0.13848 -0.2797 -0.55653 -0.4515 0.32403 -0.20734 0.20906 0.42241 0.035869 
buriti_duh 0.51941 0.85421 0.13991 0.37054 -0.52322 -0.20583 0.16133 0.56547 -0.30958 0.24272 0.25018 0.57978 0.39786 0.58324 -0.056921 0.70597 -0.17709 -0.28195 -0.17657 0.53202 -0.080856 0.35267 -0.1541 -0.48806 -0.13012 0.13292 -0.051728 -0.10415 -0.38609 -0.042968 0.36633 -0.40083 0.12969 -0.49007 0.32369 0.38475 0.4107 -0.2007 0.20195 -0.17565 0.067554 0.081175 0.37905 -0.52692 0.44402 0.21485 0.040824 0.47014 -0.4532 -0.30967 -0.28937 0.19275 -0.087999 -0.10641 0.16971 0.15 0.06744 0.374 0.31758 -0.41687 -0.10311 0.74436 -0.21167 0.22079 0.65904 -0.024487 0.40084 -0.049239 0.10628 0.074185 -0.13884 -0.00015174 -0.48086 -0.21477 0.29617 0.20582 0.33504 -0.29731 0.30859 -0.24274 0.24184 -0.021439 -0.24787 0.11221 0.19444 0.38088 0.38278 0.0060078 -0.25995 -0.35711 0.59534 -0.035689 -0.34946 0.062118 -0.19888 -0.079851 -0.31109 0.4301 0.41346 -0.072852 
postaviti_na_glava 0.30366 0.54374 0.23875 0.48799 0.18911 -0.14694 -0.031466 -0.1307 -0.39819 0.1052 -0.25562 0.38477 0.18732 0.43365 -0.17377 0.26482 0.3038 -0.44635 0.38021 0.73965 0.0061192 0.33119 -0.27897 -0.033831 -0.15562 0.21859 -0.0017421 0.11756 -0.23656 0.10263 0.33177 -0.17754 -0.16171 -0.24196 -0.0035657 -0.022962 0.17206 -0.041756 -0.21921 -0.076194 -0.028021 -0.073174 0.42925 -0.19325 -0.011902 0.38755 0.0036564 0.41235 -0.2683 -0.48698 0.12605 -0.12068 0.16005 0.11613 0.36051 0.33968 -0.028925 0.43915 0.2397 -0.37966 -0.070076 0.25393 -0.10039 0.65099 0.42222 -0.65571 -0.32999 -0.27769 -0.51344 0.1375 -0.20376 0.058595 -0.38691 -0.27511 -0.029033 0.1018 0.10277 -0.25146 -0.020495 -0.037079 0.44269 -0.15248 -0.033782 -0.013214 0.21871 0.10154 0.085012 0.26281 -0.074962 -0.13803 0.3082 0.12221 -0.45178 -0.41182 0.11511 -0.12338 0.02486 -0.27462 0.29097 0.18819 
prihajati_na_misel 0.090255 0.49169 0.015559 0.43033 0.26482 -0.18835 -0.072002 0.22775 -0.34828 0.2055 -0.22494 0.58951 -0.078892 0.2977 -0.29834 0.27168 0.27666 -0.37241 0.23923 0.63163 0.27002 0.043077 -0.16172 0.20255 -0.199 0.3572 -0.0060672 -0.093014 -0.12071 0.24267 0.25202 -0.3758 0.10516 -0.14368 -0.0032512 0.18246 0.14018 0.15704 -0.49123 -0.37626 -0.055512 0.11706 0.27631 -0.071651 0.010431 -0.059044 0.081376 0.20795 -0.14281 -0.51899 -0.059282 -0.078726 0.075662 -0.15763 -0.061509 0.29628 0.20289 0.36776 0.25201 -0.48562 -0.19999 0.54456 -0.14587 0.47777 0.38575 -0.1896 -0.028387 -0.34607 0.22364 0.26981 -0.3857 0.13826 0.0006753 -0.060117 0.11261 0.17097 -0.17409 -0.28264 -0.43615 0.027313 -0.041457 -0.1898 -0.23654 0.080736 0.20696 -0.15981 -0.060496 0.32398 -0.23498 0.11789 0.36099 0.0015714 -0.34489 -0.36606 0.14165 -0.13954 0.0083536 -0.3623 -0.0020071 0.10731 
potegniti_nase 0.17465 0.54637 0.12728 0.4154 0.0035402 -0.10807 0.19232 0.0095663 -0.28265 0.40384 0.0080742 0.63862 -0.024539 0.479 -0.17785 0.037843 0.5041 -0.3779 0.65576 0.76874 -0.00052487 0.24877 0.12735 0.034845 -0.063505 0.37573 -0.43207 0.19772 -0.28077 0.28201 0.070897 -0.2397 -0.32202 0.045138 0.13191 -0.034116 0.39852 -0.0026165 -0.62418 -0.12646 -0.12917 -0.22507 0.19837 -0.059252 -0.20981 0.27268 0.20972 0.27616 -0.16781 -0.46329 -0.041409 0.068673 0.24116 0.014986 0.076401 -0.11272 0.021146 0.368 0.45354 -0.88465 -0.05285 0.62032 -0.139 0.73885 0.19485 -0.64972 -0.3835 -0.30243 -0.072624 -0.0050387 -0.59741 0.29282 -0.09939 -0.29899 0.38378 0.18852 -0.048863 -0.092228 -0.1113 -0.11037 0.49753 -0.11625 0.19821 -0.16895 0.097429 -0.048293 -0.0083675 0.15864 -0.16344 -0.017095 0.34358 -0.073129 -0.44506 -0.42982 -0.17232 -0.01329 0.095472 -0.55091 0.31178 -0.1055 
se_biti_edin 0.47841 0.6622 0.17622 0.45941 0.16494 -0.26961 0.14398 -0.33844 -0.44067 0.28383 0.37735 0.68865 0.17855 0.23552 -0.34275 0.40099 0.35619 -0.12912 0.21353 0.11147 -0.063594 0.1843 0.14715 0.0018969 -0.29904 0.37448 -0.0037382 -0.2656 -0.4116 0.27411 0.24806 -0.55199 -0.1815 -0.39857 0.1693 0.45174 0.057165 0.0028502 0.14595 0.052403 -0.1576 0.076457 0.1444 0.042112 0.097663 0.41481 0.29291 0.29176 -0.13971 -0.59873 0.09897 0.17644 -0.0049067 -0.15665 0.15114 -0.081367 0.27946 0.20889 -0.1158 -0.27852 -0.18141 0.49242 0.11238 0.62626 0.10058 -0.62384 0.1371 -0.41243 0.073625 0.10077 -0.47242 -0.045885 -0.45871 0.28848 -0.025111 0.25804 0.097277 -0.10285 0.035059 -0.10824 0.33784 0.071911 -0.12115 -0.032293 0.1316 0.19647 -0.15617 0.013457 -0.54002 -0.59267 0.55951 -0.12466 -0.41349 -0.46626 0.1598 0.46754 -0.036095 -0.037427 0.32934 -0.11532 
biti_v_postopek 0.00067377 0.49215 0.31646 0.81327 0.27263 0.22067 0.36371 -0.27886 -0.83872 0.0028131 0.31152 0.40623 0.5297 -0.073197 -0.41008 0.61657 -0.64851 0.63367 -0.16865 0.64812 0.48289 0.8653 -0.42706 0.72225 -0.16744 0.4535 0.60665 -0.45092 -0.40545 -0.13363 0.46154 -0.17487 0.019113 -0.38413 0.33806 -0.095659 0.26845 -0.042166 0.27984 -0.24462 -0.1985 -0.16412 -0.021096 0.10008 0.14123 0.1145 0.033822 0.68181 0.21541 -0.34473 -0.063134 -0.15404 -0.45285 -0.4064 0.40938 0.38222 -0.12274 0.18861 -0.036888 -0.18411 -0.29265 -0.024863 -0.64265 0.33061 0.41361 -0.70467 -0.019322 -0.38154 0.50233 0.10914 -0.50723 0.30189 -0.47412 -0.35363 -0.44122 -0.18411 0.49275 -0.27957 0.56006 -0.23869 0.18296 -0.22406 -0.025637 0.001186 -0.14819 0.0088802 -0.13567 0.20543 -0.4013 -0.16382 0.47144 -0.13124 0.11963 -0.87743 -0.022713 0.76173 0.048482 -0.3656 0.16359 0.020482 
najti_pot 0.41469 0.46963 0.155 -0.092001 0.48046 0.24653 0.29455 0.17498 -0.4623 0.2961 -0.061169 0.52874 0.65675 0.7768 0.27037 0.13797 0.52713 -0.78535 0.77448 0.32792 0.02438 0.14775 -0.27315 -0.40851 -0.27281 0.51463 -0.051693 0.36268 -0.35719 0.41967 0.17615 -0.53575 -0.73839 -0.15678 -0.43323 -0.033713 0.26 0.36489 -0.3139 -0.076662 -0.35733 0.28208 0.18674 -0.16121 0.038694 0.26179 0.52881 0.22007 -0.22972 -0.43178 0.32123 0.26721 -0.29584 0.15101 0.059027 0.54962 0.17702 0.80021 -0.11335 -0.91901 -0.30095 0.88272 0.081649 0.33758 0.55731 -0.13986 -0.41945 -0.10817 0.12121 0.17097 0.026912 0.082413 0.071334 -0.32425 -0.21728 0.031095 0.19177 -0.87777 0.022412 -0.063693 0.00044857 -0.73813 -0.050534 -0.26728 0.35134 0.10641 -0.11644 0.22077 -0.025141 -0.023105 0.1924 -0.039119 -0.1627 -0.28453 -0.055293 -0.45425 -0.093412 -0.56239 0.43706 0.13457 
narediti_svoj 0.25637 0.41579 -0.12667 0.31563 0.3297 0.017676 0.052208 0.16381 -0.22201 0.28762 0.055139 0.60501 0.32872 0.36337 -0.40073 0.23616 0.1403 -0.29855 0.4235 0.53284 0.1572 0.073291 -0.1292 0.11991 -0.16033 0.12023 -0.11705 -0.023742 -0.35187 0.089653 0.28604 -0.19895 -0.31191 -0.29329 0.046821 0.16392 -0.045035 0.025587 -0.33089 -0.14328 -0.17615 -0.05052 0.63965 -0.11758 -0.060699 0.21544 0.0076729 0.045984 -0.18154 -0.63652 0.07394 -0.019832 0.57199 0.0019158 -0.023095 0.35614 0.12871 0.29179 0.16871 -0.49938 -0.24007 0.64567 -0.14859 0.6674 0.20752 -0.52958 -0.42107 -0.13905 0.3557 -0.12638 -0.43755 -0.08249 -0.17628 -0.20304 0.11012 0.11987 0.035224 -0.45137 -0.10697 0.038639 0.08912 -0.1126 -0.0041475 0.1447 0.22127 -0.10541 -0.081769 0.34986 -0.16641 -0.11113 0.39361 0.053165 -0.36252 -0.33893 0.089495 -0.1582 0.094191 -0.33138 0.073991 0.05054 
iti_v_nos -0.017756 0.45191 -0.0060656 0.91528 0.039545 -0.089249 0.30014 0.28385 -0.62609 -0.075771 0.156 0.35194 0.68064 0.36169 -0.51803 0.46592 0.42968 -0.23991 0.47708 0.30441 -0.022668 0.042181 -0.016035 0.0018813 -0.37371 0.3703 0.19649 0.10138 -0.36791 -0.072395 0.24437 -0.015189 -0.1405 -0.33294 0.50195 -0.22594 0.085699 0.09662 -0.38635 -0.23743 0.14566 -0.082964 0.28105 -0.042032 -0.23231 0.28214 -0.023179 0.16623 0.011747 -0.758 0.067815 0.040157 0.21554 -0.49326 -0.071626 -0.034726 0.20494 0.22478 0.24683 -0.33428 -0.1548 0.61214 -0.05897 0.24314 0.24897 -0.24237 -0.082855 -0.3894 0.25791 -0.072355 -0.84407 0.2991 -0.53914 -0.14093 -0.039424 0.10923 -0.057208 -0.10581 0.2322 0.072333 0.33379 -0.33143 -0.21688 0.079868 0.27858 0.070867 0.18505 0.55455 -0.524 -0.011157 0.71348 0.033688 -0.22559 -0.31088 0.13433 -0.14282 -0.067883 -0.066622 0.19207 -0.055805 
migniti_z_prst 0.17204 0.6658 0.29099 0.74435 0.31259 -1.0092 -0.074568 -0.027201 -0.062294 0.37872 0.059591 0.4815 0.22194 0.46186 -0.04061 0.55503 0.7236 -0.16149 0.084301 0.89762 0.14218 0.019572 -0.013593 0.16927 0.12925 0.0019011 -0.4631 -0.10321 -0.093865 0.11385 0.3365 -0.2969 -0.28366 0.092868 0.19774 -0.063111 0.53734 0.17491 -0.58956 0.052392 -0.084707 -0.18719 -0.24606 -0.21954 -0.19393 0.040057 0.10863 0.044532 -0.1235 -0.49523 -0.049615 0.41017 0.21268 0.0014873 -0.13861 0.08261 -0.2426 0.6331 -0.075999 -0.48483 -0.4414 0.4188 0.084435 0.59718 0.06529 -0.46127 -0.091704 -0.3781 -0.23732 -0.11476 -0.26505 0.12353 -0.19684 -0.049173 0.32013 0.14252 -0.56912 -0.13385 0.1852 -0.09442 0.019897 -0.16885 -0.13685 0.20618 0.15171 0.087401 0.057001 0.39002 -0.28433 -0.21038 0.72594 0.13867 -0.17076 -0.58986 0.028596 -0.28854 -0.29289 -0.088288 0.52477 0.29639 
jasen_biti 0.25251 0.54879 -0.19825 0.51717 0.054462 -0.21962 0.75136 0.55829 0.044411 0.21065 0.19105 0.87028 0.47342 0.76666 -0.22864 0.67339 0.11677 -0.12744 0.45093 0.70089 0.32267 0.37048 -0.0715 0.084621 0.030189 0.47828 -0.030683 -0.15772 -0.41007 0.057713 0.29281 -0.75087 -0.26415 -0.39753 0.38136 0.3508 0.16344 0.012152 0.011746 -0.29133 -0.37396 0.12859 0.042389 -0.12242 0.038026 0.058864 0.33047 0.35998 -0.32404 -0.53625 0.057484 -0.099089 -0.05777 -0.39662 0.58107 0.30027 0.39752 0.11077 -0.073523 -0.56829 -0.19228 0.19347 -0.10708 0.60232 0.15762 -0.33032 -0.17104 -0.19197 0.65498 0.18217 -0.71385 -0.22828 -0.55639 0.19376 -0.20976 0.22021 0.37152 -0.48337 0.46306 -0.1731 0.042588 -0.19825 -0.42619 -0.064837 -0.022977 0.36934 -0.10952 -0.065229 -0.38006 -0.20574 0.41013 -0.37292 0.021979 -0.56868 -0.2758 0.56263 -0.24997 0.20858 0.082822 -0.30446 
vreči_iz_tir -0.0067747 0.55842 -0.41764 0.54807 0.17283 -0.31326 -0.20996 0.037937 0.32662 0.12324 0.36842 -0.15375 -0.34982 0.29882 -0.30079 0.14753 0.65234 0.18826 0.56468 0.88536 -0.083965 -0.11908 -0.098381 -0.25252 -0.47031 -0.10702 -0.77708 0.44143 -0.47632 -0.012284 0.046229 -0.22413 -0.063213 0.42528 -0.15116 -0.080986 -0.0066577 0.26137 -0.43426 0.14721 -0.12674 -0.46729 0.15332 0.058069 0.21861 0.011586 -0.1549 0.29625 0.070323 -0.46269 0.27796 0.33257 0.45385 0.029697 0.13251 -0.46617 0.040058 0.30959 0.10291 -0.30084 0.49527 0.35802 0.15401 0.022285 0.29437 -0.29804 -0.021751 -0.40551 -0.038878 -0.048305 -0.50158 0.53205 -0.19862 -0.74266 0.42346 0.068828 -0.063908 -0.063213 0.18477 0.18007 0.24222 -0.27216 0.16749 -0.19185 0.015407 0.02668 -0.081416 0.45184 -0.063856 -0.023858 0.5982 -0.24858 -0.32496 -0.41359 0.0040608 -0.43003 0.078839 -0.0095876 0.5864 0.16946 
biti_všeč 0.33032 0.47066 -0.092024 0.54141 0.66673 -0.30874 0.25631 -0.22775 -0.43971 0.62601 0.38833 0.95693 0.21086 0.81189 -0.39971 0.64623 0.51845 0.11171 0.32633 0.11072 -0.35449 0.013681 0.33583 0.024048 -0.059602 0.11611 -0.42649 -0.25516 -0.32756 0.24324 -0.054095 -0.90012 -0.46222 -0.093177 0.9795 0.44045 0.12764 0.034563 0.093156 -0.37204 -0.28337 -0.168 -0.034892 0.2152 -0.1656 -0.055034 0.090126 0.43568 -0.32329 -0.90977 -0.17715 0.079141 0.49083 -0.29404 -0.15959 0.11417 0.31531 0.25242 0.26448 -0.29097 -0.25221 0.40967 -0.23556 0.38285 0.25566 -0.78214 -0.089188 -0.389 0.33963 -0.035405 -0.62614 -0.051102 -0.38225 0.10547 0.14802 -0.23864 0.39064 -0.47758 -0.17295 0.11661 0.33077 -0.21489 0.040502 0.015726 0.051604 0.43757 -0.3206 0.45251 -0.5878 -0.41543 0.36812 -0.39336 -0.33027 -0.6854 0.5248 0.35338 0.12162 -0.18197 0.10864 -0.27971 
na_volja_biti 0.53645 0.65634 -0.036698 -0.43637 0.11861 0.29302 0.24443 -0.36015 -0.49466 0.19779 -0.59635 0.88433 0.31174 0.69912 -0.53722 0.72635 -0.32237 -0.41106 -0.016923 -0.049763 0.57401 -0.27774 -0.56783 -0.065437 0.03804 0.07163 0.51602 0.051945 0.024701 3.3937e-06 0.14706 -1.0677 -0.049037 -0.26363 0.070412 0.68563 -0.1519 -0.15334 -0.055225 -0.30444 -0.1863 0.077805 0.5725 0.015481 -0.28263 -0.06451 0.41579 0.38795 -0.50483 -0.85798 0.66837 0.25797 0.11328 -0.61614 0.31012 0.12405 0.21416 0.44154 0.38215 -0.28822 -0.39598 0.1573 -0.47817 0.85388 0.25052 -0.60912 -0.16664 -0.47369 0.85195 -0.54613 -0.58019 0.041172 -0.03802 -0.002471 -0.39351 -0.085576 0.43865 -0.52985 -0.18428 -0.058245 0.31476 -0.088772 0.14002 -0.050419 -0.18634 0.061478 -0.51635 0.33415 -0.79467 -0.31536 0.6469 0.13613 -0.082027 -0.25777 0.28815 0.32911 -0.21178 -0.55383 0.346 -0.10255 
priskočiti_na_pomoč 0.48275 0.58502 -0.18694 -0.084477 0.35449 0.036962 0.20283 0.11018 -0.0080933 0.26304 -0.029235 0.30358 0.34609 0.22773 -0.25685 0.29296 0.17114 -0.20359 0.30065 0.36889 0.1999 0.0014019 -0.39137 0.36137 -0.41612 0.15662 -0.20333 0.011658 -0.21557 0.10195 -0.13483 -0.22064 -0.11998 -0.38061 0.00064744 -0.26478 0.14633 0.59418 -0.28071 0.093948 -0.35913 0.10581 0.37303 -0.16505 0.29485 0.21429 -0.038525 0.47855 0.12368 -0.69466 -0.012854 -0.0703 0.19915 -0.045824 0.37668 0.5512 0.02034 0.48966 0.092941 -0.47874 -0.20045 0.32751 0.22531 0.46736 0.50494 -0.53114 -0.13847 -0.22175 0.21831 -0.049283 -0.030708 0.23826 -0.12449 -0.056538 0.29572 0.15665 0.084412 -0.54007 -0.25044 0.038398 0.48969 -0.57609 0.37134 0.013967 0.43401 -0.063309 -0.3099 0.6369 -0.58394 0.090963 0.14608 0.30735 -0.26752 -0.32561 -0.28902 0.11591 0.24667 -0.28793 0.18163 -0.20764 
biti_v_čast 0.23774 0.52607 0.35173 0.59203 0.51342 -0.014166 0.013003 -0.088115 -0.5709 0.07774 0.28091 0.62403 0.26956 0.11322 -0.42399 0.32438 0.16274 0.075293 0.42916 -0.084986 0.11941 0.21839 0.58004 0.087358 -0.26068 0.42184 -0.0052648 -0.22089 -0.62951 0.2717 0.062912 -0.42874 -0.18503 -0.65507 0.45133 0.40016 -0.049203 0.22707 0.381 -0.29181 -0.11791 -0.09011 0.11535 0.16727 0.22315 0.43509 0.11506 0.28784 -0.2099 -0.57866 -0.087826 0.014829 -0.0091341 -0.026137 0.32051 0.099734 0.36435 0.24907 0.31319 -0.37153 -0.2404 0.65192 -0.024586 0.48378 0.23893 -0.60992 0.068655 -0.50596 0.038442 0.0086823 -0.53257 -0.025197 -0.33997 0.15947 0.21387 0.27806 0.29638 -0.1441 -0.26863 -0.17189 0.12715 -0.2829 -0.27402 0.35009 0.1918 0.32288 -0.13486 0.1032 -0.79544 -0.24397 0.2876 -0.43529 -0.10131 -0.75134 0.061171 0.14706 0.043887 -0.048538 0.64623 -0.31838 
imeti_v_roka 0.20872 0.40488 0.22247 0.4799 0.10562 -0.13582 0.074043 0.56016 -0.21285 0.25824 0.24813 0.34512 0.45166 0.19083 -0.26981 0.50887 -0.0064464 -0.24891 0.35692 0.78214 0.39768 0.1063 -0.14696 0.3118 -0.052335 0.28339 0.23028 -0.10411 -0.4123 -0.052978 0.25022 -0.048466 0.069142 -0.13888 0.20965 0.10653 0.036972 0.053785 -0.17515 -0.22845 -0.13554 0.08751 0.28782 -0.17309 -0.14002 0.12801 0.013383 0.56689 -0.074898 -0.39486 0.18956 -0.14753 0.19038 0.21544 0.072873 0.29879 -0.028258 0.1796 0.3223 -0.64082 -0.13788 0.24894 -0.048551 0.28656 0.26428 -0.45507 -0.27041 -0.11076 0.12187 -0.13517 -0.33019 0.10497 -0.33959 -0.019903 -0.12887 0.15859 -0.24042 -0.34925 -0.25872 0.030942 0.079755 -0.21885 0.12655 0.2202 0.18809 -0.043425 0.11605 0.32247 -0.39499 0.13303 0.2924 0.24528 -0.31574 -0.47769 -0.1301 0.075155 0.025792 -0.35496 0.24797 0.25476 
uspeti_velik_met 0.33053 0.53288 -0.048 0.35739 -0.3909 0.3778 0.060392 -0.15452 -0.17246 0.14603 0.12438 -0.0078831 0.22375 0.16253 -0.24 -0.023497 0.54422 -0.42077 0.58798 0.70568 0.053117 -0.20862 0.48635 -0.030372 -0.27863 0.18637 -0.017858 0.48294 -0.46296 0.25867 0.34678 -0.30222 -0.01919 -0.59057 -0.20796 0.15191 -0.17421 -0.10572 0.0053871 -0.17601 -0.24913 -0.21172 0.60715 0.0081486 0.21796 0.33751 -0.12047 0.11339 -0.13102 -0.77019 -0.25714 0.10431 0.3454 -0.017624 0.12699 0.26145 -0.088137 0.19878 0.22546 -0.21002 0.089185 0.32933 0.035741 0.49457 0.060875 -0.40487 -0.28247 -0.37159 0.26399 -0.035139 -0.24588 0.30153 -0.12881 -0.25398 -0.013909 0.16337 -0.26461 0.17246 -0.092554 -0.017115 -0.052013 -0.36976 -0.049655 0.13819 0.52512 -0.14205 -0.075342 0.15052 -0.29516 -0.14853 0.39916 -0.076294 -0.22624 -0.3843 -0.38227 0.15521 0.15666 -0.29061 0.17373 0.19818 
zatresti_hlače 0.27355 0.29261 0.6669 0.53596 -0.047911 0.17441 -0.21454 -0.2201 -0.3218 0.4849 0.23536 0.058874 0.17313 0.63878 -0.49736 0.53678 0.86459 -0.41844 0.50935 1.1572 -0.28672 0.22701 0.48122 -0.44204 0.16759 -0.11348 -0.21185 0.45213 -0.93182 0.31914 0.14685 0.014283 -0.49401 -0.37499 0.12333 -0.1842 0.51278 0.38062 -0.0088944 -0.61605 0.13942 -0.23193 0.16964 0.017741 -0.06429 0.079526 -0.39465 0.019304 0.19546 -0.68132 0.054885 -0.067446 0.53315 -0.61147 -0.26265 -0.21456 -0.1298 0.80245 0.4028 -0.21258 0.25789 0.21434 -0.4076 0.37151 0.25478 -0.29037 -0.21092 -0.77702 0.32014 -0.34511 -0.11876 -0.62405 -0.27352 -0.9018 0.019953 0.054814 -0.27481 0.24546 0.15293 -0.1664 0.045101 -0.31167 0.16378 0.45059 0.17787 0.42025 0.24569 0.26321 -0.21498 -0.089536 0.31863 -0.16015 -0.161 -0.068138 0.033978 0.19313 0.047415 0.22965 0.55843 0.30961 
prav_biti 0.33082 0.45226 0.026068 0.567 0.95765 -0.15447 0.38647 0.086602 -0.39782 0.44878 0.14484 1.2272 0.15353 0.40438 -0.45404 0.44016 0.34401 -0.11677 0.26931 0.31433 0.34279 0.24201 0.071858 0.43091 -0.09156 0.59922 -0.085275 -0.33618 -0.092559 0.13394 0.39756 -0.69359 -0.36186 -0.57695 0.6252 0.55806 0.27621 0.28 -0.11443 -0.21581 -0.30183 0.099818 0.086791 0.052034 0.037029 0.21562 0.40587 0.25737 -0.1507 -0.6782 -0.034547 0.029316 0.39006 -0.402 0.31411 0.45978 0.60628 0.1731 -0.061443 -0.51213 -0.34884 0.71997 -0.022672 0.25663 0.32671 -0.71245 -0.15724 -0.45779 0.46165 -0.039317 -0.55975 -0.10548 -0.47881 0.0053376 0.2115 -0.0027551 0.44604 -0.42583 0.026758 -0.011138 0.23055 -0.13198 -0.33216 0.08135 0.15226 0.14493 -0.35435 0.33272 -0.61674 -0.61967 0.46475 -0.21213 -0.36069 -0.59666 0.054356 0.31809 0.085606 -0.038047 0.065722 -0.30874 
najti_stik 0.38614 0.39153 -0.66089 0.066115 0.56045 -0.19096 0.52158 -0.12188 -0.26313 0.43683 -0.13502 0.11812 0.10951 0.8863 0.088913 0.10397 0.20996 -0.41179 0.42503 0.53839 0.026895 0.56325 -0.57214 -0.20091 -0.0012864 0.36412 -0.29311 0.29885 -0.39196 0.72387 -0.12807 -0.13386 -0.10317 -0.11018 0.10418 -0.0038813 0.51859 0.43829 -0.25891 0.32254 -0.0377 0.1965 0.62222 0.36998 0.39177 -0.12674 -0.043796 0.46061 -0.037013 -0.79421 0.015254 -0.3925 0.038098 -0.49323 -0.3384 0.3184 0.18671 0.425 0.36849 -0.79402 -0.0069078 0.32765 -0.14416 0.13563 0.49817 -0.34904 -0.43755 -0.61113 -0.2303 0.25025 0.022426 0.33433 0.24874 0.37216 -0.028176 0.07743 0.27961 -0.76841 -0.45393 -0.26301 -0.0010349 -0.19434 0.16231 -0.39538 0.1206 0.31742 0.6121 0.5539 -0.46009 0.10467 -0.038505 -0.16006 -0.42754 -0.189 -0.025147 -0.079077 -0.27118 -0.81611 0.21376 -0.48068 
stvar_postaviti_na_pravi_mesto 0.26961 0.30555 0.20872 0.462 0.34247 0.21658 -0.13396 -0.051487 -0.26142 0.10724 -0.14733 0.26354 0.25564 0.30331 -0.31611 0.19601 0.28002 -0.26012 0.50309 0.90736 0.088377 0.17284 -0.17881 0.050092 0.1019 0.24607 0.15332 0.12402 -0.35069 0.013025 0.41078 -0.24316 0.20334 -0.36193 -0.2675 0.13149 0.13559 0.026514 -0.23391 -0.15667 0.0042239 0.042067 0.57449 -0.094992 0.1337 0.16495 0.11336 0.085948 -0.01548 -0.096344 -0.098758 0.093755 0.32552 -0.11602 0.27826 0.15931 0.01466 0.45544 0.12363 -0.46939 -0.039529 0.31968 -0.086376 0.4535 0.1664 -0.59816 -0.086792 -0.24287 0.11197 -0.057493 -0.33658 0.16644 -0.099177 -0.33416 -0.022545 0.2936 -0.014904 -0.25067 0.1666 0.0026427 0.072194 0.040007 -0.12645 -0.22657 0.40367 -0.045178 -0.085285 0.0060693 -0.34845 -0.10665 0.40499 0.071075 -0.43606 -0.55756 0.0050968 0.074651 -0.054738 -0.46227 0.30655 0.32304 
v_zrak_biti 0.53552 0.8173 0.38953 0.19607 0.15493 -0.31064 0.25291 -0.11711 -0.27836 0.28166 -0.16946 0.92865 0.40177 0.52151 -0.16682 0.21614 0.60078 -0.20191 0.11517 0.31241 0.16786 -0.032553 -0.2036 -0.1981 -0.044769 0.34508 0.22609 0.17834 0.0062036 0.42083 0.23701 -0.86185 -0.40198 -0.21521 0.39881 -0.084595 0.25759 0.070407 -0.31859 0.28464 -0.51725 0.30464 0.063572 -0.093789 -0.3051 0.30457 0.59764 0.011218 -0.7078 -0.58124 0.7521 0.53461 -0.034519 -0.41728 0.092498 0.42728 0.63631 0.49046 0.024343 -0.62084 -0.37314 0.73783 0.41645 0.74914 0.4582 -0.23771 -0.10426 -0.014675 0.064121 0.042284 -0.23991 0.18865 -0.32756 -0.081634 -0.14251 0.27269 -0.51713 -0.23752 0.064554 -0.014356 0.54443 -0.472 0.21686 -0.098487 -0.073255 0.18091 -0.39821 0.2666 -0.53141 -0.3267 0.45108 -0.091476 -0.20658 -0.45154 -0.33092 0.43308 -0.076393 0.19775 0.26975 -0.12594 
zapreti_poglavje -0.20534 0.52875 0.44703 0.36593 0.27653 -0.052864 -0.23989 0.42281 0.034801 0.30729 0.014625 0.91449 0.37008 0.85943 -0.048195 0.59411 0.35238 -0.15714 -0.27205 0.89704 0.34772 0.56026 -0.47272 0.084699 0.08281 0.37074 0.007486 -0.086876 -0.066703 -0.082165 0.51873 -0.060871 -0.20626 0.20061 -0.21091 0.038719 0.62458 0.21961 -0.36982 -0.13936 -0.43908 0.20222 0.35644 0.1949 -0.22132 0.40102 0.35908 0.0373 -0.34855 -0.061321 0.54048 -3.5851e-06 -0.24326 0.056371 0.16234 0.21209 0.041285 0.20883 0.15482 -0.63519 0.06191 -0.09534 0.14876 0.43145 0.23735 -0.49889 -0.71069 -0.033236 -0.26093 -0.095602 -0.030942 0.22128 0.3578 -0.12389 -0.16549 0.21228 0.01117 -0.71753 -0.18877 -0.065515 -0.0097379 -0.3056 0.012808 -0.14679 -0.20579 -0.075744 -0.19525 0.030241 -0.17992 0.0030309 0.47388 0.1316 0.027386 -0.47691 -0.26138 -0.097068 -0.47079 -0.27033 0.20407 0.16477 
zaviti_v_molk 0.18894 0.19251 0.3362 0.12728 0.098801 0.010147 -0.087211 -0.019439 -0.47151 0.024027 -0.36724 0.46746 0.47432 0.23476 0.051102 0.43216 0.58046 -0.26239 -0.22147 0.85895 0.66688 0.021829 0.070735 0.023167 -0.59719 0.27913 0.02042 0.29154 -0.0032235 -0.079124 0.22097 -0.091126 -0.094692 -0.17404 -0.11165 -0.14391 0.3269 0.26923 -0.38492 -0.058757 -0.23864 0.24844 -0.08524 -0.56363 0.19851 -0.046853 -0.018456 0.26856 0.57709 -0.50835 -0.029363 0.051029 -0.22812 -0.52604 0.43268 -0.018929 -0.050643 0.60839 0.19246 -0.34418 -0.23642 0.49462 0.29618 0.0078311 0.22988 -0.49527 0.31402 -0.1607 0.20331 0.14915 -0.13624 0.082204 -0.48728 -0.26078 -0.25265 -0.066547 -0.10687 -0.17466 0.34433 0.044764 0.35068 -0.60217 0.44727 -0.26361 -0.059448 0.62201 0.066929 0.37812 -0.41759 -0.01269 0.32799 -0.077146 -0.14767 -0.64885 -0.24198 0.19068 -0.13265 -0.13602 0.41142 -0.042168 
vrniti_udarec 0.20549 0.33144 0.14312 0.22381 -0.24696 -0.43536 0.35335 0.038325 -0.087532 0.45075 0.31213 0.036012 0.36418 0.54404 -0.12237 0.40168 0.57159 0.072775 0.55683 0.8175 0.039927 0.34768 0.19431 0.032365 -0.12553 0.48246 -0.043442 0.1127 -0.52406 0.29146 0.20693 -0.20319 -0.20728 -0.13263 0.10498 -0.031073 0.1741 -0.056676 -0.16755 0.055682 0.093909 0.038535 0.16086 0.13559 -0.25523 0.15464 0.20918 0.30903 0.13161 -0.1315 0.28369 -0.063782 -0.26672 0.26133 0.359 -0.23333 -0.23893 0.28392 0.17369 -0.54118 0.091708 -0.091038 -0.26136 0.60362 0.2913 -0.10209 -0.56832 -0.21035 0.2021 -0.023263 -0.32853 0.21898 0.0056968 0.018755 -0.15448 0.038611 -0.24194 0.0076863 0.25128 -0.30232 0.29008 -0.37026 0.21957 -0.026759 -0.045712 0.25967 0.0043131 -0.15075 -0.11379 -0.3111 0.31433 -0.08384 -0.029378 -0.43908 0.14201 0.25479 -0.37188 -0.055147 0.53476 0.09543 
na_pomoč_poklicati 0.65238 0.71492 -0.0088146 -0.0059772 0.45682 -0.23459 -0.27671 0.22471 -0.49457 0.27935 -0.093588 0.45766 0.29484 0.19384 -0.057498 0.76803 -0.13005 -0.0060512 0.14374 0.80411 0.2909 0.012546 -0.46716 -0.012615 -0.20795 0.23942 -0.28044 0.23138 -0.44611 -0.30364 -0.2402 -0.42302 0.16397 -0.16375 0.04557 -0.35628 0.58637 0.87841 -0.48273 0.13334 -0.095905 0.17716 0.1768 -0.35712 0.27719 0.59149 -0.061988 0.70805 0.46652 -0.25514 0.16783 0.14336 0.035856 -0.1939 0.092561 0.055742 0.18886 0.38768 -0.27787 -0.80357 -0.45603 0.20882 -0.008654 0.68229 0.71613 -0.27785 -0.32416 -0.46861 0.14457 0.048864 0.14586 0.35076 0.23647 -0.17342 -0.39128 0.039114 -0.1693 -0.46516 -0.0038306 -0.06105 0.23157 -1.1616 0.6444 -0.27661 -0.13653 -0.61275 0.18994 0.6327 -0.40471 0.49369 0.40742 0.24523 -0.23541 -0.053013 -0.2483 0.075328 0.057751 0.025549 0.24413 -0.14097 
rad_imeti 0.19542 0.83915 -0.12618 0.36583 0.65916 -0.031471 -0.094287 0.23546 -0.17933 0.49653 0.16739 0.045248 0.27447 0.65148 -0.13227 0.02847 0.28381 -0.40559 0.74175 0.58092 -0.13939 0.081916 -0.026747 0.18529 -0.24233 0.38088 0.051514 -0.19561 -0.23706 0.30893 -0.002202 -0.67092 -0.022153 -0.2776 0.10583 0.016361 0.1359 0.22274 0.14985 -0.42712 -0.21554 -0.10679 0.75226 0.33449 -0.33169 -0.34761 0.17836 0.14629 -0.56331 -0.76227 0.027819 0.23925 0.58556 -0.28267 -0.2641 0.40755 0.20853 0.2623 0.2731 -0.11558 -0.15293 0.50588 -0.5214 0.1212 0.65894 0.028662 0.027316 0.0082812 0.86818 0.22501 -0.24017 -0.26743 -0.5416 0.041126 0.38426 -0.0011109 0.49801 -0.48835 -0.23081 -0.020523 0.066206 -0.3659 0.057128 0.22076 0.21116 0.25072 0.24663 0.4796 -0.21537 0.23895 -0.25918 0.14535 -0.36357 -0.14251 0.35034 -0.25892 0.31665 -0.43299 0.077701 -0.0070151 
res_biti 0.51014 0.34592 -0.04219 0.78003 0.598 -0.20891 0.5178 -0.16428 -0.34942 0.45445 0.4888 1.0011 0.20544 0.50869 -0.65217 0.45748 0.34295 -0.014397 0.3371 0.2498 -0.0094929 0.26292 0.27554 -0.048121 -0.071642 0.53049 -0.30732 -0.37156 -0.263 0.22633 0.033859 -0.79162 -0.24884 -0.34536 0.83245 0.48245 -0.111 -0.12092 0.0076142 -0.21075 -0.1757 0.012607 0.056057 0.018849 -0.030333 0.091286 0.26975 0.36317 -0.1701 -0.68242 0.046217 0.015923 0.25935 -0.35021 0.32444 0.10406 0.63817 0.10696 -0.19445 -0.40506 -0.31985 0.39318 -0.14947 0.4764 0.25959 -0.71798 -0.015898 -0.44893 0.50997 0.13514 -0.55483 0.089615 -0.47775 0.10965 0.19875 -0.1323 0.21608 -0.41349 -0.042533 0.0040199 0.1532 -0.15089 -0.38028 0.11152 0.0738 0.33847 -0.29344 0.35114 -0.68797 -0.61318 0.34848 -0.38751 -0.11753 -0.63303 0.14955 0.57122 -0.054549 0.19 0.12572 -0.21142 
vzeti_nase 0.16152 0.46658 -0.11248 0.36689 0.47979 -0.10079 -0.084409 0.61626 -0.13977 0.44665 -0.21119 0.54162 0.23583 0.46374 -0.35 0.18435 0.10901 -0.18965 0.67078 0.76525 0.10577 0.29601 0.082222 0.16479 -0.23188 0.18481 -0.29275 0.094659 -0.4515 0.22327 0.20917 -0.32864 -0.47234 -0.11732 0.18588 -0.063479 0.66521 0.31026 -0.53695 -0.21122 -0.15468 -0.2589 0.38034 0.1379 -0.028872 0.24342 0.36015 0.20855 -0.32762 -0.11749 -0.2233 0.055797 0.29197 -0.070301 -0.0013087 -0.0013467 -0.053608 0.35519 0.28607 -0.56285 -0.050992 0.50354 -0.1026 0.75632 0.21595 -0.42223 -0.15469 -0.46623 0.1071 0.22208 -0.5374 0.3324 0.050683 -0.23072 0.48521 0.11948 0.067986 -0.28717 -0.25879 0.065301 0.29806 0.053589 0.22485 -0.051343 0.50819 -0.32691 0.30993 0.20021 -0.124 0.031115 0.18327 -0.015889 -0.56349 -0.59315 0.086857 -0.02053 -0.29649 -0.64819 0.29938 -0.24757 
iti_predaleč 0.049335 0.41454 0.17608 0.50977 0.3902 -0.4293 0.30868 0.11992 -0.18796 0.36748 -0.084424 0.57662 0.34388 0.63935 -0.30341 0.61444 0.43874 0.0018332 0.43181 0.57614 0.068167 0.10753 -0.1275 -0.10276 -0.016234 0.46219 -0.27528 0.31351 -0.090376 0.087506 0.05702 -0.25111 -0.36011 0.047519 0.23279 0.12424 0.25164 0.208 -0.088068 -0.25935 -0.502 0.098689 -0.038996 -0.0030732 -0.23833 0.18813 -0.11276 0.34449 0.099426 -0.4358 0.1585 -0.019937 0.2602 0.11106 0.14666 0.52414 0.39623 0.46699 0.24995 -0.64696 -0.30789 0.17457 -0.2718 0.6022 0.52166 -0.44007 -0.2839 -0.48271 0.29755 -0.074206 -0.44854 -0.011407 -0.33272 -0.19246 0.019795 0.072436 0.19345 -0.39592 0.32497 -0.023263 -0.15141 -0.62393 0.025831 -0.072204 0.041796 0.18576 0.058465 0.50206 -0.13614 0.04336 0.27739 0.070707 -0.45837 -0.71096 -0.0020132 -0.055626 -0.0053266 -0.34343 0.2685 -0.21694 
zravnati_z_zemlja -0.015358 1.1732 0.70827 0.80875 0.34738 -0.19895 0.0029886 0.11221 -0.31642 0.053735 -0.46921 0.21354 0.30231 0.20288 -0.17281 0.21145 0.11324 -0.1219 -0.19005 0.57965 0.38902 0.55863 -0.20703 0.066859 -0.1837 0.5575 -0.30299 -0.12536 -0.37959 0.18326 -0.31745 0.016731 -0.24126 -0.064808 -0.27244 -0.61749 0.1834 0.13965 -0.22164 -0.023737 -0.19342 0.019605 -0.085025 -0.24798 -0.29742 0.49329 0.24636 0.52354 0.14816 -0.13223 0.06409 0.12026 0.10694 -0.23972 -0.22029 0.30738 -0.30543 0.8174 0.039412 -0.69874 -0.036002 0.63118 0.029625 0.50263 0.44535 -0.32634 -0.11379 -0.21827 -0.23954 -0.022642 -0.0087889 0.023515 0.16204 0.17184 -0.054709 0.19384 -0.57523 -0.16841 0.31686 0.29334 -0.12107 -0.047437 0.19886 0.090944 -0.42884 -0.11198 0.29448 0.61722 -0.19852 0.28349 0.10825 -0.20368 0.15545 -0.50657 -0.27229 -0.54746 0.055328 0.25549 0.50645 0.2327 
iti_v_nič -0.12555 0.27784 0.041834 0.62419 0.66978 -0.028302 0.34457 0.17156 -0.11345 0.024512 0.2157 0.47229 0.48623 0.29677 -0.51857 0.37678 0.13891 0.27294 0.23057 0.64235 0.3206 0.23618 -0.2429 0.12122 0.069014 0.4555 -0.04778 -0.33808 -0.39988 -0.19658 0.19528 -0.17694 -0.42815 -0.014851 0.42772 0.23474 0.20313 -0.15564 -0.26757 -0.32535 -0.22468 -0.10743 0.16584 0.013876 -0.31395 0.011216 -0.092851 0.29651 -0.073886 -0.36377 -0.13386 -0.12936 0.1589 -0.24334 0.2119 -0.017451 0.38344 0.27618 0.32542 -0.45816 -0.17541 0.49057 -0.20231 0.28179 0.53101 -0.37712 -0.2832 -0.37746 0.59795 0.24406 -0.8151 0.36046 -0.5162 -0.3124 0.22135 -0.1047 0.3323 -0.1892 0.14213 0.04246 -0.12126 -0.28045 -0.22701 -0.10239 -0.05091 0.30416 0.0042054 0.27637 -0.33835 -0.16073 0.0067467 0.05398 -0.24591 -0.63269 0.1765 -0.011064 -0.10319 -0.16366 0.34735 0.067303 
postati_jasen 0.022341 0.47917 0.013677 0.79268 -0.22512 -0.26429 0.058202 0.55205 -0.25561 0.26812 0.097843 0.33137 0.41965 0.42941 -0.10899 0.42583 0.10138 -0.29061 0.44006 0.882 0.47706 0.1977 -0.41677 -0.020867 -0.13908 0.31039 0.11889 0.03986 -0.19439 0.2917 0.45229 -0.10179 -0.20554 -0.018893 0.074303 0.1243 0.30832 -0.071 -0.41295 -0.34396 -0.37223 -0.14109 0.27685 0.16399 -0.079062 0.23534 -0.063114 0.3905 -0.30405 -0.46816 0.094119 -0.13874 0.21746 -0.037798 0.32747 0.22476 -0.2162 0.37884 0.14375 -0.56305 -0.20042 0.41995 -0.085611 0.55603 0.38341 -0.24838 -0.33772 -0.072201 0.17981 0.27175 -0.32134 0.082163 -0.007271 -0.18955 -0.063983 0.1651 -0.29074 -0.47961 -0.12 -0.22 -0.43876 -0.44223 -0.26193 -0.081313 0.05237 -0.011987 0.14483 0.04746 -0.096637 -0.067126 0.43173 -0.35057 -0.26604 -0.47836 -0.39674 0.08413 -0.20681 -0.28322 0.17198 -0.056438 
imeti_čez_glava 0.24135 0.35942 -0.1073 0.55791 0.43641 -0.17154 -0.094268 0.17099 -0.22042 0.43273 0.059162 0.51605 0.065168 0.35166 -0.10446 0.2819 0.1755 -0.11187 0.17497 0.47348 0.14152 0.20339 -0.091089 0.11799 -0.2587 0.093062 -0.19615 0.36249 -0.4135 0.12472 -0.019713 -0.21201 0.17773 -0.30199 0.17712 -0.3082 0.35506 0.30121 -0.3409 -0.41869 0.0020703 0.14735 0.34554 0.42227 -0.27271 -0.039702 -0.020307 0.32821 -0.025038 -0.44071 0.12412 -0.09589 0.29025 -0.35068 -0.021463 0.046154 0.010336 0.42646 0.46991 -0.47259 -0.15075 0.243 0.17092 0.45849 0.23859 -0.23499 0.021793 -0.33428 0.099105 -0.045739 -0.018156 -0.036146 -0.53045 -0.38371 0.41207 0.2372 -0.25924 -0.070971 -0.23484 0.086559 -0.095531 -0.38014 0.35009 0.097131 0.12805 0.031135 0.055847 0.20447 -0.39052 -0.059557 0.22984 0.3969 -0.16241 -0.096729 0.035237 0.29857 0.015652 -0.17623 0.39477 0.21609 
biti_pri_duša 0.3172 0.5898 -0.017191 0.3903 0.67941 -0.085442 -0.11795 -0.18123 -0.32347 0.48857 0.090397 0.98006 -0.074056 0.74874 -0.47222 0.42931 0.49483 0.049688 0.41134 0.15515 0.082805 0.39971 0.022819 -0.11123 -0.17158 0.47313 -0.12501 -0.36364 -0.45902 0.36873 -0.076095 -0.68641 -0.010769 -0.22871 0.7023 0.18974 0.23694 0.185 -0.046587 -0.2327 -0.35329 -0.20082 0.15192 0.11158 0.042377 -0.059735 0.52271 0.33446 -0.34967 -0.66524 0.33261 0.42773 0.03406 0.12657 0.082279 0.088837 0.27842 0.16981 0.11936 -0.47109 -0.45421 0.22334 -0.50655 0.46581 0.48289 -0.60637 0.091328 -0.091903 0.25665 0.05207 -0.57582 0.41508 -0.49653 -0.30227 0.15356 -0.099061 0.22516 -0.43643 -0.13042 -0.038493 0.074169 -0.28567 -0.30093 -0.11553 0.27904 0.35825 -0.35683 0.3975 -0.35037 -0.30218 0.49031 -0.19439 -0.22655 -0.53721 0.31246 0.28725 0.14439 -0.1184 0.1296 -0.11488 
zaviti_v_vata 0.26731 0.52679 0.61174 0.038451 0.54988 -0.26626 -0.33672 0.058065 -0.57167 0.17649 -0.38251 0.54266 0.22668 0.44806 0.12932 0.23116 0.57781 -0.041785 -0.085162 0.86532 0.55737 -0.059279 0.14471 -0.0022496 -0.48231 0.24894 -0.44682 0.0094898 0.029536 0.046915 0.3623 -0.46827 -0.27345 -0.019692 0.12872 -0.32818 0.30215 0.35541 -0.7098 -0.023772 -0.30571 0.06242 -0.0048025 -0.17933 -0.53358 -0.088609 0.21046 0.116 -0.13453 -0.36535 0.038114 0.63398 -0.096302 -0.29688 0.11235 0.23001 0.13394 0.53431 0.084707 -0.72627 -0.16952 0.54405 -0.092159 0.17158 0.25029 -0.28112 0.052199 -0.19781 0.34877 -0.043246 -0.34619 -0.0030251 -0.31605 -0.40558 0.1034 -0.12739 -0.042703 -0.46015 0.27389 -0.017335 0.34805 0.037858 0.47073 0.33432 -0.32002 0.29531 -0.25499 0.63974 -0.34992 -0.17557 0.39725 0.12975 -0.082701 -0.52242 -0.067281 -0.1531 0.029396 -0.55735 0.48334 -0.071822 
dati_polet 0.4884 0.75315 0.38814 0.29564 0.037506 -0.27106 0.40704 0.16926 -0.71638 0.55455 -0.030942 0.65592 0.58821 0.30193 -0.41899 0.29043 0.28781 -0.49182 0.43514 0.38011 0.19045 -0.22669 0.037859 0.20075 -0.40514 0.0087995 -0.073982 0.1378 -0.37798 0.22414 0.22249 -0.6786 -0.2899 -0.26314 -0.15654 -0.35986 0.29172 -0.078818 -0.24491 -0.40188 0.19441 -0.11312 0.52087 -0.085488 -0.27222 0.47847 0.058044 0.016861 -0.71124 -0.65953 0.08147 0.22345 0.45922 -0.16096 0.31401 0.43796 0.19164 0.65472 -0.34458 -0.22928 -0.45546 0.83683 -0.39795 0.37951 0.10102 -0.23369 -0.29964 -0.28566 0.18732 0.17364 -0.3533 0.34699 -0.13749 -0.5027 0.10432 0.22692 -0.062524 -0.5935 -0.18377 0.13007 0.08092 -0.30656 0.052609 -0.0019289 0.077676 0.061368 0.17248 0.47291 0.068962 0.10937 0.095441 0.32971 -0.30602 -0.7144 -0.15285 -0.21712 0.14994 -0.5247 -0.037566 0.053479 
biti_v_zrak 0.19716 0.97184 0.18748 0.22038 0.25057 -0.23145 0.4258 -0.41377 -0.32739 0.21835 0.053705 0.66465 0.32371 0.44757 -0.21137 0.064087 0.31727 0.020814 0.1904 0.2633 0.14162 -0.15247 0.0040857 -0.23743 0.016524 0.20503 0.16159 0.075044 -0.16534 0.26977 0.075872 -0.58429 0.031255 -0.53276 0.68169 0.30095 0.17891 -0.041079 0.16295 0.049166 -0.61314 0.17034 -0.053672 0.032454 -0.2219 0.36281 0.41256 0.28961 -0.21434 -0.26561 0.53728 0.26066 0.019539 -0.13227 0.17794 0.16152 0.63451 0.41832 0.03036 -0.56237 -0.42729 0.62368 0.36884 0.47119 0.42714 -0.243 0.35746 -0.39442 0.10508 -0.17012 -0.5336 0.12899 -0.38201 -0.098298 -0.22847 0.30439 -0.19476 -0.093017 0.027549 0.021078 0.49047 0.07957 -0.14052 -0.0025966 -0.10258 0.18138 -0.38342 0.20961 -0.55506 -0.35519 0.52515 -0.30945 -0.0014153 -0.53389 -0.14215 0.25464 -0.14331 0.13951 0.42845 0.098623 
imeti_rad 0.030622 0.29984 -0.40736 0.38026 0.97064 -0.052587 -0.21242 0.2883 -0.30033 0.42597 0.066644 0.26411 0.18 0.57133 -0.46261 0.15403 0.21279 -0.44653 0.74653 0.33557 -0.0048456 0.2332 0.14611 0.73084 -0.095858 0.30838 -0.27904 -0.019019 -0.40095 0.36305 0.039331 -0.64439 -0.2852 -0.17712 0.4921 -0.3402 0.15903 0.34593 -0.093825 -0.33621 -0.54743 -0.11037 0.58496 0.13285 0.3006 0.12127 0.10905 0.26342 -0.34601 -0.89314 -0.052516 -0.0091809 0.60931 -0.11918 0.018985 0.57977 -0.087913 0.34198 0.33884 -0.20577 -0.24962 0.70651 -0.54957 0.4227 0.59294 -0.31716 -0.24924 -0.11817 0.25823 0.14433 -0.25023 0.079742 -0.4722 -0.073388 0.41283 -0.062747 0.18478 -0.35732 -0.33454 0.11775 0.25467 -0.5144 0.53272 0.20209 0.48487 0.052249 -0.12787 0.43068 -0.14139 0.138 -0.018602 0.14611 -0.17218 -0.37758 0.20632 -0.25576 0.35837 -0.38667 0.058593 0.1517 
plačevati_cena -0.31283 0.29994 -0.4378 0.93413 -0.29434 -0.29913 0.12155 0.54115 0.30037 0.15459 0.018818 0.25666 0.30929 0.18626 -0.67682 0.24817 -0.38363 -0.62234 -0.48938 0.14967 0.29317 0.16024 -0.50503 0.32539 -0.071649 0.15635 -0.081546 -0.26394 0.014691 0.030758 0.016136 0.076086 -0.58909 0.10915 0.49192 -0.022215 -0.40797 0.29694 0.22038 -0.3571 -0.058303 0.036323 0.69249 -0.15571 -0.10869 0.054654 0.12741 0.1589 0.22137 -0.26574 0.19324 -0.063616 0.018644 -0.6616 -0.23708 -0.02481 -0.097851 0.41907 0.078089 -0.45225 -0.79132 0.24886 -0.5751 -0.033372 0.40413 -0.48429 -0.18314 -0.50223 1.2309 -0.27366 -0.83879 0.017325 -0.045041 -0.34782 0.42588 -0.023549 0.26483 0.18417 -0.28587 0.29834 0.15395 -0.057492 0.30789 0.44375 -0.030232 -0.17218 0.15043 0.30674 -0.41829 -0.2796 0.13056 0.54176 -0.21525 -0.77688 -0.28031 -0.10451 0.12641 -0.1846 0.011648 0.27358 
priti_do_živ 0.37891 0.71059 0.26566 0.49134 0.63539 0.0092267 0.22066 0.21929 -0.29135 0.28886 -0.2847 0.19661 0.23924 0.25317 -0.43231 0.51037 0.20084 -0.064732 0.62939 0.48085 0.28736 0.11367 -0.077752 -0.084859 0.01968 0.21128 -0.12778 0.22472 -0.043573 0.17353 0.066339 -0.31271 -0.11479 -0.3063 0.11296 0.2567 0.42345 -0.021287 0.017917 -0.10359 -0.21379 0.03014 0.29605 -0.20213 0.16564 -0.044088 0.035537 0.39572 -0.20508 -0.45846 0.18101 0.0036754 0.26339 -0.1008 0.48877 -0.15967 -0.056718 0.39796 0.18872 -0.39358 -0.028539 0.57457 0.13861 0.47881 0.26884 -0.63547 -0.31396 -0.42794 0.19199 0.083355 -0.39704 0.14231 -0.33224 -0.25055 -0.1456 0.2196 -0.10241 -0.41426 -0.032084 -0.051513 0.12994 -0.34542 0.040953 0.051404 0.15298 -0.090716 -0.10728 0.21319 -0.5471 -0.11134 0.42454 -0.19297 -0.28752 -0.098179 -0.32158 -0.13125 0.01878 -0.3134 0.34934 -0.053438 
biti_stvar 0.26352 0.40873 -0.041216 0.7605 0.51767 -0.037308 0.43814 0.019466 -0.3028 0.27875 0.30659 0.82462 0.23413 0.56113 -0.45592 0.38446 0.079173 0.17258 0.11302 0.52243 0.19411 0.3795 0.07875 0.037056 -0.0023027 0.36755 -0.28041 -0.1293 -0.40119 0.099622 0.323 -0.47739 -0.31382 -0.26795 0.59327 0.50601 0.050523 -0.18001 -0.17611 -0.15201 -0.32476 0.011838 0.13711 0.078923 -0.10959 0.18473 0.38888 0.1387 -0.040026 -0.49889 -0.11551 0.0086042 0.24214 -0.21769 0.41066 0.13439 0.34949 0.2755 0.1251 -0.5057 -0.20998 0.33057 0.1561 0.3245 0.062487 -0.74514 -0.17103 -0.17934 0.44525 -0.050723 -0.5805 -0.10749 -0.45765 0.089757 0.011365 -0.12986 0.46627 -0.5331 0.020309 -0.029641 0.1479 -0.15938 -0.29167 -0.064854 0.074654 0.36231 -0.076763 0.20191 -0.53004 -0.59335 0.55608 -0.25269 -0.27258 -0.6991 0.20968 0.41569 -0.058513 -0.20122 0.013309 -0.32324 
povedati_svoj -0.10843 0.18878 -0.01414 0.5353 0.59404 -0.17126 -0.10358 0.53769 -0.41676 0.2835 0.10661 0.56984 0.13152 0.24621 -0.1559 0.66032 0.18446 -0.13473 0.43914 0.8059 0.32971 0.35191 -0.31242 0.47423 -0.18829 0.10948 0.11188 -0.048379 -0.21976 0.15493 0.53627 -0.28856 -0.19387 -0.20012 0.29384 -0.0060377 0.45882 0.54118 -0.43427 -0.2491 -0.23185 -0.094549 0.35593 0.050609 0.23037 0.3067 -0.25941 0.31729 0.05797 -0.66187 -0.38513 -0.17315 0.41636 -0.14729 0.13614 0.37511 0.1634 0.22964 0.1058 -0.33906 -0.13533 0.3181 -0.08055 0.46594 0.26694 -0.56712 -0.37327 -0.5406 0.23052 0.12716 -0.4995 0.16874 -0.16092 -0.08445 0.0080551 0.062288 0.29843 -0.37877 -0.027465 -0.01247 -0.030343 -0.56932 0.063145 -0.078201 0.46001 -0.17674 -0.070154 0.32537 -0.098006 0.055251 0.31242 0.089062 -0.29291 -0.31045 0.17834 0.19272 -0.17361 -0.25643 -0.019995 -0.059642 
zamenjati_stran 0.43717 0.35031 0.21263 0.17397 0.1319 -0.10367 -0.1113 0.41066 -0.30091 0.23853 -0.23765 0.40776 0.23408 0.56203 -0.28355 0.63582 -0.026622 -0.31979 0.078157 0.82522 0.44485 0.26553 -0.48639 0.017814 0.15897 0.19148 0.23373 0.059172 -0.1767 0.075421 0.10661 -0.25056 -0.30849 -0.11187 -0.21226 -0.066199 0.13325 0.05517 -0.34309 -0.27413 -0.24201 -0.28657 0.25902 -0.15555 -0.3974 -0.041916 -0.041733 0.28965 -0.20227 -0.67991 0.31508 0.055358 0.20843 -0.011687 0.17219 0.32159 0.023259 0.17729 0.22141 -0.57367 -0.23859 0.2417 -0.16283 0.44686 0.44397 -0.47896 -0.47062 -0.20679 0.014904 -0.31677 -0.20831 -0.17499 -0.16861 -0.12083 -0.15379 0.16539 -0.084134 -0.56382 0.1557 -0.025812 0.023157 -0.38593 0.19792 -0.35124 0.065386 0.042767 0.25372 0.2533 -0.25237 0.038625 0.43213 -0.089813 -0.39052 -0.29918 -0.4597 0.14033 -0.36787 -0.39296 0.27244 0.17628 
prirasti_k_srce 0.16479 0.40309 -0.39494 0.19237 0.014487 -0.25767 -0.11109 -0.21611 -0.068294 0.052016 0.20221 0.058869 -0.17911 0.75915 0.031953 0.21905 0.26937 -0.27795 0.30026 0.41734 -0.11103 -0.40258 -0.0093113 0.15877 -0.22854 -0.10235 -0.50431 0.072365 -0.2783 0.32305 -0.15639 -0.51352 -0.16978 -0.2631 0.20183 0.12595 0.098142 0.26805 0.019595 -0.36172 -0.17672 -0.19132 0.40317 0.39469 0.10815 -0.065158 0.14195 0.35031 -0.63446 -0.73481 -0.21288 -0.17549 0.29438 -0.13408 -0.22684 0.059745 0.083718 0.64578 0.39843 -0.49035 0.033667 0.27936 0.37139 0.6863 0.55624 -0.48347 -0.24635 -0.13143 -0.020377 -0.014742 0.036702 0.21044 -0.42465 -0.39774 0.35027 -0.077923 -0.11973 -0.072794 -0.62253 -0.075109 0.0055019 -0.3769 0.19184 0.30364 0.7405 0.068541 0.13161 0.61255 -0.065094 -0.28279 0.010116 -0.035918 -0.2265 -0.36035 0.12793 -0.22753 0.22686 -0.43162 0.35138 0.26033 
priti_skupaj 0.35114 0.5516 0.24647 0.22562 0.19104 -0.14548 -0.089581 0.19084 -0.47027 0.29295 0.04021 0.50395 0.40182 0.24485 -0.26376 0.47124 0.087586 -0.38515 0.13453 0.48495 0.054554 0.06716 -0.032149 0.24052 -0.12524 0.23146 -0.33229 -0.14459 -0.26956 0.32159 0.23993 -0.52448 -0.076807 -0.22672 0.33997 -0.042859 0.22436 0.23527 -0.20722 0.0057453 -0.15363 -0.093228 0.39315 0.065825 -0.015009 0.18731 0.06602 0.39861 -0.25966 -0.57547 0.03634 -0.20035 0.50974 -0.12047 0.28803 0.23514 -0.041358 0.1676 0.033968 -0.32154 -0.08126 0.39587 -0.11633 0.41048 0.32803 -0.31326 -0.2106 -0.22303 0.35989 0.079103 -0.20854 0.18752 -0.15533 -0.42115 0.19997 0.063942 -0.039761 -0.57211 -0.12011 0.0013453 0.24457 -0.42174 0.2126 -0.051652 0.2522 -0.077594 0.094596 0.59259 -0.21001 -0.093092 0.19522 0.080473 -0.35392 -0.18941 -0.098591 0.083974 -0.054139 -0.21549 0.12126 -0.096266 
imeti_zvezan_roka -0.070362 0.40069 0.2336 0.85715 0.32386 -0.31478 -0.083898 0.2086 -0.064579 0.34779 0.015319 0.040796 0.4884 0.039035 -0.20074 0.20544 -0.073417 -0.26375 -0.16362 0.53455 0.27752 0.57344 -0.29695 0.50128 0.048077 0.24885 0.030732 0.10979 -0.15882 0.071352 0.18844 0.076907 -0.010319 -0.017815 0.23324 -0.10221 0.12273 0.32444 -0.19804 -0.011265 -0.12845 0.10756 0.22023 0.23808 -0.01945 0.26118 -0.085682 0.12445 0.061031 -0.3504 0.11832 -0.10559 0.34912 -0.32572 0.14253 0.26213 -0.17834 0.29589 0.20506 -0.7885 -0.048473 0.052264 -0.026551 0.12299 0.071696 -0.31855 -0.21238 -0.4265 0.27626 0.041903 -0.35171 0.64865 -0.089263 -0.24675 0.11856 -0.13731 -0.14151 -0.20737 0.13891 -0.00085103 0.065276 -0.30029 0.092637 -0.25546 0.14008 -0.060966 0.2231 0.31395 0.03828 -0.14677 0.44624 0.041187 -0.14679 -0.29031 -0.15224 0.10302 0.23004 0.18736 0.16921 0.26466 
stati_ob_stran -0.021994 -0.1055 -0.79918 0.51822 0.59052 -0.30137 -0.32809 0.2154 -0.41224 0.11357 0.21469 -0.28407 0.2084 0.36128 -0.43356 0.024791 0.37449 -0.24231 0.72772 0.42384 -0.19723 0.047155 0.016074 0.69843 -0.16992 0.076961 -0.2467 -0.078508 -0.31516 0.53236 0.15921 -0.46498 -0.34804 -0.2009 0.19652 -0.36551 0.26775 0.48719 -0.009599 -0.089432 -0.63756 -0.25399 0.63091 0.018394 0.49426 0.084033 0.10317 0.28651 -0.20866 -1.0862 -0.39239 0.27061 0.24756 0.0090129 0.25179 0.96563 -0.27637 0.38485 0.12175 -0.61859 -0.32226 0.46978 0.06141 0.5924 0.45257 -0.4223 -0.24746 -0.2364 0.034098 -0.015803 0.00010139 0.18788 -0.093521 -0.21593 0.37619 0.10384 0.14182 -0.050104 -0.36179 -0.12082 0.26544 -0.79098 0.38827 -0.014681 0.46014 -0.26331 -0.20779 0.51838 -0.3126 -0.14671 0.036993 0.1281 -0.26851 -0.61077 -0.17228 -0.011474 0.17653 -0.61878 0.22275 -0.13268 
izgubiti_dar_govor 0.029886 0.4574 0.071423 0.35787 0.53312 0.12574 -0.09681 0.075096 -0.051141 0.1218 -0.0094183 0.13306 0.29858 0.24941 -0.23352 0.22781 0.66701 -0.15103 0.69761 0.10265 0.063434 0.26743 0.61768 -0.099662 -0.050757 0.21905 -0.31794 -0.038636 -0.49244 0.47791 0.041132 -0.35442 -0.20443 -0.19381 0.23337 0.28403 0.14801 0.30501 -0.068298 -0.1301 -0.38607 -0.020079 0.35754 -0.17438 -0.055544 0.078526 0.13582 0.26142 0.2583 -0.61613 0.33273 0.30404 -0.14971 -0.098062 -0.0036058 0.22253 0.4295 0.21551 0.1401 -0.41747 0.11139 0.63674 0.31238 0.48264 0.45798 -0.39868 -0.019113 -0.28277 -0.025111 -0.018363 -0.22532 0.1788 -0.098459 -0.16343 0.1348 0.43538 -0.16171 -0.043587 0.099072 0.044615 0.40679 -0.28309 -0.02354 0.1805 0.22262 0.22695 -0.19089 0.1285 -0.43903 -0.12488 0.018781 -0.37169 -0.18617 -0.40636 -0.13237 0.27626 0.089847 0.069285 0.46641 0.34253 
zadati_smrten_udarec -0.15757 0.65082 -0.031344 0.56621 -0.051467 0.37928 0.10614 -0.076227 0.0022033 0.043777 0.048365 -0.13288 0.51597 0.11164 -0.45328 0.45353 0.71245 0.010671 0.81523 0.35763 -0.16779 0.2026 -0.0659 -0.38245 -0.13255 0.055149 -0.0061769 0.53285 -0.23833 0.013905 -0.12617 0.029822 -0.17132 -0.22344 0.36542 -0.13926 0.20024 0.28992 0.15839 -0.00010446 -0.0027023 0.39117 0.39485 0.010918 0.37886 0.089148 0.15951 0.48718 0.07654 -0.35955 0.39364 0.10954 -0.21831 0.067668 0.10241 -0.095125 0.0083575 0.66177 0.11264 -0.32854 0.1314 0.6388 0.10887 1.0728 0.54899 -0.60705 -0.21565 -0.12589 -0.089868 -0.12167 -0.32621 0.5361 0.30576 -0.19635 -0.0015657 0.053212 -0.2063 0.21703 0.08965 0.064528 0.09797 -0.38029 0.15894 -0.013535 0.21029 -0.029947 -0.075367 0.009942 -0.46474 0.13636 0.40072 -0.16234 -0.096002 -0.56174 -0.60249 0.00060358 -0.34984 0.011697 0.22486 0.48089 
plačati_cena -0.17302 0.4357 0.11305 1.1073 -0.51097 -0.26681 0.17519 0.56906 0.057081 0.16798 0.10949 0.28408 0.44866 0.29329 -0.36379 0.56124 -0.44876 -0.3876 -0.23504 0.065808 0.043395 0.085185 -0.51506 0.030354 -0.12998 0.0019289 -0.3108 -0.19079 -0.1772 -0.16716 0.039754 -0.1986 -0.6583 -0.042707 0.59509 -0.12859 -0.76205 0.28869 -0.0035293 -0.2359 0.054531 -0.1374 0.50195 -0.27104 -0.21073 0.31381 0.10839 0.17574 0.12355 -0.15974 0.64247 -0.028752 0.24616 -0.68419 -0.13302 0.13604 -0.38682 0.30358 0.029263 -0.6541 -0.82763 0.32458 -0.49734 0.14414 0.38213 -0.28499 -0.31465 -0.22419 1.0226 -0.44815 -0.56725 -0.2113 0.16308 -0.35895 0.38337 -0.18326 0.087913 0.076324 -0.16808 -0.17542 0.32467 -0.22267 0.38112 0.22128 -0.37002 -0.26364 -0.36769 0.43052 -0.2228 0.021417 -0.00089418 0.20036 -0.19513 -0.48922 -0.14762 -0.40755 0.10012 -0.31878 0.17804 0.33577 
obrniti_na_glava 0.42285 0.46452 0.14805 0.4281 0.031317 -0.22691 -0.015987 -0.1604 -0.05711 0.18662 -0.13062 0.4163 0.10024 0.50142 -0.0037405 0.55302 0.66845 -0.25446 0.40217 0.65869 -0.078024 0.344 -0.28938 -0.26784 -0.15892 0.21712 -0.20129 0.13846 -0.20575 0.095552 0.098145 -0.27339 -0.11398 0.02026 0.24924 -0.3005 0.23391 0.38756 -0.39711 0.043304 -0.19917 -0.00088654 0.41322 -0.2427 -0.21288 0.21221 0.069085 0.54004 -0.13221 -0.4763 0.025449 -0.024751 -0.11987 0.066796 0.36628 0.18485 0.077491 0.55119 0.29383 -0.3195 -0.020388 0.10118 -0.19082 0.66772 0.34736 -0.62589 -0.35644 -0.47384 -0.33617 0.32232 -0.27391 0.3551 -0.26757 -0.16307 -0.066547 0.074883 0.12902 -0.15373 0.042596 -0.16331 0.44217 -0.50083 0.1099 -0.1029 -0.0059902 0.12707 0.20226 0.34875 0.097486 -0.19345 0.33359 0.23704 -0.39371 -0.30722 -0.073452 0.025273 0.028492 -0.12778 0.26199 0.024138 
vzeti_pod_drobnogled -0.23773 0.6275 -0.049033 0.29902 0.065333 0.0409 -0.1014 0.0006659 -0.12236 0.12431 -0.26842 0.13336 0.39116 0.0047661 -0.10666 0.48192 0.23589 0.14676 -0.22696 0.36159 -0.27976 0.29584 -0.044927 -0.019799 0.052993 0.020812 0.52664 0.042781 -0.38643 -0.12292 0.35099 -0.052525 0.10628 -0.34957 -0.056499 0.34857 0.13686 0.36774 -0.10878 0.024625 0.23875 -0.18283 0.37337 -0.090007 0.27365 0.020035 -0.14275 0.34623 0.19808 -0.42543 0.2132 -0.016409 -0.015908 -0.35528 0.096501 -0.025795 -0.20647 0.12821 0.35509 -0.038921 -0.0012867 0.20296 0.24725 0.38868 0.19595 -0.13858 -0.19844 -0.35813 0.39152 -0.078129 -0.47567 0.16187 0.021377 -0.38944 -0.13458 0.18793 0.093177 -0.22914 0.33628 0.15367 0.25504 -0.087039 0.2823 -0.13337 0.32305 -0.17317 -0.14339 0.35668 -0.19761 0.019833 0.1122 0.088508 0.040899 -0.37082 -0.2229 0.30241 -0.49353 -0.50718 0.050768 -0.028707 
dati_košarica -0.56574 0.011839 0.18659 -0.262 -0.23991 0.13679 0.070617 0.3517 -0.20482 0.58941 -0.17103 0.84196 0.18324 1.028 -0.098068 -0.13329 0.91671 -0.76362 0.55613 1.0463 0.13847 -0.36075 0.25262 0.10073 0.16832 0.27909 0.11836 -0.71071 -0.14835 -0.24336 0.22815 -0.85562 -0.64667 0.080962 0.54983 0.033246 -0.31703 0.59133 -0.67827 0.0065996 0.0021516 -0.55429 0.70378 0.30938 0.43462 -0.37961 -0.1518 0.15991 0.032105 -0.7268 0.11173 0.13541 0.029733 -0.46531 -0.69437 0.63439 0.15319 0.48139 -0.0456 -0.035526 -0.34787 0.56058 -0.45385 0.11346 -0.18327 -0.92133 -1.0125 -0.74141 0.92246 -0.30865 -0.97631 0.32889 0.039231 0.20757 -0.9243 -0.5736 -0.39341 -0.075161 0.071089 -0.15578 -0.096898 -0.2298 0.7698 0.42089 0.37939 0.51352 -0.032328 0.27211 0.16683 -0.71103 -0.27733 -0.0059286 -0.12141 -0.38219 -0.16948 0.025463 0.22993 -0.63164 -0.2921 -0.085759 
vleči_na_plan -0.048278 0.25044 0.15148 0.36707 0.55419 0.29374 -0.025996 0.29938 -0.2973 0.23658 0.045491 0.24956 0.090708 0.24292 -0.12656 0.25874 0.22677 -0.072955 0.18264 0.76805 0.37879 0.010147 -0.031941 0.060507 -0.48935 0.36412 -0.10703 0.32803 -0.19294 0.013768 -0.045739 -0.31766 -0.14564 -0.079685 -0.34927 -0.13595 0.40728 -0.015605 -0.19038 -0.3108 -0.31629 0.1342 0.32512 -0.028292 -0.25038 -0.037476 0.089435 0.094164 -0.094073 -0.18308 -0.14957 -0.15621 0.16077 -0.01161 -0.006347 0.32052 0.26824 0.23638 0.194 -0.26384 0.11629 0.45596 -0.22149 0.20831 0.32809 0.13309 -0.19077 -0.30324 0.030152 0.28214 -0.40563 -0.050299 -0.26703 -0.67657 -0.060585 -0.11598 0.20439 -0.42906 -0.17799 -0.25067 -0.23368 -0.11548 -0.053768 0.017539 0.073105 0.26392 -0.20209 0.10604 -0.34571 -0.49588 0.30973 0.33492 -0.18377 -0.53368 -0.34603 -0.079461 0.25937 -0.27511 0.070942 0.17587 
na_ogled_biti -0.060279 0.87709 0.98207 -0.57684 0.52578 0.24949 -0.26978 -0.36327 -0.9188 0.02956 -0.17192 0.80977 0.097356 0.30268 -0.20066 1.0111 -0.38706 -0.91834 0.064809 -0.12339 0.066546 0.20319 0.3498 0.16312 -0.57194 0.44201 0.026549 -0.041266 -0.26723 0.12895 0.45372 -0.2738 0.093796 -0.44544 -0.10936 1.3159 0.32616 0.13901 0.38594 0.071118 -0.66333 0.29941 0.36635 -0.17292 -0.051815 0.179 0.51966 0.52941 -0.59236 -0.65015 0.1344 -0.061594 -0.24378 -0.25207 -0.034811 -0.24586 0.34868 0.57773 0.27071 -0.14431 -0.07033 0.56059 -0.34075 0.81232 0.40856 -0.44946 0.28744 -0.11931 0.0083495 -0.053199 -0.54579 -0.1197 -0.49099 -0.13104 -0.22524 -0.33016 0.8246 -0.47681 -0.19987 -0.44272 0.19562 0.048409 0.29463 -0.073962 -0.17709 0.13193 -0.18306 0.50798 -0.63541 0.090551 0.70106 -0.32363 -0.10586 -0.44522 0.18193 -0.038048 -0.14071 -0.063482 0.60897 0.1163 
bog_vedeti -0.35528 0.089973 0.28103 0.92663 0.45018 -0.22539 -0.070234 0.67668 -0.11371 0.17402 -0.02318 0.97551 0.22933 0.47741 -0.31219 0.2415 0.33949 -0.54337 0.34585 0.69692 0.51754 0.20541 0.063359 0.10393 0.027573 0.23281 -0.5655 0.02114 0.15093 0.18769 -0.056106 -0.49841 -0.2983 0.073372 0.25873 0.18611 -0.032548 0.065292 -0.28855 -0.43676 -0.019305 -0.24237 0.44904 -0.16439 -0.2892 0.07755 0.04563 0.52265 -0.33441 -0.52394 0.23458 0.11426 0.39832 0.17439 -0.039851 0.40746 0.3286 0.50444 -0.090466 -0.77057 0.011501 0.80713 -0.18458 0.002133 0.40368 -0.48696 -0.073087 -0.10813 0.067777 0.076582 -0.35711 0.0082842 -0.14685 -0.30123 0.29428 -0.035675 0.10633 -0.23007 -0.41461 0.21866 0.0018566 -0.37524 0.24102 -0.10186 -0.18611 0.18644 0.41528 0.33834 -0.060754 -0.081317 -0.069496 0.19614 0.028155 -0.4608 -0.15006 -0.12629 0.12323 0.27607 0.23023 0.41718 
imeti_v_misel -0.14431 0.23362 -0.10132 0.58891 0.52675 -0.077824 0.069665 0.4036 -0.077367 0.3513 0.14614 0.20376 0.22161 0.28415 -0.028135 0.47761 0.10726 -0.26759 0.21703 0.56506 0.20588 0.09717 -0.38849 0.28673 -0.062512 0.1561 0.27459 -0.00030246 -0.22819 0.42085 0.28009 -0.42543 -0.16865 -0.12601 0.11407 0.37187 0.13654 0.27549 -0.14314 -0.14671 -0.24349 0.17452 0.41486 0.028642 0.0031776 0.069181 0.0026889 0.37228 -0.14445 -0.5136 0.042334 -0.024957 0.11655 -0.18416 -0.078448 0.2684 0.10465 -0.070329 0.40659 -0.66985 -0.13324 0.23511 -0.10351 0.3591 0.26769 -0.43978 -0.33389 -0.033692 0.25108 0.11264 -0.21397 0.22513 -0.22715 -0.12433 0.03052 0.098668 -0.10961 -0.31506 -0.11691 0.0020288 -0.091649 -0.1498 -0.09949 -0.084999 0.14009 -0.19346 0.093264 -0.0017579 -0.19666 0.044108 0.25537 -0.017352 -0.18475 -0.45102 0.12915 0.27053 0.059124 -0.36897 -0.066388 -0.046849 
imeti_na_razpolaga 0.017486 0.46433 -0.1168 0.081541 0.10133 0.36969 0.22057 0.064418 -0.17022 0.28135 0.011119 0.36502 0.33028 0.2048 -0.33571 0.3104 -0.25998 -0.012788 0.17766 0.45656 0.24452 0.32826 -0.29527 0.77162 0.02934 0.2438 0.087784 0.055651 0.001808 -0.14965 0.3806 -0.3542 -0.12895 -0.50672 0.21399 0.3654 -0.07153 0.08216 -0.1878 -0.24124 -0.067423 0.10917 0.44989 0.06689 -0.13935 0.15497 0.053381 0.30169 -0.10115 -0.27496 0.37605 0.042237 0.12512 -0.23895 0.23578 0.49663 0.15713 0.20719 0.18183 -0.61481 -0.017166 0.30248 -0.16479 0.14256 0.22569 -0.28573 -0.18232 -0.38156 0.63236 0.11227 -0.098695 0.25112 0.14921 -0.24723 -0.062487 0.075424 0.15591 -0.19397 -0.036631 -0.10986 0.058104 -0.045334 -0.083763 -0.048721 0.091409 -0.097972 -0.098133 0.32687 -0.50548 0.061103 0.27785 0.2635 -0.25054 -0.35965 -0.051196 0.024786 -0.039854 -0.57652 0.057083 0.12085 
biti_v_vloga 0.31798 0.71467 0.27249 0.17497 0.14519 -0.21062 0.15098 -0.39433 -0.51607 0.13476 0.2943 0.27891 0.086443 0.37388 -0.29387 0.40781 0.26784 0.0062019 0.85119 0.38508 0.066053 0.27526 0.35131 0.076874 -0.03608 0.1909 -0.0020738 -0.16253 -0.94802 0.29501 0.13793 -0.45231 0.12372 -0.38901 0.18313 0.40376 0.10726 -0.1522 0.14071 -0.091273 -0.11693 -0.28924 0.10744 0.15398 -0.091104 0.34788 0.080365 0.15396 -0.2173 -1.0138 -0.20263 -0.17016 -0.16089 -0.12092 0.44518 -0.11989 0.13819 0.13257 0.20418 -0.20519 0.062077 0.22198 -0.0026157 0.52543 0.14136 -0.47972 -0.016891 -0.27766 0.23119 0.12853 -0.32579 -0.085149 -0.045848 0.21158 -0.13522 -0.083775 0.49548 -0.17865 -0.38083 -0.16456 0.47555 -0.0031285 -0.13152 0.0072375 0.68547 -0.014855 -0.45656 0.036241 -0.52531 -0.3407 0.35931 -0.51176 -0.10741 -0.29512 0.13875 0.52338 -0.034023 -0.18701 0.28322 -0.0090303 
priti_na_zamisel 0.2637 0.76597 0.054468 0.29005 -0.01647 -0.066929 -0.0022865 -0.047158 -0.52247 0.33811 -0.040261 0.35331 0.35188 0.1214 -0.24341 0.33638 0.12562 -0.39825 0.28026 0.41219 0.24173 0.22291 -0.27726 0.16425 -0.24255 0.23745 0.097727 0.020328 -0.14176 0.23106 0.11428 -0.1291 0.11939 -0.36528 -0.026186 0.37981 0.3179 0.068345 -0.29439 -0.2149 -0.056537 -0.16072 0.46681 -0.093525 0.18025 0.12951 -0.19118 0.41869 -0.16295 -0.52529 -0.068692 -0.035455 0.121 0.10713 0.42776 0.31147 0.060867 0.48517 0.37584 -0.42551 -0.26386 0.47311 -0.13709 0.71548 0.60126 -0.093818 -0.17166 -0.13591 0.054479 0.0095735 -0.34658 0.1087 -0.39982 0.061305 0.14232 0.13079 0.040147 -0.59312 -0.15183 -0.36419 0.3147 -0.36261 -0.14999 -0.17251 0.24446 -0.078064 -0.015734 0.39244 -0.56748 0.095173 0.22764 -0.018482 -0.38003 -0.22959 -0.13888 0.051533 -0.12323 -0.49686 0.27338 -0.13742 
priti_pod_roka 0.37388 0.64863 0.29655 0.31413 0.51289 -0.0055535 -0.072067 0.3025 -0.4073 0.21865 0.0071859 0.61686 0.27766 0.68584 -0.35088 0.53882 0.22298 -0.20792 0.54271 0.62908 -0.11363 0.025443 -0.077936 0.12929 -0.19897 0.15351 -0.12911 0.12581 -0.1893 0.20507 -0.063105 -0.14658 0.089816 -0.24221 0.51541 -0.015918 0.52715 0.24808 -0.55508 -0.061706 -0.11975 0.064539 0.51892 -0.18405 -0.0032114 0.10767 0.15582 0.49178 -0.2529 -0.32486 0.072279 -0.060707 0.32268 -0.024532 0.10219 0.13085 0.2536 0.33733 0.38731 -0.81244 -0.14868 0.31245 -0.14071 0.75074 0.30902 -0.33105 -0.27765 -0.35327 0.049024 -0.15638 -0.58653 0.13208 -0.23941 -0.054141 0.059458 0.14919 -0.15532 -0.47957 -0.18524 -0.15075 0.14496 -0.60015 0.1799 0.10502 -0.16173 -0.20482 -0.29594 0.75354 -0.19584 -0.23048 0.37614 0.067406 -0.15816 -0.36249 -0.13103 -0.22588 0.20517 -0.3587 0.15461 0.31973 
nositi_ime 0.056468 0.65174 0.41234 -0.45888 0.12603 0.50569 -0.15879 -0.022167 -0.7352 -0.01942 -0.048923 0.49501 0.42865 0.29843 -0.35908 0.40698 -0.26228 -0.65211 0.18079 0.0019484 0.10193 -0.046293 -0.031544 -0.063941 -0.37499 0.40795 0.16042 -0.12782 -0.37254 0.58688 0.0020979 -0.14216 -0.081309 -0.2512 0.21582 0.70973 0.28899 -0.052463 0.38104 -0.13791 -0.18537 0.16246 0.12339 0.10992 -0.23188 0.30005 -0.074523 0.48871 -0.58958 -0.98379 0.22288 -0.12149 -0.339 0.029331 -0.11589 0.07784 0.29969 0.10127 0.31513 -0.2033 -0.15162 0.49279 -0.42136 0.55531 0.33965 -0.23671 -0.30045 -0.2062 0.24294 -0.027621 -0.45631 -0.15172 -0.39884 0.078474 -0.14873 -0.0050265 -0.010277 -0.071409 -0.31113 -0.17491 0.1878 0.20579 -0.18376 0.03505 0.037654 -0.14324 -0.023542 0.054143 -0.4537 -0.2834 0.60158 -0.023929 0.011986 -0.41919 0.032946 0.034453 -0.013748 -0.17423 0.32151 -0.16093 
up_polagati_na 0.273 0.48341 0.18614 0.1126 -0.078798 0.042658 -0.27705 -0.35874 -0.88595 -0.0015867 -0.11781 0.3433 0.21695 0.95365 -0.50574 0.32646 -0.00044444 -0.25453 0.39112 0.49018 0.23625 0.33242 -0.26047 0.65702 -0.23557 0.60494 0.39128 -0.29498 -0.20407 -0.14634 0.0011417 -0.11315 0.21657 -0.54501 -0.13637 -0.1482 -0.070062 -0.24302 0.027591 -0.22963 0.27887 -0.27337 0.50677 -0.27012 -0.6268 -0.073692 0.11323 0.4707 -0.39548 -0.62497 0.58347 0.54419 0.071287 -0.29264 -0.44724 0.3748 -0.37151 0.28113 0.0037834 -0.31199 -0.51136 0.18961 -0.59297 0.0079581 0.50124 -0.13464 -0.3089 -0.21546 0.37398 0.070062 -0.3579 0.26538 -0.056054 -0.03385 -0.015788 0.12241 0.24701 -0.2323 0.32863 -0.094182 0.43409 0.26753 0.067821 0.33455 0.27115 0.085207 -0.18318 0.29101 -0.35767 -0.18966 0.16902 -0.093782 -0.2704 -0.44439 -0.13363 -0.16596 -0.15274 -0.52902 0.064595 0.17404 
